{"learner":{"attributes":{"best_iteration":"56","best_ntree_limit":"57","best_score":"0.8642053686979766","scikit_learn":"{\"use_label_encoder\": null, \"n_estimators\": 500, \"objective\": \"reg:squarederror\", \"max_depth\": 2, \"max_leaves\": null, \"max_bin\": null, \"grow_policy\": null, \"learning_rate\": null, \"verbosity\": null, \"booster\": null, \"tree_method\": \"approx\", \"gamma\": null, \"min_child_weight\": null, \"max_delta_step\": null, \"subsample\": null, \"sampling_method\": null, \"colsample_bytree\": null, \"colsample_bylevel\": null, \"colsample_bynode\": null, \"reg_alpha\": null, \"reg_lambda\": null, \"scale_pos_weight\": null, \"base_score\": null, \"missing\": NaN, \"num_parallel_tree\": null, \"random_state\": null, \"n_jobs\": null, \"monotone_constraints\": null, \"interaction_constraints\": null, \"importance_type\": null, \"gpu_id\": 0, \"validate_parameters\": null, \"predictor\": null, \"enable_categorical\": false, \"feature_types\": null, \"max_cat_to_onehot\": null, \"max_cat_threshold\": null, \"eval_metric\": [\"logloss\", \"error\", \"auc\", \"aucpr\"], \"early_stopping_rounds\": 10, \"callbacks\": null, \"kwargs\": {\"alpha\": 0.0001, \"eta\": 0.1, \"lambda\": 1.0}, \"classes_\": [false, true], \"n_classes_\": 2, \"evals_result_\": {\"validation_0\": {\"logloss\": [0.6660636759156746, 0.6439436984035597, 0.625523725142457, 0.6097262811118831, 0.596024332911279, 0.5829062311199815, 0.5724081570368035, 0.5621872622312454, 0.5536629176999283, 0.5458863524600329, 0.5391423539659199, 0.5329652129390253, 0.5276006035289577, 0.5218441739759424, 0.5169032634164877, 0.5114970797484032, 0.507285020352158, 0.5032353475085197, 0.49881988670528893, 0.49529461235414735, 0.49160812166304524, 0.48834512084244586, 0.4849320750780691, 0.48153307866977857, 0.4786705023924305, 0.4752414569490384, 0.47241924774868477, 0.4701340751058282, 0.4673394115055464, 0.46467068981550186, 0.46233257007187856, 0.46045306347228854, 0.45812183871719553, 0.45591622101167156, 0.45331999349186564, 0.4517987155911615, 0.4498677867529723, 0.4477772118244651, 0.4458457405170883, 0.443490882086095, 0.44171650588199085, 0.4403646622808852, 0.43756973358491436, 0.436362204223337, 0.4359288008436567, 0.43556864932012035, 0.43464535061517195, 0.43318973598309, 0.43091426876225064, 0.42986133178789293, 0.4322541671778135, 0.43092742339333645, 0.4330726657596324, 0.43186375022255963, 0.43085610099546123, 0.42998515216154337, 0.42970011717740736, 0.42809149466586505, 0.4283415948946702, 0.42626626624211933, 0.42602382361773833, 0.4251067008202313, 0.4235627271219725, 0.42271322514015347, 0.421884044191983, 0.4191417069268191, 0.41876247119239424], \"error\": [0.2665179193975736, 0.2665179193975736, 0.23065123413749825, 0.23065123413749825, 0.2165109468693348, 0.2165109468693348, 0.2165109468693348, 0.2165109468693348, 0.21642727653046995, 0.2165109468693348, 0.2138334960256589, 0.2138334960256589, 0.2165109468693348, 0.21642727653046995, 0.21374982568679404, 0.21031934179333425, 0.20861804490308186, 0.20861804490308186, 0.206554176544415, 0.20872960535490168, 0.2051875610096221, 0.20909217682331613, 0.20507600055780226, 0.20566169292985637, 0.20546646213917166, 0.20437874773392833, 0.20270534095663087, 0.20245432994003626, 0.19988843954818017, 0.19955375819272067, 0.19958164830567565, 0.19880072514293684, 0.1962069446381258, 0.19531446102356714, 0.19458931808673824, 0.19380839492399946, 0.19202342769488218, 0.1908799330637289, 0.18761678984799887, 0.18800725142936828, 0.18658485566866545, 0.18744944917026915, 0.18647329521684564, 0.18577604239297169, 0.184911448891368, 0.18454887742295356, 0.18443731697113375, 0.18329382233998048, 0.18228977827360202, 0.18030958025380003, 0.17983544833356574, 0.17913819550969182, 0.17807837121740344, 0.17687909636034027, 0.17523357969599776, 0.17562404127736717, 0.17484311811462835, 0.1727234695300516, 0.1714684144470785, 0.1702970297029703, 0.16920931529772695, 0.16901408450704225, 0.16773113931111422, 0.1682610514572584, 0.16828894157021335, 0.16834472179612328, 0.16541625993585274], \"auc\": [0.7907776187446599, 0.7907776187446599, 0.8214627769707642, 0.8214627769707642, 0.82860684506282, 0.8348159925322018, 0.8385621252871661, 0.8412569148235187, 0.8412746577243609, 0.8417284166772498, 0.8468385622000728, 0.8468417530554403, 0.8471171840137997, 0.8504698272778771, 0.8518177658002153, 0.8536033594272594, 0.8538390028497205, 0.8549688928371292, 0.8590238763979297, 0.8602489015511559, 0.8648009029023833, 0.8676532502707148, 0.8706294676415545, 0.8730906407587824, 0.8743825102810668, 0.8771398704968913, 0.8787849994922676, 0.8791294467202625, 0.8810406709291924, 0.8827703357793193, 0.8824923138090087, 0.8830862304607006, 0.8844044743968819, 0.8857250709656829, 0.8867598912247376, 0.8872971218945763, 0.8883644598989314, 0.8896469718639224, 0.8908650216951367, 0.8909887327780904, 0.8920346851961299, 0.8921595242963133, 0.8945592002200793, 0.8950465348239298, 0.8957687385069223, 0.8961100540848739, 0.897031148706312, 0.8978043421957554, 0.900073933116007, 0.9007122724572681, 0.9021142171415218, 0.9027512757781384, 0.90336878107742, 0.9046974108738941, 0.904978461663948, 0.905205376975194, 0.9057416868464379, 0.9070846412152991, 0.9079813666136889, 0.9085707836607415, 0.9091106676639253, 0.9092969743549084, 0.9100936879384084, 0.9100288986173138, 0.9104500977579617, 0.9115775743493918, 0.9124699855492892], \"aucpr\": [0.796145437537545, 0.796145437537545, 0.8161958683623075, 0.8161958683623075, 0.8382626001469589, 0.841879966154362, 0.8489827587208902, 0.8510800715184363, 0.8510942223437583, 0.8573452216851212, 0.859389333852659, 0.8593986604461444, 0.8602082808983378, 0.8656143946876491, 0.8687618199200166, 0.8712172200130004, 0.8729263977699852, 0.8731544083106652, 0.8769783486925073, 0.8782853316736035, 0.882824949033862, 0.8843778633419528, 0.8868789312042635, 0.8899109789482107, 0.8908459205906246, 0.8933023073784153, 0.8952558114114003, 0.8954777892246149, 0.897143713004726, 0.8990926334782057, 0.8989484634065683, 0.8993000243239763, 0.9004080992330006, 0.9019313567641636, 0.9025284105817276, 0.9032395755614405, 0.904151779174094, 0.9055281361457705, 0.9066882811496385, 0.906702149029779, 0.9078024163824998, 0.9079708318727159, 0.9111515293673396, 0.9114344244496976, 0.9120459352316801, 0.9124921418044064, 0.9134992013705622, 0.9142512847678964, 0.9165452607079966, 0.9172045996991861, 0.9183765915056505, 0.9190544138545297, 0.9196658580988488, 0.9213749048624267, 0.9215027178907247, 0.9217907134634475, 0.9222646410505946, 0.9235441962210978, 0.9243208729724086, 0.9249013225861353, 0.9253478422971146, 0.9253763861704933, 0.9263984956308733, 0.9264950738415179, 0.9268437000273873, 0.9274242454868662, 0.9282442649529418]}, \"validation_1\": {\"logloss\": [0.6844520991745404, 0.6779835808628215, 0.6598399702803677, 0.6570470786584056, 0.64331352469353, 0.6418070335278603, 0.6310858932364897, 0.6308057575500314, 0.6309466171695526, 0.6228858253776043, 0.6105590984790467, 0.6044279931712395, 0.6057546612994046, 0.6054092475721369, 0.5954072691071305, 0.5909672230814568, 0.5905185559700504, 0.590551935388993, 0.5920140835614888, 0.5846867629994723, 0.5792273733314395, 0.5752282588393999, 0.5715232914407595, 0.5664095517542148, 0.5640027658870076, 0.5603693448495833, 0.556017764750494, 0.5531264075037758, 0.5501043101293083, 0.5459843457646133, 0.54094355296558, 0.5380956694959185, 0.5355515012273209, 0.5320570738063539, 0.5323385109588635, 0.5302636726229609, 0.5280282206884064, 0.5247096502770068, 0.5226070683735402, 0.5190876708515327, 0.5162107704213224, 0.516790014226061, 0.520329804354444, 0.517605499359215, 0.5158944830279281, 0.5139513115607333, 0.5109588068874475, 0.5087480381846197, 0.5086671037673327, 0.5062932708489325, 0.5094595246776211, 0.5070507999458408, 0.5051345789717471, 0.5083306464584146, 0.5061365814598057, 0.5045340611812736, 0.5031286869495584, 0.5029824738787262, 0.5055322893280015, 0.5034572780152107, 0.5022823168864701, 0.50173036478658, 0.504661151669437, 0.5052059604148416, 0.5039713151885754, 0.5006558844000615, 0.5005227476939061], \"error\": [0.5419455600178492, 0.5419455600178492, 0.3815261044176707, 0.3815261044176707, 0.36412315930388217, 0.36412315930388217, 0.36412315930388217, 0.36412315930388217, 0.3609995537706381, 0.36412315930388217, 0.36412315930388217, 0.36412315930388217, 0.36412315930388217, 0.3609995537706381, 0.3609995537706381, 0.3609995537706381, 0.3609995537706381, 0.3609995537706381, 0.35876840696117807, 0.357429718875502, 0.356537260151718, 0.356760374832664, 0.3514056224899598, 0.3514056224899598, 0.3507362784471218, 0.34872824631860777, 0.34694332887103974, 0.3456046407853637, 0.34114234716644354, 0.34114234716644354, 0.32641677822400716, 0.3174921909861669, 0.3143685854529228, 0.3078982597054886, 0.3043284248103525, 0.30522088353413657, 0.3000892458723784, 0.29540383757251226, 0.29116465863453816, 0.2815707273538599, 0.27822400713966977, 0.28134761267291386, 0.29451137884872824, 0.29250334672021416, 0.2909415439535921, 0.2920571173583222, 0.2820169567157519, 0.2788933511825078, 0.2786702365015618, 0.27643908969210174, 0.2795626952253458, 0.2784471218206158, 0.2757697456492637, 0.2791164658634538, 0.2791164658634538, 0.2746541722445337, 0.27286925479696567, 0.2737617135207497, 0.2820169567157519, 0.27621597501115575, 0.27286925479696567, 0.2719767960731816, 0.28134761267291386, 0.2820169567157519, 0.2822400713966979, 0.2739848282016957, 0.27353859883980364], \"auc\": [0.6704924482682765, 0.6704924482682765, 0.7358661585722287, 0.7358661585722287, 0.7662972801653667, 0.7522358808976691, 0.7745076590163067, 0.7686027957760756, 0.7687038638692997, 0.7711222789571618, 0.7885902144027247, 0.7885657495071426, 0.7896670708721956, 0.7875586781496597, 0.7957165176346778, 0.7962956538514062, 0.7985635697250527, 0.7969889930028393, 0.7964890668988559, 0.7992963134009273, 0.8151666109522119, 0.8241831281657725, 0.8284386162735271, 0.8343570154191007, 0.8319698833124747, 0.834145554497861, 0.8372876893247027, 0.8373344132646258, 0.8392568126211589, 0.8420004905011033, 0.8420147282682042, 0.8431121392606027, 0.8435501009979071, 0.8463621602663225, 0.843509393015914, 0.8438934116637793, 0.8444684369759223, 0.8469274597798119, 0.8478073938930407, 0.8477745066563567, 0.8498907201242014, 0.8497407222398133, 0.8498784876764105, 0.8521459022202293, 0.8526037166187028, 0.8534365257281464, 0.8558565450714566, 0.8569923579286415, 0.8563356158546159, 0.8584383936830837, 0.8544976404410339, 0.8561143288687573, 0.8573578273728893, 0.8574466630183224, 0.8588562019613226, 0.8596755754313893, 0.860477502623459, 0.8600130706712625, 0.8565196039013087, 0.858165770522889, 0.8584685737386992, 0.8585511928942714, 0.8586271944961205, 0.8587715774864405, 0.8594818615860431, 0.8599392749206545, 0.8595580637198232], \"aucpr\": [0.6822370991129949, 0.6822370991129949, 0.7102668717716605, 0.7102668717716605, 0.7586472951596843, 0.7465970359951026, 0.771895480942469, 0.7684931811583536, 0.7685384454114539, 0.7801482115431184, 0.7904847916756227, 0.7904017702485033, 0.7920649429206305, 0.7892933842989285, 0.7997658279940391, 0.801983210402307, 0.8065287128757819, 0.8056143255776524, 0.8039439639242357, 0.8065505614994732, 0.8201970107801718, 0.8262679173858759, 0.8306108434313387, 0.8367518315776327, 0.8352312682951081, 0.8374925643825539, 0.841047112842014, 0.8410187174650062, 0.8432432822069756, 0.8459690211218976, 0.8462451548857645, 0.8470397248361766, 0.8474898231550185, 0.8503972503914878, 0.8480929692022618, 0.8489991985153916, 0.8497167671645096, 0.8523696003000989, 0.8532454694132341, 0.8533234860041428, 0.8554402915024265, 0.855190025611875, 0.8552981011105253, 0.8567909817136097, 0.8571774551042807, 0.8583284074488813, 0.8607290820899864, 0.8619511765429295, 0.8614321206562601, 0.8633384553681618, 0.858727551789437, 0.8601868529319541, 0.861507998315667, 0.8615810202968517, 0.8624974744048971, 0.8635270380358065, 0.8642053686979766, 0.8638433498704894, 0.8600244185469657, 0.8616052533928437, 0.8618212648422849, 0.86180588363461, 0.8618681251137856, 0.8622420086097872, 0.862942801562257, 0.8633428207397322, 0.8630373769431846]}}, \"_estimator_type\": \"classifier\"}"},"feature_names":["white_piece0_strength","white_piece0_file","white_piece0_rank","black_piece0_strength","black_piece0_file","black_piece0_rank"],"feature_types":["float","float","float","float","float","float"],"gradient_booster":{"model":{"gbtree_model_param":{"num_parallel_tree":"1","num_trees":"67","size_leaf_vector":"0"},"tree_info":[0,0,0,0,0,0,0,0,0,0,0,0,0,0,0,0,0,0,0,0,0,0,0,0,0,0,0,0,0,0,0,0,0,0,0,0,0,0,0,0,0,0,0,0,0,0,0,0,0,0,0,0,0,0,0,0,0,0,0,0,0,0,0,0,0,0,0],"trees":[{"base_weights":[1.9285472E-2,-1.4547539E-1,2.8818908E-1,-2.6821261E-2,7.647132E-3,1.153502E-3,3.7947867E-2],"categories":[],"categories_nodes":[],"categories_segments":[],"categories_sizes":[],"default_left":[0,0,0,0,0,0,0],"id":0,"left_children":[1,3,5,-1,-1,-1,-1],"loss_changes":[1.5886345E3,6.056996E2,3.4405298E2,0E0,0E0,0E0,0E0],"parents":[2147483647,0,0,1,1,2,2],"right_children":[2,4,6,-1,-1,-1,-1],"split_conditions":[6E0,6E0,2E0,-2.6821261E-2,7.647132E-3,1.153502E-3,3.7947867E-2],"split_indices":[2,0,5,0,0,0,0],"split_type":[0,0,0,0,0,0,0],"sum_hessian":[3.5855E4,2.2233E4,1.3622E4,1.4316E4,7.917E3,3.38E3,1.0242E4],"tree_param":{"num_deleted":"0","num_feature":"6","num_nodes":"7","size_leaf_vector":"0"}},{"base_weights":[1.7357463E-2,-1.3092873E-1,2.59373E-1,-2.4139322E-2,6.8825125E-3,1.0381832E-3,3.4153447E-2],"categories":[],"categories_nodes":[],"categories_segments":[],"categories_sizes":[],"default_left":[0,0,0,0,0,0,0],"id":1,"left_children":[1,3,5,-1,-1,-1,-1],"loss_changes":[1.2868186E3,4.9062558E2,2.7868854E2,0E0,0E0,0E0,0E0],"parents":[2147483647,0,0,1,1,2,2],"right_children":[2,4,6,-1,-1,-1,-1],"split_conditions":[6E0,6E0,2E0,-2.4139322E-2,6.8825125E-3,1.0381832E-3,3.4153447E-2],"split_indices":[2,0,5,0,0,0,0],"split_type":[0,0,0,0,0,0,0],"sum_hessian":[3.5855E4,2.2233E4,1.3622E4,1.4316E4,7.917E3,3.38E3,1.0242E4],"tree_param":{"num_deleted":"0","num_feature":"6","num_nodes":"7","size_leaf_vector":"0"}},{"base_weights":[1.5622212E-2,-1.1783663E-1,2.3343828E-1,-2.9710684E-2,-1.2256835E-3,9.3439454E-4,3.0738434E-2],"categories":[],"categories_nodes":[],"categories_segments":[],"categories_sizes":[],"default_left":[0,0,0,0,0,0,0],"id":2,"left_children":[1,3,5,-1,-1,-1,-1],"loss_changes":[1.0423429E3,4.208262E2,2.2574231E2,0E0,0E0,0E0,0E0],"parents":[2147483647,0,0,1,1,2,2],"right_children":[2,4,6,-1,-1,-1,-1],"split_conditions":[6E0,3E0,2E0,-2.9710684E-2,-1.2256835E-3,9.3439454E-4,3.0738434E-2],"split_indices":[2,5,5,0,0,0,0],"split_type":[0,0,0,0,0,0,0],"sum_hessian":[3.5855E4,2.2233E4,1.3622E4,8.24E3,1.3993E4,3.38E3,1.0242E4],"tree_param":{"num_deleted":"0","num_feature":"6","num_nodes":"7","size_leaf_vector":"0"}},{"base_weights":[1.40600195E-2,-1.0605435E-1,2.1009679E-1,-2.0520663E-2,7.3242052E-3,8.409799E-4,2.7664894E-2],"categories":[],"categories_nodes":[],"categories_segments":[],"categories_sizes":[],"default_left":[0,0,0,0,0,0,0],"id":3,"left_children":[1,3,5,-1,-1,-1,-1],"loss_changes":[8.4431757E2,3.952832E2,1.828551E2,0E0,0E0,0E0,0E0],"parents":[2147483647,0,0,1,1,2,2],"right_children":[2,4,6,-1,-1,-1,-1],"split_conditions":[6E0,6E0,2E0,-2.0520663E-2,7.3242052E-3,8.409799E-4,2.7664894E-2],"split_indices":[2,0,5,0,0,0,0],"split_type":[0,0,0,0,0,0,0],"sum_hessian":[3.5855E4,2.2233E4,1.3622E4,1.4316E4,7.917E3,3.38E3,1.0242E4],"tree_param":{"num_deleted":"0","num_feature":"6","num_nodes":"7","size_leaf_vector":"0"}},{"base_weights":[1.2654442E-2,-6.7706615E-2,2.5766534E-1,-2.3549762E-2,3.194587E-3,3.4460349E-3,2.8652215E-2],"categories":[],"categories_nodes":[],"categories_segments":[],"categories_sizes":[],"default_left":[0,0,0,0,0,0,0],"id":4,"left_children":[1,3,5,-1,-1,-1,-1],"loss_changes":[7.0599817E2,4.5148553E2,5.7031494E1,0E0,0E0,0E0,0E0],"parents":[2147483647,0,0,1,1,2,2],"right_children":[2,4,6,-1,-1,-1,-1],"split_conditions":[7E0,3E0,1E0,-2.3549762E-2,3.194587E-3,3.4460349E-3,2.8652215E-2],"split_indices":[2,5,5,0,0,0,0],"split_type":[0,0,0,0,0,0,0],"sum_hessian":[3.5855E4,2.7E4,8.855E3,1.006E4,1.694E4,1.014E3,7.841E3],"tree_param":{"num_deleted":"0","num_feature":"6","num_nodes":"7","size_leaf_vector":"0"}},{"base_weights":[1.1389329E-2,-1.0955209E-1,1.5336686E-1,-2.0800952E-2,6.056902E-3,-3.9172177E-3,2.1695962E-2],"categories":[],"categories_nodes":[],"categories_segments":[],"categories_sizes":[],"default_left":[0,0,0,0,0,0,0],"id":5,"left_children":[1,3,5,-1,-1,-1,-1],"loss_changes":[6.156989E2,3.243368E2,2.019625E2,0E0,0E0,0E0,0E0],"parents":[2147483647,0,0,1,1,2,2],"right_children":[2,4,6,-1,-1,-1,-1],"split_conditions":[5E0,6E0,2E0,-2.0800952E-2,6.056902E-3,-3.9172177E-3,2.1695962E-2],"split_indices":[2,0,5,0,0,0,0],"split_type":[0,0,0,0,0,0,0],"sum_hessian":[3.5855E4,1.9362E4,1.6493E4,1.2264E4,7.098E3,4.095E3,1.2398E4],"tree_param":{"num_deleted":"0","num_feature":"6","num_nodes":"7","size_leaf_vector":"0"}},{"base_weights":[1.0250476E-2,-5.7417918E-2,2.1656305E-1,-2.0532701E-2,3.0426409E-3,6.018889E-3,2.449753E-2],"categories":[],"categories_nodes":[],"categories_segments":[],"categories_sizes":[],"default_left":[0,0,0,0,0,0,0],"id":6,"left_children":[1,3,5,-1,-1,-1,-1],"loss_changes":[5.0059235E2,3.5082956E2,3.933191E1,0E0,0E0,0E0,0E0],"parents":[2147483647,0,0,1,1,2,2],"right_children":[2,4,6,-1,-1,-1,-1],"split_conditions":[7E0,3E0,1E0,-2.0532701E-2,3.0426409E-3,6.018889E-3,2.449753E-2],"split_indices":[2,5,1,0,0,0,0],"split_type":[0,0,0,0,0,0,0],"sum_hessian":[3.5855E4,2.7E4,8.855E3,1.006E4,1.694E4,1.362E3,7.493E3],"tree_param":{"num_deleted":"0","num_feature":"6","num_nodes":"7","size_leaf_vector":"0"}},{"base_weights":[9.225797E-3,-9.294685E-2,1.2917002E-1,-1.8133381E-2,5.97731E-3,-3.7356545E-3,1.8417154E-2],"categories":[],"categories_nodes":[],"categories_segments":[],"categories_sizes":[],"default_left":[0,0,0,0,0,0,0],"id":7,"left_children":[1,3,5,-1,-1,-1,-1],"loss_changes":[4.3942795E2,2.6138138E2,1.5107889E2,0E0,0E0,0E0,0E0],"parents":[2147483647,0,0,1,1,2,2],"right_children":[2,4,6,-1,-1,-1,-1],"split_conditions":[5E0,6E0,2E0,-1.8133381E-2,5.97731E-3,-3.7356545E-3,1.8417154E-2],"split_indices":[2,0,5,0,0,0,0],"split_type":[0,0,0,0,0,0,0],"sum_hessian":[3.5855E4,1.9362E4,1.6493E4,1.2264E4,7.098E3,4.095E3,1.2398E4],"tree_param":{"num_deleted":"0","num_feature":"6","num_nodes":"7","size_leaf_vector":"0"}},{"base_weights":[8.303277E-3,-8.36528E-2,1.1625388E-1,-1.6320191E-2,5.3796624E-3,-3.3621795E-3,1.6575584E-2],"categories":[],"categories_nodes":[],"categories_segments":[],"categories_sizes":[],"default_left":[0,0,0,0,0,0,0],"id":8,"left_children":[1,3,5,-1,-1,-1,-1],"loss_changes":[3.55942E2,2.1172342E2,1.2237685E2,0E0,0E0,0E0,0E0],"parents":[2147483647,0,0,1,1,2,2],"right_children":[2,4,6,-1,-1,-1,-1],"split_conditions":[5E0,6E0,2E0,-1.6320191E-2,5.3796624E-3,-3.3621795E-3,1.6575584E-2],"split_indices":[2,0,5,0,0,0,0],"split_type":[0,0,0,0,0,0,0],"sum_hessian":[3.5855E4,1.9362E4,1.6493E4,1.2264E4,7.098E3,4.095E3,1.2398E4],"tree_param":{"num_deleted":"0","num_feature":"6","num_nodes":"7","size_leaf_vector":"0"}},{"base_weights":[7.4730124E-3,-4.595328E-2,1.7036325E-1,-1.7394444E-2,3.0061405E-3,1.9915914E-2,1.1913676E-3],"categories":[],"categories_nodes":[],"categories_segments":[],"categories_sizes":[],"default_left":[0,0,0,0,0,0,0],"id":9,"left_children":[1,3,5,-1,-1,-1,-1],"loss_changes":[3.1204904E2,2.6270355E2,4.0404816E1,0E0,0E0,0E0,0E0],"parents":[2147483647,0,0,1,1,2,2],"right_children":[2,4,6,-1,-1,-1,-1],"split_conditions":[7E0,3E0,6E0,-1.7394444E-2,3.0061405E-3,1.9915914E-2,1.1913676E-3],"split_indices":[2,5,1,0,0,0,0],"split_type":[0,0,0,0,0,0,0],"sum_hessian":[3.5855E4,2.7E4,8.855E3,1.006E4,1.694E4,7.493E3,1.362E3],"tree_param":{"num_deleted":"0","num_feature":"6","num_nodes":"7","size_leaf_vector":"0"}},{"base_weights":[6.7258915E-3,-7.077147E-2,9.7702906E-2,3.145977E-4,-1.9402537E-2,-1.154146E-2,1.2529175E-2],"categories":[],"categories_nodes":[],"categories_segments":[],"categories_sizes":[],"default_left":[0,0,0,0,0,0,0],"id":10,"left_children":[1,3,5,-1,-1,-1,-1],"loss_changes":[2.5280887E2,1.7640945E2,9.69937E1,0E0,0E0,0E0,0E0],"parents":[2147483647,0,0,1,1,2,2],"right_children":[2,4,6,-1,-1,-1,-1],"split_conditions":[5E0,6E0,1E0,3.145977E-4,-1.9402537E-2,-1.154146E-2,1.2529175E-2],"split_indices":[2,3,5,0,0,0,0],"split_type":[0,0,0,0,0,0,0],"sum_hessian":[3.5855E4,1.9362E4,1.6493E4,1.2104E4,7.258E3,1.89E3,1.4603E4],"tree_param":{"num_deleted":"0","num_feature":"6","num_nodes":"7","size_leaf_vector":"0"}},{"base_weights":[6.052793E-3,-3.9047323E-2,1.4355756E-1,-1.5278898E-2,2.8504399E-3,-2.113574E-6,1.6965237E-2],"categories":[],"categories_nodes":[],"categories_segments":[],"categories_sizes":[],"default_left":[0,0,0,0,0,0,0],"id":11,"left_children":[1,3,5,-1,-1,-1,-1],"loss_changes":[2.2236594E2,2.0746506E2,3.3180405E1,0E0,0E0,0E0,0E0],"parents":[2147483647,0,0,1,1,2,2],"right_children":[2,4,6,-1,-1,-1,-1],"split_conditions":[7E0,3E0,1E0,-1.5278898E-2,2.8504399E-3,-2.113574E-6,1.6965237E-2],"split_indices":[2,5,1,0,0,0,0],"split_type":[0,0,0,0,0,0,0],"sum_hessian":[3.5855E4,2.7E4,8.855E3,1.006E4,1.694E4,1.362E3,7.493E3],"tree_param":{"num_deleted":"0","num_feature":"6","num_nodes":"7","size_leaf_vector":"0"}},{"base_weights":[5.447653E-3,-3.514304E-2,1.2920375E-1,-9.641174E-3,7.1907775E-3,1.5559501E-2,-1.5994475E-3],"categories":[],"categories_nodes":[],"categories_segments":[],"categories_sizes":[],"default_left":[0,0,0,0,0,0,0],"id":12,"left_children":[1,3,5,-1,-1,-1,-1],"loss_changes":[1.8012161E2,1.7710283E2,3.3938385E1,0E0,0E0,0E0,0E0],"parents":[2147483647,0,0,1,1,2,2],"right_children":[2,4,6,-1,-1,-1,-1],"split_conditions":[7E0,6E0,6E0,-9.641174E-3,7.1907775E-3,1.5559501E-2,-1.5994475E-3],"split_indices":[2,0,1,0,0,0,0],"split_type":[0,0,0,0,0,0,0],"sum_hessian":[3.5855E4,2.7E4,8.855E3,1.7172E4,9.828E3,7.493E3,1.362E3],"tree_param":{"num_deleted":"0","num_feature":"6","num_nodes":"7","size_leaf_vector":"0"}},{"base_weights":[4.903211E-3,-1.1590092E-1,4.3821383E-2,-1.53064355E-2,1.6698478E-2,-2.2566144E-3,1.5291655E-2],"categories":[],"categories_nodes":[],"categories_segments":[],"categories_sizes":[],"default_left":[0,0,0,0,0,0,0],"id":13,"left_children":[1,3,5,-1,-1,-1,-1],"loss_changes":[1.6858119E2,9.1877655E1,1.9642163E2,0E0,0E0,0E0,0E0],"parents":[2147483647,0,0,1,1,2,2],"right_children":[2,4,6,-1,-1,-1,-1],"split_conditions":[2E0,8E0,6E0,-1.53064355E-2,1.6698478E-2,-2.2566144E-3,1.5291655E-2],"split_indices":[5,2,0,0,0,0,0],"split_type":[0,0,0,0,0,0,0],"sum_hessian":[3.5855E4,8.736E3,2.7119E4,7.722E3,1.014E3,1.686E4,1.0259E4],"tree_param":{"num_deleted":"0","num_feature":"6","num_nodes":"7","size_leaf_vector":"0"}},{"base_weights":[4.4133E-3,-5.5965725E-2,7.529452E-2,4.2359717E-4,-1.5634948E-2,2.361991E-2,4.1994336E-3],"categories":[],"categories_nodes":[],"categories_segments":[],"categories_sizes":[],"default_left":[0,0,0,0,0,0,0],"id":14,"left_children":[1,3,5,-1,-1,-1,-1],"loss_changes":[1.5345851E2,1.17016556E2,8.836742E1,0E0,0E0,0E0,0E0],"parents":[2147483647,0,0,1,1,2,2],"right_children":[2,4,6,-1,-1,-1,-1],"split_conditions":[5E0,6E0,1E0,4.2359717E-4,-1.5634948E-2,2.361991E-2,4.1994336E-3],"split_indices":[2,3,4,0,0,0,0],"split_type":[0,0,0,0,0,0,0],"sum_hessian":[3.5855E4,1.9362E4,1.6493E4,1.2104E4,7.258E3,2.827E3,1.3666E4],"tree_param":{"num_deleted":"0","num_feature":"6","num_nodes":"7","size_leaf_vector":"0"}},{"base_weights":[3.9723143E-3,-7.6610915E-2,5.2291162E-2,-1.0567514E-2,1.44650135E-2,1.2059464E-2,-6.8443785E-3],"categories":[],"categories_nodes":[],"categories_segments":[],"categories_sizes":[],"default_left":[0,0,0,0,0,0,0],"id":15,"left_children":[1,3,5,-1,-1,-1,-1],"loss_changes":[1.3961612E2,8.64514E1,1.8486443E2,0E0,0E0,0E0,0E0],"parents":[2147483647,0,0,1,1,2,2],"right_children":[2,4,6,-1,-1,-1,-1],"split_conditions":[3E0,8E0,6E0,-1.0567514E-2,1.44650135E-2,1.2059464E-2,-6.8443785E-3],"split_indices":[5,2,3,0,0,0,0],"split_type":[0,0,0,0,0,0,0],"sum_hessian":[3.5855E4,1.344E4,2.2415E4,1.188E4,1.56E3,1.4316E4,8.099E3],"tree_param":{"num_deleted":"0","num_feature":"6","num_nodes":"7","size_leaf_vector":"0"}},{"base_weights":[3.5753406E-3,-4.9752448E-2,6.6178866E-2,-1.0032576E-2,3.763046E-3,3.2429975E-3,2.3079835E-2],"categories":[],"categories_nodes":[],"categories_segments":[],"categories_sizes":[],"default_left":[0,0,0,0,0,0,0],"id":16,"left_children":[1,3,5,-1,-1,-1,-1],"loss_changes":[1.1970881E2,8.557358E1,9.162861E1,0E0,0E0,0E0,0E0],"parents":[2147483647,0,0,1,1,2,2],"right_children":[2,4,6,-1,-1,-1,-1],"split_conditions":[5E0,6E0,6E0,-1.0032576E-2,3.763046E-3,3.2429975E-3,2.3079835E-2],"split_indices":[2,0,4,0,0,0,0],"split_type":[0,0,0,0,0,0,0],"sum_hessian":[3.5855E4,1.9362E4,1.6493E4,1.2264E4,7.098E3,1.3688E4,2.805E3],"tree_param":{"num_deleted":"0","num_feature":"6","num_nodes":"7","size_leaf_vector":"0"}},{"base_weights":[3.2183793E-3,-9.706119E-2,3.552441E-2,-1.4372545E-2,4.1829273E-3,-1.6556242E-3,1.2110885E-2],"categories":[],"categories_nodes":[],"categories_segments":[],"categories_sizes":[],"default_left":[0,0,0,0,0,0,0],"id":17,"left_children":[1,3,5,-1,-1,-1,-1],"loss_changes":[1.1616377E2,5.6632446E1,1.20883804E2,0E0,0E0,0E0,0E0],"parents":[2147483647,0,0,1,1,2,2],"right_children":[2,4,6,-1,-1,-1,-1],"split_conditions":[2E0,7E0,6E0,-1.4372545E-2,4.1829273E-3,-1.6556242E-3,1.2110885E-2],"split_indices":[5,2,0,0,0,0,0],"split_type":[0,0,0,0,0,0,0],"sum_hessian":[3.5855E4,8.736E3,2.7119E4,6.539E3,2.197E3,1.686E4,1.0259E4],"tree_param":{"num_deleted":"0","num_feature":"6","num_nodes":"7","size_leaf_vector":"0"}},{"base_weights":[2.8965543E-3,-5.4298382E-2,5.04858E-2,-2.1580262E-2,-2.0993524E-3,-1.7334003E-3,1.6040927E-2],"categories":[],"categories_nodes":[],"categories_segments":[],"categories_sizes":[],"default_left":[0,0,0,0,0,0,0],"id":18,"left_children":[1,3,5,-1,-1,-1,-1],"loss_changes":[9.759789E1,8.759046E1,1.459118E2,0E0,0E0,0E0,0E0],"parents":[2147483647,0,0,1,1,2,2],"right_children":[2,4,6,-1,-1,-1,-1],"split_conditions":[4E0,1E0,6E0,-2.1580262E-2,-2.0993524E-3,-1.7334003E-3,1.6040927E-2],"split_indices":[5,1,0,0,0,0,0],"split_type":[0,0,0,0,0,0,0],"sum_hessian":[3.5855E4,1.6284E4,1.9571E4,2.783E3,1.3501E4,1.2104E4,7.467E3],"tree_param":{"num_deleted":"0","num_feature":"6","num_nodes":"7","size_leaf_vector":"0"}},{"base_weights":[2.6066387E-3,-4.4221494E-2,5.7579998E-2,-1.4116561E-4,-1.1560443E-2,8.859047E-3,-9.914353E-3],"categories":[],"categories_nodes":[],"categories_segments":[],"categories_sizes":[],"default_left":[0,0,0,0,0,0,0],"id":19,"left_children":[1,3,5,-1,-1,-1,-1],"loss_changes":[9.230663E1,5.9171066E1,8.017078E1,0E0,0E0,0E0,0E0],"parents":[2147483647,0,0,1,1,2,2],"right_children":[2,4,6,-1,-1,-1,-1],"split_conditions":[5E0,6E0,6E0,-1.4116561E-4,-1.1560443E-2,8.859047E-3,-9.914353E-3],"split_indices":[2,3,1,0,0,0,0],"split_type":[0,0,0,0,0,0,0],"sum_hessian":[3.5855E4,1.9362E4,1.6493E4,1.2104E4,7.258E3,1.3769E4,2.724E3],"tree_param":{"num_deleted":"0","num_feature":"6","num_nodes":"7","size_leaf_vector":"0"}},{"base_weights":[2.3456174E-3,1.1220035E-1,-2.037448E-2,1.454453E-3,1.9550966E-2,-7.138534E-3,6.8983785E-3],"categories":[],"categories_nodes":[],"categories_segments":[],"categories_sizes":[],"default_left":[0,0,0,0,0,0,0],"id":20,"left_children":[1,3,5,-1,-1,-1,-1],"loss_changes":[8.949566E1,4.9990646E1,1.354394E2,0E0,0E0,0E0,0E0],"parents":[2147483647,0,0,1,1,2,2],"right_children":[2,4,6,-1,-1,-1,-1],"split_conditions":[1E0,4E0,5E0,1.454453E-3,1.9550966E-2,-7.138534E-3,6.8983785E-3],"split_indices":[4,2,4,0,0,0,0],"split_type":[0,0,0,0,0,0,0],"sum_hessian":[3.5855E4,6.144E3,2.9711E4,2.829E3,3.315E3,1.8914E4,1.0797E4],"tree_param":{"num_deleted":"0","num_feature":"6","num_nodes":"7","size_leaf_vector":"0"}},{"base_weights":[2.1116312E-3,-8.218808E-2,2.9269615E-2,-4.83437E-3,-2.459706E-2,-6.9708913E-3,6.2558516E-3],"categories":[],"categories_nodes":[],"categories_segments":[],"categories_sizes":[],"default_left":[0,0,0,0,0,0,0],"id":21,"left_children":[1,3,5,-1,-1,-1,-1],"loss_changes":[8.209149E1,4.8418278E1,8.936169E1,0E0,0E0,0E0,0E0],"parents":[2147483647,0,0,1,1,2,2],"right_children":[2,4,6,-1,-1,-1,-1],"split_conditions":[2E0,6E0,2E0,-4.83437E-3,-2.459706E-2,-6.9708913E-3,6.2558516E-3],"split_indices":[5,1,2,0,0,0,0],"split_type":[0,0,0,0,0,0,0],"sum_hessian":[3.5855E4,8.736E3,2.7119E4,7.241E3,1.495E3,6.825E3,2.0294E4],"tree_param":{"num_deleted":"0","num_feature":"6","num_nodes":"7","size_leaf_vector":"0"}},{"base_weights":[1.8996177E-3,-1.02037124E-1,2.3332337E-2,-1.949458E-2,-2.4726142E-3,7.3699798E-3,-6.4457334E-3],"categories":[],"categories_nodes":[],"categories_segments":[],"categories_sizes":[],"default_left":[0,0,0,0,0,0,0],"id":22,"left_children":[1,3,5,-1,-1,-1,-1],"loss_changes":[7.9876884E1,4.4026096E1,1.3144987E2,0E0,0E0,0E0,0E0],"parents":[2147483647,0,0,1,1,2,2],"right_children":[2,4,6,-1,-1,-1,-1],"split_conditions":[1E0,4E0,5E0,-1.949458E-2,-2.4726142E-3,7.3699798E-3,-6.4457334E-3],"split_indices":[1,5,1,0,0,0,0],"split_type":[0,0,0,0,0,0,0],"sum_hessian":[3.5855E4,6.129E3,2.9726E4,2.783E3,3.346E3,1.8889E4,1.0837E4],"tree_param":{"num_deleted":"0","num_feature":"6","num_nodes":"7","size_leaf_vector":"0"}},{"base_weights":[1.7090654E-3,-1.9178241E-2,1.03661604E-1,6.604211E-3,-6.8384334E-3,8.441155E-4,1.8484667E-2],"categories":[],"categories_nodes":[],"categories_segments":[],"categories_sizes":[],"default_left":[0,0,0,0,0,0,0],"id":23,"left_children":[1,3,5,-1,-1,-1,-1],"loss_changes":[7.635785E1,1.24798935E2,4.713114E1,0E0,0E0,0E0,0E0],"parents":[2147483647,0,0,1,1,2,2],"right_children":[2,4,6,-1,-1,-1,-1],"split_conditions":[6E0,2E0,4E0,6.604211E-3,-6.8384334E-3,8.441155E-4,1.8484667E-2],"split_indices":[4,4,2,0,0,0,0],"split_type":[0,0,0,0,0,0,0],"sum_hessian":[3.5855E4,2.9759E4,6.096E3,1.0893E4,1.8866E4,2.806E3,3.29E3],"tree_param":{"num_deleted":"0","num_feature":"6","num_nodes":"7","size_leaf_vector":"0"}},{"base_weights":[1.5386966E-3,-2.3525748E-2,7.7957354E-2,-8.159658E-3,2.426704E-3,-3.9061513E-3,9.923022E-3],"categories":[],"categories_nodes":[],"categories_segments":[],"categories_sizes":[],"default_left":[0,0,0,0,0,0,0],"id":24,"left_children":[1,3,5,-1,-1,-1,-1],"loss_changes":[6.8680115E1,7.493965E1,2.2049362E1,0E0,0E0,0E0,0E0],"parents":[2147483647,0,0,1,1,2,2],"right_children":[2,4,6,-1,-1,-1,-1],"split_conditions":[7E0,4E0,1E0,-8.159658E-3,2.426704E-3,-3.9061513E-3,9.923022E-3],"split_indices":[2,5,1,0,0,0,0],"split_type":[0,0,0,0,0,0,0],"sum_hessian":[3.5855E4,2.7E4,8.855E3,1.2189E4,1.4811E4,1.362E3,7.493E3],"tree_param":{"num_deleted":"0","num_feature":"6","num_nodes":"7","size_leaf_vector":"0"}},{"base_weights":[1.384833E-3,-6.378874E-2,2.9613642E-2,-1.2772475E-2,-1.0584398E-3,9.722182E-3,-5.886359E-3],"categories":[],"categories_nodes":[],"categories_segments":[],"categories_sizes":[],"default_left":[0,0,0,0,0,0,0],"id":25,"left_children":[1,3,5,-1,-1,-1,-1],"loss_changes":[6.5968765E1,3.6862568E1,1.4966997E2,0E0,0E0,0E0,0E0],"parents":[2147483647,0,0,1,1,2,2],"right_children":[2,4,6,-1,-1,-1,-1],"split_conditions":[2E0,4E0,5E0,-1.2772475E-2,-1.0584398E-3,9.722182E-3,-5.886359E-3],"split_indices":[1,5,1,0,0,0,0],"split_type":[0,0,0,0,0,0,0],"sum_hessian":[3.5855E4,1.0836E4,2.5019E4,4.921E3,5.915E3,1.4182E4,1.0837E4],"tree_param":{"num_deleted":"0","num_feature":"6","num_nodes":"7","size_leaf_vector":"0"}},{"base_weights":[1.2460756E-3,9.2809275E-2,-1.7690953E-2,9.903876E-4,1.6353587E-2,-6.1090332E-3,5.8333944E-3],"categories":[],"categories_nodes":[],"categories_segments":[],"categories_sizes":[],"default_left":[0,0,0,0,0,0,0],"id":26,"left_children":[1,3,5,-1,-1,-1,-1],"loss_changes":[6.217362E1,3.603029E1,9.803633E1,0E0,0E0,0E0,0E0],"parents":[2147483647,0,0,1,1,2,2],"right_children":[2,4,6,-1,-1,-1,-1],"split_conditions":[1E0,4E0,5E0,9.903876E-4,1.6353587E-2,-6.1090332E-3,5.8333944E-3],"split_indices":[4,2,4,0,0,0,0],"split_type":[0,0,0,0,0,0,0],"sum_hessian":[3.5855E4,6.144E3,2.9711E4,2.829E3,3.315E3,1.8914E4,1.0797E4],"tree_param":{"num_deleted":"0","num_feature":"6","num_nodes":"7","size_leaf_vector":"0"}},{"base_weights":[1.1219508E-3,-1.1410784E-1,1.572479E-2,-1.3785397E-2,6.6636167E-3,5.2492158E-3,-4.670563E-3],"categories":[],"categories_nodes":[],"categories_segments":[],"categories_sizes":[],"default_left":[0,0,0,0,0,0,0],"id":27,"left_children":[1,3,5,-1,-1,-1,-1],"loss_changes":[6.033603E1,1.7318703E1,7.305134E1,0E0,0E0,0E0,0E0],"parents":[2147483647,0,0,1,1,2,2],"right_children":[2,4,6,-1,-1,-1,-1],"split_conditions":[1E0,8E0,6E0,-1.3785397E-2,6.6636167E-3,5.2492158E-3,-4.670563E-3],"split_indices":[5,2,3,0,0,0,0],"split_type":[0,0,0,0,0,0,0],"sum_hessian":[3.5855E4,4.032E3,3.1823E4,3.564E3,4.68E2,2.0028E4,1.1795E4],"tree_param":{"num_deleted":"0","num_feature":"6","num_nodes":"7","size_leaf_vector":"0"}},{"base_weights":[1.0095795E-3,1.8919665E-2,-8.5844256E-2,-5.763957E-3,6.2837596E-3,-1.7720846E-2,-9.822765E-4],"categories":[],"categories_nodes":[],"categories_segments":[],"categories_sizes":[],"default_left":[0,0,0,0,0,0,0],"id":28,"left_children":[1,3,5,-1,-1,-1,-1],"loss_changes":[5.5777763E1,9.995538E1,4.257504E1,0E0,0E0,0E0,0E0],"parents":[2147483647,0,0,1,1,2,2],"right_children":[2,4,6,-1,-1,-1,-1],"split_conditions":[6E0,2E0,4E0,-5.763957E-3,6.2837596E-3,-1.7720846E-2,-9.822765E-4],"split_indices":[1,1,5,0,0,0,0],"split_type":[0,0,0,0,0,0,0],"sum_hessian":[3.5855E4,2.9726E4,6.129E3,1.0836E4,1.889E4,2.783E3,3.346E3],"tree_param":{"num_deleted":"0","num_feature":"6","num_nodes":"7","size_leaf_vector":"0"}},{"base_weights":[9.081113E-4,-1.6670335E-2,8.670994E-2,5.6284876E-3,-5.8794543E-3,3.3196952E-4,1.5780978E-2],"categories":[],"categories_nodes":[],"categories_segments":[],"categories_sizes":[],"default_left":[0,0,0,0,0,0,0],"id":29,"left_children":[1,3,5,-1,-1,-1,-1],"loss_changes":[5.408172E1,9.146116E1,3.614878E1,0E0,0E0,0E0,0E0],"parents":[2147483647,0,0,1,1,2,2],"right_children":[2,4,6,-1,-1,-1,-1],"split_conditions":[6E0,2E0,4E0,5.6284876E-3,-5.8794543E-3,3.3196952E-4,1.5780978E-2],"split_indices":[4,4,2,0,0,0,0],"split_type":[0,0,0,0,0,0,0],"sum_hessian":[3.5855E4,2.9759E4,6.096E3,1.0893E4,1.8866E4,2.806E3,3.29E3],"tree_param":{"num_deleted":"0","num_feature":"6","num_nodes":"7","size_leaf_vector":"0"}},{"base_weights":[8.177472E-4,-2.0680856E-2,6.6364616E-2,1.4914802E-3,-7.986218E-3,-2.6196362E-3,8.319066E-3],"categories":[],"categories_nodes":[],"categories_segments":[],"categories_sizes":[],"default_left":[0,0,0,0,0,0,0],"id":30,"left_children":[1,3,5,-1,-1,-1,-1],"loss_changes":[5.0528435E1,5.6881447E1,1.37948265E1,0E0,0E0,0E0,0E0],"parents":[2147483647,0,0,1,1,2,2],"right_children":[2,4,6,-1,-1,-1,-1],"split_conditions":[7E0,6E0,1E0,1.4914802E-3,-7.986218E-3,-2.6196362E-3,8.319066E-3],"split_indices":[2,3,1,0,0,0,0],"split_type":[0,0,0,0,0,0,0],"sum_hessian":[3.5855E4,2.7E4,8.855E3,1.686E4,1.014E4,1.362E3,7.493E3],"tree_param":{"num_deleted":"0","num_feature":"6","num_nodes":"7","size_leaf_vector":"0"}},{"base_weights":[7.359437E-4,-1.0163556E-1,1.3709286E-2,-1.2203867E-2,5.367061E-3,-5.680198E-3,3.7062054E-3],"categories":[],"categories_nodes":[],"categories_segments":[],"categories_sizes":[],"default_left":[0,0,0,0,0,0,0],"id":31,"left_children":[1,3,5,-1,-1,-1,-1],"loss_changes":[4.7621758E1,1.2786037E1,5.2404556E1,0E0,0E0,0E0,0E0],"parents":[2147483647,0,0,1,1,2,2],"right_children":[2,4,6,-1,-1,-1,-1],"split_conditions":[1E0,8E0,2E0,-1.2203867E-2,5.367061E-3,-5.680198E-3,3.7062054E-3],"split_indices":[5,2,2,0,0,0,0],"split_type":[0,0,0,0,0,0,0],"sum_hessian":[3.5855E4,4.032E3,3.1823E4,3.564E3,4.68E2,7.917E3,2.3906E4],"tree_param":{"num_deleted":"0","num_feature":"6","num_nodes":"7","size_leaf_vector":"0"}},{"base_weights":[6.620983E-4,1.6844677E-2,-7.781426E-2,-5.1111276E-3,5.5827363E-3,-1.5859077E-2,-1.0601919E-3],"categories":[],"categories_nodes":[],"categories_segments":[],"categories_sizes":[],"default_left":[0,0,0,0,0,0,0],"id":32,"left_children":[1,3,5,-1,-1,-1,-1],"loss_changes":[4.553663E1,7.875281E1,3.3279163E1,0E0,0E0,0E0,0E0],"parents":[2147483647,0,0,1,1,2,2],"right_children":[2,4,6,-1,-1,-1,-1],"split_conditions":[6E0,2E0,4E0,-5.1111276E-3,5.5827363E-3,-1.5859077E-2,-1.0601919E-3],"split_indices":[1,1,5,0,0,0,0],"split_type":[0,0,0,0,0,0,0],"sum_hessian":[3.5855E4,2.9726E4,6.129E3,1.0836E4,1.889E4,2.783E3,3.346E3],"tree_param":{"num_deleted":"0","num_feature":"6","num_nodes":"7","size_leaf_vector":"0"}},{"base_weights":[5.954183E-4,7.7548236E-2,-1.5319888E-2,7.813219E-4,1.3703932E-2,-5.2607567E-3,4.999885E-3],"categories":[],"categories_nodes":[],"categories_segments":[],"categories_sizes":[],"default_left":[0,0,0,0,0,0,0],"id":33,"left_children":[1,3,5,-1,-1,-1,-1],"loss_changes":[4.391503E1,2.5492134E1,7.2368706E1,0E0,0E0,0E0,0E0],"parents":[2147483647,0,0,1,1,2,2],"right_children":[2,4,6,-1,-1,-1,-1],"split_conditions":[1E0,4E0,5E0,7.813219E-4,1.3703932E-2,-5.2607567E-3,4.999885E-3],"split_indices":[4,2,4,0,0,0,0],"split_type":[0,0,0,0,0,0,0],"sum_hessian":[3.5855E4,6.144E3,2.9711E4,2.829E3,3.315E3,1.8914E4,1.0797E4],"tree_param":{"num_deleted":"0","num_feature":"6","num_nodes":"7","size_leaf_vector":"0"}},{"base_weights":[5.362784E-4,2.6313672E-2,-4.2767078E-2,-4.319399E-3,8.419019E-3,-8.52179E-3,2.2108208E-3],"categories":[],"categories_nodes":[],"categories_segments":[],"categories_sizes":[],"default_left":[0,0,0,0,0,0,0],"id":34,"left_children":[1,3,5,-1,-1,-1,-1],"loss_changes":[4.00253E1,9.04255E1,3.6850533E1,0E0,0E0,0E0,0E0],"parents":[2147483647,0,0,1,1,2,2],"right_children":[2,4,6,-1,-1,-1,-1],"split_conditions":[6E0,4E0,7E0,-4.319399E-3,8.419019E-3,-8.52179E-3,2.2108208E-3],"split_indices":[3,5,3,0,0,0,0],"split_type":[0,0,0,0,0,0,0],"sum_hessian":[3.5855E4,2.2476E4,1.3379E4,1.0212E4,1.2264E4,8.087E3,5.292E3],"tree_param":{"num_deleted":"0","num_feature":"6","num_nodes":"7","size_leaf_vector":"0"}},{"base_weights":[4.8258388E-4,-1.1386962E-2,9.274955E-2,1.2008761E-3,-6.64309E-3,1.1271649E-2,3.0256652E-3],"categories":[],"categories_nodes":[],"categories_segments":[],"categories_sizes":[],"default_left":[0,0,0,0,0,0,0],"id":35,"left_children":[1,3,5,-1,-1,-1,-1],"loss_changes":[3.9269367E1,4.091397E1,5.096302E0,0E0,0E0,0E0,0E0],"parents":[2147483647,0,0,1,1,2,2],"right_children":[2,4,6,-1,-1,-1,-1],"split_conditions":[8E0,5E0,7E0,1.2008761E-3,-6.64309E-3,1.1271649E-2,3.0256652E-3],"split_indices":[2,1,5,0,0,0,0],"split_type":[0,0,0,0,0,0,0],"sum_hessian":[3.5855E4,3.1769E4,4.086E3,2.2294E4,9.475E3,3.096E3,9.9E2],"tree_param":{"num_deleted":"0","num_feature":"6","num_nodes":"7","size_leaf_vector":"0"}},{"base_weights":[4.3457974E-4,-7.242125E-2,1.5458157E-2,-1.49835395E-2,-2.5860823E-3,5.0207297E-3,-4.5108977E-3],"categories":[],"categories_nodes":[],"categories_segments":[],"categories_sizes":[],"default_left":[0,0,0,0,0,0,0],"id":36,"left_children":[1,3,5,-1,-1,-1,-1],"loss_changes":[3.9247486E1,2.2091301E1,6.256737E1,0E0,0E0,0E0,0E0],"parents":[2147483647,0,0,1,1,2,2],"right_children":[2,4,6,-1,-1,-1,-1],"split_conditions":[1E0,3E0,5E0,-1.49835395E-2,-2.5860823E-3,5.0207297E-3,-4.5108977E-3],"split_indices":[1,5,1,0,0,0,0],"split_type":[0,0,0,0,0,0,0],"sum_hessian":[3.5855E4,6.129E3,2.9726E4,2.301E3,3.828E3,1.8889E4,1.0837E4],"tree_param":{"num_deleted":"0","num_feature":"6","num_nodes":"7","size_leaf_vector":"0"}},{"base_weights":[3.906393E-4,-1.4365379E-2,7.241603E-2,4.8358217E-3,-5.0581875E-3,2.9898735E-4,1.316098E-2],"categories":[],"categories_nodes":[],"categories_segments":[],"categories_sizes":[],"default_left":[0,0,0,0,0,0,0],"id":37,"left_children":[1,3,5,-1,-1,-1,-1],"loss_changes":[3.8109093E1,6.760612E1,2.5055803E1,0E0,0E0,0E0,0E0],"parents":[2147483647,0,0,1,1,2,2],"right_children":[2,4,6,-1,-1,-1,-1],"split_conditions":[6E0,2E0,4E0,4.8358217E-3,-5.0581875E-3,2.9898735E-4,1.316098E-2],"split_indices":[4,4,2,0,0,0,0],"split_type":[0,0,0,0,0,0,0],"sum_hessian":[3.5855E4,2.9759E4,6.096E3,1.0893E4,1.8866E4,2.806E3,3.29E3],"tree_param":{"num_deleted":"0","num_feature":"6","num_nodes":"7","size_leaf_vector":"0"}},{"base_weights":[3.519389E-4,-4.6329223E-2,2.0571103E-2,-9.3348455E-3,-7.202265E-4,6.7313844E-3,-4.060003E-3],"categories":[],"categories_nodes":[],"categories_segments":[],"categories_sizes":[],"default_left":[0,0,0,0,0,0,0],"id":38,"left_children":[1,3,5,-1,-1,-1,-1],"loss_changes":[3.384378E1,1.9936356E1,7.154257E1,0E0,0E0,0E0,0E0],"parents":[2147483647,0,0,1,1,2,2],"right_children":[2,4,6,-1,-1,-1,-1],"split_conditions":[2E0,4E0,5E0,-9.3348455E-3,-7.202265E-4,6.7313844E-3,-4.060003E-3],"split_indices":[1,5,1,0,0,0,0],"split_type":[0,0,0,0,0,0,0],"sum_hessian":[3.5855E4,1.0836E4,2.5019E4,4.921E3,5.915E3,1.4182E4,1.0837E4],"tree_param":{"num_deleted":"0","num_feature":"6","num_nodes":"7","size_leaf_vector":"0"}},{"base_weights":[3.1653757E-4,2.3632374E-2,-3.885164E-2,-3.677965E-3,7.3935227E-3,-6.5712864E-3,4.523427E-3],"categories":[],"categories_nodes":[],"categories_segments":[],"categories_sizes":[],"default_left":[0,0,0,0,0,0,0],"id":39,"left_children":[1,3,5,-1,-1,-1,-1],"loss_changes":[3.274601E1,6.830801E1,3.0223711E1,0E0,0E0,0E0,0E0],"parents":[2147483647,0,0,1,1,2,2],"right_children":[2,4,6,-1,-1,-1,-1],"split_conditions":[6E0,4E0,7E0,-3.677965E-3,7.3935227E-3,-6.5712864E-3,4.523427E-3],"split_indices":[3,5,2,0,0,0,0],"split_type":[0,0,0,0,0,0,0],"sum_hessian":[3.5855E4,2.2476E4,1.3379E4,1.0212E4,1.2264E4,1.014E4,3.239E3],"tree_param":{"num_deleted":"0","num_feature":"6","num_nodes":"7","size_leaf_vector":"0"}},{"base_weights":[2.8492644E-4,-1.2990145E-2,6.50817E-2,4.3414305E-3,-4.555797E-3,3.5648604E-4,1.175316E-2],"categories":[],"categories_nodes":[],"categories_segments":[],"categories_sizes":[],"default_left":[0,0,0,0,0,0,0],"id":40,"left_children":[1,3,5,-1,-1,-1,-1],"loss_changes":[3.0843529E1,5.4670216E1,1.9671854E1,0E0,0E0,0E0,0E0],"parents":[2147483647,0,0,1,1,2,2],"right_children":[2,4,6,-1,-1,-1,-1],"split_conditions":[6E0,2E0,4E0,4.3414305E-3,-4.555797E-3,3.5648604E-4,1.175316E-2],"split_indices":[4,4,2,0,0,0,0],"split_type":[0,0,0,0,0,0,0],"sum_hessian":[3.5855E4,2.9759E4,6.096E3,1.0893E4,1.8866E4,2.806E3,3.29E3],"tree_param":{"num_deleted":"0","num_feature":"6","num_nodes":"7","size_leaf_vector":"0"}},{"base_weights":[2.5677175E-4,-8.07896E-2,1.0527633E-2,-9.710555E-3,4.340444E-3,-1.6878837E-3,5.6169783E-3],"categories":[],"categories_nodes":[],"categories_segments":[],"categories_sizes":[],"default_left":[0,0,0,0,0,0,0],"id":41,"left_children":[1,3,5,-1,-1,-1,-1],"loss_changes":[2.9847958E1,8.176458E0,3.9809284E1,0E0,0E0,0E0,0E0],"parents":[2147483647,0,0,1,1,2,2],"right_children":[2,4,6,-1,-1,-1,-1],"split_conditions":[1E0,8E0,6E0,-9.710555E-3,4.340444E-3,-1.6878837E-3,5.6169783E-3],"split_indices":[5,2,0,0,0,0,0],"split_type":[0,0,0,0,0,0,0],"sum_hessian":[3.5855E4,4.032E3,3.1823E4,3.564E3,4.68E2,1.9884E4,1.1939E4],"tree_param":{"num_deleted":"0","num_feature":"6","num_nodes":"7","size_leaf_vector":"0"}},{"base_weights":[2.310562E-4,1.2187408E-2,-6.880996E-2,-1.8910737E-3,9.860938E-3,-1.9494234E-2,8.887132E-3],"categories":[],"categories_nodes":[],"categories_segments":[],"categories_sizes":[],"default_left":[0,0,0,0,0,0,0],"id":42,"left_children":[1,3,5,-1,-1,-1,-1],"loss_changes":[2.9599194E1,8.214455E1,1.0528829E2,0E0,0E0,0E0,0E0],"parents":[2147483647,0,0,1,1,2,2],"right_children":[2,4,6,-1,-1,-1,-1],"split_conditions":[7E0,6E0,4E0,-1.8910737E-3,9.860938E-3,-1.9494234E-2,8.887132E-3],"split_indices":[0,0,3,0,0,0,0],"split_type":[0,0,0,0,0,0,0],"sum_hessian":[3.5855E4,3.0563E4,5.292E3,2.2476E4,8.087E3,2.94E3,2.352E3],"tree_param":{"num_deleted":"0","num_feature":"6","num_nodes":"7","size_leaf_vector":"0"}},{"base_weights":[2.0787976E-4,-7.846475E-2,1.0328589E-2,-5.5465777E-3,-2.0021344E-2,-8.200994E-3,2.2287457E-3],"categories":[],"categories_nodes":[],"categories_segments":[],"categories_sizes":[],"default_left":[0,0,0,0,0,0,0],"id":43,"left_children":[1,3,5,-1,-1,-1,-1],"loss_changes":[2.8550167E1,1.1432856E1,3.508429E1,0E0,0E0,0E0,0E0],"parents":[2147483647,0,0,1,1,2,2],"right_children":[2,4,6,-1,-1,-1,-1],"split_conditions":[1E0,7E0,1E0,-5.5465777E-3,-2.0021344E-2,-8.200994E-3,2.2287457E-3],"split_indices":[2,0,5,0,0,0,0],"split_type":[0,0,0,0,0,0,0],"sum_hessian":[3.5855E4,4.086E3,3.1769E4,3.438E3,6.48E2,3.642E3,2.8127E4],"tree_param":{"num_deleted":"0","num_feature":"6","num_nodes":"7","size_leaf_vector":"0"}},{"base_weights":[1.8621677E-4,-6.091867E-2,1.2786643E-2,-1.1810417E-2,-2.6522735E-3,4.1144597E-3,-3.6640787E-3],"categories":[],"categories_nodes":[],"categories_segments":[],"categories_sizes":[],"default_left":[0,0,0,0,0,0,0],"id":44,"left_children":[1,3,5,-1,-1,-1,-1],"loss_changes":[2.7608015E1,1.2054249E1,4.166868E1,0E0,0E0,0E0,0E0],"parents":[2147483647,0,0,1,1,2,2],"right_children":[2,4,6,-1,-1,-1,-1],"split_conditions":[1E0,3E0,5E0,-1.1810417E-2,-2.6522735E-3,4.1144597E-3,-3.6640787E-3],"split_indices":[1,5,1,0,0,0,0],"split_type":[0,0,0,0,0,0,0],"sum_hessian":[3.5855E4,6.129E3,2.9726E4,2.301E3,3.828E3,1.8889E4,1.0837E4],"tree_param":{"num_deleted":"0","num_feature":"6","num_nodes":"7","size_leaf_vector":"0"}},{"base_weights":[1.6720795E-4,-9.680118E-3,7.671467E-2,5.5311294E-3,-2.3121913E-3,9.687701E-3,1.3627305E-3],"categories":[],"categories_nodes":[],"categories_segments":[],"categories_sizes":[],"default_left":[0,0,0,0,0,0,0],"id":45,"left_children":[1,3,5,-1,-1,-1,-1],"loss_changes":[2.7028564E1,2.7755585E1,5.1972866E0,0E0,0E0,0E0,0E0],"parents":[2147483647,0,0,1,1,2,2],"right_children":[2,4,6,-1,-1,-1,-1],"split_conditions":[8E0,1E0,7E0,5.5311294E-3,-2.3121913E-3,9.687701E-3,1.3627305E-3],"split_indices":[2,4,5,0,0,0,0],"split_type":[0,0,0,0,0,0,0],"sum_hessian":[3.5855E4,3.1769E4,4.086E3,5.444E3,2.6325E4,3.096E3,9.9E2],"tree_param":{"num_deleted":"0","num_feature":"6","num_nodes":"7","size_leaf_vector":"0"}},{"base_weights":[1.5088014E-4,-1.798669E-2,4.2242873E-2,3.6299701E-3,-5.973299E-3,-8.650566E-4,8.559675E-3],"categories":[],"categories_nodes":[],"categories_segments":[],"categories_sizes":[],"default_left":[0,0,0,0,0,0,0],"id":46,"left_children":[1,3,5,-1,-1,-1,-1],"loss_changes":[2.73749E1,5.679228E1,2.3825754E1,0E0,0E0,0E0,0E0],"parents":[2147483647,0,0,1,1,2,2],"right_children":[2,4,6,-1,-1,-1,-1],"split_conditions":[5E0,2E0,4E0,3.6299701E-3,-5.973299E-3,-8.650566E-4,8.559675E-3],"split_indices":[4,4,2,0,0,0,0],"split_type":[0,0,0,0,0,0,0],"sum_hessian":[3.5855E4,2.5058E4,1.0797E4,1.0893E4,1.4165E4,4.967E3,5.83E3],"tree_param":{"num_deleted":"0","num_feature":"6","num_nodes":"7","size_leaf_vector":"0"}},{"base_weights":[1.3593103E-4,-4.0111035E-2,1.7568238E-2,-5.374309E-3,5.468262E-3,5.625366E-3,-3.3058512E-3],"categories":[],"categories_nodes":[],"categories_segments":[],"categories_sizes":[],"default_left":[0,0,0,0,0,0,0],"id":47,"left_children":[1,3,5,-1,-1,-1,-1],"loss_changes":[2.5157183E1,1.4006861E1,4.9003956E1,0E0,0E0,0E0,0E0],"parents":[2147483647,0,0,1,1,2,2],"right_children":[2,4,6,-1,-1,-1,-1],"split_conditions":[2E0,8E0,5E0,-5.374309E-3,5.468262E-3,5.625366E-3,-3.3058512E-3],"split_indices":[1,2,1,0,0,0,0],"split_type":[0,0,0,0,0,0,0],"sum_hessian":[3.5855E4,1.0836E4,2.5019E4,9.474E3,1.362E3,1.4182E4,1.0837E4],"tree_param":{"num_deleted":"0","num_feature":"6","num_nodes":"7","size_leaf_vector":"0"}},{"base_weights":[1.224061E-4,1.0578438E-2,-6.025511E-2,8.552169E-3,-2.343241E-3,-1.7375408E-2,8.163212E-3],"categories":[],"categories_nodes":[],"categories_segments":[],"categories_sizes":[],"default_left":[0,0,0,0,0,0,0],"id":48,"left_children":[1,3,5,-1,-1,-1,-1],"loss_changes":[2.2636856E1,7.79061E1,8.5252945E1,0E0,0E0,0E0,0E0],"parents":[2147483647,0,0,1,1,2,2],"right_children":[2,4,6,-1,-1,-1,-1],"split_conditions":[7E0,4E0,4E0,8.552169E-3,-2.343241E-3,-1.7375408E-2,8.163212E-3],"split_indices":[0,3,3,0,0,0,0],"split_type":[0,0,0,0,0,0,0],"sum_hessian":[3.5855E4,3.0563E4,5.292E3,9.54E3,2.1023E4,2.94E3,2.352E3],"tree_param":{"num_deleted":"0","num_feature":"6","num_nodes":"7","size_leaf_vector":"0"}},{"base_weights":[1.1007689E-4,-1.11728115E-2,5.518286E-2,3.2615957E-3,-3.645631E-3,-2.668429E-3,8.209121E-3],"categories":[],"categories_nodes":[],"categories_segments":[],"categories_sizes":[],"default_left":[0,0,0,0,0,0,0],"id":49,"left_children":[1,3,5,-1,-1,-1,-1],"loss_changes":[2.2280825E1,3.2949474E1,1.3433342E1,0E0,0E0,0E0,0E0],"parents":[2147483647,0,0,1,1,2,2],"right_children":[2,4,6,-1,-1,-1,-1],"split_conditions":[6E0,2E0,2E0,3.2615957E-3,-3.645631E-3,-2.668429E-3,8.209121E-3],"split_indices":[4,4,2,0,0,0,0],"split_type":[0,0,0,0,0,0,0],"sum_hessian":[3.5855E4,2.9759E4,6.096E3,1.0893E4,1.8866E4,1.508E3,4.588E3],"tree_param":{"num_deleted":"0","num_feature":"6","num_nodes":"7","size_leaf_vector":"0"}},{"base_weights":[9.922578E-5,-1.83882E-2,3.1156167E-2,7.3721553E-3,-5.6682476E-3,-3.333037E-3,1.3121259E-2],"categories":[],"categories_nodes":[],"categories_segments":[],"categories_sizes":[],"default_left":[0,0,0,0,0,0,0],"id":50,"left_children":[1,3,5,-1,-1,-1,-1],"loss_changes":[2.058776E1,7.928675E1,8.633606E1,0E0,0E0,0E0,0E0],"parents":[2147483647,0,0,1,1,2,2],"right_children":[2,4,6,-1,-1,-1,-1],"split_conditions":[6E0,4E0,6E0,7.3721553E-3,-5.6682476E-3,-3.333037E-3,1.3121259E-2],"split_indices":[0,3,5,0,0,0,0],"split_type":[0,0,0,0,0,0,0],"sum_hessian":[3.5855E4,2.2476E4,1.3379E4,6.6E3,1.5876E4,8.136E3,5.243E3],"tree_param":{"num_deleted":"0","num_feature":"6","num_nodes":"7","size_leaf_vector":"0"}},{"base_weights":[8.962452E-5,-1.5616733E-2,3.6539488E-2,2.9350957E-3,-5.019689E-3,-7.1507733E-4,7.3757246E-3],"categories":[],"categories_nodes":[],"categories_segments":[],"categories_sizes":[],"default_left":[0,0,0,0,0,0,0],"id":51,"left_children":[1,3,5,-1,-1,-1,-1],"loss_changes":[2.0527935E1,3.8967964E1,1.7558664E1,0E0,0E0,0E0,0E0],"parents":[2147483647,0,0,1,1,2,2],"right_children":[2,4,6,-1,-1,-1,-1],"split_conditions":[5E0,2E0,4E0,2.9350957E-3,-5.019689E-3,-7.1507733E-4,7.3757246E-3],"split_indices":[4,4,2,0,0,0,0],"split_type":[0,0,0,0,0,0,0],"sum_hessian":[3.5855E4,2.5058E4,1.0797E4,1.0893E4,1.4165E4,4.967E3,5.83E3],"tree_param":{"num_deleted":"0","num_feature":"6","num_nodes":"7","size_leaf_vector":"0"}},{"base_weights":[8.07862E-5,-3.6037743E-2,1.5724933E-2,-4.8079225E-3,4.7695898E-3,5.0439276E-3,-2.970496E-3],"categories":[],"categories_nodes":[],"categories_segments":[],"categories_sizes":[],"default_left":[0,0,0,0,0,0,0],"id":52,"left_children":[1,3,5,-1,-1,-1,-1],"loss_changes":[2.0260767E1,1.092899E1,3.9459763E1,0E0,0E0,0E0,0E0],"parents":[2147483647,0,0,1,1,2,2],"right_children":[2,4,6,-1,-1,-1,-1],"split_conditions":[2E0,8E0,5E0,-4.8079225E-3,4.7695898E-3,5.0439276E-3,-2.970496E-3],"split_indices":[1,2,1,0,0,0,0],"split_type":[0,0,0,0,0,0,0],"sum_hessian":[3.5855E4,1.0836E4,2.5019E4,9.474E3,1.362E3,1.4182E4,1.0837E4],"tree_param":{"num_deleted":"0","num_feature":"6","num_nodes":"7","size_leaf_vector":"0"}},{"base_weights":[7.276976E-5,9.898607E-3,-5.6665726E-2,-1.6612586E-3,8.357347E-3,-1.5795862E-2,6.996367E-3],"categories":[],"categories_nodes":[],"categories_segments":[],"categories_sizes":[],"default_left":[0,0,0,0,0,0,0],"id":53,"left_children":[1,3,5,-1,-1,-1,-1],"loss_changes":[1.999039E1,5.9699257E1,6.790257E1,0E0,0E0,0E0,0E0],"parents":[2147483647,0,0,1,1,2,2],"right_children":[2,4,6,-1,-1,-1,-1],"split_conditions":[7E0,6E0,4E0,-1.6612586E-3,8.357347E-3,-1.5795862E-2,6.996367E-3],"split_indices":[0,0,3,0,0,0,0],"split_type":[0,0,0,0,0,0,0],"sum_hessian":[3.5855E4,3.0563E4,5.292E3,2.2476E4,8.087E3,2.94E3,2.352E3],"tree_param":{"num_deleted":"0","num_feature":"6","num_nodes":"7","size_leaf_vector":"0"}},{"base_weights":[6.543186E-5,-6.3634425E-2,8.259998E-3,-4.4697784E-3,-1.6388E-2,-7.2648586E-3,1.8738589E-3],"categories":[],"categories_nodes":[],"categories_segments":[],"categories_sizes":[],"default_left":[0,0,0,0,0,0,0],"id":54,"left_children":[1,3,5,-1,-1,-1,-1],"loss_changes":[1.871709E1,7.751066E0,2.6936213E1,0E0,0E0,0E0,0E0],"parents":[2147483647,0,0,1,1,2,2],"right_children":[2,4,6,-1,-1,-1,-1],"split_conditions":[1E0,7E0,1E0,-4.4697784E-3,-1.6388E-2,-7.2648586E-3,1.8738589E-3],"split_indices":[2,0,5,0,0,0,0],"split_type":[0,0,0,0,0,0,0],"sum_hessian":[3.5855E4,4.086E3,3.1769E4,3.438E3,6.48E2,3.642E3,2.8127E4],"tree_param":{"num_deleted":"0","num_feature":"6","num_nodes":"7","size_leaf_vector":"0"}},{"base_weights":[5.8160065E-5,-7.693383E-3,6.031423E-2,-1.8660174E-3,4.582872E-3,8.014827E-3,-1.7303776E-4],"categories":[],"categories_nodes":[],"categories_segments":[],"categories_sizes":[],"default_left":[0,0,0,0,0,0,0],"id":55,"left_children":[1,3,5,-1,-1,-1,-1],"loss_changes":[1.6748E1,1.8648752E1,5.0295897E0,0E0,0E0,0E0,0E0],"parents":[2147483647,0,0,1,1,2,2],"right_children":[2,4,6,-1,-1,-1,-1],"split_conditions":[8E0,6E0,7E0,-1.8660174E-3,4.582872E-3,8.014827E-3,-1.7303776E-4],"split_indices":[2,4,5,0,0,0,0],"split_type":[0,0,0,0,0,0,0],"sum_hessian":[3.5855E4,3.1769E4,4.086E3,2.6367E4,5.402E3,3.096E3,9.9E2],"tree_param":{"num_deleted":"0","num_feature":"6","num_nodes":"7","size_leaf_vector":"0"}},{"base_weights":[5.264557E-5,-3.248911E-2,1.4147571E-2,-8.3562955E-3,-1.6037837E-3,4.538241E-3,-2.672876E-3],"categories":[],"categories_nodes":[],"categories_segments":[],"categories_sizes":[],"default_left":[0,0,0,0,0,0,0],"id":56,"left_children":[1,3,5,-1,-1,-1,-1],"loss_changes":[1.644666E1,9.104219E0,3.1945889E1,0E0,0E0,0E0,0E0],"parents":[2147483647,0,0,1,1,2,2],"right_children":[2,4,6,-1,-1,-1,-1],"split_conditions":[2E0,2E0,5E0,-8.3562955E-3,-1.6037837E-3,4.538241E-3,-2.672876E-3],"split_indices":[1,5,1,0,0,0,0],"split_type":[0,0,0,0,0,0,0],"sum_hessian":[3.5855E4,1.0836E4,2.5019E4,2.639E3,8.197E3,1.4182E4,1.0837E4],"tree_param":{"num_deleted":"0","num_feature":"6","num_nodes":"7","size_leaf_vector":"0"}},{"base_weights":[4.7150505E-5,8.6718695E-3,-4.975558E-2,6.9846027E-3,-1.9090271E-3,-1.4099081E-2,6.429986E-3],"categories":[],"categories_nodes":[],"categories_segments":[],"categories_sizes":[],"default_left":[0,0,0,0,0,0,0],"id":57,"left_children":[1,3,5,-1,-1,-1,-1],"loss_changes":[1.5401819E1,5.1908962E1,5.508737E1,0E0,0E0,0E0,0E0],"parents":[2147483647,0,0,1,1,2,2],"right_children":[2,4,6,-1,-1,-1,-1],"split_conditions":[7E0,4E0,4E0,6.9846027E-3,-1.9090271E-3,-1.4099081E-2,6.429986E-3],"split_indices":[0,3,3,0,0,0,0],"split_type":[0,0,0,0,0,0,0],"sum_hessian":[3.5855E4,3.0563E4,5.292E3,9.54E3,2.1023E4,2.94E3,2.352E3],"tree_param":{"num_deleted":"0","num_feature":"6","num_nodes":"7","size_leaf_vector":"0"}},{"base_weights":[4.2361204E-5,-1.59022E-2,2.6827563E-2,6.0748374E-3,-4.7769346E-3,-4.133673E-3,1.0216228E-2],"categories":[],"categories_nodes":[],"categories_segments":[],"categories_sizes":[],"default_left":[0,0,0,0,0,0,0],"id":58,"left_children":[1,3,5,-1,-1,-1,-1],"loss_changes":[1.5313748E1,5.4906006E1,6.871236E1,0E0,0E0,0E0,0E0],"parents":[2147483647,0,0,1,1,2,2],"right_children":[2,4,6,-1,-1,-1,-1],"split_conditions":[6E0,4E0,5E0,6.0748374E-3,-4.7769346E-3,-4.133673E-3,1.0216228E-2],"split_indices":[0,3,5,0,0,0,0],"split_type":[0,0,0,0,0,0,0],"sum_hessian":[3.5855E4,2.2476E4,1.3379E4,6.6E3,1.5876E4,7.024E3,6.355E3],"tree_param":{"num_deleted":"0","num_feature":"6","num_nodes":"7","size_leaf_vector":"0"}},{"base_weights":[3.8333696E-5,4.5759004E-2,-9.417558E-3,-1.1373727E-3,9.450447E-3,-3.2322705E-3,3.0706557E-3],"categories":[],"categories_nodes":[],"categories_segments":[],"categories_sizes":[],"default_left":[0,0,0,0,0,0,0],"id":59,"left_children":[1,3,5,-1,-1,-1,-1],"loss_changes":[1.55020485E1,1.7114672E1,2.7307766E1,0E0,0E0,0E0,0E0],"parents":[2147483647,0,0,1,1,2,2],"right_children":[2,4,6,-1,-1,-1,-1],"split_conditions":[1E0,4E0,5E0,-1.1373727E-3,9.450447E-3,-3.2322705E-3,3.0706557E-3],"split_indices":[4,2,4,0,0,0,0],"split_type":[0,0,0,0,0,0,0],"sum_hessian":[3.5855E4,6.144E3,2.9711E4,2.829E3,3.315E3,1.8914E4,1.0797E4],"tree_param":{"num_deleted":"0","num_feature":"6","num_nodes":"7","size_leaf_vector":"0"}},{"base_weights":[3.4727767E-5,9.209822E-3,-4.445923E-2,-2.9241466E-3,3.126728E-3,-1.0052163E-2,2.1861446E-4],"categories":[],"categories_nodes":[],"categories_segments":[],"categories_sizes":[],"default_left":[0,0,0,0,0,0,0],"id":60,"left_children":[1,3,5,-1,-1,-1,-1],"loss_changes":[1.4638127E1,2.5213505E1,1.6030497E1,0E0,0E0,0E0,0E0],"parents":[2147483647,0,0,1,1,2,2],"right_children":[2,4,6,-1,-1,-1,-1],"split_conditions":[6E0,2E0,4E0,-2.9241466E-3,3.126728E-3,-1.0052163E-2,2.1861446E-4],"split_indices":[1,1,5,0,0,0,0],"split_type":[0,0,0,0,0,0,0],"sum_hessian":[3.5855E4,2.9726E4,6.129E3,1.0836E4,1.889E4,2.783E3,3.346E3],"tree_param":{"num_deleted":"0","num_feature":"6","num_nodes":"7","size_leaf_vector":"0"}},{"base_weights":[3.098009E-5,-5.5096563E-2,7.1227755E-3,-7.1499846E-3,4.4811447E-3,-6.0715284E-3,1.5908576E-3],"categories":[],"categories_nodes":[],"categories_segments":[],"categories_sizes":[],"default_left":[0,0,0,0,0,0,0],"id":61,"left_children":[1,3,5,-1,-1,-1,-1],"loss_changes":[1.4018409E1,6.7010612E0,1.8936256E1,0E0,0E0,0E0,0E0],"parents":[2147483647,0,0,1,1,2,2],"right_children":[2,4,6,-1,-1,-1,-1],"split_conditions":[1E0,7E0,1E0,-7.1499846E-3,4.4811447E-3,-6.0715284E-3,1.5908576E-3],"split_indices":[2,3,5,0,0,0,0],"split_type":[0,0,0,0,0,0,0],"sum_hessian":[3.5855E4,4.086E3,3.1769E4,3.51E3,5.76E2,3.642E3,2.8127E4],"tree_param":{"num_deleted":"0","num_feature":"6","num_nodes":"7","size_leaf_vector":"0"}},{"base_weights":[2.7689033E-5,8.126508E-3,-4.6738274E-2,-1.4546486E-3,7.1135024E-3,-1.2861991E-2,5.562489E-3],"categories":[],"categories_nodes":[],"categories_segments":[],"categories_sizes":[],"default_left":[0,0,0,0,0,0,0],"id":62,"left_children":[1,3,5,-1,-1,-1,-1],"loss_changes":[1.3580804E1,4.3664513E1,4.4371304E1,0E0,0E0,0E0,0E0],"parents":[2147483647,0,0,1,1,2,2],"right_children":[2,4,6,-1,-1,-1,-1],"split_conditions":[7E0,6E0,4E0,-1.4546486E-3,7.1135024E-3,-1.2861991E-2,5.562489E-3],"split_indices":[0,0,3,0,0,0,0],"split_type":[0,0,0,0,0,0,0],"sum_hessian":[3.5855E4,3.0563E4,5.292E3,2.2476E4,8.087E3,2.94E3,2.352E3],"tree_param":{"num_deleted":"0","num_feature":"6","num_nodes":"7","size_leaf_vector":"0"}},{"base_weights":[2.4871411E-5,-6.8212305E-3,5.324257E-2,-2.3034245E-3,2.0834806E-3,7.277902E-3,-7.864926E-4],"categories":[],"categories_nodes":[],"categories_segments":[],"categories_sizes":[],"default_left":[0,0,0,0,0,0,0],"id":63,"left_children":[1,3,5,-1,-1,-1,-1],"loss_changes":[1.306392E1,1.4245757E1,4.879737E0,0E0,0E0,0E0,0E0],"parents":[2147483647,0,0,1,1,2,2],"right_children":[2,4,6,-1,-1,-1,-1],"split_conditions":[8E0,6E0,7E0,-2.3034245E-3,2.0834806E-3,7.277902E-3,-7.864926E-4],"split_indices":[2,0,5,0,0,0,0],"split_type":[0,0,0,0,0,0,0],"sum_hessian":[3.5855E4,3.1769E4,4.086E3,2.0028E4,1.1741E4,3.096E3,9.9E2],"tree_param":{"num_deleted":"0","num_feature":"6","num_nodes":"7","size_leaf_vector":"0"}},{"base_weights":[2.2557893E-5,-4.114008E-2,8.510701E-3,3.6451572E-3,-5.5412734E-3,2.117804E-3,-4.0254765E-3],"categories":[],"categories_nodes":[],"categories_segments":[],"categories_sizes":[],"default_left":[0,0,0,0,0,0,0],"id":64,"left_children":[1,3,5,-1,-1,-1,-1],"loss_changes":[1.2528231E1,6.7906218E0,1.8364073E1,0E0,0E0,0E0,0E0],"parents":[2147483647,0,0,1,1,2,2],"right_children":[2,4,6,-1,-1,-1,-1],"split_conditions":[1E0,1E0,6E0,3.6451572E-3,-5.5412734E-3,2.117804E-3,-4.0254765E-3],"split_indices":[1,4,1,0,0,0,0],"split_type":[0,0,0,0,0,0,0],"sum_hessian":[3.5855E4,6.129E3,2.9726E4,9.52E2,5.177E3,2.3597E4,6.129E3],"tree_param":{"num_deleted":"0","num_feature":"6","num_nodes":"7","size_leaf_vector":"0"}},{"base_weights":[2.0192141E-5,-7.694809E-3,4.4569857E-2,9.25892E-4,-5.4809223E-3,1.4373426E-2,-7.939401E-3],"categories":[],"categories_nodes":[],"categories_segments":[],"categories_sizes":[],"default_left":[0,0,0,0,0,0,0],"id":65,"left_children":[1,3,5,-1,-1,-1,-1],"loss_changes":[1.23240795E1,2.4413963E1,6.5077225E1,0E0,0E0,0E0,0E0],"parents":[2147483647,0,0,1,1,2,2],"right_children":[2,4,6,-1,-1,-1,-1],"split_conditions":[7E0,6E0,4E0,9.25892E-4,-5.4809223E-3,1.4373426E-2,-7.939401E-3],"split_indices":[3,3,0,0,0,0,0],"split_type":[0,0,0,0,0,0,0],"sum_hessian":[3.5855E4,3.0563E4,5.292E3,2.2476E4,8.087E3,2.94E3,2.352E3],"tree_param":{"num_deleted":"0","num_feature":"6","num_nodes":"7","size_leaf_vector":"0"}},{"base_weights":[1.8222388E-5,7.870458E-3,-4.532386E-2,5.636608E-3,-1.4137938E-3,-1.1901679E-2,4.6803686E-3],"categories":[],"categories_nodes":[],"categories_segments":[],"categories_sizes":[],"default_left":[0,0,0,0,0,0,0],"id":66,"left_children":[1,3,5,-1,-1,-1,-1],"loss_changes":[1.2766406E1,3.262209E1,3.594054E1,0E0,0E0,0E0,0E0],"parents":[2147483647,0,0,1,1,2,2],"right_children":[2,4,6,-1,-1,-1,-1],"split_conditions":[7E0,4E0,4E0,5.636608E-3,-1.4137938E-3,-1.1901679E-2,4.6803686E-3],"split_indices":[0,3,3,0,0,0,0],"split_type":[0,0,0,0,0,0,0],"sum_hessian":[3.5855E4,3.0563E4,5.292E3,9.54E3,2.1023E4,2.94E3,2.352E3],"tree_param":{"num_deleted":"0","num_feature":"6","num_nodes":"7","size_leaf_vector":"0"}}]},"name":"gbtree"},"learner_model_param":{"base_score":"5E-1","boost_from_average":"1","num_class":"0","num_feature":"6","num_target":"1"},"objective":{"name":"reg:squarederror","reg_loss_param":{"scale_pos_weight":"1"}}},"version":[1,7,6]}