{"learner":{"attributes":{"best_iteration":"17","best_ntree_limit":"18","best_score":"0.9079828222426741","scikit_learn":"{\"use_label_encoder\": null, \"n_estimators\": 500, \"objective\": \"reg:squarederror\", \"max_depth\": 4, \"max_leaves\": null, \"max_bin\": null, \"grow_policy\": null, \"learning_rate\": null, \"verbosity\": null, \"booster\": null, \"tree_method\": \"approx\", \"gamma\": null, \"min_child_weight\": null, \"max_delta_step\": null, \"subsample\": null, \"sampling_method\": null, \"colsample_bytree\": null, \"colsample_bylevel\": null, \"colsample_bynode\": null, \"reg_alpha\": null, \"reg_lambda\": null, \"scale_pos_weight\": null, \"base_score\": null, \"missing\": NaN, \"num_parallel_tree\": null, \"random_state\": null, \"n_jobs\": null, \"monotone_constraints\": null, \"interaction_constraints\": null, \"importance_type\": null, \"gpu_id\": 0, \"validate_parameters\": null, \"predictor\": null, \"enable_categorical\": true, \"feature_types\": null, \"max_cat_to_onehot\": null, \"max_cat_threshold\": null, \"eval_metric\": [\"logloss\", \"error\", \"auc\", \"aucpr\"], \"early_stopping_rounds\": 10, \"callbacks\": null, \"kwargs\": {\"alpha\": 1.0, \"eta\": 0.3, \"lambda\": 1.0}, \"classes_\": [false, true], \"n_classes_\": 2, \"evals_result_\": {\"validation_0\": {\"logloss\": [0.5959851520135999, 0.5339104429632425, 0.49029355516657236, 0.45378397848457097, 0.42672789545729756, 0.4065844925958663, 0.3854046712629497, 0.37077590963774126, 0.3568670999004826, 0.34902439303696153, 0.33716507644166993, 0.3249324759942829, 0.3148427751014242, 0.3081075638384573, 0.30164288900426983, 0.2965894414338618, 0.28596905260646965, 0.28040765173660476, 0.27313096968180617, 0.2678186736170028, 0.26405158859257427, 0.2591788581045421, 0.25356786906471823, 0.2469998511383892, 0.24300555003436786, 0.23765469121357455, 0.233872685218264, 0.23157263815737678], \"error\": [0.22625, 0.18125, 0.18375, 0.1675, 0.155, 0.15375, 0.13875, 0.14, 0.13, 0.1225, 0.1225, 0.11625, 0.1075, 0.10375, 0.105, 0.09875, 0.10375, 0.09625, 0.08375, 0.0775, 0.07625, 0.075, 0.07375, 0.06875, 0.07125, 0.0675, 0.06625, 0.0625], \"auc\": [0.8053722059382901, 0.844834015766824, 0.8656053520685566, 0.88999768793025, 0.9076104386220064, 0.9175821717047412, 0.924510922664996, 0.9294184771664467, 0.9357207318073673, 0.9401770597931071, 0.9448683238985971, 0.9505552696544575, 0.9541501652011127, 0.9569395654800528, 0.9597737154960881, 0.9624251374189843, 0.9668404448123867, 0.970122092199375, 0.9726653689242909, 0.9758202253895092, 0.977035926580598, 0.9787587914587669, 0.9804294483103245, 0.9825774356908986, 0.9844345497803534, 0.9863438718964193, 0.987499906771381, 0.9882830271705487], \"aucpr\": [0.8879274301216734, 0.9091928598104219, 0.9292259628307696, 0.946358571589507, 0.9569228029814546, 0.9623970285325641, 0.9653776595142118, 0.9679893531091119, 0.9705667331680462, 0.9726119284002492, 0.975024958203438, 0.9780147733873851, 0.9795421148937815, 0.980905395083121, 0.9822167545242813, 0.9833361987376316, 0.9855247210728721, 0.9869857465196308, 0.988106971424703, 0.9895370608269368, 0.9901719552498647, 0.9908753233815056, 0.991592921482688, 0.9925112041848865, 0.9932917236692782, 0.9940622980321268, 0.9945578744865963, 0.9949247913212201]}, \"validation_1\": {\"logloss\": [0.6230210328102112, 0.5697522315382958, 0.5439696778357029, 0.5127720108628273, 0.5073950374126435, 0.49598476603627206, 0.4915658663772047, 0.4860850678011775, 0.48358960658777506, 0.4837152162846178, 0.4876355628168676, 0.4855756476847455, 0.4883237049425952, 0.48188622209010645, 0.48803518717642874, 0.4862600000342354, 0.48153124543605375, 0.4841789206978865, 0.48915473035536705, 0.4889375180285424, 0.4903352130996063, 0.4975175206596032, 0.5018354327278212, 0.49849107156624084, 0.5039222159935162, 0.5104965359251946, 0.8392959303449606, 0.5319448680477217], \"error\": [0.32, 0.28, 0.24, 0.23, 0.28, 0.28, 0.26, 0.26, 0.23, 0.23, 0.26, 0.27, 0.26, 0.25, 0.27, 0.27, 0.26, 0.26, 0.25, 0.27, 0.25, 0.26, 0.27, 0.27, 0.27, 0.27, 0.26, 0.27], \"auc\": [0.704225352112676, 0.7523069451189898, 0.7654201068479844, 0.7899465760077707, 0.7824186498300145, 0.7848470131131617, 0.78630403108305, 0.7867897037396795, 0.7889752306945119, 0.7889752306945119, 0.7846041767848471, 0.7833899951432735, 0.7867897037396795, 0.7897037396794561, 0.7809616318601262, 0.7858183584264206, 0.7921321029626032, 0.7901894123360855, 0.7858183584264206, 0.7853326857697912, 0.782904322486644, 0.7809616318601262, 0.7785332685769791, 0.7814473045167557, 0.7780475959203497, 0.7741622146673143, 0.76930548810102, 0.7712481787275376], \"aucpr\": [0.8410341456892916, 0.8654353552567179, 0.8795426013604912, 0.8951675491448751, 0.9000316890662216, 0.8994597481016776, 0.9008138131419252, 0.8977964870024153, 0.9004808628844622, 0.9024209268896508, 0.9025566067848165, 0.9050797102545072, 0.9063798772891227, 0.907838925394503, 0.9040126813094131, 0.9069856096901885, 0.9077154029478751, 0.9079828222426741, 0.9057769908102629, 0.9048655290623082, 0.9033547216977794, 0.9014479396055273, 0.8994324165749875, 0.9015426395225175, 0.8989112498511835, 0.8963933328714787, 0.8927917065156404, 0.8919465632925293]}}, \"_estimator_type\": \"classifier\"}"},"feature_names":["checking_status","duration","credit_history","purpose","credit_amount","savings_status","employment","installment_commitment","personal_status","other_parties","residence_since","property_magnitude","age","other_payment_plans","housing","existing_credits","job","num_dependents","own_telephone","foreign_worker"],"feature_types":["c","float","c","c","float","c","c","float","c","c","float","c","float","c","c","float","c","float","c","c"],"gradient_booster":{"model":{"gbtree_model_param":{"num_parallel_tree":"1","num_trees":"28","size_leaf_vector":"0"},"tree_info":[0,0,0,0,0,0,0,0,0,0,0,0,0,0,0,0,0,0,0,0,0,0,0,0,0,0,0,0],"trees":[{"base_weights":[1.9975032E-1,3.6748633E-1,5.619266E-2,1.75E-1,4.0065145E-1,1.5082644E-1,-5.6410257E-2,3.653846E-1,-0E0,9.375E-2,4.1267124E-1,1.8552037E-1,-1.590909E-1,-2.7380952E-1,-0E0,1.18750006E-1,-0E0,5.454546E-2,-1.2E-2,7.5E-2,-0E0,1.2552084E-1,-0E0,1.9186048E-2,7.610294E-2,-0E0,-7.5E-2,-9.583334E-2,-0E0,7.9687506E-2,-1.9512195E-2],"categories":[0,1,1,0,1,2,4,5,7,8,9,0,4,0,0,1,2,3,4,5,6,7,0,2],"categories_nodes":[0,1,3,5,7,12,14],"categories_segments":[0,2,3,11,13,14,22],"categories_sizes":[2,1,8,2,1,8,2],"default_left":[1,1,0,1,0,1,0,1,0,0,0,0,1,0,1,0,0,0,0,0,0,0,0,0,0,0,0,0,0,0,0],"id":0,"left_children":[1,3,5,7,9,11,13,15,17,19,21,23,25,27,29,-1,-1,-1,-1,-1,-1,-1,-1,-1,-1,-1,-1,-1,-1,-1,-1],"loss_changes":[1.8843584E1,1.6907158E0,4.7489576E0,1.6336538E0,5.8737946E-1,2.6579876E0,2.5282965E0,2.89263E-1,4.0363637E-1,4.84375E-1,6.9065094E-1,1.4972477E0,5.681818E-1,5.2480173E-1,2.7781377E0,0E0,0E0,0E0,0E0,0E0,0E0,0E0,0E0,0E0,0E0,0E0,0E0,0E0,0E0,0E0,0E0],"parents":[2147483647,0,0,1,1,2,2,3,3,4,4,5,5,6,6,7,7,8,8,9,9,10,10,11,11,12,12,13,13,14,14],"right_children":[2,4,6,8,10,12,14,16,18,20,22,24,26,28,30,-1,-1,-1,-1,-1,-1,-1,-1,-1,-1,-1,-1,-1,-1,-1,-1],"split_conditions":[NaN,NaN,2.1E1,NaN,2.3E1,NaN,2.32E3,NaN,1.6E1,3E0,9.572E3,1.287E3,NaN,4.9E1,NaN,1.18750006E-1,-0E0,5.454546E-2,-1.2E-2,7.5E-2,-0E0,1.2552084E-1,-0E0,1.9186048E-2,7.610294E-2,-0E0,-7.5E-2,-9.583334E-2,-0E0,7.9687506E-2,-1.9512195E-2],"split_indices":[0,13,1,3,12,2,4,9,1,7,4,4,3,12,5,0,0,0,0,0,0,0,0,0,0,0,0,0,0,0,0],"split_type":[1,1,0,1,0,1,0,1,0,0,0,0,1,0,1,0,0,0,0,0,0,0,0,0,0,0,0,0,0,0,0],"sum_hessian":[8E2,3.65E2,4.35E2,5.9E1,3.06E2,2.41E2,1.94E2,2.5E1,3.4E1,1.5E1,2.91E2,2.2E2,2.1E1,4.1E1,1.53E2,2.3E1,2E0,1E1,2.4E1,9E0,6E0,2.87E2,4E0,8.5E1,1.35E2,4E0,1.7E1,3.5E1,6E0,3.1E1,1.22E2],"tree_param":{"num_deleted":"0","num_feature":"20","num_nodes":"31","size_leaf_vector":"0"}},{"base_weights":[1.410068E-1,2.5904867E-1,3.9299607E-2,2.784885E-1,1.0362477E-1,2.2833687E-1,-0E0,2.826387E-1,-0E0,1.9701447E-1,-2.629505E-1,2.79932E-1,-1.40523E-1,4.009582E-2,-1.2216836E-1,-0E0,8.5608415E-2,8.164887E-2,-3.601354E-2,-0E0,-9.9504165E-2,9.3297936E-2,-0E0,-7.3223755E-2,-0E0,3.4210894E-2,-2.753731E-2,2.5808064E-2,-7.134344E-2],"categories":[0,1,0,2,4,0,2,2,2,2,0,1,2,4,5,7,0,2,3],"categories_nodes":[0,1,4,5,9,10,11,13,14],"categories_segments":[0,2,5,7,8,9,10,11,16],"categories_sizes":[2,3,2,1,1,1,1,5,3],"default_left":[1,1,0,0,1,1,0,0,0,1,1,1,0,1,1,0,0,0,0,0,0,0,0,0,0,0,0,0,0],"id":1,"left_children":[1,3,5,7,9,11,13,15,-1,17,19,21,23,25,27,-1,-1,-1,-1,-1,-1,-1,-1,-1,-1,-1,-1,-1,-1],"loss_changes":[9.308043E0,6.948662E-1,3.0283947E0,5.0322914E-1,1.629118E0,1.5299726E0,1.7219987E0,4.0725708E-1,0E0,1.1616774E0,1.0692811E-1,8.061948E-1,2.1922085E-1,2.7827141E0,2.2187316E0,0E0,0E0,0E0,0E0,0E0,0E0,0E0,0E0,0E0,0E0,0E0,0E0,0E0,0E0],"parents":[2147483647,0,0,1,1,2,2,3,3,4,4,5,5,6,6,7,7,9,9,10,10,11,11,12,12,13,13,14,14],"right_children":[2,4,6,8,10,12,14,16,-1,18,20,22,24,26,28,-1,-1,-1,-1,-1,-1,-1,-1,-1,-1,-1,-1,-1,-1],"split_conditions":[NaN,NaN,1.2E1,1.159E4,NaN,NaN,3.3E1,2E1,-0E0,NaN,NaN,NaN,3.6E1,NaN,NaN,-0E0,8.5608415E-2,8.164887E-2,-3.601354E-2,-0E0,-9.9504165E-2,9.3297936E-2,-0E0,-7.3223755E-2,-0E0,3.4210894E-2,-2.753731E-2,2.5808064E-2,-7.134344E-2],"split_indices":[0,2,1,4,16,3,1,12,0,6,5,2,12,3,6,0,0,0,0,0,0,0,0,0,0,0,0,0,0],"split_type":[1,1,0,0,1,1,0,0,0,1,1,1,0,1,1,0,0,0,0,0,0,0,0,0,0,0,0,0,0],"sum_hessian":[8E2,3.65E2,4.35E2,3.18E2,4.7E1,7E1,3.65E2,3.15E2,3E0,4E1,7E0,6.4E1,6E0,2.81E2,8.4E1,1E0,3.14E2,3.5E1,5E0,2E0,5E0,6E1,4E0,5E0,1E0,1.85E2,9.6E1,2.7E1,5.7E1],"tree_param":{"num_deleted":"0","num_feature":"20","num_nodes":"29","size_leaf_vector":"0"}},{"base_weights":[9.780006E-2,1.9444384E-1,3.4349922E-2,5.4164458E-2,2.1665578E-1,1.0050803E-1,-1.3103976E-2,1.696477E-1,-2.8104682E-2,-0E0,2.279992E-1,1.318578E-1,-1.7554785E-1,-1.6746531E-1,4.2934272E-2,7.17157E-2,-0E0,-3.3724297E-2,3.948503E-2,3.432277E-2,-4.620413E-2,7.6127194E-2,2.628959E-2,-0E0,5.1814485E-2,-0E0,-8.48095E-2,2.8785798E-3,-6.1395913E-2,4.61307E-2,-1.2550163E-2],"categories":[0,1,2,1,0,1,2,4,0,4,0,1,0,1,2,2,4],"categories_nodes":[0,1,3,5,7,12,13],"categories_segments":[0,3,4,8,10,12,15],"categories_sizes":[3,1,4,2,2,3,2],"default_left":[1,1,0,1,0,1,0,1,0,0,0,0,1,1,0,0,0,0,0,0,0,0,0,0,0,0,0,0,0,0,0],"id":2,"left_children":[1,3,5,7,9,11,13,15,17,19,21,23,25,27,29,-1,-1,-1,-1,-1,-1,-1,-1,-1,-1,-1,-1,-1,-1,-1,-1],"loss_changes":[4.676307E0,6.864824E-1,1.630196E0,6.2134624E-1,5.937338E-1,1.8314745E0,2.5364594E0,2.2319329E-1,3.3224463E-1,2.7321613E-1,5.33041E-1,1.0369885E0,5.333328E-1,7.171955E-1,1.9974185E0,0E0,0E0,0E0,0E0,0E0,0E0,0E0,0E0,0E0,0E0,0E0,0E0,0E0,0E0,0E0,0E0],"parents":[2147483647,0,0,1,1,2,2,3,3,4,4,5,5,6,6,7,7,8,8,9,9,10,10,11,11,12,12,13,13,14,14],"right_children":[2,4,6,8,10,12,14,16,18,20,22,24,26,28,30,-1,-1,-1,-1,-1,-1,-1,-1,-1,-1,-1,-1,-1,-1,-1,-1],"split_conditions":[NaN,NaN,1.8E1,NaN,2.3E1,NaN,2.32E3,NaN,4.5E1,3E0,4.28E3,9.75E2,NaN,NaN,2.7E1,7.17157E-2,-0E0,-3.3724297E-2,3.948503E-2,3.432277E-2,-4.620413E-2,7.6127194E-2,2.628959E-2,-0E0,5.1814485E-2,-0E0,-8.48095E-2,2.8785798E-3,-6.1395913E-2,4.61307E-2,-1.2550163E-2],"split_indices":[0,13,1,3,12,2,4,2,12,7,4,4,16,5,1,0,0,0,0,0,0,0,0,0,0,0,0,0,0,0,0],"split_type":[1,1,0,1,0,1,0,1,0,0,0,0,1,1,0,0,0,0,0,0,0,0,0,0,0,0,0,0,0,0,0],"sum_hessian":[8E2,3.1E2,4.9E2,4.9E1,2.61E2,2.13E2,2.77E2,2.5E1,2.4E1,1.4E1,2.47E2,1.95E2,1.8E1,7.8E1,1.99E2,1.6E1,9E0,2E1,4E0,9E0,5E0,2.02E2,4.5E1,4.7E1,1.48E2,5E0,1.3E1,9E0,6.9E1,9.1E1,1.08E2],"tree_param":{"num_deleted":"0","num_feature":"20","num_nodes":"31","size_leaf_vector":"0"}},{"base_weights":[6.975062E-2,1.3040935E-1,1.6377134E-2,1.7493166E-1,8.487961E-2,-0E0,2.1231888E-1,2.0187767E-1,2.9420655E-2,1.24512084E-1,-3.7707284E-2,1.01521164E-1,-4.981421E-2,2.908083E-1,-6.1929483E-2,6.1988592E-2,-0E0,-6.8660036E-2,3.4898307E-2,4.12964E-2,-2.7611759E-2,5.095364E-3,-6.591982E-2,9.78759E-2,7.826414E-3,6.1794847E-2,-2.3793796E-2,1.0097114E-1,-0E0,-0E0,-5.2669875E-2],"categories":[0,1,0,2,4,1,0,3,4,0,0,1,1,2,3,0,2,4,0,1,2,4,0,6],"categories_nodes":[0,1,2,5,9,10,11,12,13,14],"categories_segments":[0,2,5,6,9,10,12,15,18,22],"categories_sizes":[2,3,1,3,1,2,3,3,4,2],"default_left":[1,1,1,0,0,1,0,0,0,1,1,1,1,1,1,0,0,0,0,0,0,0,0,0,0,0,0,0,0,0,0],"id":3,"left_children":[1,3,5,7,9,11,13,15,17,19,21,23,25,27,29,-1,-1,-1,-1,-1,-1,-1,-1,-1,-1,-1,-1,-1,-1,-1,-1],"loss_changes":[2.4443696E0,4.6725512E-1,1.5059153E0,4.4108534E-1,1.0340339E0,2.0069818E0,1.0218097E0,1.8632078E-1,6.772822E-1,4.937296E-1,6.246029E-1,1.8259844E0,1.9496193E0,6.6345716E-1,1.3110596E-1,0E0,0E0,0E0,0E0,0E0,0E0,0E0,0E0,0E0,0E0,0E0,0E0,0E0,0E0,0E0,0E0],"parents":[2147483647,0,0,1,1,2,2,3,3,4,4,5,5,6,6,7,7,8,8,9,9,10,10,11,11,12,12,13,13,14,14],"right_children":[2,4,6,8,10,12,14,16,18,20,22,24,26,28,30,-1,-1,-1,-1,-1,-1,-1,-1,-1,-1,-1,-1,-1,-1,-1,-1],"split_conditions":[NaN,NaN,NaN,2E0,3.914E3,NaN,3.9E1,6.5E1,1.244E3,NaN,NaN,NaN,NaN,NaN,NaN,6.1988592E-2,-0E0,-6.8660036E-2,3.4898307E-2,4.12964E-2,-2.7611759E-2,5.095364E-3,-6.591982E-2,9.78759E-2,7.826414E-3,6.1794847E-2,-2.3793796E-2,1.0097114E-1,-0E0,-0E0,-5.2669875E-2],"split_indices":[0,6,9,17,4,2,1,12,4,9,8,5,5,3,3,0,0,0,0,0,0,0,0,0,0,0,0,0,0,0,0],"split_type":[1,1,1,0,0,1,0,0,0,1,1,1,1,1,1,0,0,0,0,0,0,0,0,0,0,0,0,0,0,0,0],"sum_hessian":[8E2,3.65E2,4.35E2,1.72E2,1.93E2,4E2,3.5E1,1.39E2,3.3E1,1.52E2,4.1E1,1.28E2,2.72E2,3E1,5E0,1.37E2,2E0,5E0,2.8E1,1.48E2,4E0,2.8E1,1.3E1,2.8E1,1E2,2.4E1,2.48E2,2.8E1,2E0,1E0,4E0],"tree_param":{"num_deleted":"0","num_feature":"20","num_nodes":"31","size_leaf_vector":"0"}},{"base_weights":[4.9606662E-2,1.05896205E-1,1.1430311E-2,1.278214E-1,-5.9378862E-2,1.18677594E-1,-8.323882E-3,-6.940417E-3,1.3916361E-1,6.346728E-2,-1.8625991E-1,-0E0,1.9459186E-1,6.7622396E-3,-2.093507E-1,2.6793106E-2,-5.2086573E-2,5.8833633E-2,2.4182871E-2,3.1178871E-2,-0E0,-0E0,-8.249167E-2,2.1357905E-2,-3.9817672E-2,7.011936E-2,-0E0,1.69151E-2,-1.6112644E-2,-9.303109E-2,-0E0],"categories":[0,1,2,3,4,5,7,0,2,3,4,0,1,2,3,0,2,4,2,0,1,2,3,1,2,0,1],"categories_nodes":[0,2,4,7,8,9,10,11,13],"categories_segments":[0,7,11,13,15,18,19,23,25],"categories_sizes":[7,4,2,2,3,1,4,2,2],"default_left":[1,0,1,0,1,0,0,1,1,1,1,1,0,1,0,0,0,0,0,0,0,0,0,0,0,0,0,0,0,0,0],"id":4,"left_children":[1,3,5,7,9,11,13,15,17,19,21,23,25,27,29,-1,-1,-1,-1,-1,-1,-1,-1,-1,-1,-1,-1,-1,-1,-1,-1],"loss_changes":[1.6027553E0,1.2102475E0,1.1473289E0,5.642247E-1,6.3339317E-1,7.480786E-1,1.4352864E0,3.565093E-1,5.9779835E-1,7.725101E-2,5.1590043E-1,3.279671E-1,4.725659E-1,1.1279498E0,6.69299E-1,0E0,0E0,0E0,0E0,0E0,0E0,0E0,0E0,0E0,0E0,0E0,0E0,0E0,0E0,0E0,0E0],"parents":[2147483647,0,0,1,1,2,2,3,3,4,4,5,5,6,6,7,7,8,8,9,9,10,10,11,11,12,12,13,13,14,14],"right_children":[2,4,6,8,10,12,14,16,18,20,22,24,26,28,30,-1,-1,-1,-1,-1,-1,-1,-1,-1,-1,-1,-1,-1,-1,-1,-1],"split_conditions":[NaN,3.9E1,NaN,2.3E1,NaN,1.851E3,7.758E3,NaN,NaN,NaN,NaN,NaN,4.5E1,NaN,3.9E1,2.6793106E-2,-5.2086573E-2,5.8833633E-2,2.4182871E-2,3.1178871E-2,-0E0,-0E0,-8.249167E-2,2.1357905E-2,-3.9817672E-2,7.011936E-2,-0E0,1.69151E-2,-1.6112644E-2,-9.303109E-2,-0E0],"split_indices":[3,1,6,12,0,4,4,8,6,14,5,0,1,8,1,0,0,0,0,0,0,0,0,0,0,0,0,0,0,0,0],"split_type":[1,0,1,0,1,0,0,1,1,1,1,1,0,1,0,0,0,0,0,0,0,0,0,0,0,0,0,0,0,0,0],"sum_hessian":[8E2,3.12E2,4.88E2,2.81E2,3.1E1,8.3E1,4.05E2,1.5E1,2.66E2,1.2E1,1.9E1,3.3E1,5E1,3.73E2,3.2E1,6E0,9E0,1.25E2,1.41E2,1.1E1,1E0,4E0,1.5E1,2.2E1,1.1E1,4.3E1,7E0,2.14E2,1.59E2,2.1E1,1.1E1],"tree_param":{"num_deleted":"0","num_feature":"20","num_nodes":"31","size_leaf_vector":"0"}},{"base_weights":[3.4983885E-2,4.0706284E-2,-2.0091696E-1,7.6030426E-2,2.7407564E-3,-0E0,-9.228966E-2,9.958653E-2,-0E0,-5.853884E-2,8.147616E-2,3.446632E-2,-1.0892915E-2,3.92625E-2,-9.98586E-3,-0E0,-3.9166566E-2,3.490781E-2,-2.9836232E-2],"categories":[1,2,3,4,7,0,1,2,0,2,3,4,0,0,2,4],"categories_nodes":[1,2,3,8,9,10],"categories_segments":[0,5,6,8,12,13],"categories_sizes":[5,1,2,4,1,3],"default_left":[0,1,1,1,0,0,0,0,1,1,1,0,0,0,0,0,0,0,0],"id":5,"left_children":[1,3,5,7,9,-1,-1,11,13,15,17,-1,-1,-1,-1,-1,-1,-1,-1],"loss_changes":[9.2925304E-1,9.7646606E-1,4.3549883E-1,6.480892E-1,1.928707E0,0E0,0E0,6.9616485E-1,4.9639207E-1,1.0358841E0,1.1645347E0,0E0,0E0,0E0,0E0,0E0,0E0,0E0,0E0],"parents":[2147483647,0,0,1,1,2,2,3,3,4,4,7,7,8,8,9,9,10,10],"right_children":[2,4,6,8,10,-1,-1,12,14,16,18,-1,-1,-1,-1,-1,-1,-1,-1],"split_conditions":[1.2389E4,NaN,NaN,NaN,3.5E1,-0E0,-9.228966E-2,5.2E1,NaN,NaN,NaN,3.446632E-2,-1.0892915E-2,3.92625E-2,-9.98586E-3,-0E0,-3.9166566E-2,3.490781E-2,-2.9836232E-2],"split_indices":[4,3,0,0,12,0,0,12,2,8,2,0,0,0,0,0,0,0,0],"split_type":[0,1,1,1,0,0,0,0,1,1,1,0,0,0,0,0,0,0,0],"sum_hessian":[8E2,7.86E2,1.4E1,3.93E2,3.93E2,4E0,1E1,2.94E2,9.9E1,2.14E2,1.79E2,2.71E2,2.3E1,2.3E1,7.6E1,1.11E2,1.03E2,1.55E2,2.4E1],"tree_param":{"num_deleted":"0","num_feature":"20","num_nodes":"19","size_leaf_vector":"0"}},{"base_weights":[2.3783466E-2,6.762916E-2,-2.0423334E-4,8.445289E-2,-5.2144587E-2,-7.881213E-2,2.6343284E-2,9.8965526E-2,-0E0,-8.1738085E-2,-0E0,-0E0,-1.3540234E-1,6.365271E-2,-6.428251E-2,3.376826E-2,-0E0,3.0379774E-2,-3.270044E-2,-2.1284612E-2,2.8389253E-2,-3.6968903E-3,1.5874282E-2,2.088991E-2,-5.4931745E-2,2.643838E-2,-1.0552673E-2,-6.332736E-2,-0E0],"categories":[1,1,2,0,1,2,4,0,4,1,2,4,6,0,1,2,3,0,2,4],"categories_nodes":[2,3,5,6,7,8,12,13],"categories_segments":[0,1,3,5,7,9,13,17],"categories_sizes":[1,2,2,2,2,4,4,3],"default_left":[0,0,1,1,0,1,1,1,1,0,0,0,1,1,0,0,0,0,0,0,0,0,0,0,0,0,0,0,0],"id":6,"left_children":[1,3,5,7,9,11,13,15,17,-1,19,21,23,25,27,-1,-1,-1,-1,-1,-1,-1,-1,-1,-1,-1,-1,-1,-1],"loss_changes":[9.098963E-1,6.371943E-1,1.1063147E0,2.9489744E-1,5.123051E-1,7.257511E-1,1.2477422E0,3.8385534E-1,4.93996E-1,0E0,1.7570713E-1,6.895383E-2,9.6738017E-1,7.067212E-1,1.1463578E0,0E0,0E0,0E0,0E0,0E0,0E0,0E0,0E0,0E0,0E0,0E0,0E0,0E0,0E0],"parents":[2147483647,0,0,1,1,2,2,3,3,4,4,5,5,6,6,7,7,8,8,10,10,11,11,12,12,13,13,14,14],"right_children":[2,4,6,8,10,12,14,16,18,-1,20,22,24,26,28,-1,-1,-1,-1,-1,-1,-1,-1,-1,-1,-1,-1,-1,-1],"split_conditions":[3E0,8.648E3,NaN,NaN,3.3E1,NaN,NaN,NaN,NaN,-8.1738085E-2,2.9E1,4E1,NaN,NaN,3E1,3.376826E-2,-0E0,3.0379774E-2,-3.270044E-2,-2.1284612E-2,2.8389253E-2,-3.6968903E-3,1.5874282E-2,2.088991E-2,-5.4931745E-2,2.643838E-2,-1.0552673E-2,-6.332736E-2,-0E0],"split_indices":[7,4,14,8,1,0,3,2,3,0,12,12,5,2,12,0,0,0,0,0,0,0,0,0,0,0,0,0,0],"split_type":[0,0,1,1,0,1,1,1,1,0,0,0,1,1,0,0,0,0,0,0,0,0,0,0,0,0,0,0,0],"sum_hessian":[8E2,2.97E2,5.03E2,2.68E2,2.9E1,1.36E2,3.67E2,2.25E2,4.3E1,7E0,2.2E1,5.1E1,8.5E1,2.68E2,9.9E1,2.04E2,2.1E1,2.4E1,1.9E1,9E0,1.3E1,2.9E1,2.2E1,1.2E1,7.3E1,2.23E2,4.5E1,3.4E1,6.5E1],"tree_param":{"num_deleted":"0","num_feature":"20","num_nodes":"29","size_leaf_vector":"0"}},{"base_weights":[1.5853006E-2,7.423561E-2,7.5066154E-4,1.3678746E-1,1.6536139E-2,9.274389E-2,-1.10947285E-2,1.5131134E-1,-0E0,-6.203462E-2,9.749061E-2,1.3327214E-1,-7.7081686E-3,7.6295654E-3,-6.6529855E-2,-0E0,4.701831E-2,1.2278009E-2,-3.512591E-2,3.7560076E-2,-0E0,4.3961108E-2,-0E0,-3.823216E-2,4.521943E-3,2.1997232E-2,-1.411253E-3,5.8591105E-3,-3.413443E-2],"categories":[0,1,2,0,1,2,3,4,5,6,7,0,1,0,3,0,2,1,0,2,3,4],"categories_nodes":[1,2,3,6,9,10,12,13],"categories_segments":[0,3,11,12,13,15,17,18],"categories_sizes":[3,8,1,1,2,2,1,4],"default_left":[0,1,1,1,0,0,1,0,0,1,1,0,1,1,0,0,0,0,0,0,0,0,0,0,0,0,0,0,0],"id":7,"left_children":[1,3,5,7,9,11,13,15,-1,17,19,21,23,25,27,-1,-1,-1,-1,-1,-1,-1,-1,-1,-1,-1,-1,-1,-1],"loss_changes":[6.312111E-1,3.89405E-1,7.9207003E-1,2.449007E-1,6.012414E-1,4.685675E-1,6.4898247E-1,6.857991E-3,0E0,3.0201146E-1,1.988084E-1,1.4131391E-1,1.633862E-1,4.0279177E-1,7.3491067E-1,0E0,0E0,0E0,0E0,0E0,0E0,0E0,0E0,0E0,0E0,0E0,0E0,0E0,0E0],"parents":[2147483647,0,0,1,1,2,2,3,3,4,4,5,5,6,6,7,7,9,9,10,10,11,11,12,12,13,13,14,14],"right_children":[2,4,6,8,10,12,14,16,-1,18,20,22,24,26,28,-1,-1,-1,-1,-1,-1,-1,-1,-1,-1,-1,-1,-1,-1],"split_conditions":[1.2E1,NaN,NaN,NaN,3.5E1,7.308E3,NaN,5E0,-0E0,NaN,NaN,4.5E1,NaN,NaN,3E0,-0E0,4.701831E-2,1.2278009E-2,-3.512591E-2,3.7560076E-2,-0E0,4.3961108E-2,-0E0,-3.823216E-2,4.521943E-3,2.1997232E-2,-1.411253E-3,5.8591105E-3,-3.413443E-2],"split_indices":[1,11,3,16,12,4,0,1,0,8,2,1,14,6,7,0,0,0,0,0,0,0,0,0,0,0,0,0,0],"split_type":[0,1,1,1,0,0,1,0,0,1,1,0,1,1,0,0,0,0,0,0,0,0,0,0,0,0,0,0,0],"sum_hessian":[8E2,1.5E2,6.5E2,6.3E1,8.7E1,8.3E1,5.67E2,6.2E1,1E0,3.8E1,4.9E1,6.6E1,1.7E1,4.11E2,1.56E2,4E0,5.8E1,7E0,3.1E1,4.2E1,7E0,6.1E1,5E0,9E0,8E0,7.7E1,3.34E2,4.8E1,1.08E2],"tree_param":{"num_deleted":"0","num_feature":"20","num_nodes":"29","size_leaf_vector":"0"}},{"base_weights":[1.1492849E-2,2.478633E-2,-2.7218321E-2,1.35471355E-2,1.2942551E-1,3.6257662E-2,-6.9881104E-2,6.1582197E-2,-6.9541656E-3,2.0016554E-1,-0E0,9.0024814E-2,-1.2986323E-1,4.1649893E-2,-9.549068E-2,2.466881E-2,-0E0,8.610083E-3,-2.0955727E-2,6.4423986E-2,-0E0,2.9383652E-2,-3.2593098E-2,4.1276567E-2,-0E0,-0E0,-5.0502438E-2,6.0485214E-2,-5.5559278E-3,-0E0,-3.6843684E-2],"categories":[0,3,4,6,0,0,1,2,0,0,6,0,2,0,1,4,0,1,2,3],"categories_nodes":[2,3,6,7,10,12,13,14],"categories_segments":[0,4,5,8,9,11,13,16],"categories_sizes":[4,1,3,1,2,2,3,4],"default_left":[0,0,1,1,0,0,1,1,0,0,1,0,1,1,1,0,0,0,0,0,0,0,0,0,0,0,0,0,0,0,0],"id":8,"left_children":[1,3,5,7,9,11,13,15,17,19,21,23,25,27,29,-1,-1,-1,-1,-1,-1,-1,-1,-1,-1,-1,-1,-1,-1,-1,-1],"loss_changes":[4.1044226E-1,5.797272E-1,5.398568E-1,6.1244243E-1,5.0795305E-1,5.613544E-1,4.0342557E-1,2.7588475E-1,9.020735E-1,2.1231055E-2,2.0437434E-1,3.6827043E-1,1.09353766E-1,3.408345E-1,2.5515336E-1,0E0,0E0,0E0,0E0,0E0,0E0,0E0,0E0,0E0,0E0,0E0,0E0,0E0,0E0,0E0,0E0],"parents":[2147483647,0,0,1,1,2,2,3,3,4,4,5,5,6,6,7,7,8,8,9,9,10,10,11,11,12,12,13,13,14,14],"right_children":[2,4,6,8,10,12,14,16,18,20,22,24,26,28,30,-1,-1,-1,-1,-1,-1,-1,-1,-1,-1,-1,-1,-1,-1,-1,-1],"split_conditions":[4.241E3,3.566E3,NaN,NaN,4E0,1.1054E4,NaN,NaN,1.6E1,4.042E3,NaN,4.6E1,NaN,NaN,NaN,2.466881E-2,-0E0,8.610083E-3,-2.0955727E-2,6.4423986E-2,-0E0,2.9383652E-2,-3.2593098E-2,4.1276567E-2,-0E0,-0E0,-5.0502438E-2,6.0485214E-2,-5.5559278E-3,-0E0,-3.6843684E-2],"split_indices":[4,4,3,18,7,4,16,16,1,4,3,12,5,2,5,0,0,0,0,0,0,0,0,0,0,0,0,0,0,0,0],"split_type":[0,0,1,1,0,0,1,1,0,0,1,0,1,1,1,0,0,0,0,0,0,0,0,0,0,0,0,0,0,0,0],"sum_hessian":[8E2,6.15E2,1.85E2,5.65E2,5E1,6.5E1,1.2E2,1.83E2,3.82E2,3.3E1,1.7E1,5.4E1,1.1E1,1.5E1,1.05E2,1.43E2,4E1,2.34E2,1.48E2,2.9E1,4E0,8E0,9E0,4.2E1,1.2E1,1E0,1E1,8E0,7E0,2.5E1,8E1],"tree_param":{"num_deleted":"0","num_feature":"20","num_nodes":"31","size_leaf_vector":"0"}},{"base_weights":[7.7761663E-3,5.1006373E-2,3.8256443E-3,-5.8922764E-2,1.1999279E-2,2.8384814E-2,-1.4011668E-1,5.797231E-2,2.3042789E-4,2.157127E-2,-6.3002557E-3,-7.392753E-2,-0E0,6.010443E-3,4.711007E-2,-1.0485716E-2,5.552863E-3],"categories":[0,1,2,0,2,3,4,1,1],"categories_nodes":[3,4,5,8],"categories_segments":[0,3,7,8],"categories_sizes":[3,4,1,1],"default_left":[0,0,0,1,1,1,0,0,1,0,0,0,0,0,0,0,0],"id":9,"left_children":[1,-1,3,5,7,9,11,13,15,-1,-1,-1,-1,-1,-1,-1,-1],"loss_changes":[3.3890584E-1,0E0,3.584479E-1,6.6155005E-1,3.2755235E-1,1.21188946E-1,8.5793114E-1,3.008269E-1,3.61067E-1,0E0,0E0,0E0,0E0,0E0,0E0,0E0,0E0],"parents":[2147483647,0,0,2,2,3,3,4,4,5,5,6,6,7,7,8,8],"right_children":[2,-1,4,6,8,10,12,14,16,-1,-1,-1,-1,-1,-1,-1,-1],"split_conditions":[4.33E2,5.1006373E-2,9.58E2,NaN,NaN,NaN,2E0,3.8E1,NaN,2.157127E-2,-6.3002557E-3,-7.392753E-2,-0E0,6.010443E-3,4.711007E-2,-1.0485716E-2,5.552863E-3],"split_indices":[4,0,4,11,6,5,15,12,14,0,0,0,0,0,0,0,0],"split_type":[0,0,0,1,1,1,0,0,1,0,0,0,0,0,0,0,0],"sum_hessian":[8E2,1.2E1,7.88E2,7.6E1,7.12E2,3.1E1,4.5E1,1.27E2,5.85E2,2.7E1,4E0,2.8E1,1.7E1,1E2,2.7E1,1.81E2,4.04E2],"tree_param":{"num_deleted":"0","num_feature":"20","num_nodes":"17","size_leaf_vector":"0"}},{"base_weights":[6.130978E-3,1.6331464E-2,-2.2307891E-2,7.7437316E-3,9.171038E-2,-0E0,-7.895843E-2,3.5857134E-2,-1.3969676E-2,1.9454668E-1,-0E0,7.217151E-2,-3.596637E-2,-0E0,-1.1442883E-1,1.5506533E-2,-4.56682E-3,1.4878028E-2,-1.3457921E-2,-0E0,6.0199607E-2,2.192787E-2,-1.0307476E-2,5.0320216E-2,-0E0,1.6338015E-2,-3.4699243E-2,1.9600324E-2,-3.2553803E-2,-0E0,-4.5631036E-2],"categories":[0,1,2,1,2,3,4,7,1,2,0,1,2,2,4,0,0,1,2,4,6,6,0,1,2,3,4,5,9],"categories_nodes":[2,3,5,6,7,8,12,13,14],"categories_segments":[0,3,8,10,13,15,16,21,22],"categories_sizes":[3,5,2,3,2,1,5,1,7],"default_left":[0,0,1,1,0,1,1,1,1,0,0,0,1,1,1,0,0,0,0,0,0,0,0,0,0,0,0,0,0,0,0],"id":10,"left_children":[1,3,5,7,9,11,13,15,17,19,21,23,25,27,29,-1,-1,-1,-1,-1,-1,-1,-1,-1,-1,-1,-1,-1,-1,-1,-1],"loss_changes":[2.2675021E-1,2.985934E-1,3.126768E-1,3.6789617E-1,2.901693E-1,3.5486764E-1,2.4945974E-1,2.5316504E-1,5.865315E-1,5.6787133E-3,1.2337829E-1,4.7106618E-1,5.9359837E-1,9.508519E-2,2.4758506E-1,0E0,0E0,0E0,0E0,0E0,0E0,0E0,0E0,0E0,0E0,0E0,0E0,0E0,0E0,0E0,0E0],"parents":[2147483647,0,0,1,1,2,2,3,3,4,4,5,5,6,6,7,7,8,8,9,9,10,10,11,11,12,12,13,13,14,14],"right_children":[2,4,6,8,10,12,14,16,18,20,22,24,26,28,30,-1,-1,-1,-1,-1,-1,-1,-1,-1,-1,-1,-1,-1,-1,-1,-1],"split_conditions":[4.241E3,3.566E3,NaN,NaN,3.757E3,NaN,NaN,NaN,NaN,7E0,4E0,2E0,NaN,NaN,NaN,1.5506533E-2,-4.56682E-3,1.4878028E-2,-1.3457921E-2,-0E0,6.0199607E-2,2.192787E-2,-1.0307476E-2,5.0320216E-2,-0E0,1.6338015E-2,-3.4699243E-2,1.9600324E-2,-3.2553803E-2,-0E0,-4.5631036E-2],"split_indices":[4,4,8,3,4,11,5,6,18,1,7,15,3,3,3,0,0,0,0,0,0,0,0,0,0,0,0,0,0,0,0],"split_type":[0,0,1,1,0,1,1,1,1,0,0,0,1,1,1,0,0,0,0,0,0,0,0,0,0,0,0,0,0,0,0],"sum_hessian":[8E2,6.15E2,1.85E2,5.65E2,5E1,1.21E2,6.4E1,2.66E2,2.99E2,1.8E1,3.2E1,4.9E1,7.2E1,1.5E1,4.9E1,2.18E2,4.8E1,8.7E1,2.12E2,1E0,1.7E1,1.9E1,1.3E1,2.5E1,2.4E1,2.8E1,4.4E1,1.3E1,2E0,1.1E1,3.8E1],"tree_param":{"num_deleted":"0","num_feature":"20","num_nodes":"31","size_leaf_vector":"0"}},{"base_weights":[4.1921893E-3,5.4072563E-2,-0E0,8.2366206E-2,-2.6755247E-2,-3.787203E-2,1.1211065E-2,9.586799E-2,-0E0,-8.5652106E-2,-0E0,2.6319116E-2,-1.7676535E-1,3.7292358E-2,-3.163958E-3,3.0465186E-2,-0E0,-4.1108157E-2,-0E0,2.0945683E-2,-1.2778363E-2,-7.593139E-2,-0E0,2.0107118E-2,-5.269247E-3,5.4140543E-3,-3.1981897E-2],"categories":[0,0,2,2,0,0,1,4,0,2,4],"categories_nodes":[3,5,6,7,11,14],"categories_segments":[0,1,3,4,5,8],"categories_sizes":[1,2,1,1,3,3],"default_left":[0,0,0,1,0,1,1,1,0,0,0,1,0,0,1,0,0,0,0,0,0,0,0,0,0,0,0],"id":11,"left_children":[1,3,5,7,9,11,13,15,-1,17,-1,19,21,23,25,-1,-1,-1,-1,-1,-1,-1,-1,-1,-1,-1,-1],"loss_changes":[1.9351566E-1,2.201855E-1,3.236263E-1,7.567638E-2,3.685927E-2,1.7331812E0,2.4232653E-1,1.9330114E-2,0E0,4.9864545E-2,0E0,3.8093302E-1,9.767829E-1,4.1270974E-1,8.233113E-1,0E0,0E0,0E0,0E0,0E0,0E0,0E0,0E0,0E0,0E0,0E0,0E0],"parents":[2147483647,0,0,1,1,2,2,3,3,4,4,5,5,6,6,7,7,9,9,11,11,12,12,13,13,14,14],"right_children":[2,4,6,8,10,12,14,16,-1,18,-1,20,22,24,26,-1,-1,-1,-1,-1,-1,-1,-1,-1,-1,-1,-1],"split_conditions":[7E0,3.001E3,1.391E3,NaN,2E0,NaN,NaN,NaN,-0E0,2E0,-0E0,NaN,4.2E1,4E1,NaN,3.0465186E-2,-0E0,-4.1108157E-2,-0E0,2.0945683E-2,-1.2778363E-2,-7.593139E-2,-0E0,2.0107118E-2,-5.269247E-3,5.4140543E-3,-3.1981897E-2],"split_indices":[1,4,4,0,17,11,5,14,0,7,0,5,12,12,2,0,0,0,0,0,0,0,0,0,0,0,0],"split_type":[0,0,0,1,0,1,1,1,0,0,0,1,0,0,1,0,0,0,0,0,0,0,0,0,0,0,0],"sum_hessian":[8E2,7E1,7.3E2,6.1E1,9E0,1.76E2,5.54E2,5.3E1,8E0,5E0,4E0,1.16E2,6E1,2.21E2,3.33E2,4.9E1,4E0,4E0,1E0,8E1,3.6E1,4.4E1,1.6E1,1.55E2,6.6E1,2.69E2,6.4E1],"tree_param":{"num_deleted":"0","num_feature":"20","num_nodes":"27","size_leaf_vector":"0"}},{"base_weights":[2.467612E-3,1.3395631E-2,-1.3021847E-2,3.2888252E-2,-2.4285072E-3,-0E0,-8.135475E-2,7.811397E-2,-0E0,2.9257855E-3,-1.3575432E-1,-9.800148E-3,8.351739E-2,-0E0,-1.8634383E-1,2.7834708E-2,-3.6927622E-3,-2.9226026E-2,9.368307E-3,-6.9081276E-3,8.575021E-3,-0E0,-6.309725E-2,2.6210751E-2,-7.2651724E-3,3.4441113E-2,-0E0,-8.310671E-3,1.967986E-2,-0E0,-6.5824956E-2],"categories":[0,1,0,1,2,5,6,7,1,3,4,2,0,0,1,0,1,2,4,0,0,1,2],"categories_nodes":[0,1,3,4,9,10,11,13,14],"categories_segments":[0,2,8,11,12,13,15,19,20],"categories_sizes":[2,6,3,1,1,2,4,1,3],"default_left":[1,1,0,1,1,0,0,0,0,1,1,1,0,1,1,0,0,0,0,0,0,0,0,0,0,0,0,0,0,0,0],"id":12,"left_children":[1,3,5,7,9,11,13,15,17,19,21,23,25,27,29,-1,-1,-1,-1,-1,-1,-1,-1,-1,-1,-1,-1,-1,-1,-1,-1],"loss_changes":[1.3613276E-1,1.8723421E-1,3.2078823E-1,4.065017E-1,3.1383365E-1,2.5006095E-1,6.016313E-1,2.3016775E-1,4.6596378E-1,1.6403018E-1,3.5024682E-1,2.2895001E-1,1.7839655E-1,7.959657E-2,1.3503033E-1,0E0,0E0,0E0,0E0,0E0,0E0,0E0,0E0,0E0,0E0,0E0,0E0,0E0,0E0,0E0,0E0],"parents":[2147483647,0,0,1,1,2,2,3,3,4,4,5,5,6,6,7,7,8,8,9,9,10,10,11,11,12,12,13,13,14,14],"right_children":[2,4,6,8,10,12,14,16,18,20,22,24,26,28,30,-1,-1,-1,-1,-1,-1,-1,-1,-1,-1,-1,-1,-1,-1,-1,-1],"split_conditions":[NaN,NaN,2.6E1,NaN,NaN,4.9E1,3E0,8.648E3,3.2E1,NaN,NaN,NaN,2E0,NaN,NaN,2.7834708E-2,-3.6927622E-3,-2.9226026E-2,9.368307E-3,-6.9081276E-3,8.575021E-3,-0E0,-6.309725E-2,2.6210751E-2,-7.2651724E-3,3.4441113E-2,-0E0,-8.310671E-3,1.967986E-2,-0E0,-6.5824956E-2],"split_indices":[8,3,1,6,13,12,10,4,12,18,16,5,17,18,5,0,0,0,0,0,0,0,0,0,0,0,0,0,0,0,0],"split_type":[1,1,0,1,1,0,0,0,0,1,1,1,0,1,1,0,0,0,0,0,0,0,0,0,0,0,0,0,0,0,0],"sum_hessian":[8E2,5.07E2,2.93E2,2.55E2,2.52E2,2.38E2,5.5E1,1.11E2,1.44E2,2.36E2,1.6E1,2.06E2,3.2E1,2.8E1,2.7E1,1.05E2,6E0,3.7E1,1.07E2,9.8E1,1.38E2,2E0,1.4E1,1.7E1,1.89E2,3E1,2E0,1.3E1,1.5E1,5E0,2.2E1],"tree_param":{"num_deleted":"0","num_feature":"20","num_nodes":"31","size_leaf_vector":"0"}},{"base_weights":[8.580764E-4,1.8408483E-2,-8.008253E-3,4.9653225E-2,-0E0,3.9409015E-2,-1.668013E-2,6.497906E-2,-2.1851294E-2,-6.9711424E-2,1.4577564E-2,9.32918E-2,-0E0,-2.4387062E-2,4.5975182E-2,-0E0,2.1493126E-2,-0E0,-5.5001453E-2,2.668655E-3,-4.23679E-2,1.0249444E-2,-9.572381E-3,3.1676956E-2,-0E0,-0E0,-2.5781991E-2,1.5100593E-3,-1.2401042E-2,2.6576787E-2,-0E0],"categories":[0,3,4,0,2,4,1,1,0,1,1,2,1,3,3,4,6,0,1,2,4],"categories_nodes":[0,2,3,4,5,6,7,9,13,14],"categories_segments":[0,3,6,7,8,10,11,12,14,17],"categories_sizes":[3,3,1,1,2,1,1,2,3,4],"default_left":[1,0,1,1,1,1,1,1,0,1,0,0,0,1,1,0,0,0,0,0,0,0,0,0,0,0,0,0,0,0,0],"id":13,"left_children":[1,3,5,7,9,11,13,15,17,19,21,23,25,27,29,-1,-1,-1,-1,-1,-1,-1,-1,-1,-1,-1,-1,-1,-1,-1,-1],"loss_changes":[1.351894E-1,1.7209579E-1,1.8147084E-1,1.6728473E-1,1.9522043E-1,1.5206292E-1,1.9055173E-1,6.903282E-2,1.637671E-1,3.190989E-1,1.5267278E-1,3.5036355E-2,2.2157034E-2,2.3797463E-1,1.4003128E-1,0E0,0E0,0E0,0E0,0E0,0E0,0E0,0E0,0E0,0E0,0E0,0E0,0E0,0E0,0E0,0E0],"parents":[2147483647,0,0,1,1,2,2,3,3,4,4,5,5,6,6,7,7,8,8,9,9,10,10,11,11,12,12,13,13,14,14],"right_children":[2,4,6,8,10,12,14,16,18,20,22,24,26,28,30,-1,-1,-1,-1,-1,-1,-1,-1,-1,-1,-1,-1,-1,-1,-1,-1],"split_conditions":[NaN,3E0,NaN,NaN,NaN,NaN,NaN,NaN,1.453E3,NaN,4.151E3,2E0,3.66E3,NaN,NaN,-0E0,2.1493126E-2,-0E0,-5.5001453E-2,2.668655E-3,-4.23679E-2,1.0249444E-2,-9.572381E-3,3.1676956E-2,-0E0,-0E0,-2.5781991E-2,1.5100593E-3,-1.2401042E-2,2.6576787E-2,-0E0],"split_indices":[2,7,5,8,13,6,9,9,4,16,4,17,4,3,3,0,0,0,0,0,0,0,0,0,0,0,0,0,0,0,0],"split_type":[1,0,1,1,1,1,1,1,0,1,0,0,0,1,1,0,0,0,0,0,0,0,0,0,0,0,0,0,0,0,0],"sum_hessian":[8E2,3.06E2,4.94E2,1.11E2,1.95E2,5.8E1,4.36E2,1.03E2,8E0,3.2E1,1.63E2,2.7E1,3.1E1,4.03E2,3.3E1,5E0,9.8E1,4E0,4E0,9E0,2.3E1,1.3E2,3.3E1,2.4E1,3E0,2.9E1,2E0,1.26E2,2.77E2,2.6E1,7E0],"tree_param":{"num_deleted":"0","num_feature":"20","num_nodes":"31","size_leaf_vector":"0"}},{"base_weights":[7.241491E-4,2.5722522E-2,-3.1402344E-3,-1.977829E-2,6.334275E-2,-7.849302E-3,5.626688E-2,2.6870532E-2,-7.916759E-2,-1.9554531E-2,8.644934E-2,-0E0,-5.3588495E-2,1.0762091E-1,-0E0,2.0092199E-2,-0E0,-4.066287E-2,-0E0,-0E0,-2.7591255E-2,4.073529E-2,-0E0,3.2713946E-3,-1.3583359E-2,-5.4135107E-2,-1.2309904E-3,3.8134173E-2,-0E0,-0E0,-1.3311828E-2],"categories":[0,2,3,4,1,1,2,3,2,0,1,2,4,2,3,0],"categories_nodes":[0,2,3,4,6,10,13],"categories_segments":[0,4,5,8,9,13,15],"categories_sizes":[4,1,3,1,4,2,1],"default_left":[1,0,1,1,1,0,1,0,0,0,1,0,0,1,0,0,0,0,0,0,0,0,0,0,0,0,0,0,0,0,0],"id":14,"left_children":[1,3,5,7,9,11,13,15,17,19,21,23,25,27,29,-1,-1,-1,-1,-1,-1,-1,-1,-1,-1,-1,-1,-1,-1,-1,-1],"loss_changes":[1.000423E-1,2.8788593E-1,1.366605E-1,2.012577E-1,2.4097785E-1,2.1401992E-1,1.8507975E-1,7.0062265E-2,2.3409724E-1,6.346291E-2,2.133655E-1,2.7494785E-1,3.6715087E-1,8.207628E-2,9.844707E-3,0E0,0E0,0E0,0E0,0E0,0E0,0E0,0E0,0E0,0E0,0E0,0E0,0E0,0E0,0E0,0E0],"parents":[2147483647,0,0,1,1,2,2,3,3,4,4,5,5,6,6,7,7,8,8,9,9,10,10,11,11,12,12,13,13,14,14],"right_children":[2,4,6,8,10,12,14,16,18,20,22,24,26,28,30,-1,-1,-1,-1,-1,-1,-1,-1,-1,-1,-1,-1,-1,-1,-1,-1],"split_conditions":[NaN,1.864E3,NaN,NaN,NaN,2E0,NaN,1.555E3,3.9E1,2E1,NaN,3E1,1.244E3,NaN,3E0,2.0092199E-2,-0E0,-4.066287E-2,-0E0,-0E0,-2.7591255E-2,4.073529E-2,-0E0,3.2713946E-3,-1.3583359E-2,-5.4135107E-2,-1.2309904E-3,3.8134173E-2,-0E0,-0E0,-1.3311828E-2],"split_indices":[6,4,9,8,9,17,3,4,12,1,0,1,4,5,7,0,0,0,0,0,0,0,0,0,0,0,0,0,0,0,0],"split_type":[1,0,1,1,1,0,1,0,0,0,1,0,0,1,0,0,0,0,0,0,0,0,0,0,0,0,0,0,0,0,0],"sum_hessian":[8E2,1.41E2,6.59E2,5.2E1,8.9E1,6.27E2,3.2E1,2E1,3.2E1,1E1,7.9E1,5.4E2,8.7E1,2.4E1,8E0,1.8E1,2E0,2.3E1,9E0,3E0,7E0,4.3E1,3.6E1,4.32E2,1.08E2,1.8E1,6.9E1,2.2E1,2E0,4E0,4E0],"tree_param":{"num_deleted":"0","num_feature":"20","num_nodes":"31","size_leaf_vector":"0"}},{"base_weights":[-0E0,6.407543E-2,-4.589914E-4,1.1110898E-1,-0E0,-4.0762305E-2,2.2770662E-3,4.2593744E-2,-0E0,3.9182782E-2,-8.813526E-2,7.281415E-2,-1.661825E-3,2.442668E-2,-0E0,-0E0,-4.309118E-2,6.343125E-2,-0E0,-2.8834324E-2,7.4905774E-4],"categories":[2,3,0,1,2,0,0,1,2],"categories_nodes":[1,3,9,10],"categories_segments":[0,2,5,6],"categories_sizes":[2,3,1,3],"default_left":[0,1,0,1,0,0,0,0,0,1,1,0,0,0,0,0,0,0,0,0,0],"id":15,"left_children":[1,3,5,7,-1,9,11,-1,-1,13,15,17,19,-1,-1,-1,-1,-1,-1,-1,-1],"loss_changes":[8.227797E-2,7.8374445E-2,1.2481092E-1,4.1093126E-2,0E0,3.28874E-1,2.6853827E-1,0E0,0E0,8.8626705E-2,3.0264583E-1,6.2371933E-1,3.531045E-1,0E0,0E0,0E0,0E0,0E0,0E0,0E0,0E0],"parents":[2147483647,0,0,1,1,2,2,3,3,5,5,6,6,9,9,10,10,11,11,12,12],"right_children":[2,4,6,8,-1,10,12,-1,-1,14,16,18,20,-1,-1,-1,-1,-1,-1,-1,-1],"split_conditions":[6.09E2,NaN,9.75E2,NaN,-0E0,4E0,1.207E3,4.2593744E-2,-0E0,NaN,NaN,2.8E1,1.287E3,2.442668E-2,-0E0,-0E0,-4.309118E-2,6.343125E-2,-0E0,-2.8834324E-2,7.4905774E-4],"split_indices":[4,0,4,3,0,7,4,0,0,11,0,12,4,0,0,0,0,0,0,0,0],"split_type":[0,1,0,1,0,0,0,0,0,1,1,0,0,0,0,0,0,0,0,0,0],"sum_hessian":[8E2,1.9E1,7.81E2,1.2E1,7E0,7.2E1,7.09E2,9E0,3E0,1.9E1,5.3E1,5E1,6.59E2,1.7E1,2E0,1.9E1,3.4E1,1.9E1,3.1E1,3.7E1,6.22E2],"tree_param":{"num_deleted":"0","num_feature":"20","num_nodes":"21","size_leaf_vector":"0"}},{"base_weights":[-0E0,1.289028E-2,-7.5761573E-3,2.625491E-2,-2.289444E-2,1.2118607E-2,-2.841834E-2,4.0291544E-2,-0E0,4.4501778E-2,-7.613466E-2,4.2524293E-2,-4.27589E-2,4.315992E-2,-5.4866206E-2,-3.784519E-3,1.54367825E-2,5.524153E-3,-4.4052728E-2,3.126624E-2,-0E0,-0E0,-4.0057145E-2,-2.876977E-3,2.3290507E-2,4.6209623E-3,-2.9220311E-2,4.728048E-2,-5.9331334E-5,-3.6713954E-2,-1.3757569E-3],"categories":[0,2,4,2,1,2,0,2,3,4,0,1,4,0,1,2,2,3,1,3],"categories_nodes":[0,1,3,4,5,6,10,13],"categories_segments":[0,3,4,6,10,13,16,18],"categories_sizes":[3,1,2,4,3,3,2,2],"default_left":[1,1,0,1,1,1,1,0,0,0,1,0,0,1,0,0,0,0,0,0,0,0,0,0,0,0,0,0,0,0,0],"id":16,"left_children":[1,3,5,7,9,11,13,15,17,19,21,23,25,27,29,-1,-1,-1,-1,-1,-1,-1,-1,-1,-1,-1,-1,-1,-1,-1,-1],"loss_changes":[8.355593E-2,1.6895764E-1,2.0423433E-1,1.2744614E-1,3.0054706E-1,3.5365582E-1,4.8166814E-1,1.5408006E-1,3.030327E-1,1.134194E-1,2.4503377E-1,3.3959526E-1,2.868966E-1,4.4026485E-1,5.2084345E-1,0E0,0E0,0E0,0E0,0E0,0E0,0E0,0E0,0E0,0E0,0E0,0E0,0E0,0E0,0E0,0E0],"parents":[2147483647,0,0,1,1,2,2,3,3,4,4,5,5,6,6,7,7,8,8,9,9,10,10,11,11,12,12,13,13,14,14],"right_children":[2,4,6,8,10,12,14,16,18,20,22,24,26,28,30,-1,-1,-1,-1,-1,-1,-1,-1,-1,-1,-1,-1,-1,-1,-1,-1],"split_conditions":[NaN,NaN,1.8E1,NaN,NaN,NaN,NaN,9.09E2,4.795E3,4E0,NaN,1E1,1E1,NaN,2.613E3,-3.784519E-3,1.54367825E-2,5.524153E-3,-4.4052728E-2,3.126624E-2,-0E0,-0E0,-4.0057145E-2,-2.876977E-3,2.3290507E-2,4.6209623E-3,-2.9220311E-2,4.728048E-2,-5.9331334E-5,-3.6713954E-2,-1.3757569E-3],"split_indices":[6,11,1,0,2,5,5,4,4,7,5,1,1,0,4,0,0,0,0,0,0,0,0,0,0,0,0,0,0,0,0],"split_type":[1,1,0,1,1,1,1,0,0,0,1,0,0,1,0,0,0,0,0,0,0,0,0,0,0,0,0,0,0,0,0],"sum_hessian":[8E2,3.44E2,4.56E2,2.71E2,7.3E1,2.1E2,2.46E2,1.93E2,7.8E1,2.4E1,4.9E1,1.47E2,6.3E1,5.6E1,1.9E2,1.8E1,1.75E2,6.6E1,1.2E1,1.4E1,1E1,2E1,2.9E1,4.8E1,9.9E1,2.2E1,4.1E1,2.1E1,3.5E1,7.2E1,1.18E2],"tree_param":{"num_deleted":"0","num_feature":"20","num_nodes":"31","size_leaf_vector":"0"}},{"base_weights":[-0E0,2.1027477E-2,-3.6883415E-3,3.9518263E-2,-8.4473915E-2,2.8420955E-2,-1.0825319E-2,7.783442E-2,-0E0,-0E0,-1.2092388E-1,-0E0,1.6502573E-1,-0E0,-5.129135E-2,4.2144604E-2,-0E0,2.8671082E-3,-2.602011E-3,-3.949443E-2,-0E0,-8.549791E-3,4.6666548E-2,-0E0,6.370899E-2,-6.576816E-3,3.7680187E-3,-3.6401488E-2,-0E0],"categories":[0,1,2,3,4,6,2,3,0,2,1,2,0,2],"categories_nodes":[0,3,4,7,11,12],"categories_segments":[0,6,8,10,12,13],"categories_sizes":[6,2,2,2,1,1],"default_left":[1,0,0,1,1,0,0,1,0,0,0,1,1,0,0,0,0,0,0,0,0,0,0,0,0,0,0,0,0],"id":17,"left_children":[1,3,5,7,9,11,13,15,17,-1,19,21,23,25,27,-1,-1,-1,-1,-1,-1,-1,-1,-1,-1,-1,-1,-1,-1],"loss_changes":[6.1907865E-2,1.9052826E-1,1.3923058E-1,1.6747274E-1,6.024483E-2,4.1023546E-1,2.6029563E-1,1.9359133E-1,4.631576E-3,0E0,7.046506E-3,3.480358E-1,2.3136789E-1,1.2647606E-1,3.778528E-1,0E0,0E0,0E0,0E0,0E0,0E0,0E0,0E0,0E0,0E0,0E0,0E0,0E0,0E0],"parents":[2147483647,0,0,1,1,2,2,3,3,4,4,5,5,6,6,7,7,8,8,10,10,11,11,12,12,13,13,14,14],"right_children":[2,4,6,8,10,12,14,16,18,-1,20,22,24,26,28,-1,-1,-1,-1,-1,-1,-1,-1,-1,-1,-1,-1,-1,-1],"split_conditions":[NaN,1.1054E4,2E0,NaN,NaN,2.6E1,2.6E1,NaN,3.4E1,-0E0,5.4E1,NaN,NaN,3E0,2.9E1,4.2144604E-2,-0E0,2.8671082E-3,-2.602011E-3,-3.949443E-2,-0E0,-8.549791E-3,4.6666548E-2,-0E0,6.370899E-2,-6.576816E-3,3.7680187E-3,-3.6401488E-2,-0E0],"split_indices":[3,4,10,0,5,1,1,11,12,0,1,13,9,10,12,0,0,0,0,0,0,0,0,0,0,0,0,0,0],"split_type":[1,0,0,1,1,0,0,1,0,0,0,1,1,0,0,0,0,0,0,0,0,0,0,0,0,0,0,0,0],"sum_hessian":[8E2,1.18E2,6.82E2,1.09E2,9E0,9.8E1,5.84E2,5.5E1,5.4E1,1E0,8E0,8.1E1,1.7E1,4.6E2,1.24E2,2.6E1,2.9E1,2.5E1,2.9E1,7E0,1E0,7E1,1.1E1,2E0,1.5E1,1.65E2,2.95E2,4.7E1,7.7E1],"tree_param":{"num_deleted":"0","num_feature":"20","num_nodes":"29","size_leaf_vector":"0"}},{"base_weights":[-0E0,2.53538E-3,-2.6362661E-2,1.2957087E-2,-9.7525865E-3,4.5402054E-2,-7.046015E-2,2.5620654E-2,-5.5038832E-2,4.975108E-3,-4.9720377E-2,1.018719E-1,-0E0,-0E0,-1.19622014E-1,2.2415297E-2,4.0202513E-3,-0E0,-3.3603277E-2,1.2485329E-2,-1.6238878E-2,-2.7538924E-2,1.0539133E-2,-0E0,5.392401E-2,1.5469656E-2,-8.994763E-3,-0E0,-3.9682373E-2],"categories":[0,4,0,4,0,2,1,2,0,1,2,0,1,2,3,4,6,0,3],"categories_nodes":[0,1,2,3,4,5,8,11,13,14],"categories_segments":[0,2,4,6,8,9,10,11,16,17],"categories_sizes":[2,2,2,2,1,1,1,5,1,2],"default_left":[1,1,1,1,1,1,0,0,1,0,0,1,0,1,1,0,0,0,0,0,0,0,0,0,0,0,0,0,0],"id":18,"left_children":[1,3,5,7,9,11,13,15,17,19,21,23,-1,25,27,-1,-1,-1,-1,-1,-1,-1,-1,-1,-1,-1,-1,-1,-1],"loss_changes":[5.4043263E-2,9.6943885E-2,2.5294685E-1,3.5086316E-1,2.1687359E-1,1.061248E-1,2.520138E-1,1.4126351E-1,2.1627124E-1,4.142285E-1,4.0619877E-1,1.4548947E-1,0E0,4.1720804E-2,7.974368E-2,0E0,0E0,0E0,0E0,0E0,0E0,0E0,0E0,0E0,0E0,0E0,0E0,0E0,0E0],"parents":[2147483647,0,0,1,1,2,2,3,3,4,4,5,5,6,6,7,7,8,8,9,9,10,10,11,11,13,13,14,14],"right_children":[2,4,6,8,10,12,14,16,18,20,22,24,-1,26,28,-1,-1,-1,-1,-1,-1,-1,-1,-1,-1,-1,-1,-1,-1],"split_conditions":[NaN,NaN,NaN,NaN,NaN,NaN,3E0,2E0,NaN,3.7E1,3.6E1,NaN,-0E0,NaN,NaN,2.2415297E-2,4.0202513E-3,-0E0,-3.3603277E-2,1.2485329E-2,-1.6238878E-2,-2.7538924E-2,1.0539133E-2,-0E0,5.392401E-2,1.5469656E-2,-8.994763E-3,-0E0,-3.9682373E-2],"split_indices":[2,6,5,8,8,11,10,10,5,12,12,3,0,3,8,0,0,0,0,0,0,0,0,0,0,0,0,0,0],"split_type":[1,1,1,1,1,1,0,0,1,0,0,1,0,1,1,0,0,0,0,0,0,0,0,0,0,0,0,0,0],"sum_hessian":[8E2,7.3E2,7E1,4.39E2,2.91E2,1.8E1,5.2E1,3.83E2,5.6E1,1.95E2,9.6E1,1.3E1,5E0,1.7E1,3.5E1,5.9E1,3.24E2,2.6E1,3E1,1.31E2,6.4E1,7.2E1,2.4E1,5E0,8E0,1.3E1,4E0,2E0,3.3E1],"tree_param":{"num_deleted":"0","num_feature":"20","num_nodes":"29","size_leaf_vector":"0"}},{"base_weights":[-0E0,-1.3729156E-3,4.0959198E-2,4.639747E-3,-1.9361967E-2,1.09316625E-1,-0E0,4.0523335E-2,-3.491112E-3,-0E0,-9.440161E-2,1.3177803E-1,-0E0,-1.5243143E-2,-0E0,1.8530829E-2,-1.9633617E-2,5.5647665E-3,-4.1994457E-3,-1.54220965E-2,1.6349511E-2,-0E0,-5.296781E-2,4.564458E-2,-0E0,-2.0409267E-2,-0E0],"categories":[2,4,7,0,1,2,3,5,6,0,2,3,1,0,0,0,1,2,4,0],"categories_nodes":[1,2,3,4,5,6,8,11],"categories_segments":[0,3,9,12,13,14,15,19],"categories_sizes":[3,6,3,1,1,1,4,1],"default_left":[0,1,1,1,1,1,1,0,1,0,0,1,0,0,0,0,0,0,0,0,0,0,0,0,0,0,0],"id":19,"left_children":[1,3,5,7,9,11,13,15,17,19,21,23,-1,25,-1,-1,-1,-1,-1,-1,-1,-1,-1,-1,-1,-1,-1],"loss_changes":[5.3460587E-2,9.820503E-2,1.6309491E-1,1.9385117E-1,3.9313173E-1,8.0110416E-2,3.0205944E-3,2.7503994E-1,9.204531E-2,5.143851E-1,5.4748595E-1,2.8876096E-2,0E0,3.8633216E-2,0E0,0E0,0E0,0E0,0E0,0E0,0E0,0E0,0E0,0E0,0E0,0E0,0E0],"parents":[2147483647,0,0,1,1,2,2,3,3,4,4,5,5,6,6,7,7,8,8,9,9,10,10,11,11,13,13],"right_children":[2,4,6,8,10,12,14,16,18,20,22,24,-1,26,-1,-1,-1,-1,-1,-1,-1,-1,-1,-1,-1,-1,-1],"split_conditions":[6.2E1,NaN,NaN,NaN,NaN,NaN,NaN,5E1,NaN,1.881E3,1.289E3,NaN,-0E0,6.7E1,-0E0,1.8530829E-2,-1.9633617E-2,5.5647665E-3,-4.1994457E-3,-1.54220965E-2,1.6349511E-2,-0E0,-5.296781E-2,4.564458E-2,-0E0,-2.0409267E-2,-0E0],"split_indices":[12,3,3,11,11,2,13,12,6,4,4,6,0,12,0,0,0,0,0,0,0,0,0,0,0,0,0],"split_type":[0,1,1,1,1,1,1,0,1,0,0,1,0,0,0,0,0,0,0,0,0,0,0,0,0,0,0],"sum_hessian":[8E2,7.7E2,3E1,5.36E2,2.34E2,1.7E1,1.3E1,1.21E2,4.15E2,1.81E2,5.3E1,1.6E1,1E0,1.2E1,1E0,1.09E2,1.2E1,1.03E2,3.12E2,8.8E1,9.3E1,2.1E1,3.2E1,1.3E1,3E0,8E0,4E0],"tree_param":{"num_deleted":"0","num_feature":"20","num_nodes":"27","size_leaf_vector":"0"}},{"base_weights":[-0E0,-1.2291169E-3,4.3459203E-2,9.0775685E-4,-2.3009794E-2,6.363385E-2,-0E0,8.464784E-3,-1.9889658E-2,-6.1699465E-2,5.40334E-2,9.100865E-2,-0E0,3.7714802E-3,-3.974489E-2,4.558903E-3,-1.8807625E-2,-0E0,-3.145721E-2,3.0499138E-2,-0E0,2.9850753E-2,-0E0],"categories":[0,0,0,0,1,2,4,0],"categories_nodes":[0,2,9,10,11],"categories_segments":[0,1,2,3,7],"categories_sizes":[1,1,1,4,1],"default_left":[1,0,1,0,0,0,0,0,0,1,1,1,0,0,0,0,0,0,0,0,0,0,0],"id":20,"left_children":[1,3,5,7,9,11,-1,13,15,17,19,21,-1,-1,-1,-1,-1,-1,-1,-1,-1,-1,-1],"loss_changes":[5.4052968E-2,5.814686E-2,4.8348017E-2,9.310213E-2,3.4186602E-1,5.613722E-2,0E0,1.8449089E-1,2.6169917E-1,2.8876236E-1,8.069979E-2,2.0844579E-2,0E0,0E0,0E0,0E0,0E0,0E0,0E0,0E0,0E0,0E0,0E0],"parents":[2147483647,0,0,1,1,2,2,3,3,4,4,5,5,7,7,8,8,9,9,10,10,11,11],"right_children":[2,4,6,8,10,12,-1,14,16,18,20,22,-1,-1,-1,-1,-1,-1,-1,-1,-1,-1,-1],"split_conditions":[NaN,2E0,NaN,2.8E1,2.6E1,4.1E1,-0E0,8.648E3,4E0,NaN,NaN,NaN,-0E0,3.7714802E-3,-3.974489E-2,4.558903E-3,-1.8807625E-2,-0E0,-3.145721E-2,3.0499138E-2,-0E0,2.9850753E-2,-0E0],"split_indices":[19,17,0,1,1,12,0,4,7,18,2,3,0,0,0,0,0,0,0,0,0,0,0],"split_type":[1,0,1,0,0,0,0,0,0,1,1,1,0,0,0,0,0,0,0,0,0,0,0],"sum_hessian":[8E2,7.73E2,2.7E1,6.63E2,1.1E2,2.4E1,3E0,5.22E2,1.41E2,8.2E1,2.8E1,1.8E1,6E0,5.15E2,7E0,6.5E1,7.6E1,2.8E1,5.4E1,1.5E1,1.3E1,1.7E1,1E0],"tree_param":{"num_deleted":"0","num_feature":"20","num_nodes":"23","size_leaf_vector":"0"}},{"base_weights":[-0E0,1.6722154E-3,-2.6485948E-2,9.760695E-3,-4.4176253E-3,-0E0,-1.00947395E-1,2.2312652E-2,-2.190691E-2,1.3914074E-2,-4.3838836E-2,-0E0,8.67831E-2,-0E0,-1.4530987E-1,-4.9334196E-3,1.1680977E-2,-0E0,-3.438618E-2,2.5354644E-2,-0E0,-0E0,-2.9241474E-2,-9.585186E-3,-0E0,3.22751E-2,-0E0,-4.9200084E-2,-0E0],"categories":[0,3,1,0,2,3,2,4,0,1,3,4,0,1,2,3,0],"categories_nodes":[0,2,3,4,8,10,11,12],"categories_segments":[0,1,2,3,6,8,12,16],"categories_sizes":[1,1,1,3,2,4,4,1],"default_left":[1,0,1,1,1,0,0,0,1,0,1,1,1,0,0,0,0,0,0,0,0,0,0,0,0,0,0,0,0],"id":21,"left_children":[1,3,5,7,9,11,13,15,17,19,21,23,25,-1,27,-1,-1,-1,-1,-1,-1,-1,-1,-1,-1,-1,-1,-1,-1],"loss_changes":[2.3902621E-2,4.336376E-2,1.5148972E-1,1.606857E-1,2.9791808E-1,6.0250454E-2,8.014311E-2,2.2350952E-1,2.4488142E-1,1.7573889E-1,3.6759797E-1,6.125052E-3,2.076926E-2,0E0,4.247746E-2,0E0,0E0,0E0,0E0,0E0,0E0,0E0,0E0,0E0,0E0,0E0,0E0,0E0,0E0],"parents":[2147483647,0,0,1,1,2,2,3,3,4,4,5,5,6,6,7,7,8,8,9,9,10,10,11,11,12,12,14,14],"right_children":[2,4,6,8,10,12,14,16,18,20,22,24,26,-1,28,-1,-1,-1,-1,-1,-1,-1,-1,-1,-1,-1,-1,-1,-1],"split_conditions":[NaN,4E0,NaN,NaN,NaN,4E0,1.3E1,1.552E3,NaN,2E0,NaN,NaN,NaN,-0E0,5.1E1,-4.9334196E-3,1.1680977E-2,-0E0,-3.438618E-2,2.5354644E-2,-0E0,-0E0,-2.9241474E-2,-9.585186E-3,-0E0,3.22751E-2,-0E0,-4.9200084E-2,-0E0],"split_indices":[9,7,2,11,16,7,1,4,3,10,3,3,8,0,12,0,0,0,0,0,0,0,0,0,0,0,0,0,0],"split_type":[1,0,1,1,1,0,0,0,1,0,1,1,1,0,0,0,0,0,0,0,0,0,0,0,0,0,0,0,0],"sum_hessian":[8E2,7.7E2,3E1,4.01E2,3.69E2,1.4E1,1.6E1,3.1E2,9.1E1,2.35E2,1.34E2,7E0,7E0,5E0,1.1E1,7.5E1,2.35E2,7E1,2.1E1,3E1,2.05E2,6.9E1,6.5E1,5E0,2E0,6E0,1E0,1E1,1E0],"tree_param":{"num_deleted":"0","num_feature":"20","num_nodes":"29","size_leaf_vector":"0"}},{"base_weights":[-0E0,5.5508264E-3,-8.661932E-3,3.7367586E-2,-0E0,2.9585827E-2,-2.2100324E-2,5.5544388E-2,-0E0,-1.0885314E-2,2.2117872E-2,4.7732178E-2,-0E0,-1.0948815E-1,-0E0,1.854186E-2,-0E0,1.9946978E-3,-1.5047173E-2,-2.4162918E-2,1.1433644E-2,1.1555514E-2,-5.2452455E-3,-0E0,-5.6898233E-2,2.7209284E-2,-3.4689032E-3],"categories":[1,0,0,2,1,2,3,0,2],"categories_nodes":[2,7,9,12,13],"categories_segments":[0,1,2,4,7],"categories_sizes":[1,1,2,3,2],"default_left":[0,0,1,0,0,0,0,1,0,1,0,0,1,1,0,0,0,0,0,0,0,0,0,0,0,0,0],"id":22,"left_children":[1,3,5,7,9,11,13,15,-1,17,19,-1,21,23,25,-1,-1,-1,-1,-1,-1,-1,-1,-1,-1,-1,-1],"loss_changes":[3.7622444E-2,7.08589E-2,1.4325294E-1,6.7686096E-2,1.14117004E-1,2.0325787E-1,4.2417637E-1,1.7641306E-2,0E0,2.4078304E-1,2.2992459E-1,0E0,3.500457E-2,4.3177813E-1,1.7955942E-1,0E0,0E0,0E0,0E0,0E0,0E0,0E0,0E0,0E0,0E0,0E0,0E0],"parents":[2147483647,0,0,1,1,2,2,3,3,4,4,5,5,6,6,7,7,9,9,10,10,12,12,13,13,14,14],"right_children":[2,4,6,8,10,12,14,16,-1,18,20,-1,22,24,26,-1,-1,-1,-1,-1,-1,-1,-1,-1,-1,-1,-1],"split_conditions":[3.029E3,7E0,NaN,4.6E1,1.95E3,3.518E3,3.518E3,NaN,-0E0,NaN,2.3E1,4.7732178E-2,NaN,NaN,3.757E3,1.854186E-2,-0E0,1.9946978E-3,-1.5047173E-2,-2.4162918E-2,1.1433644E-2,1.1555514E-2,-5.2452455E-3,-0E0,-5.6898233E-2,2.7209284E-2,-3.4689032E-3],"split_indices":[4,1,13,12,4,4,4,2,0,11,12,0,11,5,4,0,0,0,0,0,0,0,0,0,0,0,0],"split_type":[0,0,1,0,0,0,0,1,0,1,0,0,1,1,0,0,0,0,0,0,0,0,0,0,0,0,0],"sum_hessian":[8E2,5.09E2,2.91E2,6.1E1,4.48E2,5.6E1,2.35E2,4.9E1,1.2E1,2.85E2,1.63E2,9E0,4.7E1,4.4E1,1.91E2,4.4E1,5E0,1.8E2,1.05E2,1.3E1,1.5E2,1.6E1,3.1E1,1.8E1,2.6E1,1.8E1,1.73E2],"tree_param":{"num_deleted":"0","num_feature":"20","num_nodes":"27","size_leaf_vector":"0"}},{"base_weights":[-0E0,1.3671925E-2,-2.2693947E-3,5.9213936E-2,-8.532326E-4,-6.0954254E-2,-0E0,-8.50631E-3,1.3093865E-1,-1.0028291E-1,2.4683956E-2,2.7442714E-2,-1.719449E-1,9.404565E-3,-1.3446056E-2,-0E0,-1.5815107E-2,4.4336833E-2,-0E0,-0E0,-3.95595E-2,1.5560362E-2,-1.3597598E-3,8.784199E-3,-0E0,-6.98768E-2,-0E0,6.9211596E-3,-5.547983E-3,3.3007625E-3,-1.0250243E-2],"categories":[0,1,2,0,0,2,3,0,1,2,4,6],"categories_nodes":[5,8,10,13,14],"categories_segments":[0,3,4,5,7],"categories_sizes":[3,1,1,2,5],"default_left":[0,0,0,0,0,1,0,0,1,0,1,0,0,1,1,0,0,0,0,0,0,0,0,0,0,0,0,0,0,0,0],"id":23,"left_children":[1,3,5,7,9,11,13,15,17,19,21,23,25,27,29,-1,-1,-1,-1,-1,-1,-1,-1,-1,-1,-1,-1,-1,-1,-1,-1],"loss_changes":[2.9941957E-2,1.5234493E-1,1.377869E-1,3.7126416E-1,3.1167656E-1,5.220478E-1,7.5599685E-2,4.5797285E-2,8.477205E-2,1.284028E-1,9.998885E-2,9.149723E-4,4.346282E-1,1.5864804E-1,1.3550161E-1,0E0,0E0,0E0,0E0,0E0,0E0,0E0,0E0,0E0,0E0,0E0,0E0,0E0,0E0,0E0,0E0],"parents":[2147483647,0,0,1,1,2,2,3,3,4,4,5,5,6,6,7,7,8,8,9,9,10,10,11,11,12,12,13,13,14,14],"right_children":[2,4,6,8,10,12,14,16,18,20,22,24,26,28,30,-1,-1,-1,-1,-1,-1,-1,-1,-1,-1,-1,-1,-1,-1,-1,-1],"split_conditions":[1.207E3,2.8E1,1.287E3,7.76E2,3.4E1,NaN,2E0,4.26E2,NaN,7E0,NaN,2.4E1,4.9E1,NaN,NaN,-0E0,-1.5815107E-2,4.4336833E-2,-0E0,-0E0,-3.95595E-2,1.5560362E-2,-1.3597598E-3,8.784199E-3,-0E0,-6.98768E-2,-0E0,6.9211596E-3,-5.547983E-3,3.3007625E-3,-1.0250243E-2],"split_indices":[4,12,4,4,12,0,15,4,5,1,11,1,12,3,3,0,0,0,0,0,0,0,0,0,0,0,0,0,0,0,0],"split_type":[0,0,0,0,0,1,0,0,1,0,1,0,0,1,1,0,0,0,0,0,0,0,0,0,0,0,0,0,0,0,0],"sum_hessian":[8E2,1.41E2,6.59E2,5E1,9.1E1,3.7E1,6.22E2,1.9E1,3.1E1,2.6E1,6.5E1,1.6E1,2.1E1,4.02E2,2.2E2,3E0,1.6E1,2.8E1,3E0,4E0,2.2E1,5.1E1,1.4E1,1.5E1,1E0,1.9E1,2E0,2.94E2,1.08E2,7.9E1,1.41E2],"tree_param":{"num_deleted":"0","num_feature":"20","num_nodes":"31","size_leaf_vector":"0"}},{"base_weights":[-0E0,-9.637715E-3,3.1343596E-3,1.0107514E-1,-2.8950779E-2,7.28132E-3,-3.8067974E-2,1.5591945E-1,-0E0,1.6308328E-2,-6.251652E-2,1.9250799E-2,-1.5991816E-3,-0E0,-1.0129784E-1,-0E0,6.2072817E-2,9.054026E-3,-0E0,-3.141638E-2,-0E0,9.042826E-3,-3.2363387E-3,3.7395915E-3,-6.710621E-3,9.199998E-3,-0E0,-0E0,-5.4695707E-2],"categories":[1,3,4,5,6,7,8,9,1,0,1,2,3,2,0,0,1,3,4,0,0,1,2],"categories_nodes":[1,2,4,5,6,9,12,13,14],"categories_segments":[0,8,9,11,13,14,15,19,20],"categories_sizes":[8,1,2,2,1,1,4,1,3],"default_left":[0,1,1,0,1,1,1,0,0,1,0,0,1,1,1,0,0,0,0,0,0,0,0,0,0,0,0,0,0],"id":24,"left_children":[1,3,5,7,9,11,13,15,-1,17,19,21,23,25,27,-1,-1,-1,-1,-1,-1,-1,-1,-1,-1,-1,-1,-1,-1],"loss_changes":[2.1002708E-2,2.6863813E-1,7.9527244E-2,1.5258239E-1,2.6446694E-1,8.230975E-2,1.7212826E-1,1.5488505E-1,0E0,2.7955573E-2,1.8800375E-1,1.2012404E-1,9.840043E-2,1.1285327E-2,1.0665466E-1,0E0,0E0,0E0,0E0,0E0,0E0,0E0,0E0,0E0,0E0,0E0,0E0,0E0,0E0],"parents":[2147483647,0,0,1,1,2,2,3,3,4,4,5,5,6,6,7,7,9,9,10,10,11,11,12,12,13,13,14,14],"right_children":[2,4,6,8,10,12,14,16,-1,18,20,22,24,26,28,-1,-1,-1,-1,-1,-1,-1,-1,-1,-1,-1,-1,-1,-1],"split_conditions":[2.6E1,NaN,NaN,3.3E1,NaN,NaN,NaN,7E0,-0E0,NaN,4E0,6.224E3,NaN,NaN,NaN,-0E0,6.2072817E-2,9.054026E-3,-0E0,-3.141638E-2,-0E0,9.042826E-3,-3.2363387E-3,3.7395915E-3,-6.710621E-3,9.199998E-3,-0E0,-0E0,-5.4695707E-2],"split_indices":[12,3,8,1,0,0,5,1,0,9,7,4,5,13,2,0,0,0,0,0,0,0,0,0,0,0,0,0,0],"split_type":[0,1,1,0,1,1,1,0,0,1,0,0,1,1,1,0,0,0,0,0,0,0,0,0,0,0,0,0,0],"sum_hessian":[8E2,1.57E2,6.43E2,1.5E1,1.42E2,6.07E2,3.6E1,1.2E1,3E0,4.8E1,9.4E1,3.06E2,3.01E2,1.5E1,2.1E1,2E0,1E1,4.4E1,4E0,5E1,4.4E1,2.49E2,5.7E1,1.51E2,1.5E2,1.1E1,4E0,1.2E1,9E0],"tree_param":{"num_deleted":"0","num_feature":"20","num_nodes":"29","size_leaf_vector":"0"}},{"base_weights":[-0E0,-4.5083277E-3,6.0099303E-3,5.3188517E-3,-2.8711425E-2,2.6752707E-2,-4.203966E-3,-1.4652802E-2,3.0383857E-2,-0E0,-1.12647295E-1,4.084017E-2,-6.046834E-2,-0E0,-5.0310947E-2,1.9022011E-3,-1.9699635E-2,1.5631778E-2,-4.323247E-3,9.430052E-3,-2.3188887E-2,-0E0,-4.0726345E-2,-0E0,1.6671954E-2,-0E0,-2.2478376E-2,7.7972836E-3,-1.1081989E-3,-0E0,-3.555951E-2],"categories":[1,2,0,3,4,0,1,2,4,1,2,3,4,7,0,1,2,0,1,0,1,2],"categories_nodes":[1,2,5,6,7,8,9,10,12,14],"categories_segments":[0,2,4,5,6,9,12,14,17,19],"categories_sizes":[2,2,1,1,3,3,2,3,2,3],"default_left":[0,1,1,0,0,1,1,1,1,1,1,0,1,0,1,0,0,0,0,0,0,0,0,0,0,0,0,0,0,0,0],"id":25,"left_children":[1,3,5,7,9,11,13,15,17,19,21,23,25,27,29,-1,-1,-1,-1,-1,-1,-1,-1,-1,-1,-1,-1,-1,-1,-1,-1],"loss_changes":[2.1449588E-2,1.3676101E-1,9.172905E-2,1.7135903E-1,4.460473E-1,1.5486264E-1,8.528678E-2,2.2145194E-1,1.9413128E-1,2.8110483E-1,1.9031662E-1,1.15047395E-1,1.3963539E-2,3.6519367E-2,1.0810496E-1,0E0,0E0,0E0,0E0,0E0,0E0,0E0,0E0,0E0,0E0,0E0,0E0,0E0,0E0,0E0,0E0],"parents":[2147483647,0,0,1,1,2,2,3,3,4,4,5,5,6,6,7,7,8,8,9,9,10,10,11,11,12,12,13,13,14,14],"right_children":[2,4,6,8,10,12,14,16,18,20,22,24,26,28,30,-1,-1,-1,-1,-1,-1,-1,-1,-1,-1,-1,-1,-1,-1,-1,-1],"split_conditions":[2.2E1,NaN,NaN,3E0,2.76E3,NaN,NaN,NaN,NaN,NaN,NaN,2.241E3,NaN,3E0,NaN,1.9022011E-3,-1.9699635E-2,1.5631778E-2,-4.323247E-3,9.430052E-3,-2.3188887E-2,-0E0,-4.0726345E-2,-0E0,1.6671954E-2,-0E0,-2.2478376E-2,7.7972836E-3,-1.1081989E-3,-0E0,-3.555951E-2],"split_indices":[1,11,11,10,4,2,16,6,3,3,16,4,0,7,8,0,0,0,0,0,0,0,0,0,0,0,0,0,0,0,0],"split_type":[0,1,1,0,0,1,1,1,1,1,1,0,1,0,1,0,0,0,0,0,0,0,0,0,0,0,0,0,0,0,0],"sum_hessian":[8E2,4.75E2,3.25E2,3.09E2,1.66E2,1.39E2,1.86E2,1.5E2,1.59E2,1.21E2,4.5E1,1.3E2,9E0,1.52E2,3.4E1,9.3E1,5.7E1,1.22E2,3.7E1,9E1,3.1E1,4E0,4.1E1,2.3E1,1.07E2,1E0,8E0,5.1E1,1.01E2,2.1E1,1.3E1],"tree_param":{"num_deleted":"0","num_feature":"20","num_nodes":"31","size_leaf_vector":"0"}},{"base_weights":[-0E0,8.670619E-3,-3.1919735E-3,-1.4500458E-2,3.2804966E-2,3.755779E-3,-1.6277457E-2,-5.1067814E-2,-0E0,6.300135E-2,-0E0,2.0640407E-2,-2.1119654E-2,6.3280365E-3,-4.5173798E-2,4.1047907E-3,-6.6453856E-3,2.2252632E-2,-0E0,1.23584485E-2,-3.4898412E-3,1.826226E-2,-0E0,-1.8325621E-2,3.8981643E-3,7.9558175E-3,-4.130359E-3,-0E0,-2.3353765E-2],"categories":[0,2,3,4,0,2,6,1,2,3,0,1,2,3,0,2,4],"categories_nodes":[0,2,4,5,8,13,14],"categories_segments":[0,4,7,10,11,13,14],"categories_sizes":[4,3,3,1,2,1,3],"default_left":[1,0,1,0,1,1,0,0,1,0,0,0,0,1,1,0,0,0,0,0,0,0,0,0,0,0,0,0,0],"id":26,"left_children":[1,3,5,7,9,11,13,-1,15,17,19,21,23,25,27,-1,-1,-1,-1,-1,-1,-1,-1,-1,-1,-1,-1,-1,-1],"loss_changes":[1.7400047E-2,9.8189265E-2,7.2586514E-2,1.3395083E-1,8.465072E-2,1.6040142E-1,2.213789E-1,0E0,1.4028949E-2,3.7498027E-2,2.5100438E-2,1.7797777E-1,2.2748713E-1,6.9111995E-2,1.465432E-1,0E0,0E0,0E0,0E0,0E0,0E0,0E0,0E0,0E0,0E0,0E0,0E0,0E0,0E0],"parents":[2147483647,0,0,1,1,2,2,3,3,4,4,5,5,6,6,8,8,9,9,10,10,11,11,12,12,13,13,14,14],"right_children":[2,4,6,8,10,12,14,-1,16,18,20,22,24,26,28,-1,-1,-1,-1,-1,-1,-1,-1,-1,-1,-1,-1,-1,-1],"split_conditions":[NaN,1.851E3,NaN,2.3E1,NaN,NaN,3.3E1,-5.1067814E-2,NaN,7.119E3,2E0,3.1E1,3E1,NaN,NaN,4.1047907E-3,-6.6453856E-3,2.2252632E-2,-0E0,1.23584485E-2,-3.4898412E-3,1.826226E-2,-0E0,-1.8325621E-2,3.8981643E-3,7.9558175E-3,-4.130359E-3,-0E0,-2.3353765E-2],"split_indices":[6,4,3,12,11,8,12,0,0,4,10,12,12,11,6,0,0,0,0,0,0,0,0,0,0,0,0,0,0],"split_type":[1,0,1,0,1,1,0,0,1,0,0,0,0,1,1,0,0,0,0,0,0,0,0,0,0,0,0,0,0],"sum_hessian":[8E2,1.41E2,6.59E2,5.1E1,9E1,3.81E2,2.78E2,4E0,4.7E1,4.5E1,4.5E1,2.51E2,1.3E2,1.37E2,1.41E2,3.2E1,1.5E1,3.9E1,6E0,1.1E1,3.4E1,7.6E1,1.75E2,7.3E1,5.7E1,9.3E1,4.4E1,7E1,7.1E1],"tree_param":{"num_deleted":"0","num_feature":"20","num_nodes":"29","size_leaf_vector":"0"}},{"base_weights":[-0E0,-1.808167E-3,2.2825466E-2,-0E0,-1.52952755E-2,3.7356112E-2,-0E0,4.7148447E-3,-1.9955741E-2,-4.2122018E-2,3.556608E-2,5.5176347E-2,-0E0,-2.1146107E-3,5.02902E-3,-2.4683915E-2,6.5204466E-4,1.2321575E-3,-2.1065542E-2,-0E0,2.4125826E-2,1.9219017E-2,-0E0],"categories":[0,0,0],"categories_nodes":[0,2,11],"categories_segments":[0,1,2],"categories_sizes":[1,1,1],"default_left":[1,0,1,0,0,0,0,0,0,0,0,1,0,0,0,0,0,0,0,0,0,0,0],"id":27,"left_children":[1,3,5,7,9,11,-1,13,15,17,19,21,-1,-1,-1,-1,-1,-1,-1,-1,-1,-1,-1],"loss_changes":[1.711862E-2,2.3437379E-2,2.0298922E-2,5.802301E-2,1.595074E-1,2.295718E-2,0E0,8.778639E-2,2.3889089E-1,1.781031E-1,5.7653356E-2,1.6029954E-2,0E0,0E0,0E0,0E0,0E0,0E0,0E0,0E0,0E0,0E0,0E0],"parents":[2147483647,0,0,1,1,2,2,3,3,4,4,5,5,7,7,8,8,9,9,10,10,11,11],"right_children":[2,4,6,8,10,12,-1,14,16,18,20,22,-1,-1,-1,-1,-1,-1,-1,-1,-1,-1,-1],"split_conditions":[NaN,2E0,NaN,3.3E1,2.8E1,4.1E1,-0E0,1.3E1,2.9E1,9E0,4.623E3,NaN,-0E0,-2.1146107E-3,5.02902E-3,-2.4683915E-2,6.5204466E-4,1.2321575E-3,-2.1065542E-2,-0E0,2.4125826E-2,1.9219017E-2,-0E0],"split_indices":[19,17,0,1,1,12,0,1,12,1,4,3,0,0,0,0,0,0,0,0,0,0,0],"split_type":[1,0,1,0,0,0,0,0,0,0,0,1,0,0,0,0,0,0,0,0,0,0,0],"sum_hessian":[8E2,7.73E2,2.7E1,6.63E2,1.1E2,2.4E1,3E0,5.49E2,1.14E2,8.5E1,2.5E1,1.8E1,6E0,2.36E2,3.13E2,4.1E1,7.3E1,1.9E1,6.6E1,1.2E1,1.3E1,1.7E1,1E0],"tree_param":{"num_deleted":"0","num_feature":"20","num_nodes":"23","size_leaf_vector":"0"}}]},"name":"gbtree"},"learner_model_param":{"base_score":"5E-1","boost_from_average":"1","num_class":"0","num_feature":"20","num_target":"1"},"objective":{"name":"reg:squarederror","reg_loss_param":{"scale_pos_weight":"1"}}},"version":[1,7,6]}