{"learner":{"attributes":{"best_iteration":"2","best_ntree_limit":"3","best_score":"0.45206545205826765","scikit_learn":"{\"use_label_encoder\": null, \"n_estimators\": 500, \"objective\": \"binary:logistic\", \"max_depth\": 4, \"max_leaves\": null, \"max_bin\": null, \"grow_policy\": null, \"learning_rate\": null, \"verbosity\": null, \"booster\": null, \"tree_method\": \"hist\", \"gamma\": null, \"min_child_weight\": null, \"max_delta_step\": null, \"subsample\": null, \"sampling_method\": null, \"colsample_bytree\": null, \"colsample_bylevel\": null, \"colsample_bynode\": null, \"reg_alpha\": null, \"reg_lambda\": null, \"scale_pos_weight\": null, \"base_score\": null, \"missing\": NaN, \"num_parallel_tree\": null, \"random_state\": null, \"n_jobs\": null, \"monotone_constraints\": null, \"interaction_constraints\": null, \"importance_type\": null, \"gpu_id\": 0, \"validate_parameters\": null, \"predictor\": null, \"enable_categorical\": true, \"feature_types\": null, \"max_cat_to_onehot\": null, \"max_cat_threshold\": null, \"eval_metric\": [\"logloss\", \"error\", \"auc\", \"aucpr\"], \"early_stopping_rounds\": 15, \"callbacks\": null, \"classes_\": [false, true], \"n_classes_\": 2, \"evals_result_\": {\"validation_0\": {\"logloss\": [0.48187768679656856, 0.36464081490294936, 0.2912329051658442, 0.2429895621140007, 0.20936090001571503, 0.1862101867120137, 0.16965502903128676, 0.15787589890905857, 0.14828038128643728, 0.1421763712729376, 0.13680703454027585, 0.133251486847193, 0.13043441369892583, 0.12854296897334686, 0.1270499783583663, 0.12582165151894228, 0.12481345908865774, 0.12369949658847118], \"error\": [0.05905773059057731, 0.05767529307675293, 0.05723291307232913, 0.05775823932758239, 0.05723291307232913, 0.05745410307454103, 0.05676288431762885, 0.05684583056845831, 0.05593342180933421, 0.05596107055961071, 0.05529750055297501, 0.05557398805573988, 0.05562928555629285, 0.05538044680380447, 0.05524220305242203, 0.0541915505419155, 0.05452333554523336, 0.05377681928776819], \"auc\": [0.9096825789312764, 0.9232003494756251, 0.9383985246582625, 0.9404024233022901, 0.9435306833787266, 0.9463143291037206, 0.9474054230980312, 0.948419626119319, 0.9513713878467305, 0.9519111415214848, 0.9532683932960477, 0.9541579393706575, 0.955008930305966, 0.9551879750364458, 0.955566447732688, 0.9558860795234928, 0.9562018308238988, 0.9570303794882029], \"aucpr\": [0.497333938579828, 0.5270888110109302, 0.5363413006956878, 0.5411138647540097, 0.5559179172454783, 0.5617645319642783, 0.5647651650119676, 0.570180238441841, 0.5756927220576536, 0.5828115042154245, 0.5925207724971888, 0.5942841636790509, 0.5957710156192312, 0.598948496559578, 0.6021658306508408, 0.6078452562865736, 0.6093704592331114, 0.615073203159043]}, \"validation_1\": {\"logloss\": [0.5511788533103595, 0.47617623088660954, 0.42583988087811686, 0.3966154007983139, 0.45464739341554955, 0.42839794061473185, 0.4204759520058926, 0.40757188015386503, 0.43236271561418216, 0.421610707279111, 0.4229104180351226, 0.4218973802782478, 0.4158495782489924, 0.41294844683168674, 0.4099047800544151, 0.41206534703170894, 0.41613148941120365, 0.4120894858268149], \"error\": [0.14996682149966822, 0.14996682149966822, 0.14841849148418493, 0.1479761114797611, 0.1543906215439062, 0.15416943154169432, 0.15306348153063482, 0.1596991815969918, 0.1639017916390179, 0.16257465162574652, 0.1596991815969918, 0.16058394160583941, 0.1627958416279584, 0.1630170316301703, 0.16323822163238222, 0.16323822163238222, 0.15837204158372042, 0.1585932315859323], \"auc\": [0.6673958412729523, 0.6886301026796895, 0.7648237676803972, 0.7667154839810247, 0.5566710947055898, 0.6321593585876734, 0.6332273507623849, 0.6962270930650377, 0.6218385798335493, 0.6600861289865961, 0.6572990051430583, 0.6601681565928781, 0.6837356678535262, 0.6925748683384328, 0.7032326498909324, 0.6990116762305049, 0.6911823952786942, 0.7002199501301191], \"aucpr\": [0.4165767817431347, 0.41224211790022625, 0.45206545205826765, 0.44395329463856414, 0.3273291931889846, 0.35318524865187373, 0.3506814112164259, 0.3656378321192594, 0.3196213908141435, 0.3392442821762693, 0.33503907457208165, 0.33290101900602675, 0.33691906865518817, 0.3458930082940458, 0.3542438791089086, 0.35075055449618153, 0.34797689134824, 0.35310056193455913]}}, \"_estimator_type\": \"classifier\"}"},"feature_names":["age","job","marital","education","default","balance","housing","loan","contact","day","month","duration","campaign","pdays","previous","poutcome"],"feature_types":["float","c","c","c","c","float","c","c","c","float","c","float","float","float","float","c"],"gradient_booster":{"model":{"gbtree_model_param":{"num_parallel_tree":"1","num_trees":"18","size_leaf_vector":"0"},"tree_info":[0,0,0,0,0,0,0,0,0,0,0,0,0,0,0,0,0,0],"trees":[{"base_weights":[-1.730731E0,-1.8591524E0,-1.3145192E-1,2.4539877E-2,-1.8774464E0,-5.19774E-1,2.9820454E-1,-1.3090909E0,6.909091E-1,-1.923417E0,-1.2852978E0,-8.695652E-1,-2.9493088E-1,4.8523748E-1,7.905139E-3,-5.2131146E-1,-2.1509434E-1,5.8064517E-2,3.0687025E-1,-4.8011285E-1,-5.9248704E-1,-2.9238987E-1,-4.268116E-1,-1.492683E-1,-3.2307696E-1,4.810127E-2,-1.3889764E-1,2.5245902E-1,1.12E-1,-1.3721414E-2,2.6896554E-1],"categories":[0,1,2,3,4,5,6,8,9,0,2,4,8,9,10,1,4,5,6,8,9,3,4,5,6,8,1,0,3,4,5,7,9,1,2,3,4,6,9,10],"categories_nodes":[1,5,6,9,10,11,12,13],"categories_segments":[0,9,10,15,21,26,27,33],"categories_sizes":[9,1,5,6,5,1,6,7],"default_left":[0,1,0,0,0,1,1,0,0,1,1,1,1,1,0,0,0,0,0,0,0,0,0,0,0,0,0,0,0,0,0],"id":0,"left_children":[1,3,5,7,9,11,13,15,17,19,21,23,25,27,29,-1,-1,-1,-1,-1,-1,-1,-1,-1,-1,-1,-1,-1,-1,-1,-1],"loss_changes":[1.8570195E3,2.8850586E2,1.1248346E2,7.333274E1,2.2319922E2,2.7584984E1,1.7384314E1,5.733227E0,8.883596E0,1.24890625E2,2.4236694E1,1.0109215E1,1.6677555E1,7.45063E0,6.0712404E0,0E0,0E0,0E0,0E0,0E0,0E0,0E0,0E0,0E0,0E0,0E0,0E0,0E0,0E0,0E0,0E0],"parents":[2147483647,0,0,1,1,2,2,3,3,4,4,5,5,6,6,7,7,8,8,9,9,10,10,11,11,12,12,13,13,14,14],"right_children":[2,4,6,8,10,12,14,16,18,20,22,24,26,28,30,-1,-1,-1,-1,-1,-1,-1,-1,-1,-1,-1,-1,-1,-1,-1,-1],"split_conditions":[6.36E2,NaN,8.71E2,1.06E2,4.52E2,NaN,NaN,7.9E1,1.71E2,NaN,NaN,NaN,NaN,NaN,3E1,-5.2131146E-1,-2.1509434E-1,5.8064517E-2,3.0687025E-1,-4.8011285E-1,-5.9248704E-1,-2.9238987E-1,-4.268116E-1,-1.492683E-1,-3.2307696E-1,4.810127E-2,-1.3889764E-1,2.5245902E-1,1.12E-1,-1.3721414E-2,2.6896554E-1],"split_indices":[11,10,11,11,11,8,10,11,11,10,10,2,10,1,9,0,0,0,0,0,0,0,0,0,0,0,0,0,0,0,0],"split_type":[0,1,0,0,0,1,1,0,0,1,1,1,1,1,0,0,0,0,0,0,0,0,0,0,0,0,0,0,0,0,0],"sum_hessian":[9.042E3,8.36975E3,6.7225E2,8.05E1,8.28925E3,3.53E2,3.1925E2,2.65E1,5.4E1,7.69E3,5.9925E2,1.37E2,2.16E2,1.9375E2,1.255E2,1.425E1,1.225E1,2.225E1,3.175E1,1.0625E3,6.6275E3,1.8625E2,4.13E2,5.025E1,8.675E1,5.825E1,1.5775E2,4.475E1,1.49E2,1.1925E2,6.25E0],"tree_param":{"num_deleted":"0","num_feature":"16","num_nodes":"31","size_leaf_vector":"0"}},{"base_weights":[-1.3182666E0,-1.4498383E0,-3.1357074E-1,1.0341184E-2,-1.465217E0,-5.9866565E-1,1.8758766E-1,-9.877751E-1,5.0772256E-1,-1.1767719E0,-1.5129317E0,-7.5562423E-1,-3.5542387E-1,4.0193984E-1,2.4671385E-2,-4.0285587E-1,-1.5733466E-1,1.7763089E-1,-3.3213347E-1,-3.9822838E-1,1.7953364E-2,-4.5967847E-1,-3.6348766E-1,2.725915E-1,-2.3296376E-1,-1.2853181E-1,2.0313184E-1,1.3798396E-1,-9.620567E-2,-4.5425903E-2,7.465286E-2],"categories":[0,1,2,3,4,5,6,8,9,1,4,5,6,8,9,1,3,0,1,3],"categories_nodes":[1,4,6,8,11],"categories_segments":[0,9,15,16,17],"categories_sizes":[9,6,1,1,3],"default_left":[0,1,0,0,1,0,1,0,1,0,0,1,0,0,0,0,0,0,0,0,0,0,0,0,0,0,0,0,0,0,0],"id":1,"left_children":[1,3,5,7,9,11,13,15,17,19,21,23,25,27,29,-1,-1,-1,-1,-1,-1,-1,-1,-1,-1,-1,-1,-1,-1,-1,-1],"loss_changes":[1.1107627E3,1.6691992E2,1.3936935E2,3.9451454E1,9.944922E1,2.3459106E1,1.2358286E1,3.6444893E0,7.8806353E0,1.9541748E2,3.4879883E1,1.3827164E1,1.8808708E1,6.555668E0,8.023188E0,0E0,0E0,0E0,0E0,0E0,0E0,0E0,0E0,0E0,0E0,0E0,0E0,0E0,0E0,0E0,0E0],"parents":[2147483647,0,0,1,1,2,2,3,3,4,4,5,5,6,6,7,7,8,8,9,9,10,10,11,11,12,12,13,13,14,14],"right_children":[2,4,6,8,10,12,14,16,18,20,22,24,26,28,30,-1,-1,-1,-1,-1,-1,-1,-1,-1,-1,-1,-1,-1,-1,-1,-1],"split_conditions":[5.23E2,NaN,8.36E2,1.06E2,NaN,6.68E2,NaN,7.9E1,NaN,2.1E1,4.11E2,NaN,3E1,5.6E1,7.51E2,-4.0285587E-1,-1.5733466E-1,1.7763089E-1,-3.3213347E-1,-3.9822838E-1,1.7953364E-2,-4.5967847E-1,-3.6348766E-1,2.725915E-1,-2.3296376E-1,-1.2853181E-1,2.0313184E-1,1.3798396E-1,-9.620567E-2,-4.5425903E-2,7.465286E-2],"split_indices":[11,10,11,11,10,11,2,11,3,9,11,15,9,0,5,0,0,0,0,0,0,0,0,0,0,0,0,0,0,0,0],"split_type":[0,1,0,0,1,0,1,0,1,0,0,1,0,0,0,0,0,0,0,0,0,0,0,0,0,0,0,0,0,0,0],"sum_hessian":[8.405246E3,7.431587E3,9.736588E2,7.7457794E1,7.354129E3,6.2048676E2,3.5317203E2,2.5433453E1,5.2024338E1,1.0474928E3,6.306636E3,3.758515E2,2.4463525E2,1.5187714E2,2.0129489E2,1.3324057E1,1.2109397E1,5.0042774E1,1.9815638E0,9.3367096E2,1.1382182E2,5.922597E3,3.8403937E2,4.1394167E0,3.717121E2,2.290248E2,1.5610462E1,1.4092804E2,1.0949095E1,1.129192E2,8.8375694E1],"tree_param":{"num_deleted":"0","num_feature":"16","num_nodes":"31","size_leaf_vector":"0"}},{"base_weights":[-1.1021389E0,-1.2393926E0,-2.5642407E-1,-8.82124E-1,-1.3070992E0,-5.536006E-1,2.204965E-2,-1.0319973E0,2.1717524E-2,-1.331429E0,-1.071828E0,-5.754423E-2,-6.223931E-1,-1.4791577E-1,2.1484764E-1,-3.7714115E-1,-1.9674635E-1,-1.7585427E-1,3.0586115E-1,-4.0252784E-1,-3.883543E-1,2.0590822E-1,-3.247118E-1,-1.0251636E-1,6.8888776E-2,1.8911003E-1,-1.932161E-1,-1.2475031E-1,4.5723E-3,1.1198456E-1,-1.0615408E-2],"categories":[1,4,5,6,8,9,0,3,4,5,6,8,9,0,0,1,3,0,1,3,0,2,4,8,9,10],"categories_nodes":[1,5,7,10,12,13,14],"categories_segments":[0,6,13,14,17,20,21],"categories_sizes":[6,7,1,3,3,1,5],"default_left":[0,1,0,0,0,1,0,1,0,0,1,0,1,1,1,0,0,0,0,0,0,0,0,0,0,0,0,0,0,0,0],"id":2,"left_children":[1,3,5,7,9,11,13,15,17,19,21,23,25,27,29,-1,-1,-1,-1,-1,-1,-1,-1,-1,-1,-1,-1,-1,-1,-1,-1],"loss_changes":[8.421963E2,1.4989746E2,8.398763E1,1.3520459E2,2.8610352E1,1.6716888E1,1.7229424E1,7.1673645E1,8.728859E1,7.519531E-2,9.9557495E0,5.0476637E0,1.2102234E1,1.2224728E1,9.777821E0,0E0,0E0,0E0,0E0,0E0,0E0,0E0,0E0,0E0,0E0,0E0,0E0,0E0,0E0,0E0,0E0],"parents":[2147483647,0,0,1,1,2,2,3,3,4,4,5,5,6,6,7,7,8,8,9,9,10,10,11,11,12,12,13,13,14,14],"right_children":[2,4,6,8,10,12,14,16,18,20,22,24,26,28,30,-1,-1,-1,-1,-1,-1,-1,-1,-1,-1,-1,-1,-1,-1,-1,-1],"split_conditions":[5.03E2,NaN,7.07E2,2.1E1,3.64E2,NaN,9.57E2,NaN,2.24E2,2.26E2,NaN,4.42E2,NaN,NaN,NaN,-3.7714115E-1,-1.9674635E-1,-1.7585427E-1,3.0586115E-1,-4.0252784E-1,-3.883543E-1,2.0590822E-1,-3.247118E-1,-1.0251636E-1,6.8888776E-2,1.8911003E-1,-1.932161E-1,-1.2475031E-1,4.5723E-3,1.1198456E-1,-1.0615408E-2],"split_indices":[11,10,11,9,11,10,11,6,11,11,15,5,15,8,10,0,0,0,0,0,0,0,0,0,0,0,0,0,0,0,0],"split_type":[0,1,0,0,0,1,0,1,0,0,1,0,1,1,1,0,0,0,0,0,0,0,0,0,0,0,0,0,0,0,0],"sum_hessian":[7.257199E3,6.243462E3,1.01373706E3,9.9693726E2,5.246525E3,4.8992252E2,5.238146E2,8.55018E2,1.4191925E2,4.750599E3,4.959259E2,5.9890957E1,4.3003156E2,2.7851562E2,2.4529893E2,5.334241E2,3.2159393E2,8.844732E1,5.3471935E1,3.684232E3,1.0663671E3,2.5744843E0,4.933514E2,3.0007061E1,2.9883896E1,6.8313413E0,4.232002E2,1.0482861E2,1.7368701E2,1.4989893E2,9.540001E1],"tree_param":{"num_deleted":"0","num_feature":"16","num_nodes":"31","size_leaf_vector":"0"}},{"base_weights":[-9.547162E-1,-1.1110407E0,-2.1691774E-1,-7.297807E-1,-1.190377E0,-5.044122E-1,-3.377036E-2,-8.671149E-1,5.112061E-3,-1.2127769E0,-9.605391E-1,-5.2007866E-1,1.5049182E0,-9.930457E-2,3.0761802E-1,-3.2892412E-1,-1.5654784E-1,-2.4903522E-1,1.3512367E-1,-3.3539754E-1,-3.6531413E-1,-2.4484476E-1,-3.401E-1,-1.6977268E-1,5.5500817E-2,6.4453876E-1,1.6072553E-2,-8.9217484E-2,5.7392865E-3,1.1059462E-1,-1.3374156E-1],"categories":[1,4,5,6,8,9,0,2,0],"categories_nodes":[1,7,10,13],"categories_segments":[0,6,7,8],"categories_sizes":[6,1,1,1],"default_left":[0,1,0,0,0,0,0,1,0,0,1,0,0,1,0,0,0,0,0,0,0,0,0,0,0,0,0,0,0,0,0],"id":3,"left_children":[1,3,5,7,9,11,13,15,17,19,21,23,25,27,29,-1,-1,-1,-1,-1,-1,-1,-1,-1,-1,-1,-1,-1,-1,-1,-1],"loss_changes":[7.030669E2,1.5132373E2,5.6184223E1,8.77341E1,2.0269043E1,1.3855629E1,1.4641717E1,5.7414246E1,5.1647633E1,4.116211E-1,8.437134E0,1.344458E1,3.1256423E0,1.2877565E1,5.0118523E0,0E0,0E0,0E0,0E0,0E0,0E0,0E0,0E0,0E0,0E0,0E0,0E0,0E0,0E0,0E0,0E0],"parents":[2147483647,0,0,1,1,2,2,3,3,4,4,5,5,6,6,7,7,8,8,9,9,10,10,11,11,12,12,13,13,14,14],"right_children":[2,4,6,8,10,12,14,16,18,20,22,24,26,28,30,-1,-1,-1,-1,-1,-1,-1,-1,-1,-1,-1,-1,-1,-1,-1,-1],"split_conditions":[4.75E2,NaN,6.36E2,2.1E1,3.6E2,6.1E1,1.226E3,NaN,1.31E2,5E0,NaN,3E1,5.14E2,NaN,5.8E1,-3.2892412E-1,-1.5654784E-1,-2.4903522E-1,1.3512367E-1,-3.3539754E-1,-3.6531413E-1,-2.4484476E-1,-3.401E-1,-1.6977268E-1,5.5500817E-2,6.4453876E-1,1.6072553E-2,-8.9217484E-2,5.7392865E-3,1.1059462E-1,-1.3374156E-1],"split_indices":[11,10,11,9,11,0,11,6,11,9,8,9,11,8,0,0,0,0,0,0,0,0,0,0,0,0,0,0,0,0,0],"split_type":[0,1,0,0,0,0,0,1,0,0,1,0,0,1,0,0,0,0,0,0,0,0,0,0,0,0,0,0,0,0,0],"sum_hessian":[6.0968975E3,5.030525E3,1.0663723E3,8.6824835E2,4.162277E3,4.142896E2,6.5208264E2,7.31389E2,1.3685938E2,3.7887493E3,3.7352744E2,4.118199E2,2.469736E0,5.476607E2,1.0442192E2,4.3820865E2,2.9318033E2,4.7291904E1,8.9567474E1,1.9882768E2,3.5899216E3,2.0678284E2,1.6674458E2,3.868707E2,2.494917E1,1.3782674E0,1.0914688E0,2.043568E2,3.4330392E2,9.706954E1,7.3523755E0],"tree_param":{"num_deleted":"0","num_feature":"16","num_nodes":"31","size_leaf_vector":"0"}},{"base_weights":[-8.372402E-1,-1.0183363E0,-1.8513693E-1,-6.069798E-1,-1.1143229E0,-3.6575484E-1,2.0510593E-2,-9.034959E-1,-3.2056326E-1,-1.1354562E0,-8.6581933E-1,-2.3629698E-1,-6.582101E-1,2.140698E-1,-1.2125126E-1,9.393978E-2,-2.907412E-1,3.754332E-1,-1.6465575E-1,-3.4515443E-1,-3.2434082E-1,-2.2138368E-1,-3.0715865E-1,-8.719584E-2,1.6055737E-1,4.2121646E-1,-2.1513513E-1,8.18691E-2,-1.196231E-1,2.272619E-3,-1.12849414E-1],"categories":[1,4,5,6,8,9,4,8,1,0,2,3,0,1,2,4,5,6,7,8,9,2,2],"categories_nodes":[1,5,6,7,8,10,14],"categories_segments":[0,6,8,9,12,21,22],"categories_sizes":[6,2,1,3,9,1,1],"default_left":[0,1,0,0,0,1,1,1,1,0,1,0,0,0,1,0,0,0,0,0,0,0,0,0,0,0,0,0,0,0,0],"id":4,"left_children":[1,3,5,7,9,11,13,15,17,19,21,23,25,27,29,-1,-1,-1,-1,-1,-1,-1,-1,-1,-1,-1,-1,-1,-1,-1,-1],"loss_changes":[6.000029E2,1.5637354E2,4.1083614E1,6.380609E1,1.59470215E1,2.2137527E1,1.4240986E1,2.9873627E1,1.3901236E2,1.1838379E0,4.435837E0,1.7336634E1,2.2887001E1,8.017351E0,9.844143E0,0E0,0E0,0E0,0E0,0E0,0E0,0E0,0E0,0E0,0E0,0E0,0E0,0E0,0E0,0E0,0E0],"parents":[2147483647,0,0,1,1,2,2,3,3,4,4,5,5,6,6,7,7,8,8,9,9,10,10,11,11,12,12,13,13,14,14],"right_children":[2,4,6,8,10,12,14,16,18,20,22,24,26,28,30,-1,-1,-1,-1,-1,-1,-1,-1,-1,-1,-1,-1,-1,-1,-1,-1],"split_conditions":[4.52E2,NaN,7.07E2,1E1,3.6E2,NaN,NaN,NaN,NaN,2.26E2,NaN,3E1,5E0,8.9E1,NaN,9.393978E-2,-2.907412E-1,3.754332E-1,-1.6465575E-1,-3.4515443E-1,-3.2434082E-1,-2.2138368E-1,-3.0715865E-1,-8.719584E-2,1.6055737E-1,4.2121646E-1,-2.1513513E-1,8.18691E-2,-1.196231E-1,2.272619E-3,-1.12849414E-1],"split_indices":[11,10,11,9,11,10,2,10,10,11,8,9,9,13,8,0,0,0,0,0,0,0,0,0,0,0,0,0,0,0,0],"split_type":[0,1,0,0,0,1,1,1,1,0,1,0,0,0,1,0,0,0,0,0,0,0,0,0,0,0,0,0,0,0,0],"sum_hessian":[5.0813506E3,3.976478E3,1.1048724E3,7.537143E2,3.2227637E3,5.87819E2,5.170534E2,3.6926935E2,3.8444492E2,2.9668845E3,2.5587926E2,4.0870856E2,1.7911043E2,2.1837622E2,2.9867722E2,1.871047E1,3.5055887E2,4.8181767E1,3.3626315E2,2.3071277E3,6.5975684E2,1.4457315E2,1.113061E2,3.823902E2,2.6318356E1,4.3399158E0,1.7477052E2,1.9975533E2,1.8620893E1,1.9905185E2,9.962537E1],"tree_param":{"num_deleted":"0","num_feature":"16","num_nodes":"31","size_leaf_vector":"0"}},{"base_weights":[-7.3328745E-1,-9.420477E-1,-1.5299414E-1,-5.026171E-1,-1.0598541E0,-3.7156886E-1,-1.7335417E-2,-9.911517E-1,-3.091457E-1,-1.0854216E0,-8.3050746E-1,-1.3216902E-1,-5.277887E-1,3.0269378E-1,-6.463087E-2,-3.4272194E-1,-2.283874E-1,-2.1187018E-1,3.1559408E-2,-2.989078E-1,-3.2903153E-1,-5.4417927E-2,-2.6198432E-1,-1.4181308E-1,3.882125E-2,2.0540327E-1,-1.696629E-1,1.7729E-1,-2.3950344E-2,-3.0393867E-2,1.1998106E-1],"categories":[1,4,5,6,8,9,4,5,6,8,0,2,3,4,5,6,8,9,0,1,4,5,6,8,0,0],"categories_nodes":[1,5,6,8,9,11,12],"categories_segments":[0,6,10,18,19,24,25],"categories_sizes":[6,4,8,1,5,1,1],"default_left":[0,1,0,0,0,1,1,0,1,1,0,1,1,0,0,0,0,0,0,0,0,0,0,0,0,0,0,0,0,0,0],"id":5,"left_children":[1,3,5,7,9,11,13,15,17,19,21,23,25,27,29,-1,-1,-1,-1,-1,-1,-1,-1,-1,-1,-1,-1,-1,-1,-1,-1],"loss_changes":[5.1500195E2,1.6135278E2,3.3388786E1,6.2360382E1,1.3553467E1,1.6059174E1,1.0553996E1,5.653778E0,7.845465E1,1.1459961E0,6.8246613E0,1.5349352E1,1.2318047E1,9.948443E0,1.0387976E1,0E0,0E0,0E0,0E0,0E0,0E0,0E0,0E0,0E0,0E0,0E0,0E0,0E0,0E0,0E0,0E0],"parents":[2147483647,0,0,1,1,2,2,3,3,4,4,5,5,6,6,7,7,8,8,9,9,10,10,11,11,12,12,13,13,14,14],"right_children":[2,4,6,8,10,12,14,16,18,20,22,24,26,28,30,-1,-1,-1,-1,-1,-1,-1,-1,-1,-1,-1,-1,-1,-1,-1,-1],"split_conditions":[4.3E2,NaN,6.08E2,1.04E2,3.31E2,NaN,NaN,7.5E1,NaN,NaN,5E0,NaN,NaN,1.8E1,3E1,-3.4272194E-1,-2.283874E-1,-2.1187018E-1,3.1559408E-2,-2.989078E-1,-3.2903153E-1,-5.4417927E-2,-2.6198432E-1,-1.4181308E-1,3.882125E-2,2.0540327E-1,-1.696629E-1,1.7729E-1,-2.3950344E-2,-3.0393867E-2,1.1998106E-1],"split_indices":[11,10,11,11,11,10,10,11,6,10,9,6,4,9,9,0,0,0,0,0,0,0,0,0,0,0,0,0,0,0,0],"split_type":[0,1,0,0,0,1,1,0,1,1,0,1,1,0,0,0,0,0,0,0,0,0,0,0,0,0,0,0,0,0,0],"sum_hessian":[4.2514062E3,3.1261511E3,1.125255E3,6.6201825E2,2.4641328E3,4.3026642E2,6.9498865E2,1.866317E2,4.7538657E2,2.2136262E3,2.5050674E2,1.706299E2,2.5963654E2,8.878905E1,6.061996E2,1.1016795E2,7.6463745E1,2.4238823E2,2.3299834E2,2.6025244E2,1.9533737E3,1.5810712E1,2.3469603E2,7.377513E1,9.685477E1,7.32307E0,2.5231346E2,5.032174E1,3.8467304E1,5.6256195E2,4.3637657E1],"tree_param":{"num_deleted":"0","num_feature":"16","num_nodes":"31","size_leaf_vector":"0"}},{"base_weights":[-6.3594353E-1,-8.9272654E-1,-1.6362154E-1,-4.3700746E-1,-1.0366064E0,-4.1980302E-1,-4.6301294E-2,-8.01179E-1,-1.9545934E-1,-3.1892794E-1,-9.4663113E-1,-1.1329682E-1,-6.5021855E-1,1.09679736E-1,-1.5780766E-1,5.0811473E-2,-2.6207182E-1,-1.8436506E-1,8.5094325E-2,-1.04671985E-1,-2.951104E-1,-5.5436354E-2,4.619457E-1,3.1807825E-1,-2.0017186E-1,3.932541E-2,-2.1769804E-1,-8.7276965E-2,-1.9796048E-3],"categories":[1,4,5,6,8,9,4,5,6,8,1,0,1,2,3,0,0,1,3,3,11],"categories_nodes":[1,5,6,7,8,12,13],"categories_segments":[0,6,10,11,15,16,19],"categories_sizes":[6,4,1,4,1,3,2],"default_left":[0,1,0,0,0,1,1,1,1,0,0,0,1,1,0,0,0,0,0,0,0,0,0,0,0,0,0,0,0],"id":6,"left_children":[1,3,5,7,9,11,13,15,17,-1,19,21,23,25,27,-1,-1,-1,-1,-1,-1,-1,-1,-1,-1,-1,-1,-1,-1],"loss_changes":[4.363153E2,1.5238965E2,3.810976E1,4.919905E1,3.2141113E0,2.8060432E1,1.5171196E1,1.5846222E1,6.81732E1,0E0,8.783356E0,2.0631676E1,7.3221207E0,6.599883E0,1.02328415E1,0E0,0E0,0E0,0E0,0E0,0E0,0E0,0E0,0E0,0E0,0E0,0E0,0E0,0E0],"parents":[2147483647,0,0,1,1,2,2,3,3,4,4,5,5,6,6,7,7,8,8,10,10,11,11,12,12,13,13,14,14],"right_children":[2,4,6,8,10,12,14,16,18,-1,20,22,24,26,28,-1,-1,-1,-1,-1,-1,-1,-1,-1,-1,-1,-1,-1,-1],"split_conditions":[3.64E2,NaN,5.23E2,8E0,2.26E2,NaN,NaN,NaN,NaN,-3.1892794E-1,5E0,6.1E1,NaN,NaN,7.75E2,5.0811473E-2,-2.6207182E-1,-1.8436506E-1,8.5094325E-2,-1.04671985E-1,-2.951104E-1,-5.5436354E-2,4.619457E-1,3.1807825E-1,-2.0017186E-1,3.932541E-2,-2.1769804E-1,-8.7276965E-2,-1.9796048E-3],"split_indices":[11,10,11,9,11,10,2,10,6,0,9,0,15,1,11,0,0,0,0,0,0,0,0,0,0,0,0,0,0],"split_type":[0,1,0,0,0,1,1,1,1,0,0,0,1,1,0,0,0,0,0,0,0,0,0,0,0,0,0,0,0],"sum_hessian":[3.597664E3,2.3300283E3,1.2676356E3,5.600831E2,1.7699453E3,3.973659E2,8.7026965E2,2.2242534E2,3.3765778E2,1.3590555E3,4.1088974E2,1.7116646E2,2.2619945E2,3.6279257E2,5.074771E2,1.5346182E1,2.0707915E2,1.79959E2,1.5769879E2,2.4602829E1,3.8628693E2,1.6492241E2,6.2440534E0,1.6248226E0,2.2457462E2,3.5455054E2,8.242015E0,2.6939423E2,2.3808289E2],"tree_param":{"num_deleted":"0","num_feature":"16","num_nodes":"29","size_leaf_vector":"0"}},{"base_weights":[-5.4486597E-1,-8.231355E-1,-1.2157907E-1,-3.517378E-1,-9.996841E-1,-3.8776278E-1,-5.123662E-2,-8.9475095E-1,-1.850225E-1,-1.034109E0,-8.8673604E-1,2.1517052E-1,-5.083201E-1,6.7887805E-2,-1.3848977E-1,-3.2811737E-1,-2.0469454E-1,2.7402172E-2,-1.8555722E-1,-2.809929E-1,-3.140371E-1,-8.240266E-2,-2.7951112E-1,-1.3495718E-1,3.048535E-1,-1.0259435E-1,-2.4004799E-1,6.814549E-2,-8.724422E-3,-3.4925487E-2,-2.98334E-1],"categories":[1,4,5,6,8,9,1,3,4,5,6,8,9,1,1,2,3,6,7,10,1,4,5,6,8,0,2,4],"categories_nodes":[1,5,6,8,9,11,12,14],"categories_segments":[0,6,13,14,20,25,26,27],"categories_sizes":[6,7,1,6,5,1,1,1],"default_left":[0,1,0,0,0,1,1,0,1,1,0,1,1,0,1,0,0,0,0,0,0,0,0,0,0,0,0,0,0,0,0],"id":7,"left_children":[1,3,5,7,9,11,13,15,17,19,21,23,25,27,29,-1,-1,-1,-1,-1,-1,-1,-1,-1,-1,-1,-1,-1,-1,-1,-1],"loss_changes":[3.633802E2,1.545885E2,2.29204E1,4.5896385E1,4.34729E0,1.8713223E1,1.0094038E1,4.2947083E0,4.684609E1,2.9467773E-1,8.641617E0,2.3549768E1,1.0094955E1,6.351988E0,1.0470792E1,0E0,0E0,0E0,0E0,0E0,0E0,0E0,0E0,0E0,0E0,0E0,0E0,0E0,0E0,0E0,0E0],"parents":[2147483647,0,0,1,1,2,2,3,3,4,4,5,5,6,6,7,7,8,8,9,9,10,10,11,11,12,12,13,13,14,14],"right_children":[2,4,6,8,10,12,14,16,18,20,22,24,26,28,30,-1,-1,-1,-1,-1,-1,-1,-1,-1,-1,-1,-1,-1,-1,-1,-1],"split_conditions":[3.64E2,NaN,4.75E2,9.5E1,2.26E2,NaN,NaN,6.3E1,NaN,NaN,5E0,NaN,NaN,2E0,NaN,-3.2811737E-1,-2.0469454E-1,2.7402172E-2,-1.8555722E-1,-2.809929E-1,-3.140371E-1,-8.240266E-2,-2.7951112E-1,-1.3495718E-1,3.048535E-1,-1.0259435E-1,-2.4004799E-1,6.814549E-2,-8.724422E-3,-3.4925487E-2,-2.98334E-1],"split_indices":[11,10,11,11,11,10,2,11,1,10,9,6,8,12,10,0,0,0,0,0,0,0,0,0,0,0,0,0,0,0,0],"split_type":[0,1,0,0,0,1,1,0,1,1,0,1,1,0,1,0,0,0,0,0,0,0,0,0,0,0,0,0,0,0,0],"sum_hessian":[3.0848896E3,1.8607107E3,1.2241791E3,5.0781085E2,1.3528998E3,2.5494107E2,9.6923804E2,1.18259026E2,3.8955182E2,1.0306244E3,3.2227542E2,4.235079E1,2.1259029E2,4.0987222E2,5.593658E2,5.892226E1,5.9336765E1,2.3837428E2,1.5117754E2,1.2727522E2,9.033492E2,2.2543365E1,2.9973206E2,2.3379011E1,1.8971779E1,1.3679407E2,7.579622E1,1.5460461E2,2.5526762E2,5.464122E2,1.2953635E1],"tree_param":{"num_deleted":"0","num_feature":"16","num_nodes":"31","size_leaf_vector":"0"}},{"base_weights":[-4.578729E-1,-7.8659564E-1,-1.2664518E-1,-3.4390372E-1,-9.862956E-1,-3.166423E-1,-1.8764326E-2,-6.472252E-1,-1.0624095E-1,-8.223378E-1,-1.0082972E0,6.722451E-2,-5.298312E-1,-8.712631E-2,1.2627774E-1,-2.9916804E-2,-2.4302998E-1,2.1097723E-1,-1.3445571E-1,1.5424803E0,-2.9552835E-1,8.621669E-2,-3.0320454E-1,1.2902914E-1,-1.22265026E-1,-2.171424E-1,-9.947613E-2,-5.539493E-2,1.526247E-2,-1.4902794E-1,4.417568E-2],"categories":[1,4,5,6,8,9,1,4,5,6,8,1,4,5,6,8,3,0,1,2,0,1,3,0,1,2,7,0],"categories_nodes":[1,4,5,7,8,10,11,13],"categories_segments":[0,6,11,16,17,20,23,27],"categories_sizes":[6,5,5,1,3,3,4,1],"default_left":[0,1,0,0,1,1,0,1,1,0,1,1,0,1,0,0,0,0,0,0,0,0,0,0,0,0,0,0,0,0,0],"id":8,"left_children":[1,3,5,7,9,11,13,15,17,19,21,23,25,27,29,-1,-1,-1,-1,-1,-1,-1,-1,-1,-1,-1,-1,-1,-1,-1,-1],"loss_changes":[2.9401935E2,1.1950043E2,2.759736E1,3.0420177E1,2.5387573E0,3.994405E1,8.538548E0,1.647062E1,6.628632E1,1.1754975E2,2.8199463E0,3.0327454E1,1.1821213E1,7.884167E0,3.6787405E0,0E0,0E0,0E0,0E0,0E0,0E0,0E0,0E0,0E0,0E0,0E0,0E0,0E0,0E0,0E0,0E0],"parents":[2147483647,0,0,1,1,2,2,3,3,4,4,5,5,6,6,7,7,8,8,9,9,10,10,11,11,12,12,13,13,14,14],"right_children":[2,4,6,8,10,12,14,16,18,20,22,24,26,28,30,-1,-1,-1,-1,-1,-1,-1,-1,-1,-1,-1,-1,-1,-1,-1,-1],"split_conditions":[2.96E2,NaN,5.23E2,1E1,NaN,NaN,9.13E2,NaN,NaN,1.5E1,NaN,NaN,4.11E2,NaN,3E0,-2.9916804E-2,-2.4302998E-1,2.1097723E-1,-1.3445571E-1,1.5424803E0,-2.9552835E-1,8.621669E-2,-3.0320454E-1,1.2902914E-1,-1.22265026E-1,-2.171424E-1,-9.947613E-2,-5.539493E-2,1.526247E-2,-1.4902794E-1,4.417568E-2],"split_indices":[11,10,11,9,10,10,11,10,10,9,15,1,11,6,9,0,0,0,0,0,0,0,0,0,0,0,0,0,0,0,0],"split_type":[0,1,0,0,1,1,0,1,1,0,1,1,0,1,0,0,0,0,0,0,0,0,0,0,0,0,0,0,0,0,0],"sum_hessian":[2.700262E3,1.3545658E3,1.3456963E3,4.219392E2,9.326265E2,4.8666272E2,8.5903357E2,1.8460738E2,2.3733185E2,1.1488359E2,8.177429E2,1.7401567E2,3.1264706E2,5.8412164E2,2.7491193E2,4.2696274E1,1.419111E2,7.016679E1,1.6716505E2,2.239253E0,1.1264434E2,1.2825811E0,8.164604E2,9.8684616E1,7.533105E1,1.5668434E2,1.5596272E2,3.4205695E2,2.4206473E2,8.214688E0,2.6669724E2],"tree_param":{"num_deleted":"0","num_feature":"16","num_nodes":"31","size_leaf_vector":"0"}},{"base_weights":[-3.8078356E-1,-7.1848714E-1,-9.550975E-2,-2.75036E-1,-9.58284E-1,9.520983E-1,-1.1149024E-1,-9.5810264E-1,-1.576844E-1,-9.894382E-1,-7.9297096E-1,1.2822452E0,-3.6774844E-1,-1.250645E-1,1.073362E0,-2.022235E-1,-3.2373232E-1,3.0122655E-3,-2.0293778E-1,-2.5588694E-1,-3.0273154E-1,-6.7238E-2,-2.6166138E-1,5.663053E-1,2.6024392E-1,1.6580527E-1,-3.1936538E-1,-9.399478E-2,-8.520886E-3,4.2726436E-1,-4.4176135E-2],"categories":[1,4,5,6,8,9,0,1,3,0,1,3,0,1,1,4,5,6,8,0,1,2,3,4,5,6,7,9,10,1],"categories_nodes":[1,2,7,8,9,11,12],"categories_segments":[0,6,9,12,14,19,29],"categories_sizes":[6,3,3,2,5,10,1],"default_left":[0,1,1,0,0,0,0,1,1,1,0,1,1,0,0,0,0,0,0,0,0,0,0,0,0,0,0,0,0,0,0],"id":9,"left_children":[1,3,5,7,9,11,13,15,17,19,21,23,25,27,29,-1,-1,-1,-1,-1,-1,-1,-1,-1,-1,-1,-1,-1,-1,-1,-1],"loss_changes":[2.3108017E2,1.1655524E2,2.189987E1,3.0867184E1,2.885376E0,9.040161E0,2.077147E1,1.2156563E0,2.8844463E1,7.3791504E-1,5.1245193E0,2.368414E0,3.6102967E0,2.3091637E1,6.478548E0,0E0,0E0,0E0,0E0,0E0,0E0,0E0,0E0,0E0,0E0,0E0,0E0,0E0,0E0,0E0,0E0],"parents":[2147483647,0,0,1,1,2,2,3,3,4,4,5,5,6,6,7,7,8,8,9,9,10,10,11,11,12,12,13,13,14,14],"right_children":[2,4,6,8,10,12,14,16,18,20,22,24,26,28,30,-1,-1,-1,-1,-1,-1,-1,-1,-1,-1,-1,-1,-1,-1,-1,-1],"split_conditions":[2.96E2,NaN,NaN,7.5E1,2.26E2,4E0,6.1E1,NaN,NaN,NaN,6E0,NaN,NaN,5.23E2,2.355E3,-2.022235E-1,-3.2373232E-1,3.0122655E-3,-2.0293778E-1,-2.5588694E-1,-3.0273154E-1,-6.7238E-2,-2.6166138E-1,5.663053E-1,2.6024392E-1,1.6580527E-1,-3.1936538E-1,-9.399478E-2,-8.520886E-3,4.2726436E-1,-4.4176135E-2],"split_indices":[11,10,15,11,11,14,0,3,15,10,9,10,2,11,5,0,0,0,0,0,0,0,0,0,0,0,0,0,0,0,0],"split_type":[0,1,1,0,0,0,0,1,1,1,0,1,1,0,0,0,0,0,0,0,0,0,0,0,0,0,0,0,0,0,0],"sum_hessian":[2.3983528E3,1.0975585E3,1.3007944E3,3.859593E2,7.115991E2,1.8664377E1,1.2821301E3,5.5536213E1,3.3042307E2,5.9456476E2,1.170344E2,1.4952616E1,3.711762E0,1.2684921E3,1.36380415E1,1.8554804E1,3.6981407E1,2.5043536E2,7.99877E1,8.047365E1,5.1409106E2,1.477664E1,1.0225776E2,4.6352563E0,1.031736E1,1.6883656E0,2.0233963E0,4.2959702E2,8.38895E2,1.0463597E1,3.1744447E0],"tree_param":{"num_deleted":"0","num_feature":"16","num_nodes":"31","size_leaf_vector":"0"}},{"base_weights":[-3.07449E-1,-6.4115465E-1,-6.888009E-2,-2.1407364E-1,-9.2608005E-1,1.6072005E-2,-2.6505527E-1,-3.4790462E-1,2.7705425E-1,-6.9233114E-1,-9.6130776E-1,5.771681E-1,-4.3705083E-2,-7.477673E-1,-1.260833E-1,-2.0614667E-1,-4.6043392E-2,-2.5919843E-1,1.4220218E-1,4.5341718E-1,-2.773114E-1,-1.814517E-1,-2.957409E-1,6.16762E-1,7.709099E-2,-2.791341E-2,1.3320073E-1,3.1924355E-1,-2.3464039E-1,4.090969E-2,-8.022677E-2],"categories":[1,4,5,6,8,9,2,1,4,5,6,8,0,1,2,3,4,5,6,9,5,6,8,5,8],"categories_nodes":[1,2,4,5,13,14],"categories_segments":[0,6,7,12,20,23],"categories_sizes":[6,1,5,8,3,2],"default_left":[0,1,1,0,1,1,0,0,0,0,0,0,0,1,1,0,0,0,0,0,0,0,0,0,0,0,0,0,0,0,0],"id":10,"left_children":[1,3,5,7,9,11,13,15,17,19,21,23,25,27,29,-1,-1,-1,-1,-1,-1,-1,-1,-1,-1,-1,-1,-1,-1,-1,-1],"loss_changes":[1.7348817E2,1.1036133E2,2.1205582E1,2.4079435E1,3.8195496E0,2.9832268E1,2.5698366E1,1.883733E1,1.8094671E1,3.9702663E1,3.5144043E0,4.00166E1,1.9389435E1,6.1717186E0,1.1155136E1,0E0,0E0,0E0,0E0,0E0,0E0,0E0,0E0,0E0,0E0,0E0,0E0,0E0,0E0,0E0,0E0],"parents":[2147483647,0,0,1,1,2,2,3,3,4,4,5,5,6,6,7,7,8,8,9,9,10,10,11,11,12,12,13,13,14,14],"right_children":[2,4,6,8,10,12,14,16,18,20,22,24,26,28,30,-1,-1,-1,-1,-1,-1,-1,-1,-1,-1,-1,-1,-1,-1,-1,-1],"split_conditions":[2.96E2,NaN,NaN,2.126E3,NaN,NaN,4.75E2,8E0,8.8E1,1.5E1,5E0,5E0,3E1,NaN,NaN,-2.0614667E-1,-4.6043392E-2,-2.5919843E-1,1.4220218E-1,4.5341718E-1,-2.773114E-1,-1.814517E-1,-2.957409E-1,6.16762E-1,7.709099E-2,-2.791341E-2,1.3320073E-1,3.1924355E-1,-2.3464039E-1,4.090969E-2,-8.022677E-2],"split_indices":[11,10,8,5,10,10,11,9,11,9,9,9,9,10,10,0,0,0,0,0,0,0,0,0,0,0,0,0,0,0,0],"split_type":[0,1,1,0,1,1,0,0,0,0,0,0,0,1,1,0,0,0,0,0,0,0,0,0,0,0,0,0,0,0,0],"sum_hessian":[2.1787317E3,9.075628E2,1.271169E3,3.6388254E2,5.4368024E2,8.87683E2,3.8348593E2,2.8618857E2,7.769397E1,7.391038E1,4.697699E2,8.463195E1,8.03051E2,8.474563E1,2.987403E2,1.0333947E2,1.8284908E2,1.0937964E1,6.675601E1,6.5157566E0,6.739462E1,3.185717E1,4.3791272E2,1.4099325E1,7.053263E1,7.30008E2,7.304307E1,1.0197246E0,8.372591E1,1.0458134E2,1.9415897E2],"tree_param":{"num_deleted":"0","num_feature":"16","num_nodes":"31","size_leaf_vector":"0"}},{"base_weights":[-2.455155E-1,-6.2279385E-1,-7.66606E-2,-2.1784711E-1,-9.45565E-1,-3.9564585E-3,-2.578747E-1,-8.618947E-1,-1.07213095E-1,-7.5311905E-1,-9.770888E-1,2.3935055E-2,-6.214011E-1,-7.607287E-1,-9.538012E-2,-1.5330535E-1,-3.0981943E-1,-1.4837866E-1,2.0665184E-2,-2.6143277E-1,4.2726064E-1,-2.950052E-1,-1.4283398E-1,3.6068894E-2,-5.072487E-2,-2.788548E-1,-4.019513E-2,3.63868E-1,-2.4692659E-1,2.9572085E-2,-6.1115395E-2],"categories":[1,4,5,6,8,9,2,1,4,5,6,8,4,0,1,3,2,1,3,7,10,5,6,8,5,8],"categories_nodes":[1,2,4,5,7,9,11,13,14],"categories_segments":[0,6,7,12,13,16,17,21,24],"categories_sizes":[6,1,5,1,3,1,4,3,2],"default_left":[0,1,1,0,1,1,0,1,0,1,0,1,0,1,1,0,0,0,0,0,0,0,0,0,0,0,0,0,0,0,0],"id":11,"left_children":[1,3,5,7,9,11,13,15,17,19,21,23,25,27,29,-1,-1,-1,-1,-1,-1,-1,-1,-1,-1,-1,-1,-1,-1,-1,-1],"loss_changes":[1.2813742E2,8.1090485E1,1.8327726E1,1.9657185E1,1.3620605E0,1.7130537E1,3.247442E1,1.8993778E0,1.6248043E1,1.4904583E1,4.5339966E-1,1.7712246E1,6.331976E0,1.2953274E1,6.3696938E0,0E0,0E0,0E0,0E0,0E0,0E0,0E0,0E0,0E0,0E0,0E0,0E0,0E0,0E0,0E0,0E0],"parents":[2147483647,0,0,1,1,2,2,3,3,4,4,5,5,6,6,7,7,8,8,9,9,10,10,11,11,12,12,13,13,14,14],"right_children":[2,4,6,8,10,12,14,16,18,20,22,24,26,28,30,-1,-1,-1,-1,-1,-1,-1,-1,-1,-1,-1,-1,-1,-1,-1,-1],"split_conditions":[2.26E2,NaN,NaN,7.5E1,NaN,NaN,4.6E2,NaN,7E0,NaN,3E0,NaN,6.88E2,NaN,NaN,-1.5330535E-1,-3.0981943E-1,-1.4837866E-1,2.0665184E-2,-2.6143277E-1,4.2726064E-1,-2.950052E-1,-1.4283398E-1,3.6068894E-2,-5.072487E-2,-2.788548E-1,-4.019513E-2,3.63868E-1,-2.4692659E-1,2.9572085E-2,-6.1115395E-2],"split_indices":[11,10,8,11,10,10,11,3,9,8,14,1,11,10,10,0,0,0,0,0,0,0,0,0,0,0,0,0,0,0,0],"split_type":[0,1,1,0,1,1,0,1,0,1,0,1,0,1,1,0,0,0,0,0,0,0,0,0,0,0,0,0,0,0,0],"sum_hessian":[2.0111584E3,6.2098395E2,1.3901744E3,2.7617337E2,3.448106E2,9.928565E2,3.9731793E2,3.9490704E1,2.3668266E2,5.2035603E1,2.92775E2,9.508648E2,4.19917E1,9.613573E1,3.011822E2,1.4238303E1,2.5252401E1,7.3402176E1,1.6328049E2,4.9922405E1,2.1132002E0,2.8820972E2,4.56527E0,6.3463116E2,3.162336E2,2.517231E1,1.681939E1,2.3794305E0,9.37563E1,1.07972565E2,1.9320963E2],"tree_param":{"num_deleted":"0","num_feature":"16","num_nodes":"31","size_leaf_vector":"0"}},{"base_weights":[-1.931186E-1,-6.789796E-1,-9.059444E-2,-3.368677E-1,-9.748918E-1,-2.8229147E-1,-1.369565E-2,-9.386523E-1,-2.2335207E-1,-6.9949135E-2,-2.9403734E-1,6.936516E-2,-7.6316357E-1,7.816279E-2,-8.104596E-2,-3.0380887E-1,-5.2652802E-2,-3.3729695E-2,-3.5129154E-1,-9.640149E-2,1.1398117E-1,6.11178E-2,-2.5884503E-1,3.5978027E-2,-1.0049024E-1,-6.26496E-2,1.2749888E-3],"categories":[1,4,5,6,8,9,1,4,5,6,8,1,0,0,1],"categories_nodes":[1,5,6,11,13],"categories_segments":[0,6,11,12,13],"categories_sizes":[6,5,1,1,2],"default_left":[0,1,0,0,0,1,1,0,0,0,0,1,0,1,0,0,0,0,0,0,0,0,0,0,0,0,0],"id":12,"left_children":[1,3,5,7,9,11,13,15,17,-1,-1,19,21,23,25,-1,-1,-1,-1,-1,-1,-1,-1,-1,-1,-1,-1],"loss_changes":[9.406993E1,3.299037E1,2.3015999E1,1.0322231E1,4.5436096E-1,7.564688E1,6.907971E0,1.1871395E0,1.3639702E1,0E0,0E0,3.1564634E1,1.8377724E1,8.191399E0,7.021716E0,0E0,0E0,0E0,0E0,0E0,0E0,0E0,0E0,0E0,0E0,0E0,0E0],"parents":[2147483647,0,0,1,1,2,2,3,3,4,4,5,5,6,6,7,7,8,8,11,11,12,12,13,13,14,14],"right_children":[2,4,6,8,10,12,14,16,18,-1,-1,20,22,24,26,-1,-1,-1,-1,-1,-1,-1,-1,-1,-1,-1,-1],"split_conditions":[1.46E2,NaN,3.64E2,6.3E1,2.5E1,NaN,NaN,5.8E1,2.9E1,-6.9949135E-2,-2.9403734E-1,NaN,5E0,NaN,6.08E2,-3.0380887E-1,-5.2652802E-2,-3.3729695E-2,-3.5129154E-1,-9.640149E-2,1.1398117E-1,6.11178E-2,-2.5884503E-1,3.5978027E-2,-1.0049024E-1,-6.26496E-2,1.2749888E-3],"split_indices":[11,10,11,11,0,10,2,0,9,0,0,6,9,15,11,0,0,0,0,0,0,0,0,0,0,0,0],"split_type":[0,1,0,0,0,1,1,0,0,0,0,1,0,1,0,0,0,0,0,0,0,0,0,0,0,0,0],"sum_hessian":[1.8887158E3,3.281227E2,1.5605931E3,1.5317336E2,1.7494936E2,4.4603204E2,1.1145612E3,2.315452E1,1.3001884E2,1.5447134E0,1.7340465E2,2.5812427E2,1.8790776E2,4.714265E2,6.431346E2,2.0808563E1,2.3459556E0,1.1739616E2,1.26226845E1,1.1429947E2,1.438248E2,1.7459724E1,1.7044804E2,4.2878928E2,4.2637245E1,2.5686465E2,3.8626993E2],"tree_param":{"num_deleted":"0","num_feature":"16","num_nodes":"27","size_leaf_vector":"0"}},{"base_weights":[-1.5128085E-1,-5.987945E-1,-6.967907E-2,-2.6580915E-1,-9.5560014E-1,-8.493582E-2,7.6771593E-1,-3.1890827E-1,8.935569E-1,-5.9950937E-2,-2.8871718E-1,-2.542756E-1,-7.485648E-3,1.036467E0,-2.418947E-3,-6.1784152E-2,-2.8005245E-1,4.7756E-1,-1.15628265E-1,4.474486E-4,-1.8481193E-1,3.870094E-2,-1.6726203E-2,6.7067735E-2,3.8010204E-1,-8.102575E-2,2.1043418E-1],"categories":[1,4,5,6,8,9,0,3,1,3,1,4,5,6,8],"categories_nodes":[1,7,8,11],"categories_segments":[0,6,8,10],"categories_sizes":[6,2,2,5],"default_left":[0,1,0,0,0,0,0,1,1,0,0,1,0,0,0,0,0,0,0,0,0,0,0,0,0,0,0],"id":13,"left_children":[1,3,5,7,9,11,13,15,17,-1,-1,19,21,23,25,-1,-1,-1,-1,-1,-1,-1,-1,-1,-1,-1,-1],"loss_changes":[6.53873E1,3.2560303E1,1.9439995E1,9.165104E0,4.8993683E-1,1.9543602E1,5.6394405E0,9.43492E0,6.4905963E0,0E0,0E0,4.3272488E1,6.750827E0,3.5008526E0,1.7047873E0,0E0,0E0,0E0,0E0,0E0,0E0,0E0,0E0,0E0,0E0,0E0,0E0],"parents":[2147483647,0,0,1,1,2,2,3,3,4,4,5,5,6,6,7,7,8,8,11,11,12,12,13,13,14,14],"right_children":[2,4,6,8,10,12,14,16,18,-1,-1,20,22,24,26,-1,-1,-1,-1,-1,-1,-1,-1,-1,-1,-1,-1],"split_conditions":[1.46E2,NaN,6.1E1,6.9E1,2.5E1,4.11E2,2.2E1,NaN,NaN,-5.9950937E-2,-2.8871718E-1,NaN,3.3E1,6E0,2.76E3,-6.1784152E-2,-2.8005245E-1,4.7756E-1,-1.15628265E-1,4.474486E-4,-1.8481193E-1,3.870094E-2,-1.6726203E-2,6.7067735E-2,3.8010204E-1,-8.102575E-2,2.1043418E-1],"split_indices":[11,10,0,0,0,11,9,3,3,0,0,10,0,9,5,0,0,0,0,0,0,0,0,0,0,0,0],"split_type":[0,1,0,0,0,0,0,1,1,0,0,1,0,0,0,0,0,0,0,0,0,0,0,0,0,0,0],"sum_hessian":[1.7906964E3,2.7518912E2,1.5155073E3,1.4324867E2,1.3194046E2,1.4892723E3,2.6234928E1,1.3766837E2,5.5803022E0,1.4458822E0,1.3049457E2,4.6666238E2,1.02261E3,1.9191813E1,7.043116E0,1.1742178E2,2.0246588E1,3.451301E0,2.129001E0,2.739651E2,1.9269728E2,2.66723E2,7.5588696E2,4.6754403E0,1.4516372E1,5.5491595E0,1.4939567E0],"tree_param":{"num_deleted":"0","num_feature":"16","num_nodes":"27","size_leaf_vector":"0"}},{"base_weights":[-1.15387656E-1,-5.64263E-1,-5.6550916E-2,-2.6340705E-1,-9.337963E-1,7.433743E-1,-7.016104E-2,-6.345877E-2,-6.8688774E-1,-3.835489E-2,-2.831465E-1,1.4901425E0,5.211884E-2,-2.5204968E-1,-1.5731568E-2,-2.4189733E-1,2.142108E-2,1.2796463E-1,-2.3149854E-1,4.9721223E-1,6.0456093E-2,-8.338106E-2,1.9587739E-1,-7.6505896E-3,-2.2349419E-1,3.2723714E-3,-8.761193E-2],"categories":[1,4,5,6,8,9,0,1,3,1,2,3,6,7,10,1,4,5,6,8],"categories_nodes":[1,2,3,13],"categories_segments":[0,6,9,15],"categories_sizes":[6,3,6,5],"default_left":[0,1,1,1,0,0,0,0,0,0,0,0,0,1,0,0,0,0,0,0,0,0,0,0,0,0,0],"id":14,"left_children":[1,3,5,7,9,11,13,15,17,-1,-1,19,21,23,25,-1,-1,-1,-1,-1,-1,-1,-1,-1,-1,-1,-1],"loss_changes":[4.5407104E1,2.1908195E1,1.662479E1,9.375166E0,5.9872437E-1,1.3112748E1,1.4823191E1,7.7378545E0,3.6869946E0,0E0,0E0,2.30517E0,3.0182865E0,3.8494873E1,8.495923E0,0E0,0E0,0E0,0E0,0E0,0E0,0E0,0E0,0E0,0E0,0E0,0E0],"parents":[2147483647,0,0,1,1,2,2,3,3,4,4,5,5,6,6,7,7,8,8,11,11,12,12,13,13,14,14],"right_children":[2,4,6,8,10,12,14,16,18,-1,-1,20,22,24,26,-1,-1,-1,-1,-1,-1,-1,-1,-1,-1,-1,-1],"split_conditions":[1.31E2,NaN,NaN,NaN,2.5E1,2E0,3.13E2,6.3E1,2.7E1,-3.835489E-2,-2.831465E-1,6.88E2,2.2E1,NaN,1.13E2,-2.4189733E-1,2.142108E-2,1.2796463E-1,-2.3149854E-1,4.9721223E-1,6.0456093E-2,-8.338106E-2,1.9587739E-1,-7.6505896E-3,-2.2349419E-1,3.2723714E-3,-8.761193E-2],"split_indices":[11,10,15,1,0,14,11,11,0,0,0,11,9,10,13,0,0,0,0,0,0,0,0,0,0,0,0],"split_type":[0,1,1,1,0,0,0,0,0,0,0,0,0,1,0,0,0,0,0,0,0,0,0,0,0,0,0],"sum_hessian":[1.7194999E3,1.9827052E2,1.5212294E3,1.10235214E2,8.80353E1,2.4552532E1,1.4966769E3,7.566126E1,3.4573948E1,1.2506022E0,8.67847E1,1.1246815E1,1.3305718E1,3.438827E2,1.1527942E3,1.0860308E1,6.480096E1,2.160887E0,3.241306E1,9.701623E0,1.545192E0,8.934757E0,4.370961E0,2.3632231E2,1.07560394E2,1.0523002E3,1.0049402E2],"tree_param":{"num_deleted":"0","num_feature":"16","num_nodes":"27","size_leaf_vector":"0"}},{"base_weights":[-8.754906E-2,-6.05978E-1,-5.1028963E-2,-1.6473363E-1,-8.186545E-1,4.8684487E-1,-6.976595E-2,-6.5347403E-1,3.649489E-1,4.234157E-2,-8.4092927E-1,7.6644874E-1,-1.80433E-1,-3.170136E-1,-2.5076283E-2,8.727063E-2,-2.5598413E-1,-9.985939E-2,2.0696378E-1,-2.6416492E-1,-1.3388287E-1,2.6958376E-1,-2.4552058E-1,2.1091089E-1,-1.9559404E-1,-3.1590316E-2,-2.598415E-1,-1.5824681E-2,9.2228316E-2],"categories":[0,1,4,5,6,8,9,0,1,2,3,4,5,6,8,9,0,1,2,3,0,8,7,1,4,5,6,8],"categories_nodes":[1,2,7,10,11,12,13],"categories_segments":[0,7,16,20,21,22,23],"categories_sizes":[7,9,4,1,1,1,5],"default_left":[0,1,1,0,0,0,0,1,0,0,1,1,1,1,0,0,0,0,0,0,0,0,0,0,0,0,0,0,0],"id":15,"left_children":[1,3,5,7,9,11,13,15,17,-1,19,21,23,25,27,-1,-1,-1,-1,-1,-1,-1,-1,-1,-1,-1,-1,-1,-1],"loss_changes":[3.1548323E1,1.01570015E1,1.5748486E1,9.796442E0,1.6954308E0,9.954749E0,1.6650745E1,3.9392128E0,4.3925796E0,0E0,7.363243E-1,8.541681E0,7.268029E0,2.6729809E1,1.1774965E1,0E0,0E0,0E0,0E0,0E0,0E0,0E0,0E0,0E0,0E0,0E0,0E0,0E0,0E0],"parents":[2147483647,0,0,1,1,2,2,3,3,4,4,5,5,6,6,7,7,8,8,10,10,11,11,12,12,13,13,14,14],"right_children":[2,4,6,8,10,12,14,16,18,-1,20,22,24,26,28,-1,-1,-1,-1,-1,-1,-1,-1,-1,-1,-1,-1,-1,-1],"split_conditions":[1.04E2,NaN,NaN,1E1,2.5E1,2.6E1,2.26E2,NaN,7.5E1,4.234157E-2,NaN,NaN,NaN,NaN,3E1,8.727063E-2,-2.5598413E-1,-9.985939E-2,2.0696378E-1,-2.6416492E-1,-1.3388287E-1,2.6958376E-1,-2.4552058E-1,2.1091089E-1,-1.9559404E-1,-3.1590316E-2,-2.598415E-1,-1.5824681E-2,9.2228316E-2],"split_indices":[11,10,10,9,0,9,11,10,11,0,2,1,10,10,9,0,0,0,0,0,0,0,0,0,0,0,0,0,0],"split_type":[0,1,1,0,0,0,0,1,0,0,1,1,1,1,0,0,0,0,0,0,0,0,0,0,0,0,0,0,0],"sum_hessian":[1.6669406E3,1.0867191E2,1.5582687E3,3.592081E1,7.275111E1,5.161443E1,1.5066542E3,1.8560888E1,1.735992E1,1.5290713E0,7.122203E1,3.6268517E1,1.5345913E1,2.297053E2,1.2769489E3,3.1616364E0,1.5399253E1,5.507567E0,1.1852354E1,6.3605297E1,7.616735E0,3.3876488E1,2.392027E0,5.169555E0,1.0176358E1,1.6664706E2,6.3058254E1,1.1796167E3,9.733225E1],"tree_param":{"num_deleted":"0","num_feature":"16","num_nodes":"29","size_leaf_vector":"0"}},{"base_weights":[-6.600409E-2,-5.3549266E-1,-3.7668683E-2,-1.4189194E-1,-7.574281E-1,9.897081E-2,-1.00421995E-1,-5.8030444E-1,2.4380793E-1,3.3751037E-2,-7.8347665E-1,1.859226E-1,-3.5391474E-1,-2.8325105E-1,-6.1711534E-3,6.386875E-2,-2.3973939E-1,2.4848981E-1,-2.2286147E-2,-2.4908145E-1,-1.1239629E-1,7.2062634E-2,-9.553329E-2,-1.723393E-1,1.0567683E-3,-6.5881386E-3,-1.3290538E-1,-1.2140463E-2,9.172745E-2],"categories":[0,1,4,5,6,8,9,0,1,3,2,4,5,0,1,2,3,0,0,2,3,7,10,1,2,3,4,5,6,8,9],"categories_nodes":[1,2,5,7,8,10,11,13],"categories_segments":[0,7,10,13,17,18,19,23],"categories_sizes":[7,3,3,4,1,1,4,8],"default_left":[0,1,1,0,0,1,0,1,1,0,1,1,0,1,0,0,0,0,0,0,0,0,0,0,0,0,0,0,0],"id":16,"left_children":[1,3,5,7,9,11,13,15,17,-1,19,21,23,25,27,-1,-1,-1,-1,-1,-1,-1,-1,-1,-1,-1,-1,-1,-1],"loss_changes":[2.1606945E1,7.969061E0,1.31655445E1,5.986557E0,1.4226379E0,1.910045E1,1.8124176E1,3.0295272E0,3.6113734E0,0E0,7.852135E-1,1.1197413E1,6.166789E0,1.4926243E1,7.4487624E0,0E0,0E0,0E0,0E0,0E0,0E0,0E0,0E0,0E0,0E0,0E0,0E0,0E0,0E0],"parents":[2147483647,0,0,1,1,2,2,3,3,4,4,5,5,6,6,7,7,8,8,10,10,11,11,12,12,13,13,14,14],"right_children":[2,4,6,8,10,12,14,16,18,-1,20,22,24,26,28,-1,-1,-1,-1,-1,-1,-1,-1,-1,-1,-1,-1,-1,-1],"split_conditions":[1.04E2,NaN,NaN,1E1,2.5E1,NaN,4.3E2,NaN,NaN,3.3751037E-2,NaN,NaN,3E0,NaN,1.226E3,6.386875E-2,-2.3973939E-1,2.4848981E-1,-2.2286147E-2,-2.4908145E-1,-1.1239629E-1,7.2062634E-2,-9.553329E-2,-1.723393E-1,1.0567683E-3,-6.5881386E-3,-1.3290538E-1,-1.2140463E-2,9.172745E-2],"split_indices":[11,10,3,9,0,10,11,10,6,0,2,1,12,10,11,0,0,0,0,0,0,0,0,0,0,0,0,0,0],"split_type":[0,1,1,0,0,1,0,1,1,0,1,1,0,1,0,0,0,0,0,0,0,0,0,0,0,0,0,0,0],"sum_hessian":[1.6247141E3,9.145757E1,1.5332565E3,3.3566677E1,5.7890896E1,4.82368E2,1.0508885E3,1.5473688E1,1.8092987E1,1.586551E0,5.6304344E1,4.0516736E2,7.720066E1,3.5678564E2,6.9410284E2,3.3516781E0,1.212201E1,5.811173E0,1.2281815E1,4.9596516E1,6.707826E0,3.6626874E2,3.8898605E1,4.7366764E1,2.9833895E1,1.3581107E2,2.2097458E2,6.2612933E2,6.797352E1],"tree_param":{"num_deleted":"0","num_feature":"16","num_nodes":"29","size_leaf_vector":"0"}},{"base_weights":[-5.015214E-2,-6.5522313E-1,-3.3949558E-2,-3.3006045E-1,-8.3673316E-1,-1.17440745E-1,6.0479876E-2,2.3012361E-1,-7.291939E-1,-8.182977E-3,-9.0080833E-1,-2.7985916E-2,-4.305881E-1,5.468648E-1,-3.3448573E-2,-1.8353158E-1,3.391932E-1,-5.2202716E-3,-2.4230894E-1,-2.796765E-1,-5.5711973E-2,2.2708626E-1,-1.6624168E-2,-1.7424665E-1,7.9728305E-2,2.5133228E-1,5.134592E-2,2.7708841E-2,-4.204192E-2],"categories":[0,1,3,0,1,2,4,5,6,7,8,9,10,0,1,2,3,4,5,6,7,9,0,4,1,2,3,4,5,6,7,8,9,10,0,1,2,3,4,5,6,8,9],"categories_nodes":[1,2,3,4,5,6,11],"categories_segments":[0,3,4,13,22,24,34],"categories_sizes":[3,1,9,9,2,10,9],"default_left":[0,1,1,1,1,1,1,0,0,0,0,1,0,0,0,0,0,0,0,0,0,0,0,0,0,0,0,0,0],"id":17,"left_children":[1,3,5,7,9,11,13,15,17,-1,19,21,23,25,27,-1,-1,-1,-1,-1,-1,-1,-1,-1,-1,-1,-1,-1,-1],"loss_changes":[1.5561964E1,2.1673927E0,1.2221202E1,3.8532753E0,1.3197384E0,2.3030285E1,3.326121E1,6.4673543E0,5.371847E-1,0E0,3.6626816E-1,1.3839505E1,1.9267498E1,1.2735596E1,8.211895E0,0E0,0E0,0E0,0E0,0E0,0E0,0E0,0E0,0E0,0E0,0E0,0E0,0E0,0E0],"parents":[2147483647,0,0,1,1,2,2,3,3,4,4,5,5,6,6,7,7,8,8,10,10,11,11,12,12,13,13,14,14],"right_children":[2,4,6,8,10,12,14,16,18,-1,20,22,24,26,28,-1,-1,-1,-1,-1,-1,-1,-1,-1,-1,-1,-1,-1,-1],"split_conditions":[8E1,NaN,NaN,NaN,NaN,NaN,NaN,6.5E1,1.8E1,-8.182977E-3,7.8E1,NaN,2.1E1,2.4E1,1.4E1,-1.8353158E-1,3.391932E-1,-5.2202716E-3,-2.4230894E-1,-2.796765E-1,-5.5711973E-2,2.2708626E-1,-1.6624168E-2,-1.7424665E-1,7.9728305E-2,2.5133228E-1,5.134592E-2,2.7708841E-2,-4.204192E-2],"split_indices":[11,3,6,10,1,10,10,11,11,0,11,10,9,9,9,0,0,0,0,0,0,0,0,0,0,0,0,0,0],"split_type":[0,1,1,1,1,1,1,0,0,0,0,1,0,0,0,0,0,0,0,0,0,0,0,0,0,0,0,0,0],"sum_hessian":[1.5886233E3,4.040213E1,1.5482212E3,1.5483294E1,2.4918839E1,8.215722E2,7.26649E2,6.6181536E0,8.86514E0,1.9324194E0,2.2986418E1,6.3987305E2,1.8169914E2,1.1683355E2,6.098154E2,3.5861301E0,3.0320232E0,1.0019534E0,7.863187E0,2.1727293E1,1.2591251E0,2.0706001E1,6.1916705E2,1.495914E2,3.210775E1,6.515495E1,5.1678593E1,2.7989478E2,3.2992065E2],"tree_param":{"num_deleted":"0","num_feature":"16","num_nodes":"29","size_leaf_vector":"0"}}]},"name":"gbtree"},"learner_model_param":{"base_score":"5E-1","boost_from_average":"1","num_class":"0","num_feature":"16","num_target":"1"},"objective":{"name":"binary:logistic","reg_loss_param":{"scale_pos_weight":"1"}}},"version":[1,7,6]}