{"learner":{"attributes":{"best_iteration":"28","best_ntree_limit":"29","best_score":"0.9802635051509291","scikit_learn":"{\"use_label_encoder\": null, \"n_estimators\": 500, \"objective\": \"binary:logistic\", \"max_depth\": 4, \"max_leaves\": null, \"max_bin\": null, \"grow_policy\": null, \"learning_rate\": null, \"verbosity\": null, \"booster\": null, \"tree_method\": \"approx\", \"gamma\": null, \"min_child_weight\": null, \"max_delta_step\": null, \"subsample\": null, \"sampling_method\": null, \"colsample_bytree\": null, \"colsample_bylevel\": null, \"colsample_bynode\": null, \"reg_alpha\": null, \"reg_lambda\": null, \"scale_pos_weight\": null, \"base_score\": null, \"missing\": NaN, \"num_parallel_tree\": null, \"random_state\": null, \"n_jobs\": null, \"monotone_constraints\": null, \"interaction_constraints\": null, \"importance_type\": null, \"gpu_id\": null, \"validate_parameters\": null, \"predictor\": null, \"enable_categorical\": false, \"feature_types\": null, \"max_cat_to_onehot\": null, \"max_cat_threshold\": null, \"eval_metric\": [\"logloss\", \"error\", \"auc\", \"aucpr\"], \"early_stopping_rounds\": 10, \"callbacks\": null, \"classes_\": [false, true], \"n_classes_\": 2, \"evals_result_\": {\"validation_0\": {\"logloss\": [0.5876005082986816, 0.528076952429806, 0.4874498988348312, 0.4614380174596224, 0.43266224487217203, 0.41483306488366944, 0.3975159639868048, 0.37905690930025693, 0.3662269098134603, 0.35693854293127203, 0.34311651332234394, 0.33548530442604085, 0.32783983493849406, 0.31855452392178557, 0.3120444652624654, 0.3056467160332509, 0.30312937706264004, 0.2947857486382587, 0.289213609540138, 0.28453131324123776, 0.28090070227970204, 0.27553851295190607, 0.2718299654945595, 0.26907615464343093, 0.2661661123081787, 0.2618723903884783, 0.26080509427591225, 0.25864127928676584, 0.25641084914946255, 0.2530298127458399, 0.25017869614156757, 0.24814975367303127, 0.24708102587195288, 0.24509668623137937, 0.2431648091850664, 0.24253608693448037, 0.24161729368924445, 0.2409037091363982, 0.23784226717093448], \"error\": [0.21475290697674418, 0.20899951550387597, 0.1928294573643411, 0.19222383720930233, 0.17853682170542637, 0.17217781007751937, 0.16521317829457363, 0.155765503875969, 0.14952761627906977, 0.1456516472868217, 0.14044331395348839, 0.1355377906976744, 0.1352955426356589, 0.12790697674418605, 0.12639292635658914, 0.1234859496124031, 0.12360707364341085, 0.11906492248062016, 0.11833817829457365, 0.11403827519379844, 0.11312984496124032, 0.1108890503875969, 0.10979893410852713, 0.10792151162790697, 0.10646802325581395, 0.10398498062015504, 0.10374273255813954, 0.10386385658914729, 0.1025920542635659, 0.10234980620155039, 0.1013202519379845, 0.09998788759689922, 0.09986676356589147, 0.09914001937984496, 0.09829215116279069, 0.09768653100775193, 0.09695978682170543, 0.09635416666666667, 0.09429505813953488], \"auc\": [0.8648024964845697, 0.8795351594278693, 0.8894377322211052, 0.8946424750805501, 0.9054097730364682, 0.9140489059377549, 0.9200530858753634, 0.9262599692103217, 0.9321958312491717, 0.934643428442487, 0.9396934963434187, 0.9426913651632577, 0.9444489148095216, 0.9477806441552743, 0.9489714861681553, 0.9514403288307401, 0.9516386713546816, 0.9542358031177877, 0.9553763149154799, 0.9568466719998261, 0.9579955378484322, 0.9594778303417865, 0.9604701092131842, 0.9613749352910366, 0.9621388676528163, 0.9630416272796943, 0.9632286815394169, 0.9638245327500637, 0.9643640455944684, 0.9652384705750692, 0.9658988597705928, 0.9665628229702925, 0.9667957215551883, 0.9671379655476882, 0.9676487245724862, 0.967809054693986, 0.9680133612454725, 0.9682362217322192, 0.9688816971819212], \"aucpr\": [0.8561316395326749, 0.8750133987726902, 0.8880510541923113, 0.8936987655218755, 0.9034106789741178, 0.9104932483666451, 0.916953044866386, 0.9240799142469693, 0.9307397238690436, 0.9330358722098752, 0.9386983640698991, 0.9420991445240996, 0.9439498795823947, 0.9472479632072659, 0.948336427374422, 0.9507112062014015, 0.95097368845576, 0.9537324853999839, 0.9546855043161456, 0.9561852442028589, 0.9574012081010279, 0.9587907215326164, 0.9598143872589731, 0.9606876731166342, 0.9615140606373412, 0.9623341455828478, 0.9625101247613447, 0.9630812825234848, 0.9635774573161792, 0.9644517566539731, 0.9650432569035685, 0.9656960565626354, 0.9658957652393428, 0.9663382697579497, 0.9668876700590449, 0.9670364801110961, 0.9672516131521388, 0.967463024173414, 0.968136661178744]}, \"validation_1\": {\"logloss\": [0.5943881545446871, 0.5387560030257748, 0.5170525778373776, 0.522775629802441, 0.5059157650116398, 0.5011396918972854, 0.49922264265546273, 0.4982977942599691, 0.49258229119862, 0.4822738440183908, 0.45950649185250547, 0.45810486865410394, 0.4685332492714055, 0.4708354060299868, 0.46280188844160197, 0.45662175159533186, 0.4637466410509773, 0.46764944835616523, 0.4321067400715249, 0.4266371977330066, 0.4213377797334047, 0.4066399114191543, 0.40470296675506295, 0.4031010047844413, 0.40018336305856367, 0.40286110723373125, 0.4033405604038357, 0.40141862016358476, 0.4019097704900602, 0.3994419128244744, 0.40371029715759, 0.40479566053133825, 0.40436213483674993, 0.40862254457886227, 0.4085463104243237, 0.40852986772482863, 0.4075903625366487, 0.40646532174055877, 0.39640510405359436], \"error\": [0.2315891472868217, 0.22238372093023256, 0.2877906976744186, 0.28391472868217055, 0.2543604651162791, 0.2567829457364341, 0.25193798449612403, 0.25387596899224807, 0.25387596899224807, 0.24903100775193798, 0.21608527131782945, 0.2185077519379845, 0.22044573643410853, 0.2194767441860465, 0.2180232558139535, 0.21560077519379844, 0.2248062015503876, 0.22674418604651161, 0.20203488372093023, 0.2005813953488372, 0.1996124031007752, 0.18507751937984496, 0.18507751937984496, 0.18604651162790697, 0.18604651162790697, 0.17926356589147288, 0.17974806201550386, 0.18023255813953487, 0.1739341085271318, 0.17199612403100775, 0.1744186046511628, 0.17635658914728683, 0.17587209302325582, 0.17684108527131784, 0.17829457364341086, 0.17926356589147288, 0.17926356589147288, 0.17877906976744187, 0.17151162790697674], \"auc\": [0.8070142951092035, 0.8245309958118445, 0.8311238794088124, 0.8359809283167768, 0.8590789519227441, 0.8603596275656779, 0.8630628915579246, 0.8707910768059257, 0.8752275795230349, 0.8747732857983455, 0.880943027240317, 0.8841499082759336, 0.8819995846457375, 0.8838046450451698, 0.8838072410093109, 0.8873740957391575, 0.8876639784015783, 0.8876639784015783, 0.8967117787546295, 0.8980166833962133, 0.8980166833962133, 0.900590149181406, 0.9006109168945347, 0.9012728877505105, 0.9017150669758749, 0.9003513204804264, 0.9001687376691704, 0.901528157557717, 0.9028096985220311, 0.9023934789380776, 0.9025414488941192, 0.9018145789346164, 0.9022783911944896, 0.90218320584265, 0.9019054376795542, 0.9019365892492471, 0.9017981378283895, 0.9020715793845835, 0.903514935447025], \"aucpr\": [0.9575529659467344, 0.9620595290940643, 0.9636522846688651, 0.9646087659147259, 0.9702832136108307, 0.9705661673365567, 0.9715401756117719, 0.9734050538290631, 0.9743444615610704, 0.9741911853614735, 0.9756307446276089, 0.9763143781752175, 0.9759727126956425, 0.9763174730128769, 0.9763584499429564, 0.9771306782009497, 0.9770424220743082, 0.9770424220743082, 0.9789060235725758, 0.9792351231879859, 0.9792351231879859, 0.9797615289458103, 0.9797509903875012, 0.9798761679331535, 0.9799835361671457, 0.9797407759788821, 0.9796637505122584, 0.9799656802993274, 0.9802635051509291, 0.980132785644653, 0.9801414130786614, 0.9799368332515622, 0.9800142540800731, 0.9800124072535915, 0.9799735240611719, 0.9799704023728318, 0.9799034963689511, 0.979962229085205, 0.9802571420811321]}}, \"_estimator_type\": \"classifier\"}"},"feature_names":["median_income","housing_median_age","total_rooms","total_bedrooms","population","households","latitude","longitude"],"feature_types":["float","float","float","float","float","float","float","float"],"gradient_booster":{"model":{"gbtree_model_param":{"num_parallel_tree":"1","num_trees":"39","size_leaf_vector":"0"},"tree_info":[0,0,0,0,0,0,0,0,0,0,0,0,0,0,0,0,0,0,0,0,0,0,0,0,0,0,0,0,0,0,0,0,0,0,0,0,0,0,0],"trees":[{"base_weights":[-1.00024216E-1,-8.0798143E-1,1.2278503E0,-1.3343055E0,-2.6185527E-1,7.509482E-1,1.8096712E0,-1.0697982E0,-1.6562626E0,-2.649899E-2,-1.5023696E0,-7.100592E-2,1.1364902E0,1.8170543E0,-3.3333337E-1,6.613227E-2,-3.9683545E-1,-3.268657E-1,-5.7768446E-1,9.737471E-2,-3.2742083E-1,-2.5074628E-1,-4.8571432E-1,1.628362E-1,-1.4482759E-1,3.8783154E-1,-4.851064E-2,4.6003434E-1,5.6881565E-1],"categories":[],"categories_nodes":[],"categories_segments":[],"categories_sizes":[],"default_left":[0,0,0,0,0,0,0,0,0,0,0,0,0,0,0,0,0,0,0,0,0,0,0,0,0,0,0,0,0],"id":0,"left_children":[1,3,5,7,9,11,13,15,17,19,21,23,25,27,-1,-1,-1,-1,-1,-1,-1,-1,-1,-1,-1,-1,-1,-1,-1],"loss_changes":[3.8825754E3,7.739404E2,3.9715967E2,1.1502515E2,3.8630005E2,2.5074692E2,1.5955078E1,2.469784E2,9.204553E1,4.1656262E2,1.5056549E1,6.4329346E1,1.0946179E2,1.1543213E1,0E0,0E0,0E0,0E0,0E0,0E0,0E0,0E0,0E0,0E0,0E0,0E0,0E0,0E0,0E0],"parents":[2147483647,0,0,1,1,2,2,3,3,4,4,5,5,6,6,7,7,8,8,9,9,10,10,11,11,12,12,13,13],"right_children":[2,4,6,8,10,12,14,16,18,20,22,24,26,28,-1,-1,-1,-1,-1,-1,-1,-1,-1,-1,-1,-1,-1,-1,-1],"split_conditions":[4.1016E0,2.8333E0,5.363E0,3.423E1,3.794E1,2.1E1,-1.1624E2,-1.1829E2,-1.2186E2,-1.1776E2,-1.2236E2,3.389E1,-1.1775E2,5.76E0,-3.3333337E-1,6.613227E-2,-3.9683545E-1,-3.268657E-1,-5.7768446E-1,9.737471E-2,-3.2742083E-1,-2.5074628E-1,-4.8571432E-1,1.628362E-1,-1.4482759E-1,3.8783154E-1,-4.851064E-2,4.6003434E-1,5.6881565E-1],"split_indices":[0,0,0,6,6,1,7,7,7,7,7,6,7,0,0,0,0,0,0,0,0,0,0,0,0,0,0,0,0],"split_type":[0,0,0,0,0,0,0,0,0,0,0,0,0,0,0,0,0,0,0,0,0,0,0,0,0,0,0,0,0],"sum_hessian":[4.128E3,2.69275E3,1.43525E3,1.3705E3,1.32225E3,7.9E2,6.4525E2,7.5475E2,6.1575E2,1.11225E3,2.1E2,2.525E2,5.375E2,6.44E2,1.25E0,1.2375E2,6.31E2,2E2,4.1575E2,8.37E2,2.7525E2,3.25E1,1.775E2,1.0125E2,1.5125E2,4.7975E2,5.775E1,1.4475E2,4.9925E2],"tree_param":{"num_deleted":"0","num_feature":"8","num_nodes":"29","size_leaf_vector":"0"}},{"base_weights":[-7.33543E-2,-6.612037E-1,7.993953E-1,-1.0809528E0,-3.335425E-1,3.4449324E-1,1.2996534E0,-8.851025E-1,-1.3220955E0,-1.687763E-1,-1.2248166E0,-2.681358E-1,6.4657426E-1,1.3553367E0,6.593927E-1,-3.5180405E-1,-5.8431473E-2,-4.2647025E-1,-1.3022433E-1,4.518288E-1,-9.5720224E-2,-2.3027107E-1,-3.9457384E-1,5.8001056E-2,-1.6192013E-1,2.3387286E-1,-2.8631568E-1,4.3043068E-1,2.7659824E-1,4.1670018E-1,5.2557554E-2],"categories":[],"categories_nodes":[],"categories_segments":[],"categories_sizes":[],"default_left":[0,0,0,0,0,0,0,0,0,0,0,0,0,0,0,0,0,0,0,0,0,0,0,0,0,0,0,0,0,0,0],"id":1,"left_children":[1,3,5,7,9,11,13,15,17,19,21,23,25,27,29,-1,-1,-1,-1,-1,-1,-1,-1,-1,-1,-1,-1,-1,-1,-1,-1],"loss_changes":[2.0434453E3,3.2695618E2,3.643606E2,4.8082764E1,1.9628003E2,1.5580392E2,2.6312622E1,1.1461951E2,4.0490112E1,2.8502194E2,7.6156616E0,3.5001526E1,1.2073599E2,2.2810303E1,2.20149E1,0E0,0E0,0E0,0E0,0E0,0E0,0E0,0E0,0E0,0E0,0E0,0E0,0E0,0E0,0E0,0E0],"parents":[2147483647,0,0,1,1,2,2,3,3,4,4,5,5,6,6,7,7,8,8,9,9,10,10,11,11,12,12,13,13,14,14],"right_children":[2,4,6,8,10,12,14,16,18,20,22,24,26,28,30,-1,-1,-1,-1,-1,-1,-1,-1,-1,-1,-1,-1,-1,-1,-1,-1],"split_conditions":[3.8542E0,2.5721E0,5.0463E0,3.422E1,3.795E1,2.2E1,3.797E1,3.405E1,5.2E1,-1.2223E2,-1.2236E2,3.389E1,3.799E1,-1.176E2,-1.2196E2,-3.5180405E-1,-5.8431473E-2,-4.2647025E-1,-1.3022433E-1,4.518288E-1,-9.5720224E-2,-2.3027107E-1,-3.9457384E-1,5.8001056E-2,-1.6192013E-1,2.3387286E-1,-2.8631568E-1,4.3043068E-1,2.7659824E-1,4.1670018E-1,5.2557554E-2],"split_indices":[0,0,0,6,6,1,6,6,1,7,7,6,6,7,7,0,0,0,0,0,0,0,0,0,0,0,0,0,0,0,0],"split_type":[0,0,0,0,0,0,0,0,0,0,0,0,0,0,0,0,0,0,0,0,0,0,0,0,0,0,0,0,0,0,0],"sum_hessian":[3.9809421E3,2.3788713E3,1.6020707E3,1.0418783E3,1.3369932E3,8.399571E2,7.621136E2,5.7750964E2,4.6436868E2,1.1293958E3,2.075974E2,2.7743112E2,5.6252594E2,7.0010846E2,6.200511E1,4.0718573E2,1.7032388E2,4.1705133E2,4.7317337E1,9.225601E1,1.0371396E3,3.584407E1,1.7175333E2,1.0289322E2,1.745379E2,5.198516E2,4.2674324E1,5.897041E2,1.1040437E2,2.3989061E1,3.8016052E1],"tree_param":{"num_deleted":"0","num_feature":"8","num_nodes":"31","size_leaf_vector":"0"}},{"base_weights":[-5.4943286E-2,-4.0214846E-1,8.490997E-1,-7.2585046E-1,-4.0949085E-3,5.748885E-1,1.2216451E0,-6.0207665E-1,-1.2824925E0,1.8316261E-1,-6.9875E-1,1.6987065E-2,8.31296E-1,1.3023098E0,9.9740255E-1,5.1883394E-1,-2.0138861E-1,-1.1980331E-3,-3.8678157E-1,1.7237613E-1,-8.4697455E-2,-4.4072807E-2,-4.1406927E-1,1.2968892E-1,-8.88149E-2,2.824137E-1,-1.0695929E-1,-2.4700513E-2,3.933771E-1,3.6262172E-1,-4.5644432E-1],"categories":[],"categories_nodes":[],"categories_segments":[],"categories_sizes":[],"default_left":[0,0,0,0,0,0,0,0,0,0,0,0,0,0,0,0,0,0,0,0,0,0,0,0,0,0,0,0,0,0,0],"id":2,"left_children":[1,3,5,7,9,11,13,15,17,19,21,23,25,27,29,-1,-1,-1,-1,-1,-1,-1,-1,-1,-1,-1,-1,-1,-1,-1,-1],"loss_changes":[1.1741831E3,3.4823465E2,1.0533923E2,1.0192139E2,1.5793008E2,8.578995E1,6.645813E0,1.9825543E2,2.3372498E0,1.7440863E2,9.674444E1,2.4815025E1,5.406833E1,4.069214E0,6.5967896E1,0E0,0E0,0E0,0E0,0E0,0E0,0E0,0E0,0E0,0E0,0E0,0E0,0E0,0E0,0E0,0E0],"parents":[2147483647,0,0,1,1,2,2,3,3,4,4,5,5,6,6,7,7,8,8,9,9,10,10,11,11,12,12,13,13,14,14],"right_children":[2,4,6,8,10,12,14,16,18,20,22,24,26,28,30,-1,-1,-1,-1,-1,-1,-1,-1,-1,-1,-1,-1,-1,-1,-1,-1],"split_conditions":[4.3833E0,3.1032E0,5.618E0,3.793E1,-1.1776E2,1.9E1,3.465E1,-1.2236E2,4.1E1,3.423E1,3.367E1,3.393E1,3.799E1,1.26E2,-1.2079E2,5.1883394E-1,-2.0138861E-1,-1.1980331E-3,-3.8678157E-1,1.7237613E-1,-8.4697455E-2,-4.4072807E-2,-4.1406927E-1,1.2968892E-1,-8.88149E-2,2.824137E-1,-1.0695929E-1,-2.4700513E-2,3.933771E-1,3.6262172E-1,-4.5644432E-1],"split_indices":[0,0,0,6,7,1,6,7,4,6,6,6,6,2,7,0,0,0,0,0,0,0,0,0,0,0,0,0,0,0,0],"split_type":[0,0,0,0,0,0,0,0,0,0,0,0,0,0,0,0,0,0,0,0,0,0,0,0,0,0,0,0,0,0,0],"sum_hessian":[3.738678E3,2.7016443E3,1.0370337E3,1.4895228E3,1.2121215E3,5.988181E2,4.3821555E2,1.2202682E3,2.692547E2,9.553303E2,2.5679117E2,1.8889005E2,4.0992807E2,3.1874783E2,1.194677E2,3.4491493E1,1.1857766E3,1.4285785E0,2.678261E2,5.188225E2,4.365078E2,1.4256352E2,1.1422765E2,8.101954E1,1.078705E2,3.753497E2,3.4578373E1,1.9937596E0,3.167541E2,1.107E2,8.767697E0],"tree_param":{"num_deleted":"0","num_feature":"8","num_nodes":"31","size_leaf_vector":"0"}},{"base_weights":[-4.0178422E-2,-2.8578618E-1,7.6135236E-1,-7.7347606E-1,-1.0473637E-1,5.0492775E-1,1.0726045E0,-8.7144184E-1,-2.1926762E-1,-2.0250392E-1,7.701264E-1,6.940704E-1,-1.5426019E-1,8.7202585E-1,1.1860443E0,-2.1462199E-1,-3.2384613E-1,4.1804012E-2,-3.182278E-1,1.473511E-2,-2.0117402E-1,3.9341664E-1,7.63909E-2,2.8574514E-1,9.4094634E-2,8.717083E-2,-3.6942822E-1,3.3999813E-1,1.8609764E-1,-1.2602839E-2,3.5923353E-1],"categories":[],"categories_nodes":[],"categories_segments":[],"categories_sizes":[],"default_left":[0,0,0,0,0,0,0,0,0,0,0,0,0,0,0,0,0,0,0,0,0,0,0,0,0,0,0,0,0,0,0],"id":3,"left_children":[1,3,5,7,9,11,13,15,17,19,21,23,25,27,29,-1,-1,-1,-1,-1,-1,-1,-1,-1,-1,-1,-1,-1,-1,-1,-1],"loss_changes":[6.866971E2,2.3566345E2,6.475946E1,3.9045715E1,1.6679579E2,5.6274345E1,7.3547363E0,1.9152802E1,3.331035E1,2.065214E2,5.436525E1,3.4131073E1,4.8876514E1,8.305206E0,3.3085938E0,0E0,0E0,0E0,0E0,0E0,0E0,0E0,0E0,0E0,0E0,0E0,0E0,0E0,0E0,0E0,0E0],"parents":[2147483647,0,0,1,1,2,2,3,3,4,4,5,5,6,6,7,7,8,8,9,9,10,10,11,11,12,12,13,13,14,14],"right_children":[2,4,6,8,10,12,14,16,18,20,22,24,26,28,30,-1,-1,-1,-1,-1,-1,-1,-1,-1,-1,-1,-1,-1,-1,-1,-1],"split_conditions":[4.5714E0,2.3935E0,5.5951E0,6.97E2,4.8E1,-1.1769E2,6.2917E0,3.443E1,-1.1803E2,3.427E1,-1.2223E2,3.457E1,3.392E1,3.402E1,1.25E2,-2.1462199E-1,-3.2384613E-1,4.1804012E-2,-3.182278E-1,1.473511E-2,-2.0117402E-1,3.9341664E-1,7.63909E-2,2.8574514E-1,9.4094634E-2,8.717083E-2,-3.6942822E-1,3.3999813E-1,1.8609764E-1,-1.2602839E-2,3.5923353E-1],"split_indices":[0,0,0,5,1,7,0,6,7,6,7,6,6,6,2,0,0,0,0,0,0,0,0,0,0,0,0,0,0,0,0],"split_type":[0,0,0,0,0,0,0,0,0,0,0,0,0,0,0,0,0,0,0,0,0,0,0,0,0,0,0,0,0,0,0],"sum_hessian":[3.4861072E3,2.6689285E3,8.171786E2,7.216807E2,1.9472478E3,4.4948956E2,3.6768903E2,6.127877E2,1.0889305E2,1.7522042E3,1.9504355E2,3.4923087E2,1.00258705E2,1.3596655E2,2.3172247E2,3.526995E2,2.600882E2,7.693882E1,3.195423E1,1.1401797E3,6.1202466E2,9.439024E1,1.0065331E2,2.0706897E2,1.421619E2,7.14732E1,2.8785503E1,6.499242E1,7.097414E1,2.1067328E0,2.2961574E2],"tree_param":{"num_deleted":"0","num_feature":"8","num_nodes":"31","size_leaf_vector":"0"}},{"base_weights":[-2.8941609E-2,-3.8199064E-1,3.409508E-1,-2.8836817E-1,-1.142894E0,1.710593E-1,9.0131134E-1,7.6841614E-3,-6.912296E-1,6.000016E-2,-1.1570716E0,9.702039E-1,7.245141E-3,1.030679E0,5.931985E-1,4.4252574E-1,-5.8918886E-2,-1.9092374E-2,-3.5318246E-1,-3.5236838E-1,-6.401972E-2,3.23987E-1,-4.1098145E-1,6.988594E-2,-2.525876E-1,3.1429923E-1,-4.5412308E-1,2.7360192E-1,-4.1510597E-1],"categories":[],"categories_nodes":[],"categories_segments":[],"categories_sizes":[],"default_left":[0,0,0,0,0,0,0,0,0,0,0,0,0,0,0,0,0,0,0,0,0,0,0,0,0,0,0,0,0],"id":4,"left_children":[1,3,5,7,9,11,13,15,17,-1,19,21,23,25,27,-1,-1,-1,-1,-1,-1,-1,-1,-1,-1,-1,-1,-1,-1],"loss_changes":[4.275843E2,1.1900963E2,1.520735E2,1.780755E2,3.7193756E0,1.607843E2,1.4207428E1,2.583067E2,1.9284238E2,0E0,2.7438507E0,5.514206E1,1.9576126E2,1.2843201E1,7.203466E1,0E0,0E0,0E0,0E0,0E0,0E0,0E0,0E0,0E0,0E0,0E0,0E0,0E0,0E0],"parents":[2147483647,0,0,1,1,2,2,3,3,4,4,5,5,6,6,7,7,8,8,10,10,11,11,12,12,13,13,14,14],"right_children":[2,4,6,8,10,12,14,16,18,-1,20,22,24,26,28,-1,-1,-1,-1,-1,-1,-1,-1,-1,-1,-1,-1,-1,-1],"split_conditions":[3.5048E0,-1.1714E2,5.347E0,3.425E1,1.5E1,-1.219E2,3.447E1,-1.1835E2,-1.2162E2,6.000016E-2,4.8E1,3.86E1,3.447E1,-1.1624E2,-1.2081E2,4.4252574E-1,-5.8918886E-2,-1.9092374E-2,-3.5318246E-1,-3.5236838E-1,-6.401972E-2,3.23987E-1,-4.1098145E-1,6.988594E-2,-2.525876E-1,3.1429923E-1,-4.5412308E-1,2.7360192E-1,-4.1510597E-1],"split_indices":[0,7,0,6,3,7,6,7,7,0,1,6,6,7,7,0,0,0,0,0,0,0,0,0,0,0,0,0,0],"split_type":[0,0,0,0,0,0,0,0,0,0,0,0,0,0,0,0,0,0,0,0,0,0,0,0,0,0,0,0,0],"sum_hessian":[3.2722485E3,1.6742266E3,1.598022E3,1.492025E3,1.8220157E2,1.2272473E3,3.7077463E2,8.605847E2,6.314403E2,1.7665507E0,1.8043501E2,2.0793634E2,1.01931104E3,2.5948093E2,1.1129371E2,1.0431312E2,7.562716E2,2.7608563E2,3.5535468E2,1.7691153E2,3.523487E0,1.9913539E2,8.800949E0,8.0585126E2,2.1345976E2,2.583446E2,1.1363055E0,9.630196E1,1.4991743E1],"tree_param":{"num_deleted":"0","num_feature":"8","num_nodes":"29","size_leaf_vector":"0"}},{"base_weights":[-2.3644648E-2,-1.5368225E-1,6.378353E-1,-6.689859E-2,-9.7916895E-1,4.757625E-1,1.0368192E0,6.8285966E-1,-2.1830735E-1,-1.3245748E0,-8.4321964E-1,6.156352E-1,-9.506033E-2,-7.425291E-2,1.0548589E0,2.987749E-1,9.037252E-2,-2.3296352E-2,-3.1534892E-1,8.113785E-2,-4.079725E-1,-3.3043373E-1,-1.939507E-1,2.7934632E-1,5.2428544E-2,8.370765E-2,-4.043991E-1,3.1803915E-1,5.034277E-2],"categories":[],"categories_nodes":[],"categories_segments":[],"categories_sizes":[],"default_left":[0,0,0,0,0,0,0,0,0,0,0,0,0,0,0,0,0,0,0,0,0,0,0,0,0,0,0,0,0],"id":5,"left_children":[1,3,5,7,9,11,13,15,17,19,21,23,25,-1,27,-1,-1,-1,-1,-1,-1,-1,-1,-1,-1,-1,-1,-1,-1],"loss_changes":[2.6356946E2,1.8337228E2,3.2059616E1,2.6329742E2,1.0317947E1,2.8788994E1,3.6107025E0,4.625815E1,2.2593127E2,4.1451645E0,8.303993E0,4.0059547E1,3.397604E1,0E0,4.8968506E-1,0E0,0E0,0E0,0E0,0E0,0E0,0E0,0E0,0E0,0E0,0E0,0E0,0E0,0E0],"parents":[2147483647,0,0,1,1,2,2,3,3,4,4,5,5,6,6,7,7,8,8,9,9,10,10,11,11,12,12,14,14],"right_children":[2,4,6,8,10,12,14,16,18,20,22,24,26,-1,28,-1,-1,-1,-1,-1,-1,-1,-1,-1,-1,-1,-1,-1,-1],"split_conditions":[4.8603E0,-1.1714E2,6.3525E0,3.387E1,3.274E1,-1.1763E2,1.25E2,1.318E3,-1.18E2,7E0,2.232E3,3.454E1,3.401E1,-7.425291E-2,-1.1648E2,2.987749E-1,9.037252E-2,-2.3296352E-2,-3.1534892E-1,8.113785E-2,-4.079725E-1,-3.3043373E-1,-1.939507E-1,2.7934632E-1,5.2428544E-2,8.370765E-2,-4.043991E-1,3.1803915E-1,5.034277E-2],"split_indices":[0,7,0,6,6,7,2,4,7,1,2,6,6,0,7,0,0,0,0,0,0,0,0,0,0,0,0,0,0],"split_type":[0,0,0,0,0,0,0,0,0,0,0,0,0,0,0,0,0,0,0,0,0,0,0,0,0,0,0,0,0],"sum_hessian":[3.0620063E3,2.559594E3,5.024123E2,2.3170798E3,2.4251424E2,3.5883917E2,1.435731E2,3.887123E2,1.9283674E3,6.602404E1,1.764902E2,2.8815262E2,7.068658E1,1.8125088E0,1.4176059E2,2.1265395E2,1.7605836E2,1.6506915E3,2.7767587E2,1.2866659E0,6.473737E1,7.432563E1,1.02164566E2,1.6730539E2,1.2084722E2,5.5032867E1,1.56537075E1,1.4072914E2,1.0314406E0],"tree_param":{"num_deleted":"0","num_feature":"8","num_nodes":"29","size_leaf_vector":"0"}},{"base_weights":[-1.6810298E-2,-3.2042494E-1,2.0478192E-1,-5.269609E-1,4.0917523E-2,3.223756E-1,-3.6461598E-1,-2.9117012E-1,-8.1490064E-1,2.6606593E-1,-6.85192E-1,8.134658E-3,5.466139E-1,-1.0839823E-1,-1.1432525E0,1.939974E-2,-1.9572647E-1,2.6375148E-1,-2.4851187E-1,1.334931E-1,-2.7885744E-1,-5.2865464E-2,-3.1672302E-1,5.1909633E-2,-3.3646914E-1,2.4923138E-1,5.8241863E-2,1.7854472E-1,-1.6440071E-1,-3.6595064E-1,-1.04359485E-1],"categories":[],"categories_nodes":[],"categories_segments":[],"categories_sizes":[],"default_left":[0,0,0,0,0,0,0,0,0,0,0,0,0,0,0,0,0,0,0,0,0,0,0,0,0,0,0,0,0,0,0],"id":6,"left_children":[1,3,5,7,9,11,13,15,17,19,21,23,25,27,29,-1,-1,-1,-1,-1,-1,-1,-1,-1,-1,-1,-1,-1,-1,-1,-1],"loss_changes":[1.9798184E2,9.26788E1,1.14024994E2,5.340367E1,7.415435E1,9.938786E1,5.8063366E1,5.6079075E1,8.833725E0,7.444656E1,2.0064827E1,1.0980337E2,8.228148E1,6.854046E1,3.967987E0,0E0,0E0,0E0,0E0,0E0,0E0,0E0,0E0,0E0,0E0,0E0,0E0,0E0,0E0,0E0,0E0],"parents":[2147483647,0,0,1,1,2,2,3,3,4,4,5,5,6,6,7,7,8,8,9,9,10,10,11,11,12,12,13,13,14,14],"right_children":[2,4,6,8,10,12,14,16,18,20,22,24,26,28,30,-1,-1,-1,-1,-1,-1,-1,-1,-1,-1,-1,-1,-1,-1,-1,-1],"split_conditions":[3.18E0,5.12E2,-1.1751E2,9.89E2,-1.1782E2,1.994E3,3.391E1,3.422E1,6.2E2,3.796E1,3.32E1,1.144E3,3.428E1,-1.1716E2,-1.1703E2,1.939974E-2,-1.9572647E-1,2.6375148E-1,-2.4851187E-1,1.334931E-1,-2.7885744E-1,-5.2865464E-2,-3.1672302E-1,5.1909633E-2,-3.3646914E-1,2.4923138E-1,5.8241863E-2,1.7854472E-1,-1.6440071E-1,-3.6595064E-1,-1.04359485E-1],"split_indices":[0,5,7,4,7,2,6,6,2,6,6,4,6,7,7,0,0,0,0,0,0,0,0,0,0,0,0,0,0,0,0],"split_type":[0,0,0,0,0,0,0,0,0,0,0,0,0,0,0,0,0,0,0,0,0,0,0,0,0,0,0,0,0,0,0],"sum_hessian":[2.9407395E3,1.2405515E3,1.7001881E3,7.890744E2,4.5147714E2,1.4095232E3,2.906649E2,4.3492783E2,3.5414655E2,3.4510294E2,1.0637421E2,5.873977E2,8.221255E2,2.1955684E2,7.1108055E1,2.1951982E2,2.15408E2,2.2871587E0,3.518594E2,3.0072894E2,4.437399E1,4.5438015E1,6.0936195E1,5.133176E2,7.408004E1,4.544226E2,3.6770285E2,8.4295525E1,1.3526132E2,6.4376045E1,6.7320113E0],"tree_param":{"num_deleted":"0","num_feature":"8","num_nodes":"31","size_leaf_vector":"0"}},{"base_weights":[-1.4816134E-2,-8.9691535E-2,5.928179E-1,7.4771774E-1,-1.5106583E-1,3.988088E-1,9.3522453E-1,1.5113657E0,-1.1696936E0,1.0366494E-2,-5.098631E-1,1.5124281E-1,7.116495E-1,-6.2140618E-2,9.5660895E-1,4.1813326E-1,6.3329554E-1,-3.5584912E-1,-1.2195457E-1,2.1581852E-1,-7.2531775E-2,2.025367E-2,-2.8025025E-1,-4.8964087E-2,1.9589677E-1,3.189075E-2,2.7759442E-1,2.9078642E-1,-9.295349E-3],"categories":[],"categories_nodes":[],"categories_segments":[],"categories_sizes":[],"default_left":[0,0,0,0,0,0,0,0,0,0,0,0,0,0,0,0,0,0,0,0,0,0,0,0,0,0,0,0,0],"id":7,"left_children":[1,3,5,7,9,11,13,15,17,19,21,23,25,-1,27,-1,-1,-1,-1,-1,-1,-1,-1,-1,-1,-1,-1,-1,-1],"loss_changes":[1.2798872E2,1.2882475E2,2.0128723E1,2.5241376E2,1.3520358E2,1.5284788E1,2.906746E0,5.7202454E0,1.3774872E-1,2.8814825E2,1.775125E2,1.781174E1,1.1222553E1,0E0,1.395134E0,0E0,0E0,0E0,0E0,0E0,0E0,0E0,0E0,0E0,0E0,0E0,0E0,0E0,0E0],"parents":[2147483647,0,0,1,1,2,2,3,3,4,4,5,5,6,6,7,7,8,8,9,9,10,10,11,11,12,12,14,14],"right_children":[2,4,6,8,10,12,14,16,18,20,22,24,26,-1,28,-1,-1,-1,-1,-1,-1,-1,-1,-1,-1,-1,-1,-1,-1],"split_conditions":[5.1386E0,-1.2237E2,6.2715E0,3.87E1,3.428E1,2.6E1,1.25E2,3.795E1,9.53E2,-1.1827E2,-1.2149E2,6.21E2,2.59E2,-6.2140618E-2,-1.1657E2,4.1813326E-1,6.3329554E-1,-3.5584912E-1,-1.2195457E-1,2.1581852E-1,-7.2531775E-2,2.025367E-2,-2.8025025E-1,-4.8964087E-2,1.9589677E-1,3.189075E-2,2.7759442E-1,2.9078642E-1,-9.295349E-3],"split_indices":[0,7,0,6,6,1,2,6,3,7,7,3,5,0,7,0,0,0,0,0,0,0,0,0,0,0,0,0,0],"split_type":[0,0,0,0,0,0,0,0,0,0,0,0,0,0,0,0,0,0,0,0,0,0,0,0,0,0,0,0,0],"sum_hessian":[2.8109656E3,2.5033447E3,3.0762097E2,1.7017966E2,2.333165E3,1.977434E2,1.0987758E2,1.2185872E2,4.832094E1,1.6098308E3,7.2333417E2,1.1121613E2,8.652727E1,1.8594453E0,1.08018135E2,1.04659035E2,1.7199684E1,4.6757626E1,1.5633117E0,4.2181403E2,1.1880167E3,3.067554E2,4.1657877E2,6.8782936E1,4.2433197E1,2.2964046E1,6.356322E1,1.0666724E2,1.3508947E0],"tree_param":{"num_deleted":"0","num_feature":"8","num_nodes":"29","size_leaf_vector":"0"}},{"base_weights":[-1.0678242E-2,-5.176535E-1,7.509437E-2,-7.448916E-1,-3.2942948E-1,-1.8604636E-1,2.4100454E-1,4.3441957E-1,-7.882024E-1,2.8867856E-1,-6.678836E-1,2.2235857E-2,-8.608669E-1,5.8879906E-1,6.4464755E-2,-1.2389394E-1,-3.061418E-1,3.8846818E-1,-2.6380104E-1,-5.54681E-2,-2.7631497E-1,-6.9198005E-2,7.35432E-2,-3.6296046E-1,-1.4522748E-1,2.1285272E-1,-5.5386484E-2,-1.7057909E-1,6.601994E-2],"categories":[],"categories_nodes":[],"categories_segments":[],"categories_sizes":[],"default_left":[0,0,0,0,0,0,0,0,0,0,0,0,0,0,0,0,0,0,0,0,0,0,0,0,0,0,0,0,0],"id":8,"left_children":[1,3,5,7,9,11,13,-1,15,17,19,21,23,25,27,-1,-1,-1,-1,-1,-1,-1,-1,-1,-1,-1,-1,-1,-1],"loss_changes":[1.1597994E2,1.6262032E1,9.888479E1,1.7673141E1,4.472868E1,1.2466997E2,8.564231E1,0E0,1.4510864E1,9.048543E1,1.6687183E1,3.8314667E1,2.6922195E1,4.3983566E1,9.14138E1,0E0,0E0,0E0,0E0,0E0,0E0,0E0,0E0,0E0,0E0,0E0,0E0,0E0,0E0],"parents":[2147483647,0,0,1,1,2,2,3,3,4,4,5,5,6,6,8,8,9,9,10,10,11,11,12,12,13,13,14,14],"right_children":[2,4,6,8,10,12,14,-1,16,18,20,22,24,26,28,-1,-1,-1,-1,-1,-1,-1,-1,-1,-1,-1,-1,-1,-1],"split_conditions":[2.1935E0,3.405E1,3.81E2,-1.1836E2,3.418E1,9.74E2,1.334E3,4.3441957E-1,3.387E1,-1.1822E2,-1.2224E2,2.45E2,3.25E2,3.793E1,5.33E2,-1.2389394E-1,-3.061418E-1,3.8846818E-1,-2.6380104E-1,-5.54681E-2,-2.7631497E-1,-6.9198005E-2,7.35432E-2,-3.6296046E-1,-1.4522748E-1,2.1285272E-1,-5.5386484E-2,-1.7057909E-1,6.601994E-2],"split_indices":[0,6,3,7,6,4,4,0,6,7,7,3,5,6,3,0,0,0,0,0,0,0,0,0,0,0,0,0,0],"split_type":[0,0,0,0,0,0,0,0,0,0,0,0,0,0,0,0,0,0,0,0,0,0,0,0,0,0,0,0,0],"sum_hessian":[2.6652559E3,3.8494287E2,2.280313E3,1.7305754E2,2.1188535E2,8.858592E2,1.3944539E3,2.7235188E0,1.7033403E2,7.502203E1,1.368633E2,6.7766583E2,2.0819337E2,4.6871683E2,9.25737E2,6.6188065E1,1.0414596E2,4.0244125E1,3.477791E1,4.7662754E1,8.920055E1,3.1746155E2,3.6020428E2,1.069324E2,1.0126098E2,4.055103E2,6.3206516E1,1.8212239E2,7.436146E2],"tree_param":{"num_deleted":"0","num_feature":"8","num_nodes":"29","size_leaf_vector":"0"}},{"base_weights":[-1.0219128E-2,-1.1038233E-1,3.0286855E-1,-5.709177E-2,-6.8768686E-1,4.3777058E-1,-1.0558446E-1,7.765813E-1,-1.2284801E-1,-8.947334E-1,-4.4876522E-1,-1.0148092E-1,5.4021823E-1,2.1529087E-1,-8.37733E-1,1.4769061E-1,3.8125935E-1,-1.5521593E-2,-3.0809978E-1,-2.7917048E-1,5.8074616E-2,-1.9460779E-2,-2.372276E-1,7.1846895E-2,-4.8535922E-1,2.0408107E-1,-2.397028E-2,2.3311907E-1,-6.275097E-2,-1.7303362E-1,-4.603338E-1],"categories":[],"categories_nodes":[],"categories_segments":[],"categories_sizes":[],"default_left":[0,0,0,0,0,0,0,0,0,0,0,0,0,0,0,0,0,0,0,0,0,0,0,0,0,0,0,0,0,0,0],"id":9,"left_children":[1,3,5,7,9,11,13,15,17,19,21,23,25,27,29,-1,-1,-1,-1,-1,-1,-1,-1,-1,-1,-1,-1,-1,-1,-1,-1],"loss_changes":[8.165685E1,6.0649662E1,3.4822212E1,9.9156586E1,7.840645E0,2.6275772E1,3.7181614E1,1.795713E1,1.0769041E2,3.6221008E0,1.0367891E1,4.0001575E1,3.470822E1,2.6464237E1,7.877781E0,0E0,0E0,0E0,0E0,0E0,0E0,0E0,0E0,0E0,0E0,0E0,0E0,0E0,0E0,0E0,0E0],"parents":[2147483647,0,0,1,1,2,2,3,3,4,4,5,5,6,6,7,7,8,8,9,9,10,10,11,11,12,12,13,13,14,14],"right_children":[2,4,6,8,10,12,14,16,18,20,22,24,26,28,30,-1,-1,-1,-1,-1,-1,-1,-1,-1,-1,-1,-1,-1,-1,-1,-1],"split_conditions":[4.3088E0,-1.1714E2,-1.1773E2,3.37E1,3.0806E0,1.321E3,3.386E1,2.7E1,-1.1775E2,4.8E1,2E1,6.62E2,3.798E1,-1.1715E2,2.3E1,1.4769061E-1,3.8125935E-1,-1.5521593E-2,-3.0809978E-1,-2.7917048E-1,5.8074616E-2,-1.9460779E-2,-2.372276E-1,7.1846895E-2,-4.8535922E-1,2.0408107E-1,-2.397028E-2,2.3311907E-1,-6.275097E-2,-1.7303362E-1,-4.603338E-1],"split_indices":[0,7,7,6,0,2,6,1,7,1,1,4,6,7,1,0,0,0,0,0,0,0,0,0,0,0,0,0,0,0,0],"split_type":[0,0,0,0,0,0,0,0,0,0,0,0,0,0,0,0,0,0,0,0,0,0,0,0,0,0,0,0,0,0,0],"sum_hessian":[2.601799E3,1.971669E3,6.301301E2,1.8060525E3,1.6561652E2,4.7362997E2,1.5650015E2,1.3124812E2,1.6748043E3,8.725634E1,7.836017E1,7.561681E1,3.9801318E2,1.0930257E2,4.7197582E1,8.4592224E1,4.66559E1,1.5536691E3,1.211352E2,8.461517E1,2.6411672E0,3.7478886E1,4.0881283E1,6.2422657E1,1.3194157E1,3.246051E2,7.340805E1,4.668474E1,6.261783E1,3.566652E1,1.1531062E1],"tree_param":{"num_deleted":"0","num_feature":"8","num_nodes":"31","size_leaf_vector":"0"}},{"base_weights":[-8.097784E-3,6.278653E-1,-5.0027207E-2,1.1779934E0,-1.0525292E0,8.387062E-2,-3.698693E-1,2.1055429E-1,1.2640649E0,-3.2111993E-1,-1.07577264E-1,7.3685503E-1,-5.937914E-2,-1.8227424E-2,-1.1643627E0,1.9289233E-1,-2.5866893E-1,4.8964998E-1,3.576115E-1,2.7607688E-1,1.7676024E-2,-5.2015428E-2,1.01114385E-1,2.1467827E-1,-7.5077966E-2,1.2801354E-1,-3.704343E-1],"categories":[],"categories_nodes":[],"categories_segments":[],"categories_sizes":[],"default_left":[0,0,0,0,0,0,0,0,0,0,0,0,0,0,0,0,0,0,0,0,0,0,0,0,0,0,0],"id":10,"left_children":[1,3,5,7,9,11,13,15,17,-1,-1,19,21,23,25,-1,-1,-1,-1,-1,-1,-1,-1,-1,-1,-1,-1],"loss_changes":[6.714394E1,1.4521643E2,1.0118975E2,9.54335E0,9.907532E-2,1.5586697E2,1.9476883E2,5.575806E0,9.173126E-1,0E0,0E0,3.7218124E1,6.1843163E1,8.264633E1,2.449231E1,0E0,0E0,0E0,0E0,0E0,0E0,0E0,0E0,0E0,0E0,0E0,0E0],"parents":[2147483647,0,0,1,1,2,2,3,3,4,4,5,5,6,6,7,7,8,8,11,11,12,12,13,13,14,14],"right_children":[2,4,6,8,10,12,14,16,18,-1,-1,20,22,24,26,-1,-1,-1,-1,-1,-1,-1,-1,-1,-1,-1,-1],"split_conditions":[-1.2235E2,3.868E1,3.448E1,1.8911E0,9.57E2,-1.1832E2,-1.2091E2,3.781E1,2.6561E0,-3.2111993E-1,-1.07577264E-1,3.421E1,3.407E1,3.772E1,2.3E2,1.9289233E-1,-2.5866893E-1,4.8964998E-1,3.576115E-1,2.7607688E-1,1.7676024E-2,-5.2015428E-2,1.01114385E-1,2.1467827E-1,-7.5077966E-2,1.2801354E-1,-3.704343E-1],"split_indices":[7,6,6,0,3,7,7,6,0,0,0,6,6,6,4,0,0,0,0,0,0,0,0,0,0,0,0],"split_type":[0,0,0,0,0,0,0,0,0,0,0,0,0,0,0,0,0,0,0,0,0,0,0,0,0,0,0],"sum_hessian":[2.515824E3,1.5474593E2,2.3610781E3,1.1680519E2,3.7940746E1,1.6648483E3,6.962298E2,9.824501E0,1.0698069E2,3.645933E1,1.4814141E0,2.9877582E2,1.3660725E3,4.8333096E2,2.128988E2,7.287635E0,2.5368664E0,1.3962544E1,9.301814E1,2.3487723E2,6.389857E1,1.0613959E3,3.046766E2,1.1561261E2,3.6771835E2,8.808754E0,2.0409004E2],"tree_param":{"num_deleted":"0","num_feature":"8","num_nodes":"27","size_leaf_vector":"0"}},{"base_weights":[-6.2946593E-3,-4.3479472E-2,6.8274856E-1,-2.207949E-1,1.0317804E-1,-6.0550533E-3,7.518726E-1,1.4412294E-1,-4.3236947E-1,3.9729375E-1,-7.2522104E-2,-7.42571E-1,3.750591E-1,9.6677816E-1,5.5870324E-1,-3.7341673E-2,1.5058045E-1,-2.6328757E-1,-8.025175E-2,1.7792425E-1,1.9467402E-2,-1.6974206E-1,3.716025E-2,1.18289795E-2,-3.5634872E-1,2.4234623E-1,2.1092683E-2,3.0572957E-1,-9.358468E-2,2.1257986E-1,-1.9632904E-1],"categories":[],"categories_nodes":[],"categories_segments":[],"categories_sizes":[],"default_left":[0,0,0,0,0,0,0,0,0,0,0,0,0,0,0,0,0,0,0,0,0,0,0,0,0,0,0,0,0,0,0],"id":11,"left_children":[1,3,5,7,9,11,13,15,17,19,21,23,25,27,29,-1,-1,-1,-1,-1,-1,-1,-1,-1,-1,-1,-1,-1,-1,-1,-1],"loss_changes":[6.2073826E1,5.9793793E1,5.9108467E0,8.041991E1,6.5072205E1,3.7325876E0,4.140175E0,3.6845127E1,4.8145576E1,3.0605675E1,7.6486275E1,1.624754E0,1.1003067E0,3.7968712E0,1.1691378E1,0E0,0E0,0E0,0E0,0E0,0E0,0E0,0E0,0E0,0E0,0E0,0E0,0E0,0E0,0E0,0E0],"parents":[2147483647,0,0,1,1,2,2,3,3,4,4,5,5,6,6,7,7,8,8,9,9,10,10,11,11,12,12,13,13,14,14],"right_children":[2,4,6,8,10,12,14,16,18,20,22,24,26,28,30,-1,-1,-1,-1,-1,-1,-1,-1,-1,-1,-1,-1,-1,-1,-1,-1],"split_conditions":[5.741E0,4.2E2,1.44E2,6.98E2,1.505E3,6.2575E0,3.404E1,2.01E2,2.84E2,3.438E1,6.37E2,7.4E1,-1.2088E2,-1.1644E2,-1.178E2,-3.7341673E-2,1.5058045E-1,-2.6328757E-1,-8.025175E-2,1.7792425E-1,1.9467402E-2,-1.6974206E-1,3.716025E-2,1.18289795E-2,-3.5634872E-1,2.4234623E-1,2.1092683E-2,3.0572957E-1,-9.358468E-2,2.1257986E-1,-1.9632904E-1],"split_indices":[0,3,5,4,4,0,6,5,3,6,3,3,7,7,7,0,0,0,0,0,0,0,0,0,0,0,0,0,0,0,0],"split_type":[0,0,0,0,0,0,0,0,0,0,0,0,0,0,0,0,0,0,0,0,0,0,0,0,0,0,0,0,0,0,0],"sum_hessian":[2.4205234E3,2.297475E3,1.2304833E2,1.0398025E3,1.2576727E3,1.1305382E1,1.1174295E2,3.8172784E2,6.580746E2,4.698685E2,7.878042E2,3.5317447E0,7.773637E0,5.099971E1,6.074324E1,2.1842044E2,1.6330742E2,1.7665364E2,4.8142093E2,2.952061E2,1.7466243E2,2.2379712E2,5.640071E2,1.6120199E0,1.9197248E0,2.5300565E0,5.2435803E0,4.9190086E1,1.8096238E0,5.443329E1,6.309952E0],"tree_param":{"num_deleted":"0","num_feature":"8","num_nodes":"31","size_leaf_vector":"0"}},{"base_weights":[-3.9407304E-3,-3.3133042E-1,5.681936E-2,4.3896505E-1,-3.8511944E-1,7.2479784E-1,2.2777019E-2,8.800527E-1,-2.6037765E-1,-3.1299758E-1,-9.0849006E-1,1.1419139E0,-9.053137E-1,1.2741481E-1,-1.9536476E-1,-4.2704493E-2,4.972674E-1,-1.7495522E-1,1.4358217E-1,-1.0277199E-1,4.791914E-1,-2.858723E-1,3.7472855E-2,-1.7483963E-2,3.5275888E-1,-1.6519524E-1,-3.0642805E-1,3.2112667E-1,1.1069001E-2,2.7206816E-2,-2.284101E-1],"categories":[],"categories_nodes":[],"categories_segments":[],"categories_sizes":[],"default_left":[0,0,0,0,0,0,0,0,0,0,0,0,0,0,0,0,0,0,0,0,0,0,0,0,0,0,0,0,0,0,0],"id":12,"left_children":[1,3,5,7,9,11,13,15,17,19,21,23,25,27,29,-1,-1,-1,-1,-1,-1,-1,-1,-1,-1,-1,-1,-1,-1,-1,-1],"loss_changes":[4.733225E1,1.5601753E1,4.56222E1,7.8727226E0,1.2877487E1,6.718689E1,4.36389E1,1.2496347E1,2.749407E0,1.7947914E1,2.033348E0,3.243042E0,2.7684593E-1,1.1023768E2,1.00420616E2,0E0,0E0,0E0,0E0,0E0,0E0,0E0,0E0,0E0,0E0,0E0,0E0,0E0,0E0,0E0,0E0],"parents":[2147483647,0,0,1,1,2,2,3,3,4,4,5,5,6,6,7,7,8,8,9,9,10,10,11,11,12,12,13,13,14,14],"right_children":[2,4,6,8,10,12,14,16,18,20,22,24,26,28,30,-1,-1,-1,-1,-1,-1,-1,-1,-1,-1,-1,-1,-1,-1,-1,-1],"split_conditions":[2.3173E0,3.17E2,-1.2239E2,3.661E1,3.789E1,3.868E1,3.423E1,3.4E1,5E2,3.786E1,-1.2071E2,1.7E1,1.9E1,-1.1837E2,-1.2094E2,-4.2704493E-2,4.972674E-1,-1.7495522E-1,1.4358217E-1,-1.0277199E-1,4.791914E-1,-2.858723E-1,3.7472855E-2,-1.7483963E-2,3.5275888E-1,-1.6519524E-1,-3.0642805E-1,3.2112667E-1,1.1069001E-2,2.7206816E-2,-2.284101E-1],"split_indices":[0,4,7,6,6,6,6,6,2,6,7,1,1,7,7,0,0,0,0,0,0,0,0,0,0,0,0,0,0,0,0],"split_type":[0,0,0,0,0,0,0,0,0,0,0,0,0,0,0,0,0,0,0,0,0,0,0,0,0,0,0,0,0,0,0],"sum_hessian":[2.3774883E3,3.7146957E2,2.0060187E3,2.377888E1,3.4769067E2,9.629175E1,1.9097269E3,1.4423393E1,9.355486E0,3.0698535E2,4.070535E1,7.691109E1,1.9380667E1,1.290918E3,6.1880896E2,6.5833545E0,7.8400393E0,6.6579595E0,2.6975265E0,3.0311316E2,3.8721926E0,3.9102535E1,1.6028161E0,2.09597E0,7.481512E1,6.196394E0,1.3184273E1,1.1211296E2,1.178805E3,4.1161893E2,2.0719E2],"tree_param":{"num_deleted":"0","num_feature":"8","num_nodes":"31","size_leaf_vector":"0"}},{"base_weights":[-2.2066403E-3,6.266513E-2,-3.005356E-1,5.379496E-1,-2.1417616E-2,-4.927078E-2,-8.3705395E-1,-8.459483E-2,6.5017635E-1,-4.929861E-1,8.906945E-2,4.7867665E-1,-3.8703686E-1,4.4728044E-1,-8.7841713E-1,1.3852613E-1,-2.6043552E-1,2.836797E-1,1.0411614E-1,-3.5891637E-2,-3.4250388E-1,1.0803934E-1,-3.9257288E-2,2.3389806E-1,-1.1107696E-1,-2.3866488E-1,-1.6233265E-2,-3.0334032E-1,-9.786378E-2],"categories":[],"categories_nodes":[],"categories_segments":[],"categories_sizes":[],"default_left":[0,0,0,0,0,0,0,0,0,0,0,0,0,0,0,0,0,0,0,0,0,0,0,0,0,0,0,0,0],"id":13,"left_children":[1,3,5,7,9,11,13,15,17,19,21,23,25,-1,27,-1,-1,-1,-1,-1,-1,-1,-1,-1,-1,-1,-1,-1,-1],"loss_changes":[4.4612083E1,7.568037E1,5.5462887E1,1.9943016E1,8.391822E1,5.037747E1,1.3948936E1,1.9391556E1,2.1279709E1,7.390737E1,7.784751E1,2.8462906E1,2.3377449E1,0E0,9.167892E0,0E0,0E0,0E0,0E0,0E0,0E0,0E0,0E0,0E0,0E0,0E0,0E0,0E0,0E0],"parents":[2147483647,0,0,1,1,2,2,3,3,4,4,5,5,6,6,7,7,8,8,9,9,10,10,11,11,12,12,14,14],"right_children":[2,4,6,8,10,12,14,16,18,20,22,24,26,-1,28,-1,-1,-1,-1,-1,-1,-1,-1,-1,-1,-1,-1,-1,-1],"split_conditions":[-1.175E2,3.386E1,3.365E1,1.226E3,3.4E1,-1.1715E2,1.4E1,6.22E2,1.407E3,3.7E1,3.453E1,3.319E1,2.227E3,4.4728044E-1,-1.1692E2,1.3852613E-1,-2.6043552E-1,2.836797E-1,1.0411614E-1,-3.5891637E-2,-3.4250388E-1,1.0803934E-1,-3.9257288E-2,2.3389806E-1,-1.1107696E-1,-2.3866488E-1,-1.6233265E-2,-3.0334032E-1,-9.786378E-2],"split_indices":[7,6,6,2,6,7,3,4,4,1,6,6,2,0,7,0,0,0,0,0,0,0,0,0,0,0,0,0,0],"split_type":[0,0,0,0,0,0,0,0,0,0,0,0,0,0,0,0,0,0,0,0,0,0,0,0,0,0,0,0,0],"sum_hessian":[2.3031887E3,1.8924619E3,4.1072678E2,2.8365894E2,1.608803E3,2.8046835E2,1.3025842E2,4.3362812E1,2.4029613E2,3.0472934E2,1.3040736E3,1.09264534E2,1.7120381E2,1.662198E0,1.2859622E2,2.5790115E1,1.7572699E1,1.206203E2,1.1967583E2,1.9416472E2,1.1056463E2,5.838441E2,7.202295E2,8.0725464E1,2.8539072E1,7.6251175E1,9.495264E1,1.0300808E2,2.5588135E1],"tree_param":{"num_deleted":"0","num_feature":"8","num_nodes":"29","size_leaf_vector":"0"}},{"base_weights":[-2.4197823E-3,-5.7139605E-2,3.4189168E-1,1.3524998E-2,-3.428851E-1,8.5252386E-1,2.467437E-1,7.2395444E-2,-3.9334148E-1,-8.815058E-2,-7.6564455E-1,-1.5434611E-1,9.058744E-1,4.7320166E-1,-3.6868718E-1,3.0511618E-1,7.99E-3,-1.8139851E-1,1.4892355E-1,1.3149914E-1,-1.031759E-1,3.5951775E-1,-2.511965E-1,1.495717E-1,3.0483624E-1,-5.1899785E-3,2.0390329E-1,2.65243E-2,-4.0048483E-1],"categories":[],"categories_nodes":[],"categories_segments":[],"categories_sizes":[],"default_left":[0,0,0,0,0,0,0,0,0,0,0,0,0,0,0,0,0,0,0,0,0,0,0,0,0,0,0,0,0],"id":14,"left_children":[1,3,5,7,9,11,13,15,17,19,21,-1,23,25,27,-1,-1,-1,-1,-1,-1,-1,-1,-1,-1,-1,-1,-1,-1],"loss_changes":[4.2304806E1,3.912572E1,1.474995E1,3.7257107E1,4.1304413E1,3.9635353E0,3.654428E1,5.8706966E1,3.726924E1,3.2583633E1,2.1319786E1,0E0,1.5821762E0,1.9376179E1,3.1370071E1,0E0,0E0,0E0,0E0,0E0,0E0,0E0,0E0,0E0,0E0,0E0,0E0,0E0,0E0],"parents":[2147483647,0,0,1,1,2,2,3,3,4,4,5,5,6,6,7,7,8,8,9,9,10,10,12,12,13,13,14,14],"right_children":[2,4,6,8,10,12,14,16,18,20,22,-1,24,26,28,-1,-1,-1,-1,-1,-1,-1,-1,-1,-1,-1,-1,-1,-1],"split_conditions":[4.8311E0,-1.1777E2,-1.2193E2,3.798E1,3.365E1,6E0,3.465E1,-1.2236E2,-1.2122E2,-1.1721E2,1.49E2,-1.5434611E-1,1.572E3,1.658E3,-1.2008E2,3.0511618E-1,7.99E-3,-1.8139851E-1,1.4892355E-1,1.3149914E-1,-1.031759E-1,3.5951775E-1,-2.511965E-1,1.495717E-1,3.0483624E-1,-5.1899785E-3,2.0390329E-1,2.65243E-2,-4.0048483E-1],"split_indices":[0,7,7,6,6,1,6,7,7,7,4,0,2,2,7,0,0,0,0,0,0,0,0,0,0,0,0,0,0],"split_type":[0,0,0,0,0,0,0,0,0,0,0,0,0,0,0,0,0,0,0,0,0,0,0,0,0,0,0,0,0],"sum_hessian":[2.243362E3,1.9364458E3,3.069163E2,1.553275E3,3.8317084E2,4.6956123E1,2.5996017E2,1.3576549E3,1.9562013E2,2.3985452E2,1.433163E2,1.4390668E0,4.551706E1,1.9020296E2,6.975722E1,6.1749386E1,1.2959055E3,1.5833525E2,3.728488E1,7.819086E1,1.6166367E2,4.4926653E0,1.3882364E2,1.0872246E1,3.4644814E1,5.661805E1,1.3358492E2,4.7972008E1,2.1785213E1],"tree_param":{"num_deleted":"0","num_feature":"8","num_nodes":"29","size_leaf_vector":"0"}},{"base_weights":[-1.7300422E-3,-1.01275995E-1,1.5846117E-1,4.5353726E-2,-4.284666E-1,3.437575E-1,-7.4692026E-2,-8.4469534E-2,3.0059683E-1,-8.982278E-1,-3.0087483E-1,-1.1060039E-1,4.4920078E-1,-8.1480896E-1,9.292679E-2,2.8827202E-2,-1.356617E-1,-8.03735E-2,1.3262473E-1,1.9729544E-1,-2.9392564E-1,-5.9732635E-2,-2.673602E-1,-1.14435494E-1,1.4528476E-1,8.897683E-2,2.4458092E-1,-2.6445696E-1,2.2248001E-1,1.3682511E-1,-8.322536E-3],"categories":[],"categories_nodes":[],"categories_segments":[],"categories_sizes":[],"default_left":[0,0,0,0,0,0,0,0,0,0,0,0,0,0,0,0,0,0,0,0,0,0,0,0,0,0,0,0,0,0,0],"id":15,"left_children":[1,3,5,7,9,11,13,15,17,19,21,23,25,27,29,-1,-1,-1,-1,-1,-1,-1,-1,-1,-1,-1,-1,-1,-1,-1,-1],"loss_changes":[3.4651756E1,6.431587E1,3.600582E1,3.0721403E1,2.4593826E1,2.2289791E1,4.5928734E1,4.0866364E1,2.525735E1,1.1819435E1,1.9510963E1,1.4402605E1,2.0818367E1,7.751171E0,1.3258076E1,0E0,0E0,0E0,0E0,0E0,0E0,0E0,0E0,0E0,0E0,0E0,0E0,0E0,0E0,0E0,0E0],"parents":[2147483647,0,0,1,1,2,2,3,3,4,4,5,5,6,6,7,7,8,8,9,9,10,10,11,11,12,12,13,13,14,14],"right_children":[2,4,6,8,10,12,14,16,18,20,22,24,26,28,30,-1,-1,-1,-1,-1,-1,-1,-1,-1,-1,-1,-1,-1,-1,-1,-1],"split_conditions":[2.453E3,1.126E3,2.031E3,3.29E2,3.53E2,2.9194E0,7.66E2,7.63E2,2E1,7.2E2,-1.1788E2,7.29E2,6.91E2,5.6874E0,2.474E3,2.8827202E-2,-1.356617E-1,-8.03735E-2,1.3262473E-1,1.9729544E-1,-2.9392564E-1,-5.9732635E-2,-2.673602E-1,-1.14435494E-1,1.4528476E-1,8.897683E-2,2.4458092E-1,-2.6445696E-1,2.2248001E-1,1.3682511E-1,-8.322536E-3],"split_indices":[2,4,4,3,5,0,3,4,1,2,7,5,3,0,4,0,0,0,0,0,0,0,0,0,0,0,0,0,0,0,0],"split_type":[0,0,0,0,0,0,0,0,0,0,0,0,0,0,0,0,0,0,0,0,0,0,0,0,0,0,0,0,0,0,0],"sum_hessian":[2.1710098E3,1.3391831E3,8.318268E2,9.2535065E2,4.138324E2,4.6321585E2,3.6861093E2,6.1381665E2,3.11534E2,8.7102554E1,3.2672983E2,8.72414E1,3.7597446E2,6.735323E1,3.012577E2,4.121753E2,2.0164136E2,6.1903534E1,2.4963046E2,3.984876E0,8.3117676E1,2.7982773E2,4.6902115E1,6.0193825E1,2.7047579E1,2.6662903E2,1.0934542E2,6.500065E1,2.3525836E0,7.444197E1,2.2681573E2],"tree_param":{"num_deleted":"0","num_feature":"8","num_nodes":"31","size_leaf_vector":"0"}},{"base_weights":[-2.1401208E-3,-2.076625E-2,7.586483E-1,-8.538717E-3,-9.8061216E-1,1.5383738E-1,8.4370804E-1,6.514557E-1,-3.55781E-2,1.0918704E-1,-3.1604415E-1,2.2839293E-1,-2.1147177E-1,6.413699E-1,1.0173495E0,2.639207E-1,-2.0057705E-1,1.1636092E-2,-6.8281196E-2,2.089665E-1,-2.5292104E-1,2.755148E-1,2.585052E-2,3.1744665E-1,1.3155395E-1],"categories":[],"categories_nodes":[],"categories_segments":[],"categories_sizes":[],"default_left":[0,0,0,0,0,0,0,0,0,0,0,0,0,0,0,0,0,0,0,0,0,0,0,0,0],"id":16,"left_children":[1,3,5,7,9,11,13,15,17,-1,-1,-1,19,21,23,-1,-1,-1,-1,-1,-1,-1,-1,-1,-1],"loss_changes":[3.0305977E1,2.4490961E1,2.499506E0,3.6824703E1,2.9551811E0,1.8308238E0,9.139404E-1,2.506084E1,2.831151E1,0E0,0E0,0E0,3.7309346E0,3.5038252E0,6.2417984E-2,0E0,0E0,0E0,0E0,0E0,0E0,0E0,0E0,0E0,0E0],"parents":[2147483647,0,0,1,1,2,2,3,3,4,4,5,5,6,6,7,7,8,8,12,12,13,13,14,14],"right_children":[2,4,6,8,10,12,14,16,18,-1,-1,-1,20,22,24,-1,-1,-1,-1,-1,-1,-1,-1,-1,-1],"split_conditions":[6.2712E0,3.951E1,3.78E2,-1.2235E2,1.12E2,3.396E1,7.2972E0,3.869E1,3.466E1,1.0918704E-1,-3.1604415E-1,2.2839293E-1,-1.2099E2,3.469E1,-1.172E2,2.639207E-1,-2.0057705E-1,1.1636092E-2,-6.8281196E-2,2.089665E-1,-2.5292104E-1,2.755148E-1,2.585052E-2,3.1744665E-1,1.3155395E-1],"split_indices":[0,6,4,7,3,6,0,6,6,0,0,0,7,6,7,0,0,0,0,0,0,0,0,0,0],"split_type":[0,0,0,0,0,0,0,0,0,0,0,0,0,0,0,0,0,0,0,0,0,0,0,0,0],"sum_hessian":[2.1365483E3,2.0864395E3,5.01089E1,2.0611907E3,2.5248732E1,6.524623E0,4.3584274E1,8.021279E1,1.9809779E3,1.0926375E0,2.4156094E1,2.0431144E0,4.4815087E0,2.2296553E1,2.1287722E1,6.867087E1,1.1541925E1,1.4285481E3,5.524299E2,1.7962534E0,2.6852553E0,1.4438468E1,7.858086E0,1.9112299E1,2.1754215E0],"tree_param":{"num_deleted":"0","num_feature":"8","num_nodes":"25","size_leaf_vector":"0"}},{"base_weights":[-6.609921E-4,5.5181198E-2,-2.2020902E-1,3.753727E-1,-9.253307E-3,-4.5500122E-2,-7.0109034E-1,1.2378552E0,2.4425411E-1,-4.45462E-1,1.3426183E-1,-7.5637215E-1,4.945007E-2,2.4370869E-1,-7.698051E-1,6.890847E-1,3.0621082E-1,-2.3464172E-1,1.3457358E-1,3.4845024E-1,-1.8852669E-1,1.697692E-1,-1.9221973E-2,2.4791346E-1,-2.6500958E-1,-7.992786E-3,2.9557532E-1,-1.9483866E-1,4.097351E-1,-2.496072E-1,-3.823381E-2],"categories":[],"categories_nodes":[],"categories_segments":[],"categories_sizes":[],"default_left":[0,0,0,0,0,0,0,0,0,0,0,0,0,0,0,0,0,0,0,0,0,0,0,0,0,0,0,0,0,0,0],"id":17,"left_children":[1,3,5,7,9,11,13,15,17,19,21,23,25,27,29,-1,-1,-1,-1,-1,-1,-1,-1,-1,-1,-1,-1,-1,-1,-1,-1],"loss_changes":[2.5783642E1,3.4594543E1,3.579576E1,3.1464005E1,8.749827E1,2.1222994E1,7.5610847E0,6.124157E0,5.174792E1,1.0245788E2,9.007256E1,8.175976E0,1.9809679E1,9.365436E0,4.1350594E0,0E0,0E0,0E0,0E0,0E0,0E0,0E0,0E0,0E0,0E0,0E0,0E0,0E0,0E0,0E0,0E0],"parents":[2147483647,0,0,1,1,2,2,3,3,4,4,5,5,6,6,7,7,8,8,9,9,10,10,11,11,12,12,13,13,14,14],"right_children":[2,4,6,8,10,12,14,16,18,20,22,24,26,28,30,-1,-1,-1,-1,-1,-1,-1,-1,-1,-1,-1,-1,-1,-1,-1,-1],"split_conditions":[-1.1775E2,3.389E1,3.392E1,-1.1827E2,3.405E1,3.272E1,1.28E2,2.4598E0,-1.1817E2,-1.1837E2,3.421E1,-1.1716E2,3.8E1,3.7708E0,7.228E3,6.890847E-1,3.0621082E-1,-2.3464172E-1,1.3457358E-1,3.4845024E-1,-1.8852669E-1,1.697692E-1,-1.9221973E-2,2.4791346E-1,-2.6500958E-1,-7.992786E-3,2.9557532E-1,-1.9483866E-1,4.097351E-1,-2.496072E-1,-3.823381E-2],"split_indices":[7,6,6,7,6,6,3,0,7,7,6,7,1,0,2,0,0,0,0,0,0,0,0,0,0,0,0,0,0,0,0],"split_type":[0,0,0,0,0,0,0,0,0,0,0,0,0,0,0,0,0,0,0,0,0,0,0,0,0,0,0,0,0,0,0],"sum_hessian":[2.1010718E3,1.6756243E3,4.254475E2,2.799007E2,1.3957236E3,3.128725E2,1.1257503E2,3.5822674E1,2.4407802E2,3.4500137E2,1.0507223E3,3.604502E1,2.7682748E2,7.45976E0,1.05115265E2,4.4655857E0,3.1357088E1,4.0052483E1,2.0402553E2,3.4718254E1,3.1028314E2,3.3021783E2,7.205044E2,2.268225E0,3.37768E1,2.56909E2,1.9918484E1,4.388062E0,3.0716984E0,9.5563705E1,9.551563E0],"tree_param":{"num_deleted":"0","num_feature":"8","num_nodes":"31","size_leaf_vector":"0"}},{"base_weights":[1.0269992E-4,2.736156E-1,-5.17671E-2,1.593897E0,1.9451767E-1,3.4525055E-2,-4.2910728E-1,6.562812E-1,1.7442527E0,2.7262315E-1,-8.374138E-1,9.29882E-1,-6.592733E-3,-7.638116E-2,-9.1504335E-1,3.3144847E-2,2.4931417E-1,6.254958E-1,3.3661735E-1,2.5470662E-1,4.1057363E-2,-2.9895642E-1,-1.3853589E-1,3.3795184E-1,1.6805959E-1,-1.14824865E-2,1.6902404E-1,-2.0621477E-1,5.029502E-2,1.07344665E-1,-3.154637E-1],"categories":[],"categories_nodes":[],"categories_segments":[],"categories_sizes":[],"default_left":[0,0,0,0,0,0,0,0,0,0,0,0,0,0,0,0,0,0,0,0,0,0,0,0,0,0,0,0,0,0,0],"id":18,"left_children":[1,3,5,7,9,11,13,15,17,19,21,23,25,27,29,-1,-1,-1,-1,-1,-1,-1,-1,-1,-1,-1,-1,-1,-1,-1,-1],"loss_changes":[2.8999146E1,3.371859E1,5.596235E1,1.4321823E0,2.509867E1,5.152297E1,5.4756786E1,3.020692E-1,8.7228394E-1,2.2390715E1,8.521023E-1,3.835495E0,2.4200705E1,2.7912634E1,2.3735138E1,0E0,0E0,0E0,0E0,0E0,0E0,0E0,0E0,0E0,0E0,0E0,0E0,0E0,0E0,0E0,0E0],"parents":[2147483647,0,0,1,1,2,2,3,3,4,4,5,5,6,6,7,7,8,8,9,9,10,10,11,11,12,12,13,13,14,14],"right_children":[2,4,6,8,10,12,14,16,18,20,22,24,26,28,30,-1,-1,-1,-1,-1,-1,-1,-1,-1,-1,-1,-1,-1,-1,-1,-1],"split_conditions":[-1.2188E2,3.755E1,3.466E1,1.9E1,3.868E1,-1.1844E2,-1.2085E2,-1.2199E2,3.7366E0,-1.2239E2,3.0897E0,1.874E3,5.347E0,3.1392E0,3.26E2,3.3144847E-2,2.4931417E-1,6.254958E-1,3.3661735E-1,2.5470662E-1,4.1057363E-2,-2.9895642E-1,-1.3853589E-1,3.3795184E-1,1.6805959E-1,-1.14824865E-2,1.6902404E-1,-2.0621477E-1,5.029502E-2,1.07344665E-1,-3.154637E-1],"split_indices":[7,6,6,1,6,7,7,7,0,7,0,4,0,0,4,0,0,0,0,0,0,0,0,0,0,0,0,0,0,0,0],"split_type":[0,0,0,0,0,0,0,0,0,0,0,0,0,0,0,0,0,0,0,0,0,0,0,0,0,0,0,0,0,0,0],"sum_hessian":[2.0420576E3,3.248463E2,1.7172113E3,1.7279001E1,3.0756732E2,1.39834E3,3.188713E2,3.1293404E0,1.414966E1,2.8661002E2,2.0957306E1,6.044785E1,1.3378921E3,1.854303E2,1.3344101E2,1.1548605E0,1.9744799E0,7.6236796E0,6.5259805E0,5.363711E1,2.3297289E2,1.3560446E1,7.396859E0,3.812371E1,2.2324139E1,1.2683285E3,6.956369E1,5.2404354E1,1.3302596E2,1.2767262E1,1.2067374E2],"tree_param":{"num_deleted":"0","num_feature":"8","num_nodes":"31","size_leaf_vector":"0"}},{"base_weights":[-9.1151545E-5,-5.925494E-2,1.7714527E-1,-1.0072913E-3,-2.6075158E-1,-1.8636774E-1,2.6230243E-1,-1.2678882E-1,3.3490092E-1,-6.895338E-1,4.722076E-2,6.9334805E-2,-5.951922E-1,7.144871E-1,1.8615703E-1,2.6680036E-2,-1.0550548E-1,-2.390129E-2,1.6515923E-1,-1.1301462E-1,-2.6678324E-1,-6.1658405E-2,1.0585899E-1,-1.4921056E-1,8.152676E-2,-2.1874888E-1,2.2875825E-1,2.870067E-1,7.583546E-3,4.249035E-2,3.4645826E-1],"categories":[],"categories_nodes":[],"categories_segments":[],"categories_sizes":[],"default_left":[0,0,0,0,0,0,0,0,0,0,0,0,0,0,0,0,0,0,0,0,0,0,0,0,0,0,0,0,0,0,0],"id":19,"left_children":[1,3,5,7,9,11,13,15,17,19,21,23,25,27,29,-1,-1,-1,-1,-1,-1,-1,-1,-1,-1,-1,-1,-1,-1,-1,-1],"loss_changes":[2.0818232E1,1.7469452E1,1.5429872E1,4.88713E1,4.4109917E1,9.960838E0,1.3742317E1,4.0859516E1,2.8214245E1,8.387093E0,1.5151474E1,6.934541E0,7.216444E0,9.612053E0,1.4770037E1,0E0,0E0,0E0,0E0,0E0,0E0,0E0,0E0,0E0,0E0,0E0,0E0,0E0,0E0,0E0,0E0],"parents":[2147483647,0,0,1,1,2,2,3,3,4,4,5,5,6,6,7,7,8,8,9,9,10,10,11,11,12,12,13,13,14,14],"right_children":[2,4,6,8,10,12,14,16,18,20,22,24,26,28,30,-1,-1,-1,-1,-1,-1,-1,-1,-1,-1,-1,-1,-1,-1,-1,-1],"split_conditions":[4.2263E0,1.956E3,1.387E3,5.18E2,8.38E2,5.9E2,-1.2193E2,8.91E2,2.2E1,-1.1824E2,2.3E1,5.35E2,4.4E1,3.798E1,3.871E1,2.6680036E-2,-1.0550548E-1,-2.390129E-2,1.6515923E-1,-1.1301462E-1,-2.6678324E-1,-6.1658405E-2,1.0585899E-1,-1.4921056E-1,8.152676E-2,-2.1874888E-1,2.2875825E-1,2.870067E-1,7.583546E-3,4.249035E-2,3.4645826E-1],"split_indices":[0,4,2,3,3,4,7,4,1,7,1,2,1,6,6,0,0,0,0,0,0,0,0,0,0,0,0,0,0,0,0],"split_type":[0,0,0,0,0,0,0,0,0,0,0,0,0,0,0,0,0,0,0,0,0,0,0,0,0,0,0,0,0,0,0],"sum_hessian":[1.983339E3,1.4874686E3,4.958704E2,1.1546835E3,3.327852E2,9.3890114E1,4.0198026E2,8.405575E2,3.1412595E2,1.3859033E2,1.9419484E2,5.8273125E1,3.561699E1,5.672704E1,3.4525323E2,4.2933768E2,4.1121982E2,1.0769707E2,2.0642888E2,5.513283E1,8.3457504E1,1.0647429E2,8.772055E1,1.4953056E1,4.332007E1,3.283955E1,2.777438E0,4.168869E1,1.5038349E1,3.311782E2,1.4075048E1],"tree_param":{"num_deleted":"0","num_feature":"8","num_nodes":"31","size_leaf_vector":"0"}},{"base_weights":[-2.6134647E-5,8.953238E-3,-1.0647857E0,1.5027559E-1,-5.3091288E-2,-2.5128686E-1,-3.550221E-1,1.1720353E0,8.0332614E-2,-5.063858E-1,1.364917E-2,-2.1875557E-1,1.2454038E-1,-5.0063662E-2,3.8216913E-1,-1.716331E-1,4.4114802E-2,-7.1941026E-2,-2.953579E-1,3.0327806E-2,-1.7127809E-1],"categories":[],"categories_nodes":[],"categories_segments":[],"categories_sizes":[],"default_left":[0,0,0,0,0,0,0,0,0,0,0,0,0,0,0,0,0,0,0,0,0],"id":20,"left_children":[1,3,5,7,9,11,-1,13,15,17,19,-1,-1,-1,-1,-1,-1,-1,-1,-1,-1],"loss_changes":[1.868416E1,1.6999952E1,1.279665E0,4.217635E1,4.0770084E1,1.3694167E0,0E0,5.3708534E0,2.4228037E1,2.1808804E1,6.0143932E1,0E0,0E0,0E0,0E0,0E0,0E0,0E0,0E0,0E0,0E0],"parents":[2147483647,0,0,1,1,2,2,3,3,4,4,5,5,7,7,8,8,9,9,10,10],"right_children":[2,4,6,8,10,12,-1,14,16,18,20,-1,-1,-1,-1,-1,-1,-1,-1,-1,-1],"split_conditions":[-1.1625E2,3.391E1,2.51E2,-1.1828E2,3.399E1,3.348E1,-3.550221E-1,1.7E1,-1.1817E2,3.7E1,-1.18E2,-2.1875557E-1,1.2454038E-1,-5.0063662E-2,3.8216913E-1,-1.716331E-1,4.4114802E-2,-7.1941026E-2,-2.953579E-1,3.0327806E-2,-1.7127809E-1],"split_indices":[7,6,4,7,6,6,0,1,7,1,7,0,0,0,0,0,0,0,0,0,0],"split_type":[0,0,0,0,0,0,0,0,0,0,0,0,0,0,0,0,0,0,0,0,0],"sum_hessian":[1.9522345E3,1.9368918E3,1.5342683E1,5.904861E2,1.3464058E3,2.3493502E0,1.2993333E1,3.6821617E1,5.536645E2,1.7195016E2,1.1744556E3,1.313351E0,1.0359992E0,2.558133E0,3.4263485E1,5.0660923E1,5.0300354E2,1.1136262E2,6.0587547E1,1.0223543E3,1.5210127E2],"tree_param":{"num_deleted":"0","num_feature":"8","num_nodes":"21","size_leaf_vector":"0"}},{"base_weights":[-9.17432E-4,3.1891048E-2,-2.590422E-1,3.1200528E-1,-2.0916048E-2,-4.7290245E-1,4.719169E-1,7.16041E-2,8.105844E-1,5.443762E-2,-9.4007707E-1,-9.2804395E-2,-6.549843E-1,-2.3685423E-1,8.7086654E-1,1.0231265E-1,-8.904033E-2,3.025306E-1,6.877022E-2,2.9821926E-1,8.568836E-3,-2.9807547E-1,3.2660004E-1,5.671939E-2,-2.2405668E-1,-3.6061192E-1,-1.4774805E-1,-1.613767E-1,1.8443426E-1,3.48384E-1,-7.001435E-2],"categories":[],"categories_nodes":[],"categories_segments":[],"categories_sizes":[],"default_left":[0,0,0,0,0,0,0,0,0,0,0,0,0,0,0,0,0,0,0,0,0,0,0,0,0,0,0,0,0,0,0],"id":21,"left_children":[1,3,5,7,9,11,13,15,17,19,21,23,25,27,29,-1,-1,-1,-1,-1,-1,-1,-1,-1,-1,-1,-1,-1,-1,-1,-1],"loss_changes":[1.635288E1,2.5348972E1,3.426349E1,3.2521347E1,9.995747E1,1.1633205E1,1.4285007E1,1.8413736E1,9.928406E0,3.2406914E1,1.2951729E1,1.0445057E1,9.548351E0,5.130034E0,1.05560055E1,0E0,0E0,0E0,0E0,0E0,0E0,0E0,0E0,0E0,0E0,0E0,0E0,0E0,0E0,0E0,0E0],"parents":[2147483647,0,0,1,1,2,2,3,3,4,4,5,5,6,6,7,7,8,8,9,9,10,10,11,11,12,12,13,13,14,14],"right_children":[2,4,6,8,10,12,14,16,18,20,22,24,26,28,30,-1,-1,-1,-1,-1,-1,-1,-1,-1,-1,-1,-1,-1,-1,-1,-1],"split_conditions":[3.797E1,-1.2131E2,-1.2123E2,-1.2207E2,3.466E1,-1.2206E2,3.6039E0,-1.2223E2,1.98E3,-1.1846E2,7.5197E0,3.869E1,-1.2177E2,-1.2035E2,2.1E1,1.0231265E-1,-8.904033E-2,3.025306E-1,6.877022E-2,2.9821926E-1,8.568836E-3,-2.9807547E-1,3.2660004E-1,5.671939E-2,-2.2405668E-1,-3.6061192E-1,-1.4774805E-1,-1.613767E-1,1.8443426E-1,3.48384E-1,-7.001435E-2],"split_indices":[6,7,7,7,6,7,0,7,4,7,0,6,7,7,1,0,0,0,0,0,0,0,0,0,0,0,0,0,0,0,0],"split_type":[0,0,0,0,0,0,0,0,0,0,0,0,0,0,0,0,0,0,0,0,0,0,0,0,0,0,0,0,0,0,0],"sum_hessian":[1.9290077E3,1.7122515E3,2.1675616E2,2.7081424E2,1.4414373E3,1.6796645E2,4.878972E1,1.8348596E2,8.732827E1,1.3330901E3,1.0834718E2,5.489084E1,1.13075615E2,1.7718124E1,3.1071594E1,1.0602063E2,7.7465324E1,6.460621E1,2.2722063E1,3.4723198E1,1.2983668E3,1.06060104E2,2.2870746E0,3.8856308E1,1.603453E1,2.4429968E1,8.8645645E1,1.3362581E1,4.3555436E0,2.4560593E1,6.5110016E0],"tree_param":{"num_deleted":"0","num_feature":"8","num_nodes":"31","size_leaf_vector":"0"}},{"base_weights":[-2.3468388E-3,-1.3791693E-2,6.948564E-1,3.288348E-2,-1.9005936E-1,8.514477E-2,8.050684E-1,-5.3012174E-2,2.4332081E-1,-5.4773048E-2,-4.547628E-1,1.8168116E-1,-1.9587715E-1,5.675811E-1,9.6622896E-1,8.409048E-3,-2.095718E-1,3.1514996E-1,8.2155755E-3,6.8656676E-2,-8.513316E-2,2.990265E-1,-1.5624242E-1,1.843375E-1,-2.0234516E-1,2.1428229E-1,-1.7457238E-1,8.3717674E-2,3.0560514E-1],"categories":[],"categories_nodes":[],"categories_segments":[],"categories_sizes":[],"default_left":[0,0,0,0,0,0,0,0,0,0,0,0,0,0,0,0,0,0,0,0,0,0,0,0,0,0,0,0,0],"id":22,"left_children":[1,3,5,7,9,11,13,15,17,19,21,-1,23,25,27,-1,-1,-1,-1,-1,-1,-1,-1,-1,-1,-1,-1,-1,-1],"loss_changes":[1.5081507E1,1.5303573E1,1.9826565E0,2.6600657E1,1.3920369E1,9.6566075E-1,4.3650818E-1,5.471119E1,7.431682E1,1.6877342E1,1.3132484E1,0E0,2.1660106E0,2.5785728E0,2.1699715E-1,0E0,0E0,0E0,0E0,0E0,0E0,0E0,0E0,0E0,0E0,0E0,0E0,0E0,0E0],"parents":[2147483647,0,0,1,1,2,2,3,3,4,4,5,5,6,6,7,7,8,8,9,9,10,10,12,12,13,13,14,14],"right_children":[2,4,6,8,10,12,14,16,18,20,22,-1,24,26,28,-1,-1,-1,-1,-1,-1,-1,-1,-1,-1,-1,-1,-1,-1],"split_conditions":[6.4218E0,-1.1778E2,3.7E2,-1.1815E2,3.363E1,-1.2099E2,3.51E2,-1.1822E2,-1.181E2,-1.1715E2,1.31E2,1.8168116E-1,3.396E1,3.53E2,6E0,8.409048E-3,-2.095718E-1,3.1514996E-1,8.2155755E-3,6.8656676E-2,-8.513316E-2,2.990265E-1,-1.5624242E-1,1.843375E-1,-2.0234516E-1,2.1428229E-1,-1.7457238E-1,8.3717674E-2,3.0560514E-1],"split_indices":[0,7,4,7,6,7,3,7,7,7,4,0,6,5,1,0,0,0,0,0,0,0,0,0,0,0,0,0,0],"split_type":[0,0,0,0,0,0,0,0,0,0,0,0,0,0,0,0,0,0,0,0,0,0,0,0,0,0,0,0,0],"sum_hessian":[1.8878566E3,1.8583315E3,2.9524998E1,1.4699156E3,3.88416E2,4.7912927E0,2.4733706E1,1.0443743E3,4.2554135E2,2.5784293E2,1.3057307E2,1.2749852E0,3.5163076E0,1.1827081E1,1.2906625E1,9.2873883E2,1.1563538E2,8.8997795E1,3.3654355E2,1.151843E2,1.4265862E2,5.0693274E0,1.25503746E2,1.2002685E0,2.316039E0,1.0824337E1,1.0027429E0,1.363567E0,1.1543057E1],"tree_param":{"num_deleted":"0","num_feature":"8","num_nodes":"29","size_leaf_vector":"0"}},{"base_weights":[-1.5269001E-3,-2.9816743E-2,3.1267807E-1,8.177734E-3,-4.6787027E-1,6.61574E-1,1.7985262E-2,-3.1981107E-2,3.533682E-1,-5.69036E-1,9.362107E-2,3.7911564E-1,1.1642426E0,-1.6154855E-1,7.0404875E-1,9.275403E-3,-9.112497E-2,-2.1160568E-1,1.2237569E-1,2.7265528E-1,-1.8308252E-1,2.8108627E-1,-4.6712123E-2,-9.874535E-2,2.1322876E-1,3.6732137E-1,-3.528753E-2,-4.4793687E-3,-2.0182931E-1,-3.130214E-2,2.5051546E-1],"categories":[],"categories_nodes":[],"categories_segments":[],"categories_sizes":[],"default_left":[0,0,0,0,0,0,0,0,0,0,0,0,0,0,0,0,0,0,0,0,0,0,0,0,0,0,0,0,0,0,0],"id":23,"left_children":[1,3,5,7,9,11,13,15,17,19,21,23,25,27,29,-1,-1,-1,-1,-1,-1,-1,-1,-1,-1,-1,-1,-1,-1,-1,-1],"loss_changes":[1.6538473E1,2.8412176E1,1.5789482E1,2.1797747E1,7.79253E0,9.546061E0,1.0502248E1,2.4090559E1,9.751736E0,7.599266E0,4.700039E0,1.1160978E1,2.0584106E0,5.0614142E0,1.9594622E0,0E0,0E0,0E0,0E0,0E0,0E0,0E0,0E0,0E0,0E0,0E0,0E0,0E0,0E0,0E0,0E0],"parents":[2147483647,0,0,1,1,2,2,3,3,4,4,5,5,6,6,7,7,8,8,9,9,10,10,11,11,12,12,13,13,14,14],"right_children":[2,4,6,8,10,12,14,16,18,20,22,24,26,28,30,-1,-1,-1,-1,-1,-1,-1,-1,-1,-1,-1,-1,-1,-1,-1,-1],"split_conditions":[1.107E3,2.331E3,3.432E3,3.333E3,4.53E0,2.4E1,4.76E0,1.478E3,2.5212E0,4.83E2,-1.2151E2,3.1326E0,3.794E1,3.445E1,8.149E3,9.275403E-3,-9.112497E-2,-2.1160568E-1,1.2237569E-1,2.7265528E-1,-1.8308252E-1,2.8108627E-1,-4.6712123E-2,-9.874535E-2,2.1322876E-1,3.6732137E-1,-3.528753E-2,-4.4793687E-3,-2.0182931E-1,-3.130214E-2,2.5051546E-1],"split_indices":[3,4,4,2,0,1,0,4,0,5,7,0,6,6,2,0,0,0,0,0,0,0,0,0,0,0,0,0,0,0,0],"split_type":[0,0,0,0,0,0,0,0,0,0,0,0,0,0,0,0,0,0,0,0,0,0,0,0,0,0,0,0,0,0,0],"sum_hessian":[1.858546E3,1.7058617E3,1.5268431E2,1.570616E3,1.352457E2,6.934255E1,8.334176E1,1.4077484E3,1.6286757E2,1.14586784E2,2.0658916E1,4.5518887E1,2.3823664E1,6.666177E1,1.6679983E1,1.143889E3,2.638594E2,7.3959966E0,1.5547157E2,2.5395062E0,1.1204728E2,4.0847273E0,1.6574188E1,1.4519179E1,3.0999708E1,2.279849E1,1.0251741E0,5.260407E1,1.4057705E1,2.354487E0,1.4325497E1],"tree_param":{"num_deleted":"0","num_feature":"8","num_nodes":"31","size_leaf_vector":"0"}},{"base_weights":[-7.423583E-4,3.295789E-2,-2.3245607E-1,-3.0100715E-1,6.373054E-2,-3.6684754E-1,2.6465887E-1,-1.1037689E-1,-9.7404766E-1,6.231133E-1,2.7517037E-2,-2.5351268E-1,-7.88046E-1,-2.1331263E-1,6.182897E-1,-3.360199E-1,-1.3644701E-2,-3.527302E-1,1.2605222E-1,7.1025744E-2,2.4676639E-1,-1.03575185E-1,2.061235E-2,2.70113E-1,-1.0212762E-1,-2.4871358E-1,7.641156E-2,4.0602967E-1,-1.0656862E-1,-2.8820604E-1,2.3705395E-1],"categories":[],"categories_nodes":[],"categories_segments":[],"categories_sizes":[],"default_left":[0,0,0,0,0,0,0,0,0,0,0,0,0,0,0,0,0,0,0,0,0,0,0,0,0,0,0,0,0,0,0],"id":24,"left_children":[1,3,5,7,9,11,13,15,17,19,21,23,25,27,29,-1,-1,-1,-1,-1,-1,-1,-1,-1,-1,-1,-1,-1,-1,-1,-1],"loss_changes":[1.4408904E1,1.6574791E1,1.5749569E1,1.7352901E1,2.9879475E1,8.624308E0,8.657617E0,6.971765E0,8.905914E0,6.716339E0,2.1323042E1,1.5061961E1,1.8664627E0,5.415271E0,8.697237E0,0E0,0E0,0E0,0E0,0E0,0E0,0E0,0E0,0E0,0E0,0E0,0E0,0E0,0E0,0E0,0E0],"parents":[2147483647,0,0,1,1,2,2,3,3,4,4,5,5,6,6,7,7,8,8,9,9,10,10,11,11,12,12,13,13,14,14],"right_children":[2,4,6,8,10,12,14,16,18,20,22,24,26,28,30,-1,-1,-1,-1,-1,-1,-1,-1,-1,-1,-1,-1,-1,-1,-1,-1],"split_conditions":[3.793E1,1.81E2,-1.2122E2,5.25E2,5.99E2,3.867E1,3.8372E0,3.278E1,9.38E2,2.7E1,1.256E3,-1.2246E2,5.4834E0,4.5E1,3.834E1,-3.360199E-1,-1.3644701E-2,-3.527302E-1,1.2605222E-1,7.1025744E-2,2.4676639E-1,-1.03575185E-1,2.061235E-2,2.70113E-1,-1.0212762E-1,-2.4871358E-1,7.641156E-2,4.0602967E-1,-1.0656862E-1,-2.8820604E-1,2.3705395E-1],"split_indices":[6,3,7,4,4,6,0,6,2,1,2,7,0,5,6,0,0,0,0,0,0,0,0,0,0,0,0,0,0,0,0],"split_type":[0,0,0,0,0,0,0,0,0,0,0,0,0,0,0,0,0,0,0,0,0,0,0,0,0,0,0,0,0,0,0],"sum_hessian":[1.8432303E3,1.6099398E3,2.3329053E2,1.3508852E2,1.4748513E3,1.8385004E2,4.9440495E1,1.0617872E2,2.8909792E1,8.8688644E1,1.3861626E3,1.4613133E2,3.7718704E1,2.1192823E1,2.8247671E1,5.4302406E0,1.0074848E2,2.5392609E1,3.5171843E0,3.0939417E1,5.774923E1,1.3719514E2,1.2489675E3,9.580256E0,1.3655107E2,3.6488964E1,1.22974E0,1.0511663E0,2.0141657E1,2.3226767E0,2.5924994E1],"tree_param":{"num_deleted":"0","num_feature":"8","num_nodes":"31","size_leaf_vector":"0"}},{"base_weights":[-1.368832E-3,3.666465E-2,-1.8876193E-1,1.3435206E-1,-1.0712037E-1,-9.832723E-2,-6.6632134E-1,4.8589683E-3,4.5116588E-1,3.156583E-2,-4.601876E-1,-1.541677E-1,4.6869755E-1,-7.7109796E-1,5.3981524E-2,5.7316076E-2,-9.147502E-2,2.1084999E-1,-8.072515E-2,1.0152639E-1,-3.4016743E-2,-1.0550553E-2,-2.2334512E-1,-2.0184325E-1,-2.1286959E-2,-9.497382E-2,2.5941876E-1,-2.94035E-1,-1.1635064E-1,-2.193705E-1,1.7029202E-1],"categories":[],"categories_nodes":[],"categories_segments":[],"categories_sizes":[],"default_left":[0,0,0,0,0,0,0,0,0,0,0,0,0,0,0,0,0,0,0,0,0,0,0,0,0,0,0,0,0,0,0],"id":25,"left_children":[1,3,5,7,9,11,13,15,17,19,21,23,25,27,29,-1,-1,-1,-1,-1,-1,-1,-1,-1,-1,-1,-1,-1,-1,-1,-1],"loss_changes":[1.299122E1,2.1297722E1,1.3216135E1,3.7031555E1,3.005751E1,8.296391E0,3.7239494E0,3.7076557E1,4.7662678E1,1.9674282E1,2.0889824E1,1.0189362E1,7.592533E0,3.0373878E0,3.2910736E0,0E0,0E0,0E0,0E0,0E0,0E0,0E0,0E0,0E0,0E0,0E0,0E0,0E0,0E0,0E0,0E0],"parents":[2147483647,0,0,1,1,2,2,3,3,4,4,5,5,6,6,7,7,8,8,9,9,10,10,11,11,12,12,13,13,14,14],"right_children":[2,4,6,8,10,12,14,16,18,20,22,24,26,28,30,-1,-1,-1,-1,-1,-1,-1,-1,-1,-1,-1,-1,-1,-1,-1,-1],"split_conditions":[-1.1748E2,3.421E1,3.391E1,3.407E1,-1.2095E2,3.8E1,3.424E1,3.6E1,-1.1801E2,3.777E1,3.466E1,3.274E1,2.3929E0,1.516E3,3.5234E0,5.7316076E-2,-9.147502E-2,2.1084999E-1,-8.072515E-2,1.0152639E-1,-3.4016743E-2,-1.0550553E-2,-2.2334512E-1,-2.0184325E-1,-2.1286959E-2,-9.497382E-2,2.5941876E-1,-2.94035E-1,-1.1635064E-1,-2.193705E-1,1.7029202E-1],"split_indices":[7,6,6,6,7,1,6,1,7,6,6,6,0,4,0,0,0,0,0,0,0,0,0,0,0,0,0,0,0,0,0],"split_type":[0,0,0,0,0,0,0,0,0,0,0,0,0,0,0,0,0,0,0,0,0,0,0,0,0,0,0,0,0,0,0],"sum_hessian":[1.820792E3,1.5142606E3,3.0653143E2,9.017072E2,6.125534E2,2.587401E2,4.7791332E1,6.408034E2,2.609038E2,4.4045248E2,1.7210089E2,2.3620663E2,2.2533463E1,4.1660763E1,6.1305695E0,4.0047568E2,2.4032774E2,1.9336354E2,6.754029E1,1.4088278E2,2.995697E2,6.942905E1,1.0267184E2,3.1677818E1,2.0452882E2,7.621562E0,1.4911901E1,2.595077E1,1.5709992E1,2.2569091E0,3.8736603E0],"tree_param":{"num_deleted":"0","num_feature":"8","num_nodes":"31","size_leaf_vector":"0"}},{"base_weights":[-2.130604E-3,-1.2540314E-2,6.3080585E-1,-5.1040775E-3,-8.5986865E-1,2.6472318E-1,7.987254E-1,5.4018617E-1,-1.9181538E-2,1.2807797E-1,-2.9507646E-1,4.6763036E-1,-2.4415193E-1,5.513861E-1,3.0241922E-1,-2.278606E-1,1.9648948E-1,-2.4984702E-1,-2.5691884E-3,-8.489973E-2,1.7824557E-1,2.2166695E-2,2.4145217E-1],"categories":[],"categories_nodes":[],"categories_segments":[],"categories_sizes":[],"default_left":[0,0,0,0,0,0,0,0,0,0,0,0,0,0,0,0,0,0,0,0,0,0,0],"id":26,"left_children":[1,3,5,7,9,11,13,15,17,-1,-1,19,-1,21,-1,-1,-1,-1,-1,-1,-1,-1,-1],"loss_changes":[1.1726002E1,1.1026786E1,1.5587759E0,1.3340226E1,2.8437424E0,2.6896572E0,4.4067287E-1,7.0220585E0,1.4625095E1,0E0,0E0,1.0718398E0,0E0,1.2753723E0,0E0,0E0,0E0,0E0,0E0,0E0,0E0,0E0,0E0],"parents":[2147483647,0,0,1,1,2,2,3,3,4,4,5,5,6,6,7,7,8,8,11,11,13,13],"right_children":[2,4,6,8,10,12,14,16,18,-1,-1,20,-1,22,-1,-1,-1,-1,-1,-1,-1,-1,-1],"split_conditions":[6.2817E0,3.936E1,2.52E2,-1.2238E2,5.55E2,2.35E2,7.2478E0,1.7E1,-1.2231E2,1.2807797E-1,-2.9507646E-1,1.3E1,-2.4415193E-1,-1.1903E2,3.0241922E-1,-2.278606E-1,1.9648948E-1,-2.4984702E-1,-2.5691884E-3,-8.489973E-2,1.7824557E-1,2.2166695E-2,2.4145217E-1],"split_indices":[0,6,3,7,2,3,0,1,7,0,0,5,0,7,0,0,0,0,0,0,0,0,0],"split_type":[0,0,0,0,0,0,0,0,0,0,0,0,0,0,0,0,0,0,0,0,0,0,0],"sum_hessian":[1.7775175E3,1.7497205E3,2.7796925E1,1.7354956E3,1.4224857E1,9.551067E0,1.8245857E1,4.2736225E1,1.6927594E3,1.0327331E0,1.3192124E1,8.515501E0,1.0355663E0,1.0029577E1,8.216281E0,3.011987E0,3.972424E1,2.0807524E1,1.6719519E3,1.0498956E0,7.4656053E0,3.9255466E0,6.1040306E0],"tree_param":{"num_deleted":"0","num_feature":"8","num_nodes":"23","size_leaf_vector":"0"}},{"base_weights":[-1.325307E-3,5.966469E-3,-8.4677887E-1,5.8662783E-2,-1.1117747E-1,-9.745101E-1,1.22258075E-1,-4.937737E-2,2.3053676E-1,-5.647184E-1,1.5015192E-2,-1.9042863E-1,-3.3190843E-1,2.54197E-2,-9.333056E-2,-3.3059774E-3,9.708898E-2,5.1970196E-1,-1.8009913E-1,-2.8377656E-2,7.465438E-2,-1.9619925E-1,1.1515413E-1],"categories":[],"categories_nodes":[],"categories_segments":[],"categories_sizes":[],"default_left":[0,0,0,0,0,0,0,0,0,0,0,0,0,0,0,0,0,0,0,0,0,0,0],"id":27,"left_children":[1,3,5,7,9,11,-1,13,15,17,19,21,-1,-1,-1,-1,-1,-1,-1,-1,-1,-1,-1],"loss_changes":[1.0896739E1,1.0825558E1,2.818656E0,2.2470787E1,3.1151062E1,1.2379351E0,0E0,2.6122368E1,1.0505379E1,1.0731056E1,1.0958815E1,1.1095862E0,0E0,0E0,0E0,0E0,0E0,0E0,0E0,0E0,0E0,0E0,0E0],"parents":[2147483647,0,0,1,1,2,2,3,3,4,4,5,5,7,7,8,8,9,9,10,10,11,11],"right_children":[2,4,6,8,10,12,-1,14,16,18,20,22,-1,-1,-1,-1,-1,-1,-1,-1,-1,-1,-1],"split_conditions":[-1.1637E2,1.628E3,6.224E3,4E2,6.11E2,2.48E2,1.22258075E-1,8.91E2,2.1E1,2.56E2,3.9352E0,3.353E1,-3.3190843E-1,2.54197E-2,-9.333056E-2,-3.3059774E-3,9.708898E-2,5.1970196E-1,-1.8009913E-1,-2.8377656E-2,7.465438E-2,-1.9619925E-1,1.1515413E-1],"split_indices":[7,4,2,3,3,4,0,4,1,3,0,6,0,0,0,0,0,0,0,0,0,0,0],"split_type":[0,0,0,0,0,0,0,0,0,0,0,0,0,0,0,0,0,0,0,0,0,0,0],"sum_hessian":[1.7657375E3,1.7516233E3,1.4114268E1,1.2084917E3,5.4313165E2,1.3012245E1,1.1020231E0,7.4248047E2,4.6601123E2,1.1746894E2,4.256627E2,2.2250128E0,1.0787232E1,4.9137317E2,2.5110728E2,1.2988063E2,3.361306E2,1.0659766E0,1.1640297E2,2.9021976E2,1.3544292E2,1.1543627E0,1.0706501E0],"tree_param":{"num_deleted":"0","num_feature":"8","num_nodes":"23","size_leaf_vector":"0"}},{"base_weights":[-1.4047208E-3,-1.78855E-2,3.2897368E-1,3.7850342E-3,-5.500105E-1,8.7258923E-1,1.0093759E-1,5.6318488E-2,-1.1741728E-1,-8.431079E-1,-2.3621485E-1,1.0423103E-1,1.0912255E0,-1.9726223E-1,5.405182E-1,2.783266E-1,1.1463565E-2,-1.4512221E-3,-2.0387772E-1,2.1433544E-1,-2.744766E-1,-1.2404495E-2,-2.6623246E-1,-1.4142178E-1,3.1221554E-1,8.109761E-2,4.274594E-1,1.9705713E-2,-2.3276463E-1,2.946265E-1,4.932096E-2],"categories":[],"categories_nodes":[],"categories_segments":[],"categories_sizes":[],"default_left":[0,0,0,0,0,0,0,0,0,0,0,0,0,0,0,0,0,0,0,0,0,0,0,0,0,0,0,0,0,0,0],"id":28,"left_children":[1,3,5,7,9,11,13,15,17,19,21,23,25,27,29,-1,-1,-1,-1,-1,-1,-1,-1,-1,-1,-1,-1,-1,-1,-1,-1],"loss_changes":[9.5381365E0,1.9241627E1,1.0229917E1,1.0220512E1,5.8061657E0,3.9963608E0,7.9411354E0,1.7633125E1,3.0716198E1,4.386423E0,4.141318E0,4.008231E0,4.8024406E0,5.58045E0,3.895E0,0E0,0E0,0E0,0E0,0E0,0E0,0E0,0E0,0E0,0E0,0E0,0E0,0E0,0E0,0E0,0E0],"parents":[2147483647,0,0,1,1,2,2,3,3,4,4,5,5,6,6,7,7,8,8,9,9,10,10,11,11,12,12,13,13,14,14],"right_children":[2,4,6,8,10,12,14,16,18,20,22,24,26,28,30,-1,-1,-1,-1,-1,-1,-1,-1,-1,-1,-1,-1,-1,-1,-1,-1],"split_conditions":[1.372E3,3.093E3,3.438E3,3.466E1,1.077E3,3.379E1,4.0721E0,-1.1846E2,-1.2085E2,-1.2187E2,-1.1775E2,4.0417E0,1.7E1,3.422E1,4.826E3,2.783266E-1,1.1463565E-2,-1.4512221E-3,-2.0387772E-1,2.1433544E-1,-2.744766E-1,-1.2404495E-2,-2.6623246E-1,-1.4142178E-1,3.1221554E-1,8.109761E-2,4.274594E-1,1.9705713E-2,-2.3276463E-1,2.946265E-1,4.932096E-2],"split_indices":[3,4,4,6,3,6,0,7,7,7,7,0,1,6,4,0,0,0,0,0,0,0,0,0,0,0,0,0,0,0,0],"split_type":[0,0,0,0,0,0,0,0,0,0,0,0,0,0,0,0,0,0,0,0,0,0,0,0,0,0,0,0,0,0,0],"sum_hessian":[1.7496774E3,1.6674436E3,8.223382E1,1.6031489E3,6.4294586E1,2.3466192E1,5.8767628E1,1.1187693E3,4.8437964E2,3.2371517E1,3.1923065E1,5.525287E0,1.7940905E1,3.5343075E1,2.3424555E1,2.1749887E1,1.0970194E3,4.0440335E2,7.997627E1,1.0323542E0,3.1339165E1,2.5389315E1,6.533751E0,3.7294838E0,1.7958032E0,5.70769E0,1.2233215E1,2.4909626E1,1.0433449E1,1.0033635E1,1.3390919E1],"tree_param":{"num_deleted":"0","num_feature":"8","num_nodes":"31","size_leaf_vector":"0"}},{"base_weights":[-1.0057769E-3,6.7353755E-2,-8.412028E-2,1.3504173E-1,-1.4199388E-1,2.1206272E-1,-1.5453514E-1,2.3495193E-1,-1.4528716E-2,-8.939113E-2,-6.9772154E-1,4.33243E-1,-3.5929072E-1,-4.552641E-1,-1.9354662E-2,6.2158544E-2,3.3248854E-1,1.5880343E-2,-1.5458182E-1,-5.6287255E-2,6.614076E-2,-3.0078998E-1,1.1520682E-2,-3.3938786E-1,1.5376371E-1,-2.3090224E-1,4.5328528E-2,3.0009967E-1,-1.814904E-1,6.41543E-2,-5.7426393E-2],"categories":[],"categories_nodes":[],"categories_segments":[],"categories_sizes":[],"default_left":[0,0,0,0,0,0,0,0,0,0,0,0,0,0,0,0,0,0,0,0,0,0,0,0,0,0,0,0,0,0,0],"id":29,"left_children":[1,3,5,7,9,11,13,15,17,19,21,23,25,27,29,-1,-1,-1,-1,-1,-1,-1,-1,-1,-1,-1,-1,-1,-1,-1,-1],"loss_changes":[9.84348E0,1.3490014E1,1.633906E1,1.0746101E1,6.74175E0,1.9187193E1,2.5694418E1,1.0219471E1,9.784613E0,6.548412E0,4.522993E0,1.4106569E1,9.033973E0,4.3321304E1,1.7585617E1,0E0,0E0,0E0,0E0,0E0,0E0,0E0,0E0,0E0,0E0,0E0,0E0,0E0,0E0,0E0,0E0],"parents":[2147483647,0,0,1,1,2,2,3,3,4,4,5,5,6,6,7,7,8,8,9,9,10,10,11,11,12,12,13,13,14,14],"right_children":[2,4,6,8,10,12,14,16,18,20,22,24,26,28,30,-1,-1,-1,-1,-1,-1,-1,-1,-1,-1,-1,-1,-1,-1,-1,-1],"split_conditions":[3.3E1,-1.1748E2,3.39E1,1.707E3,3.407E1,-1.1721E2,3.405E1,3.759E3,3.8E1,4.6875E0,3.424E1,5.81E2,3.8E1,-1.1836E2,3.421E1,6.2158544E-2,3.3248854E-1,1.5880343E-2,-1.5458182E-1,-5.6287255E-2,6.614076E-2,-3.0078998E-1,1.1520682E-2,-3.3938786E-1,1.5376371E-1,-2.3090224E-1,4.5328528E-2,3.0009967E-1,-1.814904E-1,6.41543E-2,-5.7426393E-2],"split_indices":[1,7,6,4,6,7,6,2,6,0,6,2,1,7,6,0,0,0,0,0,0,0,0,0,0,0,0,0,0,0,0],"split_type":[0,0,0,0,0,0,0,0,0,0,0,0,0,0,0,0,0,0,0,0,0,0,0,0,0,0,0,0,0,0,0],"sum_hessian":[1.730501E3,9.496379E2,7.8086304E2,7.178816E2,2.3175633E2,1.4959914E2,6.312639E2,4.3004733E2,2.8783423E2,2.1277667E2,1.8979656E1,1.0802328E2,4.157586E1,1.9502785E2,4.3623608E2,4.179996E2,1.2047714E1,2.5444781E2,3.3386425E1,1.6185828E2,5.0918407E1,1.3164649E1,5.8150067E0,4.5713434E0,1.03451935E2,2.2764053E1,1.8811806E1,1.7657637E1,1.7737021E2,1.8511139E2,2.5112468E2],"tree_param":{"num_deleted":"0","num_feature":"8","num_nodes":"31","size_leaf_vector":"0"}},{"base_weights":[-1.2874554E-3,-4.5241397E-2,1.2503882E-1,5.6092102E-2,-2.643523E-1,4.929271E-1,6.9401406E-2,-1.11361876E-1,1.8396766E-1,-7.4088484E-1,-2.0882836E-1,1.1031694E0,3.378016E-1,1.767343E-1,-2.8953743E-1,1.572406E-2,-1.19644634E-1,8.696265E-2,9.435855E-4,2.2318809E-1,-2.6968947E-1,2.3566689E-1,-7.311076E-2,3.7990135E-1,5.286486E-2,-1.7561302E-1,1.3359845E-1,1.15782574E-1,-1.5514816E-2,3.3540642E-1,-1.2601101E-1],"categories":[],"categories_nodes":[],"categories_segments":[],"categories_sizes":[],"default_left":[0,0,0,0,0,0,0,0,0,0,0,0,0,0,0,0,0,0,0,0,0,0,0,0,0,0,0,0,0,0,0],"id":30,"left_children":[1,3,5,7,9,11,13,15,17,19,21,23,25,27,29,-1,-1,-1,-1,-1,-1,-1,-1,-1,-1,-1,-1,-1,-1,-1,-1],"loss_changes":[9.476193E0,2.8126162E1,8.98278E0,1.8575977E1,1.0443369E1,5.0902042E0,1.48384075E1,1.7714123E1,9.415628E0,1.0388166E1,1.2680516E1,1.4791498E0,4.971148E0,1.4171254E1,1.6768616E1,0E0,0E0,0E0,0E0,0E0,0E0,0E0,0E0,0E0,0E0,0E0,0E0,0E0,0E0,0E0,0E0],"parents":[2147483647,0,0,1,1,2,2,3,3,4,4,5,5,6,6,7,7,8,8,9,9,10,10,11,11,12,12,13,13,14,14],"right_children":[2,4,6,8,10,12,14,16,18,20,22,24,26,28,30,-1,-1,-1,-1,-1,-1,-1,-1,-1,-1,-1,-1,-1,-1,-1,-1],"split_conditions":[2.982E3,1.223E3,-1.219E2,1.345E3,3.54E2,1.522E3,3.451E1,6.6E2,3.457E1,2.52E2,1.382E3,3.8E1,3.162E3,-1.1782E2,1.211E3,1.572406E-2,-1.19644634E-1,8.696265E-2,9.435855E-4,2.2318809E-1,-2.6968947E-1,2.3566689E-1,-7.311076E-2,3.7990135E-1,5.286486E-2,-1.7561302E-1,1.3359845E-1,1.15782574E-1,-1.5514816E-2,3.3540642E-1,-1.2601101E-1],"split_indices":[2,4,7,2,5,4,6,4,6,5,2,6,2,7,4,0,0,0,0,0,0,0,0,0,0,0,0,0,0,0,0],"split_type":[0,0,0,0,0,0,0,0,0,0,0,0,0,0,0,0,0,0,0,0,0,0,0,0,0,0,0,0,0,0,0],"sum_hessian":[1.7046229E3,1.2650897E3,4.395332E2,8.6554156E2,3.9954813E2,5.670778E1,3.828254E2,3.7482916E2,4.907124E2,4.0407585E1,3.5914053E2,1.02549095E1,4.645287E1,2.9509213E2,8.773329E1,2.3930428E2,1.355249E2,3.0908057E2,1.8163187E2,3.5313568E0,3.687623E1,1.1439343E1,3.477012E2,8.408637E0,1.846273E0,4.3825016E0,4.207037E1,1.5367345E2,1.4141867E2,6.801828E0,8.0931465E1],"tree_param":{"num_deleted":"0","num_feature":"8","num_nodes":"31","size_leaf_vector":"0"}},{"base_weights":[-7.734464E-4,-2.0490153E-1,2.3372555E-2,-1.3204333E-2,-5.6691915E-1,3.6591417E-1,-3.941481E-3,-8.903273E-2,8.527965E-1,5.2906174E-2,-9.955955E-1,-1.7185245E-1,4.9676442E-1,4.6427986E-1,-1.6390633E-2,2.3066457E-1,-4.7621068E-2,4.7634178E-1,1.1364592E-1,-1.988172E-1,1.1954989E-1,8.984732E-2,-3.1655723E-1,3.2953522E-1,-1.4574255E-1,-1.7612076E-1,1.705454E-1,-2.4861991E-3,2.5212592E-1,-2.6995346E-1,-1.8561526E-3],"categories":[],"categories_nodes":[],"categories_segments":[],"categories_sizes":[],"default_left":[0,0,0,0,0,0,0,0,0,0,0,0,0,0,0,0,0,0,0,0,0,0,0,0,0,0,0,0,0,0,0],"id":31,"left_children":[1,3,5,7,9,11,13,15,17,19,21,23,25,27,29,-1,-1,-1,-1,-1,-1,-1,-1,-1,-1,-1,-1,-1,-1,-1,-1],"loss_changes":[8.283206E0,1.2328777E1,1.4062053E1,7.7750473E0,1.6398182E1,7.895687E0,8.126293E0,6.6229305E0,2.7199607E0,6.7192717E0,3.1267014E0,9.493057E0,7.293104E0,6.4251204E0,1.2233234E1,0E0,0E0,0E0,0E0,0E0,0E0,0E0,0E0,0E0,0E0,0E0,0E0,0E0,0E0,0E0,0E0],"parents":[2147483647,0,0,1,1,2,2,3,3,4,4,5,5,6,6,7,7,8,8,9,9,10,10,11,11,12,12,13,13,14,14],"right_children":[2,4,6,8,10,12,14,16,18,20,22,24,26,28,30,-1,-1,-1,-1,-1,-1,-1,-1,-1,-1,-1,-1,-1,-1,-1,-1],"split_conditions":[9.13E2,4.87E2,6.16E2,1.92E2,2.5179E0,1.7E1,-1.2237E2,9E0,2.02E2,3.402E1,9.2E1,3.02E2,1.8539E0,3.0777E0,-1.2231E2,2.3066457E-1,-4.7621068E-2,4.7634178E-1,1.1364592E-1,-1.988172E-1,1.1954989E-1,8.984732E-2,-3.1655723E-1,3.2953522E-1,-1.4574255E-1,-1.7612076E-1,1.705454E-1,-2.4861991E-3,2.5212592E-1,-2.6995346E-1,-1.8561526E-3],"split_indices":[2,4,4,3,0,1,7,1,3,6,5,4,0,0,7,0,0,0,0,0,0,0,0,0,0,0,0,0,0,0,0],"split_type":[0,0,0,0,0,0,0,0,0,0,0,0,0,0,0,0,0,0,0,0,0,0,0,0,0,0,0,0,0,0,0],"sum_hessian":[1.6785748E3,1.7676169E2,1.5018131E3,1.1624408E2,6.0517616E1,1.099942E2,1.391819E3,1.07710014E2,8.534068E0,2.5100811E1,3.5416805E1,2.1464859E1,8.852934E1,3.510749E1,1.3567114E3,7.3399296E0,1.0037008E2,2.4244454E0,6.109623E0,7.875386E0,1.7225424E1,1.38097E0,3.4035835E1,3.7585564E0,1.7706303E1,5.048656E0,8.348068E1,1.5992772E1,1.9114717E1,1.4494931E1,1.3422166E3],"tree_param":{"num_deleted":"0","num_feature":"8","num_nodes":"31","size_leaf_vector":"0"}},{"base_weights":[-3.4090053E-4,3.9520045E-3,-9.3527895E-1,-1.1446908E-2,2.7003738E-1,-1.8437399E-2,-3.2019192E-1,2.0923596E-2,-1.5985687E-1,6.4798623E-1,5.7868138E-2,-1.5531265E-3,1.4534359E-1,-2.0998894E-1,-1.56155685E-2,2.0082477E-2,2.3482184E-1,4.259929E-2,-2.508207E-1],"categories":[],"categories_nodes":[],"categories_segments":[],"categories_sizes":[],"default_left":[0,0,0,0,0,0,0,0,0,0,0,0,0,0,0,0,0,0,0],"id":32,"left_children":[1,3,5,7,9,-1,-1,11,13,15,17,-1,-1,-1,-1,-1,-1,-1,-1],"loss_changes":[6.710688E0,6.8229437E0,8.1606007E-1,7.5665874E0,7.267318E0,0E0,0E0,1.5650453E1,1.6384193E1,2.5043268E0,4.589063E0,0E0,0E0,0E0,0E0,0E0,0E0,0E0,0E0],"parents":[2147483647,0,0,1,1,2,2,3,3,4,4,7,7,8,8,9,9,10,10],"right_children":[2,4,6,8,10,-1,-1,12,14,16,18,-1,-1,-1,-1,-1,-1,-1,-1],"split_conditions":[-1.158E2,5.3366E0,1.6875E0,2.11E3,3.402E1,-1.8437399E-2,-3.2019192E-1,3.708E3,7.1E2,1.215E3,-1.1723E2,-1.5531265E-3,1.4534359E-1,-2.0998894E-1,-1.56155685E-2,2.0082477E-2,2.3482184E-1,4.259929E-2,-2.508207E-1],"split_indices":[7,0,0,4,6,0,0,2,3,2,7,0,0,0,0,0,0,0,0],"split_type":[0,0,0,0,0,0,0,0,0,0,0,0,0,0,0,0,0,0,0],"sum_hessian":[1.670066E3,1.663424E3,6.642082E0,1.5733291E3,9.009484E1,1.0641987E0,5.5778837E0,1.2923145E3,2.810147E2,3.1653896E1,5.844094E1,1.2243649E3,6.794961E1,4.584367E1,2.3517104E2,6.2408123E0,2.5413084E1,5.418288E1,4.2580614E0],"tree_param":{"num_deleted":"0","num_feature":"8","num_nodes":"19","size_leaf_vector":"0"}},{"base_weights":[-4.5741932E-4,3.3320162E-2,-1.2826473E-1,9.448332E-1,2.1059826E-2,-2.9439624E-2,-3.0737388E-1,5.0925505E-1,6.162424E-1,1.0078878E-1,-7.683264E-2,6.044861E-1,-8.8633254E-2,7.238129E-1,-3.8969472E-1,-1.4605798E-1,2.6601842E-1,2.756467E-1,1.6911922E-2,-8.075963E-2,1.22445505E-2,4.1972286E-1,9.4878145E-2,-9.4856225E-2,2.4384335E-2,3.1389123E-1,-1.8208236E-2,-6.358962E-2,-2.298513E-1],"categories":[],"categories_nodes":[],"categories_segments":[],"categories_sizes":[],"default_left":[0,0,0,0,0,0,0,0,0,0,0,0,0,0,0,0,0,0,0,0,0,0,0,0,0,0,0,0,0],"id":33,"left_children":[1,3,5,7,9,11,13,-1,15,17,19,21,23,25,27,-1,-1,-1,-1,-1,-1,-1,-1,-1,-1,-1,-1,-1,-1],"loss_changes":[7.176851E0,1.4675232E1,6.142176E0,3.2645922E0,1.0142495E1,8.498681E0,1.0762431E1,0E0,4.5201793E0,2.5966076E1,1.3214925E1,3.9886537E0,8.018025E0,2.4612408E0,7.5312443E0,0E0,0E0,0E0,0E0,0E0,0E0,0E0,0E0,0E0,0E0,0E0,0E0,0E0,0E0],"parents":[2147483647,0,0,1,1,2,2,3,3,4,4,5,5,6,6,8,8,9,9,10,10,11,11,12,12,13,13,14,14],"right_children":[2,4,6,8,10,12,14,-1,16,18,20,22,24,26,28,-1,-1,-1,-1,-1,-1,-1,-1,-1,-1,-1,-1,-1,-1],"split_conditions":[-1.1778E2,3.369E1,3.36E1,2.7543E0,3.418E1,-1.1733E2,2.44E2,5.0925505E-1,3.2015E0,-1.1836E2,3.2326E0,2.5523E0,4.58E2,2.7E1,2.5E1,-1.4605798E-1,2.6601842E-1,2.756467E-1,1.6911922E-2,-8.075963E-2,1.22445505E-2,4.1972286E-1,9.4878145E-2,-9.4856225E-2,2.4384335E-2,3.1389123E-1,-1.8208236E-2,-6.358962E-2,-2.298513E-1],"split_indices":[7,6,6,0,6,7,4,0,0,7,0,0,3,1,1,0,0,0,0,0,0,0,0,0,0,0,0,0,0],"split_type":[0,0,0,0,0,0,0,0,0,0,0,0,0,0,0,0,0,0,0,0,0,0,0,0,0,0,0,0,0],"sum_hessian":[1.660464E3,1.3139467E3,3.465174E2,1.6429197E1,1.2975175E3,2.2405652E2,1.2246086E2,3.7266743E0,1.2702523E1,7.150843E2,5.8243317E2,1.8348103E1,2.0570842E2,8.477345E0,1.1398351E2,2.3438437E0,1.035868E1,3.5812626E1,6.7927167E2,2.205399E2,3.6189328E2,3.858038E0,1.4490066E1,8.757056E1,1.1813786E2,5.7712283E0,2.706117E0,7.8491684E1,3.5491833E1],"tree_param":{"num_deleted":"0","num_feature":"8","num_nodes":"29","size_leaf_vector":"0"}},{"base_weights":[6.6385075E-4,-1.5134333E-2,2.3850994E-1,4.328973E-2,-9.960264E-2,5.4295793E-2,5.620312E-1,-4.7271666E-1,5.8760114E-2,5.078148E-2,-2.319913E-1,2.4865264E-1,-2.6168305E-1,1.2669268E0,3.2827833E-1,2.8938925E-1,-1.7663084E-1,-1.0745387E-2,3.9550364E-2,-5.2768063E-2,9.346285E-2,-1.2241722E-1,4.2748973E-2,-8.8312045E-2,1.9042496E-1,-1.686787E-1,1.3519804E-1,4.4485727E-1,-3.2335583E-2,-9.1683485E-2,1.9545843E-1],"categories":[],"categories_nodes":[],"categories_segments":[],"categories_sizes":[],"default_left":[0,0,0,0,0,0,0,0,0,0,0,0,0,0,0,0,0,0,0,0,0,0,0,0,0,0,0,0,0,0,0],"id":34,"left_children":[1,3,5,7,9,11,13,15,17,19,21,23,25,27,29,-1,-1,-1,-1,-1,-1,-1,-1,-1,-1,-1,-1,-1,-1,-1,-1],"loss_changes":[6.166732E0,7.5991673E0,6.061472E0,7.2956553E0,1.254546E1,4.133016E0,5.67731E0,5.007032E0,6.1199794E0,1.7524801E1,2.2145132E1,8.893142E0,5.7591543E0,2.7896786E0,6.1660256E0,0E0,0E0,0E0,0E0,0E0,0E0,0E0,0E0,0E0,0E0,0E0,0E0,0E0,0E0,0E0,0E0],"parents":[2147483647,0,0,1,1,2,2,3,3,4,4,5,5,6,6,7,7,8,8,9,9,10,10,11,11,12,12,13,13,14,14],"right_children":[2,4,6,8,10,12,14,16,18,20,22,24,26,28,30,-1,-1,-1,-1,-1,-1,-1,-1,-1,-1,-1,-1,-1,-1,-1,-1],"split_conditions":[5.2E1,3.3E1,4.44E2,3.275E1,9.83E2,7.78E2,1.869E3,7E0,1.9E1,1.301E3,2.505E3,8.24E2,3.6321E0,-1.1716E2,2.7038E0,2.8938925E-1,-1.7663084E-1,-1.0745387E-2,3.9550364E-2,-5.2768063E-2,9.346285E-2,-1.2241722E-1,4.2748973E-2,-8.8312045E-2,1.9042496E-1,-1.686787E-1,1.3519804E-1,4.4485727E-1,-3.2335583E-2,-9.1683485E-2,1.9545843E-1],"split_indices":[1,1,3,6,4,4,2,1,1,2,2,2,0,7,0,0,0,0,0,0,0,0,0,0,0,0,0,0,0,0,0],"split_type":[0,0,0,0,0,0,0,0,0,0,0,0,0,0,0,0,0,0,0,0,0,0,0,0,0,0,0,0,0,0,0],"sum_hessian":[1.639203E3,1.5379836E3,1.0121938E2,9.094401E2,6.285435E2,6.523957E1,3.5979813E1,2.5611927E1,8.838282E2,2.9456033E2,3.339832E2,4.052558E1,2.471399E1,7.8593984E0,2.8120417E1,1.3671669E0,2.424476E1,3.85455E2,4.983732E2,1.5775354E2,1.368068E2,2.2711504E2,1.0686815E2,1.6939125E1,2.3586456E1,1.7528414E1,7.185577E0,6.724491E0,1.134907E0,9.515387E0,1.8605028E1],"tree_param":{"num_deleted":"0","num_feature":"8","num_nodes":"31","size_leaf_vector":"0"}},{"base_weights":[8.607484E-4,4.7884556E-3,-8.6268127E-1,-3.907168E-3,4.335084E-1,-3.7829153E-2,-2.9502892E-1,-9.208663E-3,6.3824224E-1,8.29695E-1,1.7350575E-1,2.5282055E-3,-8.446723E-2,-1.9781704E-1,2.6192912E-1,-6.2474295E-2,3.0385828E-1,9.889078E-2,-3.1538457E-1],"categories":[],"categories_nodes":[],"categories_segments":[],"categories_sizes":[],"default_left":[0,0,0,0,0,0,0,0,0,0,0,0,0,0,0,0,0,0,0],"id":35,"left_children":[1,3,5,7,9,-1,-1,11,13,15,17,-1,-1,-1,-1,-1,-1,-1,-1],"loss_changes":[5.520072E0,6.040725E0,5.313997E-1,5.4143906E0,3.1742024E0,0E0,0E0,7.5754094E0,4.5445247E0,2.5871916E0,4.307432E0,0E0,0E0,0E0,0E0,0E0,0E0,0E0,0E0],"parents":[2147483647,0,0,1,1,2,2,3,3,4,4,7,7,8,8,9,9,10,10],"right_children":[2,4,6,8,10,-1,-1,12,14,16,18,-1,-1,-1,-1,-1,-1,-1,-1],"split_conditions":[-1.1608E2,6.0722E0,1.6429E0,1.2342E4,3.406E1,-3.7829153E-2,-2.9502892E-1,3.2E3,3.3681E0,6.8E2,-1.1758E2,2.5282055E-3,-8.446723E-2,-1.9781704E-1,2.6192912E-1,-6.2474295E-2,3.0385828E-1,9.889078E-2,-3.1538457E-1],"split_indices":[7,0,0,2,6,0,0,4,0,2,7,0,0,0,0,0,0,0,0],"split_type":[0,0,0,0,0,0,0,0,0,0,0,0,0,0,0,0,0,0,0],"sum_hessian":[1.6252865E3,1.6189175E3,6.3689785E0,1.5877053E3,3.1212158E1,1.1849432E0,5.1840353E0,1.5756824E3,1.2022954E1,1.1499048E1,1.971311E1,1.4807642E3,9.491821E1,1.5655028E0,1.0457451E1,1.7043136E0,9.794735E0,1.8132523E1,1.5805863E0],"tree_param":{"num_deleted":"0","num_feature":"8","num_nodes":"19","size_leaf_vector":"0"}},{"base_weights":[5.385625E-4,6.1415294E-3,-6.5825343E-1,3.669496E-1,-2.965233E-3,6.37852E-1,-2.9535097E-1,8.675078E-1,5.544548E-2,-1.2963345E-2,4.3769813E-1,-2.1724539E-2,3.4366947E-1,3.083468E-1,3.5054043E-2,-1.3885978E-1,1.7072971E-1,3.626993E-3,-9.097024E-2,2.4663548E-1,-1.248787E-2],"categories":[],"categories_nodes":[],"categories_segments":[],"categories_sizes":[],"default_left":[0,0,0,0,0,0,0,0,0,0,0,0,0,0,0,0,0,0,0,0,0],"id":36,"left_children":[1,3,5,7,9,11,-1,13,15,17,19,-1,-1,-1,-1,-1,-1,-1,-1,-1,-1],"loss_changes":[5.9901447E0,5.288066E0,6.414965E0,6.129727E0,6.924638E0,1.2942346E0,0E0,1.7006664E0,7.049776E0,1.1177851E1,6.4592896E0,0E0,0E0,0E0,0E0,0E0,0E0,0E0,0E0,0E0,0E0],"parents":[2147483647,0,0,1,1,2,2,3,3,4,4,5,5,7,7,8,8,9,9,10,10],"right_children":[2,4,6,8,10,12,-1,14,16,18,20,-1,-1,-1,-1,-1,-1,-1,-1,-1,-1],"split_conditions":[3.935E1,-1.2236E2,3.17E2,3.777E1,3.871E1,-1.2035E2,-2.9535097E-1,5.99E2,3.0795E0,3.797E1,4.65E2,-2.1724539E-2,3.4366947E-1,3.083468E-1,3.5054043E-2,-1.3885978E-1,1.7072971E-1,3.626993E-3,-9.097024E-2,2.4663548E-1,-1.248787E-2],"split_indices":[6,7,4,6,6,7,0,3,0,6,3,0,0,0,0,0,0,0,0,0,0],"split_type":[0,0,0,0,0,0,0,0,0,0,0,0,0,0,0,0,0,0,0,0,0],"sum_hessian":[1.6207269E3,1.6080414E3,1.268557E1,3.8620262E1,1.5694211E3,2.358954E0,1.0326616E1,1.41299095E1,2.4490353E1,1.5355519E3,3.3869213E1,1.3407192E0,1.0182347E0,1.1339062E1,2.7908483E0,1.2239121E1,1.2251231E1,1.4144305E3,1.211214E2,1.8398434E1,1.5470779E1],"tree_param":{"num_deleted":"0","num_feature":"8","num_nodes":"21","size_leaf_vector":"0"}},{"base_weights":[5.027949E-4,4.2801467E-3,-8.2843906E-1,-5.715417E-3,3.0654877E-1,-3.6550988E-2,-2.8326663E-1,7.191265E-3,-4.3925393E-1,6.7669314E-1,-1.15728285E-2,-8.7493035E-4,1.2118129E-1,-2.1996133E-1,-4.2772137E-2,2.1106524E-2,3.3981362E-1,-1.311307E-1,8.853864E-2],"categories":[],"categories_nodes":[],"categories_segments":[],"categories_sizes":[],"default_left":[0,0,0,0,0,0,0,0,0,0,0,0,0,0,0,0,0,0,0],"id":37,"left_children":[1,3,5,7,9,-1,-1,11,13,15,17,-1,-1,-1,-1,-1,-1,-1,-1],"loss_changes":[5.0588818E0,4.8605976E0,4.845457E-1,8.719209E0,6.0715146E0,0E0,0E0,6.0711203E0,3.8241005E0,6.5061827E0,3.8716896E0,0E0,0E0,0E0,0E0,0E0,0E0,0E0,0E0],"parents":[2147483647,0,0,1,1,2,2,3,3,4,4,7,7,8,8,9,9,10,10],"right_children":[2,4,6,8,10,-1,-1,12,14,16,18,-1,-1,-1,-1,-1,-1,-1,-1],"split_conditions":[-1.1624E2,1.455E3,1.6402E0,3.431E3,4.818E3,-3.6550988E-2,-2.8326663E-1,5.542E3,3.405E1,3.1378E0,1.926E3,-8.7493035E-4,1.2118129E-1,-2.1996133E-1,-4.2772137E-2,2.1106524E-2,3.3981362E-1,-1.311307E-1,8.853864E-2],"split_indices":[7,5,0,4,4,0,0,2,6,0,5,0,0,0,0,0,0,0,0],"split_type":[0,0,0,0,0,0,0,0,0,0,0,0,0,0,0,0,0,0,0],"sum_hessian":[1.6135016E3,1.6071729E3,6.328786E0,1.556677E3,5.049585E1,1.1799642E0,5.148822E0,1.5126285E3,4.404838E1,2.2818575E1,2.7677277E1,1.4760175E3,3.661108E1,2.1386896E1,2.2661484E1,1.0290397E1,1.2528177E1,1.1414791E1,1.6262486E1],"tree_param":{"num_deleted":"0","num_feature":"8","num_nodes":"19","size_leaf_vector":"0"}},{"base_weights":[2.2981239E-4,3.854457E-2,-7.389685E-2,7.561056E-1,1.9870348E-2,2.3602929E-2,-3.413853E-1,-3.0619985E-1,9.4572407E-1,-4.934805E-2,2.0133618E-1,4.828729E-1,-3.795025E-2,-2.462954E-2,-6.465555E-1,2.2107328E-1,-3.8647208E-1,3.0325997E-1,4.716272E-2,-1.00851364E-1,1.506009E-2,1.4928177E-1,-9.834018E-2,2.7445462E-1,1.3080314E-2,-5.7620406E-2,3.2481577E-2,2.4776027E-1,-7.131118E-2,2.1561718E-1,-2.3567843E-1],"categories":[],"categories_nodes":[],"categories_segments":[],"categories_sizes":[],"default_left":[0,0,0,0,0,0,0,0,0,0,0,0,0,0,0,0,0,0,0,0,0,0,0,0,0,0,0,0,0,0,0],"id":38,"left_children":[1,3,5,7,9,11,13,15,17,19,21,23,25,27,29,-1,-1,-1,-1,-1,-1,-1,-1,-1,-1,-1,-1,-1,-1,-1,-1],"loss_changes":[4.579316E0,1.4228188E1,1.4336845E1,5.7149286E0,1.303547E1,1.142747E1,1.4177374E1,5.9020305E0,1.0275784E0,2.1473413E1,4.5081833E1,9.024749E0,8.061762E0,1.3441132E1,1.4752968E1,0E0,0E0,0E0,0E0,0E0,0E0,0E0,0E0,0E0,0E0,0E0,0E0,0E0,0E0,0E0,0E0],"parents":[2147483647,0,0,1,1,2,2,3,3,4,4,5,5,6,6,7,7,8,8,9,9,10,10,11,11,12,12,13,13,14,14],"right_children":[2,4,6,8,10,12,14,16,18,20,22,24,26,28,30,-1,-1,-1,-1,-1,-1,-1,-1,-1,-1,-1,-1,-1,-1,-1,-1],"split_conditions":[3.421E1,-1.1839E2,-1.2077E2,1.9E1,3.405E1,3.76E1,3.466E1,3.418E1,2.816E3,-1.1816E2,-1.1805E2,1.318E3,2E3,-1.1846E2,7.3E1,2.2107328E-1,-3.8647208E-1,3.0325997E-1,4.716272E-2,-1.00851364E-1,1.506009E-2,1.4928177E-1,-9.834018E-2,2.7445462E-1,1.3080314E-2,-5.7620406E-2,3.2481577E-2,2.4776027E-1,-7.131118E-2,2.1561718E-1,-2.3567843E-1],"split_indices":[6,7,7,1,6,6,6,6,4,7,7,4,2,7,5,0,0,0,0,0,0,0,0,0,0,0,0,0,0,0,0],"split_type":[0,0,0,0,0,0,0,0,0,0,0,0,0,0,0,0,0,0,0,0,0,0,0,0,0,0,0,0,0,0,0],"sum_hessian":[1.61035E3,1.0619347E3,5.484153E2,2.5933792E1,1.0360009E3,4.025846E2,1.4583066E2,3.8348532E0,2.209894E1,7.5046954E2,2.8553134E2,4.6770275E1,3.558143E2,7.20873E1,7.3743355E1,1.9806472E0,1.854206E0,2.0152103E1,1.9468358E0,1.9274553E2,5.57724E2,1.8308151E2,1.0244984E2,2.3035114E1,2.3735163E1,1.7307753E2,1.8273679E2,1.3865704E1,5.8221603E1,6.4305134E0,6.731284E1],"tree_param":{"num_deleted":"0","num_feature":"8","num_nodes":"31","size_leaf_vector":"0"}}]},"name":"gbtree"},"learner_model_param":{"base_score":"5E-1","boost_from_average":"1","num_class":"0","num_feature":"8","num_target":"1"},"objective":{"name":"binary:logistic","reg_loss_param":{"scale_pos_weight":"1"}}},"version":[1,7,6]}