{"learner":{"attributes":{"best_iteration":"4","best_ntree_limit":"5","best_score":"0.6745496563127992","scikit_learn":"{\"use_label_encoder\": null, \"n_estimators\": 500, \"objective\": \"multi:softprob\", \"max_depth\": 4, \"max_leaves\": null, \"max_bin\": null, \"grow_policy\": null, \"learning_rate\": null, \"verbosity\": null, \"booster\": null, \"tree_method\": \"hist\", \"gamma\": null, \"min_child_weight\": null, \"max_delta_step\": null, \"subsample\": null, \"sampling_method\": null, \"colsample_bytree\": null, \"colsample_bylevel\": null, \"colsample_bynode\": null, \"reg_alpha\": null, \"reg_lambda\": null, \"scale_pos_weight\": null, \"base_score\": null, \"missing\": NaN, \"num_parallel_tree\": null, \"random_state\": null, \"n_jobs\": null, \"monotone_constraints\": null, \"interaction_constraints\": null, \"importance_type\": null, \"gpu_id\": null, \"validate_parameters\": null, \"predictor\": null, \"enable_categorical\": true, \"feature_types\": null, \"max_cat_to_onehot\": null, \"max_cat_threshold\": null, \"eval_metric\": [\"mlogloss\", \"merror\", \"auc\", \"aucpr\"], \"early_stopping_rounds\": 10, \"callbacks\": null, \"classes_\": [0, 1, 2, 3], \"n_classes_\": 4, \"evals_result_\": {\"validation_0\": {\"mlogloss\": [0.9725348385301582, 0.7400063475116807, 0.5837926845647147, 0.4767278079186093, 0.39687749749931, 0.33584045815010666, 0.2933299995624553, 0.25833362298336976, 0.23209465673535673, 0.21032362622404321, 0.1926283936775067, 0.1762667145652834, 0.1596414921872652, 0.14571327463536377, 0.13488022225549076], \"merror\": [0.10998552821997105, 0.07670043415340087, 0.08465991316931983, 0.05716353111432707, 0.04992764109985529, 0.04992764109985529, 0.0426917510853835, 0.0426917510853835, 0.04052098408104197, 0.04052098408104197, 0.03979739507959479, 0.03979739507959479, 0.03545586107091172, 0.03256150506512301, 0.03183791606367583], \"auc\": [0.9634926388953488, 0.9811889306247209, 0.9874039873622118, 0.9877332289287973, 0.9888383071312267, 0.9905389060624487, 0.9906120683366163, 0.9926166912466995, 0.9937644182933134, 0.9940780039217872, 0.9949842807222266, 0.9953885092363352, 0.9960809006076212, 0.9969000214437675, 0.9972200580069882], \"aucpr\": [0.7916237669626959, 0.8677929296941979, 0.9280116342030389, 0.9297556902616875, 0.930066961131624, 0.8877722950390661, 0.893227651693862, 0.8886806410227609, 0.8747162481512962, 0.8489260946120096, 0.8931280384280309, 0.891023176555072, 0.9035361044782173, 0.9205321756220028, 0.9302671420753486], \"logloss\": [0.9725348385301582, 0.7400063475116807, 0.5837926845647147, 0.4767278079186093, 0.39687749749931, 0.33584045815010666, 0.2933299995624553, 0.25833362298336976, 0.23209465673535673, 0.21032362622404321, 0.1926283936775067, 0.1762667145652834, 0.1596414921872652, 0.14571327463536377, 0.13488022225549076], \"error\": [0.10998552821997105, 0.07670043415340087, 0.08465991316931983, 0.05716353111432707, 0.04992764109985529, 0.04992764109985529, 0.0426917510853835, 0.0426917510853835, 0.04052098408104197, 0.04052098408104197, 0.03979739507959479, 0.03979739507959479, 0.03545586107091172, 0.03256150506512301, 0.03183791606367583]}, \"validation_1\": {\"mlogloss\": [1.095019400464317, 0.9145725238529933, 0.8034823390445268, 0.7343157271429294, 0.6850311847435946, 0.6615295430828381, 0.6535393497502873, 0.6488097568898532, 0.6522592320779844, 0.669689449465516, 0.6818257524185098, 0.6979713315693284, 0.729293010009162, 0.748106095563039, 0.7690945021603579], \"merror\": [0.34104046242774566, 0.3352601156069364, 0.3352601156069364, 0.23699421965317918, 0.23699421965317918, 0.23699421965317918, 0.23699421965317918, 0.23699421965317918, 0.2138728323699422, 0.2138728323699422, 0.2138728323699422, 0.2023121387283237, 0.2138728323699422, 0.20809248554913296, 0.2138728323699422], \"auc\": [0.9250223316412122, 0.9326715909410043, 0.9366800921399799, 0.9377108977779435, 0.9423173346051213, 0.9402586770374308, 0.9390278368173799, 0.9378219984643336, 0.9369304959230036, 0.9370375739544744, 0.9380281278559975, 0.9378123985977254, 0.938459541791118, 0.9402395536215669, 0.9317093857876183], \"aucpr\": [0.5541418369178235, 0.530485217533909, 0.6620564571513702, 0.6384141625468694, 0.6745496563127992, 0.5837610230308239, 0.551869546325883, 0.556521646056174, 0.5633976667708637, 0.5378192764698511, 0.5632866839961521, 0.5389344476154131, 0.5618018533391552, 0.5579630588180028, 0.535302117510904], \"logloss\": [1.095019400464317, 0.9145725238529933, 0.8034823390445268, 0.7343157271429294, 0.6850311847435946, 0.6615295430828381, 0.6535393497502873, 0.6488097568898532, 0.6522592320779844, 0.669689449465516, 0.6818257524185098, 0.6979713315693284, 0.729293010009162, 0.748106095563039, 0.7690945021603579], \"error\": [0.34104046242774566, 0.3352601156069364, 0.3352601156069364, 0.23699421965317918, 0.23699421965317918, 0.23699421965317918, 0.23699421965317918, 0.23699421965317918, 0.2138728323699422, 0.2138728323699422, 0.2138728323699422, 0.2023121387283237, 0.2138728323699422, 0.20809248554913296, 0.2138728323699422]}}, \"_estimator_type\": \"classifier\"}"},"feature_names":["buying","maint","doors","persons","lug_boot","safety_dict"],"feature_types":["c","c","c","c","c","c"],"gradient_booster":{"model":{"gbtree_model_param":{"num_parallel_tree":"1","num_trees":"60","size_leaf_vector":"0"},"tree_info":[0,1,2,3,0,1,2,3,0,1,2,3,0,1,2,3,0,1,2,3,0,1,2,3,0,1,2,3,0,1,2,3,0,1,2,3,0,1,2,3,0,1,2,3,0,1,2,3,0,1,2,3,0,1,2,3,0,1,2,3],"trees":[{"base_weights":[1.2835821E0,9.225199E-1,5.9657145E-1,3.8611713E-1,5.9481645E-1,8.897959E-1,-1.8348624E-1,4.4383562E-1,5.9405942E-3,-1.4794521E-1,1.2972973E-1],"categories":[0,1,1,2,1,2,2],"categories_nodes":[0,1,3,5,6],"categories_segments":[0,1,2,4,6],"categories_sizes":[1,1,2,2,1],"default_left":[1,1,0,1,0,1,1,0,0,0,0],"id":0,"left_children":[1,3,-1,5,-1,7,9,-1,-1,-1,-1],"loss_changes":[1.3033801E2,1.9557639E2,0E0,6.629305E1,0E0,6.2812874E1,2.1002619E1,0E0,0E0,0E0,0E0],"parents":[2147483647,0,0,1,1,3,3,5,5,6,6],"right_children":[2,4,-1,6,-1,8,10,-1,-1,-1,-1],"split_conditions":[NaN,NaN,5.9657145E-1,NaN,5.9481645E-1,NaN,NaN,4.4383562E-1,5.9405942E-3,-1.4794521E-1,1.2972973E-1],"split_indices":[3,5,0,1,0,0,4,0,0,0,0],"split_type":[1,1,0,1,0,1,1,0,0,0,0],"sum_hessian":[5.1825E2,3.4425E2,1.74E2,2.295E2,1.1475E2,1.215E2,1.08E2,7.2E1,4.95E1,7.2E1,3.6E1],"tree_param":{"num_deleted":"0","num_feature":"6","num_nodes":"11","size_leaf_vector":"0"}},{"base_weights":[-4.718344E-2,2.6502535E-1,-1.9885714E-1,7.288503E-1,-1.9827215E-1,1.0550458E0,4.3265307E-1,3.9452055E-1,1.5405406E-1,3.8613862E-1,-4.931507E-2],"categories":[0,1,0,3,1,2,0,3],"categories_nodes":[0,1,3,5,6],"categories_segments":[0,1,2,4,6],"categories_sizes":[1,1,2,2,2],"default_left":[1,1,0,1,0,1,1,0,0,0,0],"id":1,"left_children":[1,3,-1,5,-1,7,9,-1,-1,-1,-1],"loss_changes":[9.998525E1,1.4875644E2,0E0,2.1814041E1,0E0,1.467305E1,6.270536E1,0E0,0E0,0E0,0E0],"parents":[2147483647,0,0,1,1,3,3,5,5,6,6],"right_children":[2,4,-1,6,-1,8,10,-1,-1,-1,-1],"split_conditions":[NaN,NaN,-1.9885714E-1,NaN,-1.9827215E-1,NaN,NaN,3.9452055E-1,1.5405406E-1,3.8613862E-1,-4.931507E-2],"split_indices":[3,5,0,1,0,0,0,0,0,0,0],"split_type":[1,1,0,1,0,1,1,0,0,0,0],"sum_hessian":[5.1825E2,3.4425E2,1.74E2,2.295E2,1.1475E2,1.08E2,1.215E2,7.2E1,3.6E1,4.95E1,7.2E1],"tree_param":{"num_deleted":"0","num_feature":"6","num_nodes":"11","size_leaf_vector":"0"}},{"base_weights":[-6.210881E-1,-4.7346938E-1,-1.9949718E-1,-9.638554E-2,-1.97561E-1,1.7857143E-1,-1.8620689E-1,1.7368421E-1,-1.8E-1],"categories":[0,2,3,0,3,0,1],"categories_nodes":[0,1,3,5],"categories_segments":[0,3,5,6],"categories_sizes":[3,2,1,1],"default_left":[1,1,0,1,0,1,0,0,0],"id":2,"left_children":[1,3,-1,5,-1,7,-1,-1,-1],"loss_changes":[3.0503082E0,8.485294E0,0E0,6.093522E0,0E0,9.075563E0,0E0,0E0,0E0],"parents":[2147483647,0,0,1,1,3,3,5,5],"right_children":[2,4,-1,6,-1,8,-1,-1,-1],"split_conditions":[NaN,NaN,-1.9949718E-1,NaN,-1.97561E-1,NaN,-1.8620689E-1,1.7368421E-1,-1.8E-1],"split_indices":[1,0,0,3,0,5,0,0,0],"split_type":[1,1,0,1,0,1,0,0,0],"sum_hessian":[5.1825E2,1.215E2,3.9675E2,4.05E1,8.1E1,2.7E1,1.35E1,1.8E1,9E0],"tree_param":{"num_deleted":"0","num_feature":"6","num_nodes":"9","size_leaf_vector":"0"}},{"base_weights":[-6.1531055E-1,-5.030675E-1,-1.9944018E-1,-1.9816515E-1,-1.8181819E-1,2.857143E-1,-1.9285715E-1,2.2105263E-1,-1.8E-1],"categories":[0,1,3,0,0,3,0],"categories_nodes":[0,1,4,5],"categories_segments":[0,3,4,6],"categories_sizes":[3,1,2,1],"default_left":[1,1,0,0,1,1,0,0,0],"id":3,"left_children":[1,3,-1,-1,5,7,-1,-1,-1],"loss_changes":[2.549942E0,8.126278E0,0E0,0E0,1.203896E1,1.16300745E1,0E0,0E0,0E0],"parents":[2147483647,0,0,1,1,4,4,5,5],"right_children":[2,4,-1,-1,6,8,-1,-1,-1],"split_conditions":[NaN,NaN,-1.9944018E-1,-1.9816515E-1,NaN,NaN,-1.9285715E-1,2.2105263E-1,-1.8E-1],"split_indices":[0,5,0,0,1,3,0,0,0],"split_type":[1,1,0,0,1,1,0,0,0],"sum_hessian":[5.1825E2,1.62E2,3.5625E2,1.08E2,5.4E1,2.7E1,2.7E1,1.8E1,9E0],"tree_param":{"num_deleted":"0","num_feature":"6","num_nodes":"9","size_leaf_vector":"0"}},{"base_weights":[8.311493E-1,1.0122565E0,4.3628368E-1,8.2346284E-1,3.5188287E-1,-2.5188128E-2,3.4877363E-1,5.782453E-1,1.2785888E0,3.3833995E-1,-5.211811E-1,6.05728E-2,3.4627938E-1,4.2605498E-1,2.681636E-1,3.8229242E-1,-3.853267E-2,-4.8751775E-2,-1.9004701E-1],"categories":[0,1,0,2,1,2,0,2,0,1,2,1,2,3],"categories_nodes":[0,1,2,3,5,7,8,9,10],"categories_segments":[0,1,2,3,4,6,7,8,11],"categories_sizes":[1,1,1,1,2,1,1,3,3],"default_left":[1,1,1,1,0,1,0,1,1,1,1,0,0,0,0,0,0,0,0],"id":4,"left_children":[1,3,5,7,-1,9,-1,11,13,15,17,-1,-1,-1,-1,-1,-1,-1,-1],"loss_changes":[4.3776337E1,1.1870758E1,6.578198E1,2.134845E1,0E0,2.1982533E1,0E0,2.8043312E1,2.4603195E0,3.0918818E1,1.9733658E0,0E0,0E0,0E0,0E0,0E0,0E0,0E0,0E0],"parents":[2147483647,0,0,1,1,2,2,3,3,5,5,7,7,8,8,9,9,10,10],"right_children":[2,4,6,8,-1,10,-1,12,14,16,18,-1,-1,-1,-1,-1,-1,-1,-1],"split_conditions":[NaN,NaN,NaN,NaN,3.5188287E-1,NaN,3.4877363E-1,NaN,NaN,NaN,NaN,6.05728E-2,3.4627938E-1,4.2605498E-1,2.681636E-1,3.8229242E-1,-3.853267E-2,-4.8751775E-2,-1.9004701E-1],"split_indices":[5,5,3,4,0,1,0,3,0,0,2,0,0,0,0,0,0,0,0],"split_type":[1,1,1,1,0,1,0,1,1,1,1,0,0,0,0,0,0,0,0],"sum_hessian":[6.173203E2,4.2214005E2,1.9518028E2,1.969106E2,2.2522943E2,1.19939E2,7.524127E1,1.2944003E2,6.7470566E1,6.939511E1,5.0543896E1,7.910692E1,5.033312E1,4.735117E1,2.0119396E1,2.2516394E1,4.6878716E1,1.2635974E1,3.790792E1],"tree_param":{"num_deleted":"0","num_feature":"6","num_nodes":"19","size_leaf_vector":"0"}},{"base_weights":[-3.0040707E-2,2.102865E-1,-1.8428767E-1,5.162712E-1,-1.8369374E-1,6.8957096E-1,1.6006434E-1,2.503789E-1,9.304505E-2,-1.16560064E-1,2.1299015E-1],"categories":[0,1,2,3,0],"categories_nodes":[0,1,3,5,6],"categories_segments":[0,1,2,3,4],"categories_sizes":[1,1,1,1,1],"default_left":[1,1,0,1,0,1,1,0,0,0,0],"id":5,"left_children":[1,3,-1,5,-1,7,9,-1,-1,-1,-1],"loss_changes":[6.975634E1,8.894011E1,0E0,1.5765419E1,0E0,9.244385E0,2.6060999E1,0E0,0E0,0E0,0E0],"parents":[2147483647,0,0,1,1,3,3,5,5,6,6],"right_children":[2,4,-1,6,-1,8,10,-1,-1,-1,-1],"split_conditions":[NaN,NaN,-1.8428767E-1,NaN,-1.8369374E-1,NaN,NaN,2.503789E-1,9.304505E-2,-1.16560064E-1,2.1299015E-1],"split_indices":[3,5,0,4,0,1,5,0,0,0,0],"split_type":[1,1,0,1,0,1,1,0,0,0,0],"sum_hessian":[4.948792E2,3.5109793E2,1.4378127E2,2.5617874E2,9.4919205E1,1.717056E2,8.447314E1,1.2335586E2,4.834974E1,4.2433643E1,4.2039494E1],"tree_param":{"num_deleted":"0","num_feature":"6","num_nodes":"11","size_leaf_vector":"0"}},{"base_weights":[-5.7068515E-1,-4.1322786E-1,-1.858529E-1,-4.6997286E-2,-1.8396154E-1,1.8745814E-1,-1.7103235E-1,1.464186E-1,-1.6404058E-1],"categories":[0,2,3,0,3,1,0],"categories_nodes":[0,1,3,5],"categories_segments":[0,3,5,6],"categories_sizes":[3,2,1,1],"default_left":[1,1,0,1,0,1,0,0,0],"id":6,"left_children":[1,3,-1,5,-1,7,-1,-1,-1],"loss_changes":[3.1212769E0,7.8062515E0,0E0,4.8738055E0,0E0,6.3568115E0,0E0,0E0,0E0],"parents":[2147483647,0,0,1,1,3,3,5,5],"right_children":[2,4,-1,6,-1,8,-1,-1,-1],"split_conditions":[NaN,NaN,-1.858529E-1,NaN,-1.8396154E-1,NaN,-1.7103235E-1,1.464186E-1,-1.6404058E-1],"split_indices":[1,0,0,5,0,3,0,0,0],"split_type":[1,1,0,1,0,1,0,0,0],"sum_hessian":[4.383037E2,1.0598124E2,3.3232248E2,3.7867393E1,6.8113846E1,2.6591063E1,1.127633E1,1.9104883E1,7.4861794E0],"tree_param":{"num_deleted":"0","num_feature":"6","num_nodes":"9","size_leaf_vector":"0"}},{"base_weights":[-5.6452626E-1,-4.4505745E-1,-1.8575107E-1,-1.8456581E-1,-1.3007376E-1,2.7058414E-1,-1.7911586E-1,2.113187E-1,-1.8061762E-1],"categories":[0,1,3,0,0,3,2],"categories_nodes":[0,1,4,5],"categories_segments":[0,3,4,6],"categories_sizes":[3,1,2,1],"default_left":[1,1,0,0,1,1,0,0,0],"id":7,"left_children":[1,3,-1,-1,5,7,-1,-1,-1],"loss_changes":[2.5959778E0,7.5097313E0,0E0,0E0,9.691445E0,1.1062594E1,0E0,0E0,0E0],"parents":[2147483647,0,0,1,1,4,4,5,5],"right_children":[2,4,-1,-1,6,8,-1,-1,-1],"split_conditions":[NaN,NaN,-1.8575107E-1,-1.8456581E-1,NaN,NaN,-1.7911586E-1,2.113187E-1,-1.8061762E-1],"split_indices":[0,5,0,0,1,4,0,0,0],"split_type":[1,1,0,0,1,1,0,0,0],"sum_hessian":[4.388658E2,1.4060455E2,2.9826126E2,9.066949E1,4.9935062E1,2.7102377E1,2.2832684E1,1.8231745E1,8.870632E0],"tree_param":{"num_deleted":"0","num_feature":"6","num_nodes":"9","size_leaf_vector":"0"}},{"base_weights":[6.37817E-1,4.8702696E-1,2.6837102E-1,6.9410354E-1,-1.9400423E-2,4.5842114E-1,2.673041E-1,2.735448E-1,-4.7770822E-1,2.1614169E-1,-3.6645457E-2,2.0342048E-1,-1.5259431E-1,-3.594422E-2,-1.8002787E-1],"categories":[0,0,1,1,2,0,1,2,1,2,3],"categories_nodes":[0,1,3,4,5,7,8],"categories_segments":[0,1,2,3,5,6,8],"categories_sizes":[1,1,1,2,1,2,3],"default_left":[1,1,0,1,1,1,0,1,1,0,0,0,0,0,0],"id":8,"left_children":[1,3,-1,5,7,9,-1,11,13,-1,-1,-1,-1,-1,-1],"loss_changes":[2.3747849E1,4.1512383E1,0E0,1.2627609E1,1.5680664E1,1.9854216E1,0E0,2.2903166E1,1.9222403E0,0E0,0E0,0E0,0E0,0E0,0E0],"parents":[2147483647,0,0,1,1,3,3,4,4,5,5,7,7,8,8],"right_children":[2,4,-1,6,8,10,-1,12,14,-1,-1,-1,-1,-1,-1],"split_conditions":[NaN,NaN,2.6837102E-1,NaN,NaN,NaN,2.673041E-1,NaN,NaN,2.1614169E-1,-3.6645457E-2,2.0342048E-1,-1.5259431E-1,-3.594422E-2,-1.8002787E-1],"split_indices":[3,5,0,5,1,4,0,0,2,0,0,0,0,0,0],"split_type":[1,1,0,1,1,1,0,1,1,0,0,0,0,0,0],"sum_hessian":[6.236418E2,3.947206E2,2.2892116E2,2.7989984E2,1.1482077E2,1.289214E2,1.5097845E2,7.029325E1,4.4527515E1,8.866156E1,4.025984E1,4.641968E1,2.387357E1,1.1850789E1,3.2676727E1],"tree_param":{"num_deleted":"0","num_feature":"6","num_nodes":"15","size_leaf_vector":"0"}},{"base_weights":[-1.8417297E-2,1.7157343E-1,-1.7434609E-1,3.8740823E-1,-1.7372511E-1,5.158884E-1,8.7682486E-2,2.3875432E-1,8.0877244E-2,1.9230926E-1,-1.9331107E-1],"categories":[0,1,3,1,3,0,3],"categories_nodes":[0,1,3,5,6],"categories_segments":[0,1,2,3,5],"categories_sizes":[1,1,1,2,2],"default_left":[1,1,0,1,0,1,1,0,0,0,0],"id":9,"left_children":[1,3,-1,5,-1,7,9,-1,-1,-1,-1],"loss_changes":[4.9691696E1,5.6532394E1,0E0,1.0372513E1,0E0,1.2828232E1,3.3781563E1,0E0,0E0,0E0,0E0],"parents":[2147483647,0,0,1,1,3,3,5,5,6,6],"right_children":[2,4,-1,6,-1,8,10,-1,-1,-1,-1],"split_conditions":[NaN,NaN,-1.7434609E-1,NaN,-1.7372511E-1,NaN,NaN,2.3875432E-1,8.0877244E-2,1.9230926E-1,-1.9331107E-1],"split_indices":[3,5,0,0,0,1,1,0,0,0,0],"split_type":[1,1,0,1,0,1,1,0,0,0,0],"sum_hessian":[4.628463E2,3.4654208E2,1.1630423E2,2.6952893E2,7.701315E1,1.8815385E2,8.137506E1,8.701509E1,1.0113877E2,4.641497E1,3.496009E1],"tree_param":{"num_deleted":"0","num_feature":"6","num_nodes":"11","size_leaf_vector":"0"}},{"base_weights":[-5.331127E-1,-3.6037922E-1,-1.7672959E-1,2.5787654E-3,-1.7449918E-1,2.0661908E-1,-1.5946992E-1,1.3218082E-1,-1.515334E-1],"categories":[0,2,3,0,3,1,0],"categories_nodes":[0,1,3,5],"categories_segments":[0,3,5,6],"categories_sizes":[3,2,1,1],"default_left":[1,1,0,1,0,1,0,0,0],"id":10,"left_children":[1,3,-1,5,-1,7,-1,-1,-1],"loss_changes":[3.341385E0,7.432844E0,0E0,4.0377192E0,0E0,4.685362E0,0E0,0E0,0E0],"parents":[2147483647,0,0,1,1,3,3,5,5],"right_children":[2,4,-1,6,-1,8,-1,-1,-1],"split_conditions":[NaN,NaN,-1.7672959E-1,NaN,-1.7449918E-1,NaN,-1.5946992E-1,1.3218082E-1,-1.515334E-1],"split_indices":[1,0,0,5,0,3,0,0,0],"split_type":[1,1,0,1,0,1,0,0,0],"sum_hessian":[3.6647098E2,9.152513E1,2.7494586E2,3.5039917E1,5.6485214E1,2.5798296E1,9.241619E0,1.9702106E1,6.09619E0],"tree_param":{"num_deleted":"0","num_feature":"6","num_nodes":"9","size_leaf_vector":"0"}},{"base_weights":[-5.262539E-1,-3.9627627E-1,-1.7653249E-1,-1.7506975E-1,-8.830448E-2,2.661889E-1,-1.7028275E-1,1.8380266E-1,-1.6907729E-1],"categories":[0,1,3,0,0,3,2],"categories_nodes":[0,1,4,5],"categories_segments":[0,3,4,6],"categories_sizes":[3,1,2,1],"default_left":[1,1,0,0,1,1,0,0,0],"id":11,"left_children":[1,3,-1,-1,5,7,-1,-1,-1],"loss_changes":[2.745964E0,7.0048504E0,0E0,0E0,8.211912E0,8.381808E0,0E0,0E0,0E0],"parents":[2147483647,0,0,1,1,4,4,5,5],"right_children":[2,4,-1,-1,6,8,-1,-1,-1],"split_conditions":[NaN,NaN,-1.7653249E-1,-1.7506975E-1,NaN,NaN,-1.7028275E-1,1.8380266E-1,-1.6907729E-1],"split_indices":[0,5,0,0,1,4,0,0,0],"split_type":[1,1,0,0,1,1,0,0,0],"sum_hessian":[3.6756915E2,1.2133697E2,2.4623218E2,7.489535E1,4.6441624E1,2.6952333E1,1.948929E1,1.9197695E1,7.7546377E0],"tree_param":{"num_deleted":"0","num_feature":"6","num_nodes":"9","size_leaf_vector":"0"}},{"base_weights":[5.2454656E-1,3.9589906E-1,2.2632338E-1,5.660269E-1,-2.9616803E-2,3.7106502E-1,2.2487572E-1,4.1955897E-1,-2.7573025E-1,3.430218E-2,2.3722108E-1,2.8731817E-1,-1.404211E-1,4.7096644E-2,-1.5615833E-1],"categories":[0,0,1,0,1,2,2,1,2,0,2],"categories_nodes":[0,1,3,4,5,7,8],"categories_segments":[0,1,2,3,6,7,9],"categories_sizes":[1,1,1,3,1,2,2],"default_left":[1,1,0,1,1,1,0,1,1,0,0,0,0,0,0],"id":12,"left_children":[1,3,-1,5,7,9,-1,11,13,-1,-1,-1,-1,-1,-1],"loss_changes":[1.700914E1,2.7335205E1,0E0,9.371216E0,1.2136044E1,1.4210527E1,0E0,1.902364E1,7.586608E0,0E0,0E0,0E0,0E0,0E0,0E0],"parents":[2147483647,0,0,1,1,3,3,4,4,5,5,7,7,8,8],"right_children":[2,4,-1,6,8,10,-1,12,14,-1,-1,-1,-1,-1,-1],"split_conditions":[NaN,NaN,2.2632338E-1,NaN,NaN,NaN,2.2487572E-1,NaN,NaN,3.430218E-2,2.3722108E-1,2.8731817E-1,-1.404211E-1,4.7096644E-2,-1.5615833E-1],"split_indices":[3,5,0,5,1,4,0,0,0,0,0,0,0,0,0],"split_type":[1,1,0,1,1,1,0,1,1,0,0,0,0,0,0],"sum_hessian":[5.8428564E2,3.7636765E2,2.07918E2,2.6863354E2,1.0773409E2,1.3173563E2,1.3689792E2,3.788548E1,6.984862E1,8.252521E1,4.9210415E1,2.3536415E1,1.4349063E1,2.536702E1,4.4481598E1],"tree_param":{"num_deleted":"0","num_feature":"6","num_nodes":"15","size_leaf_vector":"0"}},{"base_weights":[-8.544555E-3,1.4525023E-1,-1.6723849E-1,3.0520838E-1,-1.6617031E-1,4.1857493E-1,5.764199E-2,1.5433733E-1,5.2865554E-2,-1.0183979E-1,1.1770743E-1],"categories":[1,0,2,3,0],"categories_nodes":[0,1,3,5,6],"categories_segments":[0,1,2,3,4],"categories_sizes":[1,1,1,1,1],"default_left":[1,1,0,1,0,1,1,0,0,0,0],"id":13,"left_children":[1,3,-1,5,-1,7,9,-1,-1,-1,-1],"loss_changes":[3.595096E1,3.7376225E1,0E0,7.592825E0,0E0,4.2314224E0,1.1617819E1,0E0,0E0,0E0,0E0],"parents":[2147483647,0,0,1,1,3,3,5,5,6,6],"right_children":[2,4,-1,6,-1,8,10,-1,-1,-1,-1],"split_conditions":[NaN,NaN,-1.6723849E-1,NaN,-1.6617031E-1,NaN,NaN,1.5433733E-1,5.2865554E-2,-1.0183979E-1,1.1770743E-1],"split_indices":[5,3,0,4,0,0,5,0,0,0,0],"split_type":[1,1,0,1,0,1,1,0,0,0,0],"sum_hessian":[4.2389624E2,3.3169717E2,9.219904E1,2.7039682E2,6.1300373E1,1.8499324E2,8.540357E1,1.3174756E2,5.324568E1,3.9054745E1,4.6348827E1],"tree_param":{"num_deleted":"0","num_feature":"6","num_nodes":"11","size_leaf_vector":"0"}},{"base_weights":[-5.0215596E-1,-3.1448635E-1,-1.7003465E-1,3.8648598E-2,-1.6763501E-1,2.1027529E-1,-1.4977486E-1,1.1618866E-1,-1.4070301E-1],"categories":[0,2,3,0,3,1,0],"categories_nodes":[0,1,3,5],"categories_segments":[0,3,5,6],"categories_sizes":[3,2,1,1],"default_left":[1,1,0,1,0,1,0,0,0],"id":14,"left_children":[1,3,-1,5,-1,7,-1,-1,-1],"loss_changes":[3.507286E0,6.930543E0,0E0,3.21453E0,0E0,3.3368344E0,0E0,0E0,0E0],"parents":[2147483647,0,0,1,1,3,3,5,5],"right_children":[2,4,-1,6,-1,8,-1,-1,-1],"split_conditions":[NaN,NaN,-1.7003465E-1,NaN,-1.6763501E-1,NaN,-1.4977486E-1,1.1618866E-1,-1.4070301E-1],"split_indices":[1,0,0,5,0,3,0,0,0],"split_type":[1,1,0,1,0,1,0,0,0],"sum_hessian":[3.0287714E2,7.908533E1,2.2379181E2,3.268315E1,4.640218E1,2.5239183E1,7.4439654E0,2.0362589E1,4.876596E0],"tree_param":{"num_deleted":"0","num_feature":"6","num_nodes":"9","size_leaf_vector":"0"}},{"base_weights":[-4.9403512E-1,-3.4921896E-1,-1.6993165E-1,-1.6755436E-1,-5.192551E-2,2.6536083E-1,-1.6365801E-1,1.7050542E-1,-1.6292112E-1],"categories":[0,1,3,0,0,3,0],"categories_nodes":[0,1,4,5],"categories_segments":[0,3,4,6],"categories_sizes":[3,1,2,1],"default_left":[1,1,0,0,1,1,0,0,0],"id":15,"left_children":[1,3,-1,-1,5,7,-1,-1,-1],"loss_changes":[3.0023956E0,6.463312E0,0E0,0E0,7.068702E0,7.0653877E0,0E0,0E0,0E0],"parents":[2147483647,0,0,1,1,4,4,5,5],"right_children":[2,4,-1,-1,6,8,-1,-1,-1],"split_conditions":[NaN,NaN,-1.6993165E-1,-1.6755436E-1,NaN,NaN,-1.6365801E-1,1.7050542E-1,-1.6292112E-1],"split_indices":[0,5,0,0,1,3,0,0,0],"split_type":[1,1,0,0,1,1,0,0,0],"sum_hessian":[3.0421173E2,1.03340775E2,2.0087096E2,6.0130234E1,4.3210537E1,2.6584467E1,1.662607E1,1.9553146E1,7.03132E0],"tree_param":{"num_deleted":"0","num_feature":"6","num_nodes":"9","size_leaf_vector":"0"}},{"base_weights":[4.4735548E-1,3.3213058E-1,2.0113409E-1,1.6160235E-1,1.9993788E-1,3.8125023E-1,-1.6594493E-1,2.547727E-1,4.4809137E-2,-1.1967682E-1,5.30029E-2],"categories":[0,1,1,2,0,1,2,2],"categories_nodes":[0,1,3,5,6],"categories_segments":[0,1,2,4,7],"categories_sizes":[1,1,2,3,1],"default_left":[1,1,0,1,0,1,1,0,0,0,0],"id":16,"left_children":[1,3,-1,5,-1,7,9,-1,-1,-1,-1],"loss_changes":[1.3309692E1,1.97966E1,0E0,1.6791725E1,0E0,1.5010359E1,7.5763044E0,0E0,0E0,0E0,0E0],"parents":[2147483647,0,0,1,1,3,3,5,5,6,6],"right_children":[2,4,-1,6,-1,8,10,-1,-1,-1,-1],"split_conditions":[NaN,NaN,2.0113409E-1,NaN,1.9993788E-1,NaN,NaN,2.547727E-1,4.4809137E-2,-1.1967682E-1,5.30029E-2],"split_indices":[3,5,0,1,0,0,4,0,0,0,0],"split_type":[1,1,0,1,0,1,1,0,0,0,0],"sum_hessian":[5.254347E2,3.4812155E2,1.7731316E2,2.3151707E2,1.1660449E2,1.3848639E2,9.303068E1,4.5001762E1,9.3484634E1,5.527804E1,3.7752636E1],"tree_param":{"num_deleted":"0","num_feature":"6","num_nodes":"11","size_leaf_vector":"0"}},{"base_weights":[7.642589E-6,1.2483703E-1,-1.6177882E-1,2.4509977E-1,-1.6057183E-1,3.4242097E-1,-1.1889892E-2,1.7168087E-1,6.5818794E-2,1.5313838E-1,-1.941173E-1],"categories":[1,0,3,1,2,3,0,3],"categories_nodes":[0,1,3,5,6],"categories_segments":[0,1,2,3,6],"categories_sizes":[1,1,1,3,2],"default_left":[1,1,0,1,0,1,1,0,0,0,0],"id":17,"left_children":[1,3,-1,5,-1,7,9,-1,-1,-1,-1],"loss_changes":[2.6174282E1,2.519516E1,0E0,6.7009487E0,0E0,5.3672104E0,2.5052822E1,0E0,0E0,0E0,0E0],"parents":[2147483647,0,0,1,1,3,3,5,5,6,6],"right_children":[2,4,-1,6,-1,8,10,-1,-1,-1,-1],"split_conditions":[NaN,NaN,-1.6177882E-1,NaN,-1.6057183E-1,NaN,NaN,1.7168087E-1,6.5818794E-2,1.5313838E-1,-1.941173E-1],"split_indices":[5,3,0,1,0,0,0,0,0,0,0],"split_type":[1,1,0,1,0,1,1,0,0,0,0],"sum_hessian":[3.8682245E2,3.1473633E2,7.208613E1,2.667622E2,4.7974106E1,1.9324753E2,7.351469E1,6.610025E1,1.27147285E2,4.04476E1,3.3067085E1],"tree_param":{"num_deleted":"0","num_feature":"6","num_nodes":"11","size_leaf_vector":"0"}},{"base_weights":[-4.7396585E-1,-2.666048E-1,-1.6512802E-1,8.09336E-2,-1.6230133E-1,2.2720493E-1,-1.410629E-1,1.10696234E-1,-1.3151613E-1],"categories":[0,2,3,0,3,1,0],"categories_nodes":[0,1,3,5],"categories_segments":[0,3,5,6],"categories_sizes":[3,2,1,1],"default_left":[1,1,0,1,0,1,0,0,0],"id":18,"left_children":[1,3,-1,5,-1,7,-1,-1,-1],"loss_changes":[3.8157158E0,6.6493673E0,0E0,2.6406426E0,0E0,2.5693674E0,0E0,0E0,0E0],"parents":[2147483647,0,0,1,1,3,3,5,5],"right_children":[2,4,-1,6,-1,8,-1,-1,-1],"split_conditions":[NaN,NaN,-1.6512802E-1,NaN,-1.6230133E-1,NaN,-1.410629E-1,1.10696234E-1,-1.3151613E-1],"split_indices":[1,0,0,5,0,3,0,0,0],"split_type":[1,1,0,1,0,1,0,0,0],"sum_hessian":[2.4891856E2,6.826674E1,1.8065182E2,3.0430418E1,3.7836323E1,2.4512617E1,5.9177995E0,2.0575342E1,3.937276E0],"tree_param":{"num_deleted":"0","num_feature":"6","num_nodes":"9","size_leaf_vector":"0"}},{"base_weights":[-4.6547043E-1,-3.0508092E-1,-1.6504526E-1,-1.620323E-1,-1.7614814E-2,2.6409712E-1,-1.5774061E-1,1.6741315E-1,-1.631708E-1],"categories":[0,1,3,0,0,3,2],"categories_nodes":[0,1,4,5],"categories_segments":[0,3,4,6],"categories_sizes":[3,1,2,1],"default_left":[1,1,0,0,1,1,0,0,0],"id":19,"left_children":[1,3,-1,-1,5,7,-1,-1,-1],"loss_changes":[3.2476387E0,6.012849E0,0E0,0E0,6.0270762E0,6.7463474E0,0E0,0E0,0E0],"parents":[2147483647,0,0,1,1,4,4,5,5],"right_children":[2,4,-1,-1,6,8,-1,-1,-1],"split_conditions":[NaN,NaN,-1.6504526E-1,-1.620323E-1,NaN,NaN,-1.5774061E-1,1.6741315E-1,-1.631708E-1],"split_indices":[0,5,0,0,1,4,0,0,0],"split_type":[1,1,0,0,1,1,0,0,0],"sum_hessian":[2.5047365E2,8.8138016E1,1.6233563E2,4.800841E1,4.0129604E1,2.6126678E1,1.4002925E1,1.938416E1,6.7425184E0],"tree_param":{"num_deleted":"0","num_feature":"6","num_nodes":"9","size_leaf_vector":"0"}},{"base_weights":[3.902297E-1,2.8345042E-1,1.8561293E-1,4.2885527E-1,-5.63117E-2,5.3878635E-1,1.7903414E-1,3.028186E-1,-2.54101E-1,1.9575371E-1,8.714554E-2,-4.727469E-2,1.8020725E-1,2.2515763E-1,-1.2778871E-1,2.4231067E-2,-1.4036158E-1],"categories":[0,0,2,0,1,2,0,1,1,2,0,2],"categories_nodes":[0,1,3,4,5,6,7,8],"categories_segments":[0,1,2,3,6,7,8,10],"categories_sizes":[1,1,1,3,1,1,2,2],"default_left":[1,1,0,1,1,1,1,1,1,0,0,0,0,0,0,0,0],"id":20,"left_children":[1,3,-1,5,7,9,11,13,15,-1,-1,-1,-1,-1,-1,-1,-1],"loss_changes":[1.1131073E1,1.5718464E1,0E0,6.0164566E0,6.902603E0,4.161186E0,9.961293E0,1.1603577E1,4.512551E0,0E0,0E0,0E0,0E0,0E0,0E0,0E0,0E0],"parents":[2147483647,0,0,1,1,3,3,4,4,5,5,6,6,7,7,8,8],"right_children":[2,4,-1,6,8,10,12,14,16,-1,-1,-1,-1,-1,-1,-1,-1],"split_conditions":[NaN,NaN,1.8561293E-1,NaN,NaN,NaN,NaN,NaN,NaN,1.9575371E-1,8.714554E-2,-4.727469E-2,1.8020725E-1,2.2515763E-1,-1.2778871E-1,2.4231067E-2,-1.4036158E-1],"split_indices":[3,5,0,0,1,4,5,0,0,0,0,0,0,0,0,0,0],"split_type":[1,1,0,1,1,1,1,1,1,0,0,0,0,0,0,0,0],"sum_hessian":[4.6243713E2,3.1667902E2,1.4575812E2,2.2158649E2,9.509253E1,1.5307208E2,6.85144E1,3.3583405E1,6.150913E1,1.0387003E2,4.9202053E1,3.84474E1,3.0067E1,2.0784916E1,1.2798488E1,2.420861E1,3.7300518E1],"tree_param":{"num_deleted":"0","num_feature":"6","num_nodes":"17","size_leaf_vector":"0"}},{"base_weights":[5.069707E-3,1.0665649E-1,-1.5752131E-1,1.9835064E-1,-1.5605284E-1,2.757683E-1,-1.6075553E-2,1.0612174E-1,1.2326342E-2,1.24437526E-1,-1.844215E-1],"categories":[1,0,3,0,0,3],"categories_nodes":[0,1,3,5,6],"categories_segments":[0,1,2,3,4],"categories_sizes":[1,1,1,1,2],"default_left":[1,1,0,1,0,1,1,0,0,0,0],"id":21,"left_children":[1,3,-1,5,-1,7,9,-1,-1,-1,-1],"loss_changes":[1.897953E1,1.7099335E1,0E0,4.2988205E0,0E0,3.4643946E0,1.8199755E1,0E0,0E0,0E0,0E0],"parents":[2147483647,0,0,1,1,3,3,5,5,6,6],"right_children":[2,4,-1,6,-1,8,10,-1,-1,-1,-1],"split_conditions":[NaN,NaN,-1.5752131E-1,NaN,-1.5605284E-1,NaN,NaN,1.0612174E-1,1.2326342E-2,1.24437526E-1,-1.844215E-1],"split_indices":[5,3,0,1,0,2,0,0,0,0,0],"split_type":[1,1,0,1,0,1,1,0,0,0,0],"sum_hessian":[3.5037732E2,2.9470425E2,5.5673088E1,2.5769217E2,3.7012085E1,1.8912375E2,6.856841E1,1.4157816E2,4.754558E1,4.0050533E1,2.851788E1],"tree_param":{"num_deleted":"0","num_feature":"6","num_nodes":"11","size_leaf_vector":"0"}},{"base_weights":[-4.4866258E-1,-2.2686507E-1,-1.6134979E-1,9.79806E-2,-1.579257E-1,2.1551032E-1,-1.3276573E-1,9.6406855E-2,-1.2201558E-1],"categories":[0,2,3,0,3,1,0],"categories_nodes":[0,1,3,5],"categories_segments":[0,3,5,6],"categories_sizes":[3,2,1,1],"default_left":[1,1,0,1,0,1,0,0,0],"id":22,"left_children":[1,3,-1,5,-1,7,-1,-1,-1],"loss_changes":[3.9337578E0,5.9419637E0,0E0,1.9938387E0,0E0,1.7916261E0,0E0,0E0,0E0],"parents":[2147483647,0,0,1,1,3,3,5,5],"right_children":[2,4,-1,6,-1,8,-1,-1,-1],"split_conditions":[NaN,NaN,-1.6134979E-1,NaN,-1.579257E-1,NaN,-1.3276573E-1,9.6406855E-2,-1.2201558E-1],"split_indices":[1,0,0,5,0,3,0,0,0],"split_type":[1,1,0,1,0,1,0,0,0],"sum_hessian":[2.040681E2,5.953291E1,1.445352E2,2.888357E1,3.064934E1,2.4218885E1,4.664685E0,2.1111242E1,3.1076422E0],"tree_param":{"num_deleted":"0","num_feature":"6","num_nodes":"9","size_leaf_vector":"0"}},{"base_weights":[-4.388261E-1,-2.6460528E-1,-1.6124322E-1,-1.5788169E-1,1.2582041E-2,2.559876E-1,-1.5187584E-1,1.4805882E-1,-1.5389478E-1],"categories":[0,1,3,0,0,3,2],"categories_nodes":[0,1,4,5],"categories_segments":[0,3,4,6],"categories_sizes":[3,1,2,1],"default_left":[1,1,0,0,1,1,0,0,0],"id":23,"left_children":[1,3,-1,-1,5,7,-1,-1,-1],"loss_changes":[3.4070892E0,5.5645885E0,0E0,0E0,4.9522085E0,5.1224766E0,0E0,0E0,0E0],"parents":[2147483647,0,0,1,1,4,4,5,5],"right_children":[2,4,-1,-1,6,8,-1,-1,-1],"split_conditions":[NaN,NaN,-1.6124322E-1,-1.5788169E-1,NaN,NaN,-1.5187584E-1,1.4805882E-1,-1.5389478E-1],"split_indices":[0,5,0,0,1,4,0,0,0],"split_type":[1,1,0,0,1,1,0,0,0],"sum_hessian":[2.0550987E2,7.562909E1,1.2988078E2,3.8441444E1,3.7187645E1,2.565738E1,1.1530264E1,1.987577E1,5.7816086E0],"tree_param":{"num_deleted":"0","num_feature":"6","num_nodes":"9","size_leaf_vector":"0"}},{"base_weights":[3.422639E-1,2.419654E-1,1.7528512E-1,1.16043456E-1,1.7377523E-1,2.9012886E-1,-1.3986196E-1,2.1203172E-1,3.2303926E-2,7.451068E-3,-1.7115307E-1],"categories":[0,1,1,2,0,1,2,0],"categories_nodes":[0,1,3,5,6],"categories_segments":[0,1,2,4,7],"categories_sizes":[1,1,2,3,1],"default_left":[1,1,0,1,0,1,1,0,0,0,0],"id":24,"left_children":[1,3,-1,5,-1,7,9,-1,-1,-1,-1],"loss_changes":[9.684101E0,1.2159521E1,0E0,9.434756E0,0E0,9.488516E0,6.1172943E0,0E0,0E0,0E0,0E0],"parents":[2147483647,0,0,1,1,3,3,5,5,6,6],"right_children":[2,4,-1,6,-1,8,10,-1,-1,-1,-1],"split_conditions":[NaN,NaN,1.7528512E-1,NaN,1.7377523E-1,NaN,NaN,2.1203172E-1,3.2303926E-2,7.451068E-3,-1.7115307E-1],"split_indices":[3,5,0,1,0,0,4,0,0,0,0],"split_type":[1,1,0,1,0,1,1,0,0,0,0],"sum_hessian":[4.0377002E2,2.8688016E2,1.1688987E2,2.0987103E2,7.70091E1,1.2482339E2,8.504765E1,3.713882E1,8.768457E1,6.2201416E1,2.2846235E1],"tree_param":{"num_deleted":"0","num_feature":"6","num_nodes":"11","size_leaf_vector":"0"}},{"base_weights":[1.0178093E-2,9.3715936E-2,-1.5417065E-1,1.6442674E-1,-1.5222019E-1,2.508048E-1,-2.5482384E-2,1.2072568E-1,4.670827E-2,-8.998885E-2,6.24018E-2],"categories":[1,0,2,2,3,0],"categories_nodes":[0,1,3,5,6],"categories_segments":[0,1,2,3,5],"categories_sizes":[1,1,1,2,1],"default_left":[1,1,0,1,0,1,1,0,0,0,0],"id":25,"left_children":[1,3,-1,5,-1,7,9,-1,-1,-1,-1],"loss_changes":[1.4022507E1,1.1821436E1,0E0,4.071998E0,0E0,2.3952494E0,5.0864425E0,0E0,0E0,0E0,0E0],"parents":[2147483647,0,0,1,1,3,3,5,5,6,6],"right_children":[2,4,-1,6,-1,8,10,-1,-1,-1,-1],"split_conditions":[NaN,NaN,-1.5417065E-1,NaN,-1.5222019E-1,NaN,NaN,1.2072568E-1,4.670827E-2,-8.998885E-2,6.24018E-2],"split_indices":[5,3,0,4,0,0,5,0,0,0,0],"split_type":[1,1,0,1,0,1,1,0,0,0,0],"sum_hessian":[3.181909E2,2.7515295E2,4.3037914E1,2.4684271E2,2.831025E1,1.6944974E2,7.739298E1,6.4076096E1,1.05373634E2,3.54429E1,4.1950085E1],"tree_param":{"num_deleted":"0","num_feature":"6","num_nodes":"11","size_leaf_vector":"0"}},{"base_weights":[-4.240848E-1,-1.8760443E-1,-1.5849677E-1,1.1087724E-1,-1.5408549E-1,2.0491011E-1,-1.2456716E-1,8.545759E-2,-1.1263961E-1],"categories":[0,2,3,0,3,1,0],"categories_nodes":[0,1,3,5],"categories_segments":[0,3,5,6],"categories_sizes":[3,2,1,1],"default_left":[1,1,0,1,0,1,0,0,0],"id":26,"left_children":[1,3,-1,5,-1,7,-1,-1,-1],"loss_changes":[4.0632915E0,5.2348266E0,0E0,1.4999831E0,0E0,1.2638713E0,0E0,0E0,0E0],"parents":[2147483647,0,0,1,1,3,3,5,5],"right_children":[2,4,-1,6,-1,8,-1,-1,-1],"split_conditions":[NaN,NaN,-1.5849677E-1,NaN,-1.5408549E-1,NaN,-1.2456716E-1,8.545759E-2,-1.1263961E-1],"split_indices":[1,0,0,5,0,3,0,0,0],"split_type":[1,1,0,1,0,1,0,0,0],"sum_hessian":[1.6785913E2,5.2210594E1,1.1564854E2,2.7600702E1,2.4609894E1,2.3933458E1,3.667244E0,2.1483255E1,2.4502032E0],"tree_param":{"num_deleted":"0","num_feature":"6","num_nodes":"9","size_leaf_vector":"0"}},{"base_weights":[-4.1258115E-1,-2.2573435E-1,-1.5828848E-1,-1.5450397E-1,3.7906714E-2,2.5146496E-1,-1.470939E-1,1.4019632E-1,-1.497237E-1],"categories":[0,1,3,0,0,3,0],"categories_nodes":[0,1,4,5],"categories_segments":[0,3,4,6],"categories_sizes":[3,1,2,1],"default_left":[1,1,0,0,1,1,0,0,0],"id":27,"left_children":[1,3,-1,-1,5,7,-1,-1,-1],"loss_changes":[3.537201E0,5.0962896E0,0E0,0E0,4.157016E0,4.4656196E0,0E0,0E0,0E0],"parents":[2147483647,0,0,1,1,4,4,5,5],"right_children":[2,4,-1,-1,6,8,-1,-1,-1],"split_conditions":[NaN,NaN,-1.5828848E-1,-1.5450397E-1,NaN,NaN,-1.470939E-1,1.4019632E-1,-1.497237E-1],"split_indices":[0,5,0,0,1,3,0,0,0],"split_type":[1,1,0,0,1,1,0,0,0],"sum_hessian":[1.6909099E2,6.556678E1,1.03524216E2,3.0808662E1,3.4758118E1,2.5124334E1,9.633782E0,1.9805609E1,5.3187265E0],"tree_param":{"num_deleted":"0","num_feature":"6","num_nodes":"9","size_leaf_vector":"0"}},{"base_weights":[2.9977858E-1,2.0715076E-1,1.6752058E-1,3.3693898E-1,-7.406156E-2,4.4615534E-1,9.546566E-2,2.3064813E-1,-2.3149587E-1,1.9157755E-1,7.136318E-2,-5.2605312E-2,1.6192058E-1,1.9452162E-1,-1.1560362E-1,1.3670011E-2,-1.267744E-1],"categories":[0,0,0,0,1,2,2,3,1,1,2,0,2],"categories_nodes":[0,1,3,4,5,6,7,8],"categories_segments":[0,1,2,3,6,8,9,11],"categories_sizes":[1,1,1,3,2,1,2,2],"default_left":[1,1,0,1,1,1,1,1,1,0,0,0,0,0,0,0,0],"id":28,"left_children":[1,3,-1,5,7,9,11,13,15,-1,-1,-1,-1,-1,-1,-1,-1],"loss_changes":[8.355425E0,9.585747E0,0E0,4.689026E0,4.0610065E0,4.788603E0,6.970344E0,7.7023234E0,2.9618587E0,0E0,0E0,0E0,0E0,0E0,0E0,0E0,0E0],"parents":[2147483647,0,0,1,1,3,3,4,4,5,5,6,6,7,7,8,8],"right_children":[2,4,-1,6,8,10,12,14,16,-1,-1,-1,-1,-1,-1,-1,-1],"split_conditions":[NaN,NaN,1.6752058E-1,NaN,NaN,NaN,NaN,NaN,NaN,1.9157755E-1,7.136318E-2,-5.2605312E-2,1.6192058E-1,1.9452162E-1,-1.1560362E-1,1.3670011E-2,-1.267744E-1],"split_indices":[3,5,0,4,1,2,5,0,0,0,0,0,0,0,0,0,0],"split_type":[1,1,0,1,1,1,1,1,1,0,0,0,0,0,0,0,0],"sum_hessian":[3.52615E2,2.6095355E2,9.1661446E1,1.7841249E2,8.254108E1,1.2226528E2,5.6147198E1,2.7960081E1,5.4580994E1,6.2475555E1,5.978973E1,3.525926E1,2.0887941E1,1.6629557E1,1.1330524E1,2.2589334E1,3.199166E1],"tree_param":{"num_deleted":"0","num_feature":"6","num_nodes":"17","size_leaf_vector":"0"}},{"base_weights":[1.4158805E-2,8.1325546E-2,-1.5113236E-1,1.3562521E-1,-1.4874667E-1,2.0955679E-1,-7.706384E-2,9.6774824E-2,2.8435038E-2,-8.398874E-2,9.245303E-2],"categories":[1,0,0,1,3,0],"categories_nodes":[0,1,3,5,6],"categories_segments":[0,1,2,3,5],"categories_sizes":[1,1,1,2,1],"default_left":[1,1,0,1,0,1,1,0,0,0,0],"id":29,"left_children":[1,3,-1,5,-1,7,9,-1,-1,-1,-1],"loss_changes":[1.0222495E1,8.213416E0,0E0,3.7643886E0,0E0,2.2675219E0,4.9494476E0,0E0,0E0,0E0,0E0],"parents":[2147483647,0,0,1,1,3,3,5,5,6,6],"right_children":[2,4,-1,6,-1,8,10,-1,-1,-1,-1],"split_conditions":[NaN,NaN,-1.5113236E-1,NaN,-1.4874667E-1,NaN,NaN,9.6774824E-2,2.8435038E-2,-8.398874E-2,9.245303E-2],"split_indices":[5,3,0,2,0,1,4,0,0,0,0],"split_type":[1,1,0,1,0,1,1,0,0,0,0],"sum_hessian":[2.9167435E2,2.589377E2,3.2736633E1,2.3737027E2,2.1567448E1,1.7615337E2,6.1216892E1,8.784006E1,8.831332E1,4.0277046E1,2.0939844E1],"tree_param":{"num_deleted":"0","num_feature":"6","num_nodes":"11","size_leaf_vector":"0"}},{"base_weights":[-3.9902195E-1,-1.5255888E-1,-1.5618086E-1,1.19929284E-1,-1.508908E-1,1.9559696E-1,-1.1652785E-1,7.690783E-2,-1.0303869E-1],"categories":[0,2,3,0,3,0,1],"categories_nodes":[0,1,3,5],"categories_segments":[0,3,5,6],"categories_sizes":[3,2,1,1],"default_left":[1,1,0,1,0,1,0,0,0],"id":30,"left_children":[1,3,-1,5,-1,7,-1,-1,-1],"loss_changes":[4.1069527E0,4.6020603E0,0E0,1.1363187E0,0E0,8.957539E-1,0E0,0E0,0E0],"parents":[2147483647,0,0,1,1,3,3,5,5],"right_children":[2,4,-1,6,-1,8,-1,-1,-1],"split_conditions":[NaN,NaN,-1.5618086E-1,NaN,-1.508908E-1,NaN,-1.1652785E-1,7.690783E-2,-1.0303869E-1],"split_indices":[1,0,0,3,0,5,0,0,0],"split_type":[1,1,0,1,0,1,0,0,0],"sum_hessian":[1.3870795E2,4.65661E1,9.214185E1,2.6565687E1,2.0000414E1,2.3659286E1,2.906401E0,2.1733887E1,1.9253995E0],"tree_param":{"num_deleted":"0","num_feature":"6","num_nodes":"9","size_leaf_vector":"0"}},{"base_weights":[-3.867176E-1,-1.9065756E-1,-1.5589575E-1,-1.5167283E-1,5.7191662E-2,2.4731076E-1,-1.5285257E-1,1.3615982E-1,-1.3528736E-1],"categories":[0,1,3,0,2,0,3],"categories_nodes":[0,1,4,5],"categories_segments":[0,3,4,5],"categories_sizes":[3,1,1,2],"default_left":[1,1,0,0,1,1,0,0,0],"id":31,"left_children":[1,3,-1,-1,5,7,-1,-1,-1],"loss_changes":[3.5675068E0,4.588992E0,0E0,0E0,3.7451649E0,3.929617E0,0E0,0E0,0E0],"parents":[2147483647,0,0,1,1,4,4,5,5],"right_children":[2,4,-1,-1,6,8,-1,-1,-1],"split_conditions":[NaN,NaN,-1.5589575E-1,-1.5167283E-1,NaN,NaN,-1.5285257E-1,1.3615982E-1,-1.3528736E-1],"split_indices":[0,5,0,0,4,1,0,0,0],"split_type":[1,1,0,0,1,1,0,0,0],"sum_hessian":[1.3968037E2,5.7423344E1,8.2257034E1,2.483192E1,3.2591423E1,2.482621E1,7.7652125E0,1.9428936E1,5.397274E0],"tree_param":{"num_deleted":"0","num_feature":"6","num_nodes":"9","size_leaf_vector":"0"}},{"base_weights":[2.613371E-1,1.7605914E-1,1.6236407E-1,8.491913E-2,1.6061425E-1,2.2691609E-1,-1.8533601E-1,2.0122224E-1,2.211683E-2,2.5574074E-3,-1.6335928E-1],"categories":[0,1,1,2,0,1,2,1,2],"categories_nodes":[0,1,3,5,6],"categories_segments":[0,1,2,4,7],"categories_sizes":[1,1,2,3,2],"default_left":[1,1,0,1,0,1,1,0,0,0,0],"id":32,"left_children":[1,3,-1,5,-1,7,9,-1,-1,-1,-1],"loss_changes":[7.3679028E0,7.851881E0,0E0,7.469548E0,0E0,8.607955E0,4.6851864E0,0E0,0E0,0E0,0E0],"parents":[2147483647,0,0,1,1,3,3,5,5,6,6],"right_children":[2,4,-1,6,-1,8,10,-1,-1,-1,-1],"split_conditions":[NaN,NaN,1.6236407E-1,NaN,1.6061425E-1,NaN,NaN,2.0122224E-1,2.211683E-2,2.5574074E-3,-1.6335928E-1],"split_indices":[3,5,0,0,0,1,1,0,0,0,0],"split_type":[1,1,0,1,0,1,1,0,0,0,0],"sum_hessian":[3.1169522E2,2.4015073E2,7.154451E1,1.9254823E2,4.7602493E1,1.2633165E2,6.6216576E1,3.1549496E1,9.478216E1,4.3639965E1,2.257661E1],"tree_param":{"num_deleted":"0","num_feature":"6","num_nodes":"11","size_leaf_vector":"0"}},{"base_weights":[1.6700733E-2,7.104894E-2,-1.4844587E-1,1.1270289E-1,-1.4530905E-1,1.7591418E-1,-7.0325434E-2,1.0367849E-1,3.5068486E-2,-7.103754E-2,7.3639765E-2],"categories":[1,0,0,0,1,3,0],"categories_nodes":[0,1,3,5,6],"categories_segments":[0,1,2,3,6],"categories_sizes":[1,1,1,3,1],"default_left":[1,1,0,1,0,1,1,0,0,0,0],"id":33,"left_children":[1,3,-1,5,-1,7,9,-1,-1,-1,-1],"loss_changes":[7.571591E0,5.744217E0,0E0,2.668538E0,0E0,1.6714106E0,3.1938534E0,0E0,0E0,0E0,0E0],"parents":[2147483647,0,0,1,1,3,3,5,5,6,6],"right_children":[2,4,-1,6,-1,8,10,-1,-1,-1,-1],"split_conditions":[NaN,NaN,-1.4844587E-1,NaN,-1.4530905E-1,NaN,NaN,1.0367849E-1,3.5068486E-2,-7.103754E-2,7.3639765E-2],"split_indices":[5,3,0,2,0,1,4,0,0,0,0],"split_type":[1,1,0,1,0,1,1,0,0,0,0],"sum_hessian":[2.7009268E2,2.4493034E2,2.516235E1,2.2858441E2,1.6345932E1,1.6993422E2,5.8650196E1,4.2600834E1,1.2733338E2,3.8569054E1,2.0081142E1],"tree_param":{"num_deleted":"0","num_feature":"6","num_nodes":"11","size_leaf_vector":"0"}},{"base_weights":[-3.7382174E-1,-1.21157005E-1,-1.5433659E-1,1.260768E-1,-1.4806254E-1,1.8682481E-1,-1.0823553E-1,7.019167E-2,-9.390504E-2],"categories":[0,2,3,0,3,1,0],"categories_nodes":[0,1,3,5],"categories_segments":[0,3,5,6],"categories_sizes":[3,2,1,1],"default_left":[1,1,0,1,0,1,0,0,0],"id":34,"left_children":[1,3,-1,5,-1,7,-1,-1,-1],"loss_changes":[4.096508E0,4.035708E0,0E0,8.5810566E-1,0E0,6.4890736E-1,0E0,0E0,0E0],"parents":[2147483647,0,0,1,1,3,3,5,5],"right_children":[2,4,-1,6,-1,8,-1,-1,-1],"split_conditions":[NaN,NaN,-1.5433659E-1,NaN,-1.4806254E-1,NaN,-1.0823553E-1,7.019167E-2,-9.390504E-2],"split_indices":[1,0,0,5,0,3,0,0,0],"split_type":[1,1,0,1,0,1,0,0,0],"sum_hessian":[1.16041176E2,4.2159023E1,7.388216E1,2.5734682E1,1.6424341E1,2.342776E1,2.3069227E0,2.1894478E1,1.5332818E0],"tree_param":{"num_deleted":"0","num_feature":"6","num_nodes":"9","size_leaf_vector":"0"}},{"base_weights":[-3.6103305E-1,-1.5608731E-1,-1.5404405E-1,-1.4869188E-1,6.973629E-2,-1.933972E-1,4.6502388E-1,3.500665E-2,-1.4384857E-1,2.0521842E-1,-1.17844E-1],"categories":[0,1,3,0,0,0,1,0],"categories_nodes":[0,1,4,5,6],"categories_segments":[0,3,4,5,7],"categories_sizes":[3,1,1,2,1],"default_left":[1,1,0,0,1,1,1,0,0,0,0],"id":35,"left_children":[1,3,-1,-1,5,7,9,-1,-1,-1,-1],"loss_changes":[3.5972128E0,3.9944377E0,0E0,0E0,3.4071155E0,1.8171902E0,2.718735E0,0E0,0E0,0E0,0E0],"parents":[2147483647,0,0,1,1,4,4,5,5,6,6],"right_children":[2,4,-1,-1,6,8,10,-1,-1,-1,-1],"split_conditions":[NaN,NaN,-1.5404405E-1,-1.4869188E-1,NaN,NaN,NaN,3.500665E-2,-1.4384857E-1,2.0521842E-1,-1.17844E-1],"split_indices":[0,5,0,0,4,2,3,0,0,0,0],"split_type":[1,1,0,0,1,1,1,0,0,0,0],"sum_hessian":[1.167005E2,5.0642273E1,6.6058235E1,1.9750408E1,3.0891863E1,1.8852768E1,1.2039094E1,9.331261E0,9.521507E0,9.751699E0,2.2873943E0],"tree_param":{"num_deleted":"0","num_feature":"6","num_nodes":"11","size_leaf_vector":"0"}},{"base_weights":[2.2587763E-1,1.4916572E-1,1.5806854E-1,2.686032E-1,-9.182085E-2,3.799706E-1,2.4655094E-2,4.4510618E-2,-3.373753E-1,7.3927306E-2,1.9473214E-1,9.070974E-2,-9.2269674E-2,1.8119393E-1,-5.655415E-2,2.6056357E-2,-1.6076016E-1],"categories":[0,0,2,1,2,2,1,2,0,1,2,1,2,3],"categories_nodes":[0,1,3,4,5,6,7,8],"categories_segments":[0,1,2,3,5,6,8,11],"categories_sizes":[1,1,1,2,1,2,3,3],"default_left":[1,1,0,1,1,1,1,1,1,0,0,0,0,0,0,0,0],"id":36,"left_children":[1,3,-1,5,7,9,11,13,15,-1,-1,-1,-1,-1,-1,-1,-1],"loss_changes":[6.355979E0,6.4564137E0,0E0,4.056658E0,2.5189078E0,3.5307455E0,4.519566E0,6.498972E0,2.3047798E0,0E0,0E0,0E0,0E0,0E0,0E0,0E0,0E0],"parents":[2147483647,0,0,1,1,3,3,4,4,5,5,6,6,7,7,8,8],"right_children":[2,4,-1,6,8,10,12,14,16,-1,-1,-1,-1,-1,-1,-1,-1],"split_conditions":[NaN,NaN,1.5806854E-1,NaN,NaN,NaN,NaN,NaN,NaN,7.3927306E-2,1.9473214E-1,9.070974E-2,-9.2269674E-2,1.8119393E-1,-5.655415E-2,2.6056357E-2,-1.6076016E-1],"split_indices":[3,5,0,0,1,4,1,0,2,0,0,0,0,0,0,0,0],"split_type":[1,1,0,1,1,1,1,1,1,0,0,0,0,0,0,0,0],"sum_hessian":[2.7765393E2,2.2245786E2,5.519607E1,1.4866304E2,7.379481E1,1.016844E2,4.697864E1,4.797686E1,2.5817947E1,6.924197E1,3.244244E1,2.5637526E1,2.1341116E1,1.3639008E1,3.4337852E1,8.408716E0,1.7409231E1],"tree_param":{"num_deleted":"0","num_feature":"6","num_nodes":"17","size_leaf_vector":"0"}},{"base_weights":[1.9058732E-2,6.1835464E-2,-1.4558502E-1,9.35698E-2,-1.4168942E-1,1.643959E-1,-5.9437655E-2,8.830509E-2,2.5573995E-2,-7.940442E-2,3.707964E-2],"categories":[1,0,2,2,3,0],"categories_nodes":[0,1,3,5,6],"categories_segments":[0,1,2,3,5],"categories_sizes":[1,1,1,2,1],"default_left":[1,1,0,1,0,1,1,0,0,0,0],"id":37,"left_children":[1,3,-1,5,-1,7,9,-1,-1,-1,-1],"loss_changes":[5.523575E0,4.037957E0,0E0,2.4289653E0,0E0,1.5472426E0,2.7139363E0,0E0,0E0,0E0,0E0],"parents":[2147483647,0,0,1,1,3,3,5,5,6,6],"right_children":[2,4,-1,6,-1,8,10,-1,-1,-1,-1],"split_conditions":[NaN,NaN,-1.4558502E-1,NaN,-1.4168942E-1,NaN,NaN,8.830509E-2,2.5573995E-2,-7.940442E-2,3.707964E-2],"split_indices":[5,3,0,4,0,0,5,0,0,0,0],"split_type":[1,1,0,1,0,1,1,0,0,0,0],"sum_hessian":[2.5363707E2,2.3461513E2,1.9021935E1,2.2223628E2,1.2378847E1,1.5186472E2,7.037157E1,5.6454197E1,9.541052E1,3.2963097E1,3.740847E1],"tree_param":{"num_deleted":"0","num_feature":"6","num_nodes":"11","size_leaf_vector":"0"}},{"base_weights":[-3.5220948E-1,-1.0660916E-1,-1.5268728E-1,1.0584169E-1,-1.4523901E-1,1.5182988E-1,-9.9317975E-2,5.6118716E-2,-8.49722E-2],"categories":[0,2,3,0,3,1,0],"categories_nodes":[0,1,3,5],"categories_segments":[0,3,5,6],"categories_sizes":[3,2,1,1],"default_left":[1,1,0,1,0,1,0,0,0],"id":38,"left_children":[1,3,-1,5,-1,7,-1,-1,-1],"loss_changes":[3.750965E0,3.2412047E0,0E0,5.7811165E-1,0E0,4.2784095E-1,0E0,0E0,0E0],"parents":[2147483647,0,0,1,1,3,3,5,5],"right_children":[2,4,-1,6,-1,8,-1,-1,-1],"split_conditions":[NaN,NaN,-1.5268728E-1,NaN,-1.4523901E-1,NaN,-9.9317975E-2,5.6118716E-2,-8.49722E-2],"split_indices":[1,0,0,5,0,3,0,0,0],"split_type":[1,1,0,1,0,1,0,0,0],"sum_hessian":[9.784377E1,3.8772816E1,5.9070957E1,2.5271088E1,1.350173E1,2.3454731E1,1.8163563E0,2.222497E1,1.2297614E0],"tree_param":{"num_deleted":"0","num_feature":"6","num_nodes":"9","size_leaf_vector":"0"}},{"base_weights":[-3.312346E-1,-1.2236763E-1,-1.5230381E-1,-1.4614667E-1,8.29391E-2,2.5684437E-1,-1.3896526E-1,1.3016537E-1,-1.4036928E-1],"categories":[0,1,3,0,0,3,2],"categories_nodes":[0,1,4,5],"categories_segments":[0,3,4,6],"categories_sizes":[3,1,2,1],"default_left":[1,1,0,0,1,1,0,0,0],"id":39,"left_children":[1,3,-1,-1,5,7,-1,-1,-1],"loss_changes":[3.607376E0,3.553908E0,0E0,0E0,3.0512872E0,3.2901297E0,0E0,0E0,0E0],"parents":[2147483647,0,0,1,1,4,4,5,5],"right_children":[2,4,-1,-1,6,8,-1,-1,-1],"split_conditions":[NaN,NaN,-1.5230381E-1,-1.4614667E-1,NaN,NaN,-1.3896526E-1,1.3016537E-1,-1.4036928E-1],"split_indices":[0,5,0,0,1,4,0,0,0],"split_type":[1,1,0,0,1,1,0,0,0],"sum_hessian":[9.856997E1,4.5913387E1,5.265658E1,1.6040281E1,2.9873106E1,2.3060112E1,6.8129945E0,1.8855427E1,4.2046847E0],"tree_param":{"num_deleted":"0","num_feature":"6","num_nodes":"9","size_leaf_vector":"0"}},{"base_weights":[1.938071E-1,1.241446E-1,1.544061E-1,5.7136167E-2,1.5411086E-1,-6.8765126E-2,2.8428534E-1,2.4838982E-2,-1.1578709E-1,1.9233523E-1,4.3835342E-2],"categories":[1,0,2,1,2,1,2,3],"categories_nodes":[0,1,3,5,6],"categories_segments":[0,1,2,3,5],"categories_sizes":[1,1,1,2,3],"default_left":[1,1,0,1,0,1,1,0,0,0,0],"id":40,"left_children":[1,3,-1,5,-1,7,9,-1,-1,-1,-1],"loss_changes":[5.547901E0,5.3894405E0,0E0,5.117085E0,0E0,5.58388E0,3.0498028E0,0E0,0E0,0E0,0E0],"parents":[2147483647,0,0,1,1,3,3,5,5,6,6],"right_children":[2,4,-1,6,-1,8,10,-1,-1,-1,-1],"split_conditions":[NaN,NaN,1.544061E-1,NaN,1.5411086E-1,NaN,NaN,2.4838982E-2,-1.1578709E-1,1.9233523E-1,4.3835342E-2],"split_indices":[5,3,0,4,0,0,2,0,0,0,0],"split_type":[1,1,0,1,0,1,1,0,0,0,0],"sum_hessian":[2.5005008E2,2.0658722E2,4.346286E1,1.7724564E2,2.9341585E1,1.1448671E2,6.275893E1,7.796985E1,3.651686E1,1.6501625E1,4.625731E1],"tree_param":{"num_deleted":"0","num_feature":"6","num_nodes":"11","size_leaf_vector":"0"}},{"base_weights":[2.2328824E-2,5.842786E-2,-1.4312199E-1,8.330284E-2,-1.3765533E-1,1.4232796E-1,-8.478601E-2,5.8196295E-2,-2.1999118E-4,-7.0152834E-2,6.0839694E-2],"categories":[1,0,0,3,0],"categories_nodes":[0,1,3,5,6],"categories_segments":[0,1,2,3,4],"categories_sizes":[1,1,1,1,1],"default_left":[1,1,0,1,0,1,1,0,0,0,0],"id":41,"left_children":[1,3,-1,5,-1,7,9,-1,-1,-1,-1],"loss_changes":[4.3143983E0,2.902917E0,0E0,2.1279693E0,0E0,1.169411E0,2.4502E0,0E0,0E0,0E0,0E0],"parents":[2147483647,0,0,1,1,3,3,5,5,6,6],"right_children":[2,4,-1,6,-1,8,10,-1,-1,-1,-1],"split_conditions":[NaN,NaN,-1.4312199E-1,NaN,-1.3765533E-1,NaN,NaN,5.8196295E-2,-2.1999118E-4,-7.0152834E-2,6.0839694E-2],"split_indices":[5,3,0,2,0,0,4,0,0,0,0],"split_type":[1,1,0,1,0,1,1,0,0,0,0],"sum_hessian":[2.3677118E2,2.2163351E2,1.5137665E1,2.1226505E2,9.368472E0,1.5721246E2,5.5052574E1,1.152423E2,4.197017E1,3.6382313E1,1.8670263E1],"tree_param":{"num_deleted":"0","num_feature":"6","num_nodes":"11","size_leaf_vector":"0"}},{"base_weights":[-3.2936934E-1,-8.965024E-2,-1.5123203E-1,9.154816E-2,-1.4210652E-1,1.9235082E-1,-9.2183515E-2,-7.289774E-2,1.7526804E-1,-2.158256E-1,1.8743102E-1],"categories":[0,2,3,0,3,2,2,0],"categories_nodes":[0,1,3,5,6],"categories_segments":[0,3,5,6,7],"categories_sizes":[3,2,1,1,1],"default_left":[1,1,0,1,0,1,1,0,0,0,0],"id":42,"left_children":[1,3,-1,5,-1,7,9,-1,-1,-1,-1],"loss_changes":[3.5057707E0,2.6151059E0,0E0,4.983015E-1,0E0,3.0556817E0,4.8873696E0,0E0,0E0,0E0,0E0],"parents":[2147483647,0,0,1,1,3,3,5,5,6,6],"right_children":[2,4,-1,6,-1,8,10,-1,-1,-1,-1],"split_conditions":[NaN,NaN,-1.5123203E-1,NaN,-1.4210652E-1,NaN,NaN,-7.289774E-2,1.7526804E-1,-2.158256E-1,1.8743102E-1],"split_indices":[1,0,0,4,0,5,5,0,0,0,0],"split_type":[1,1,0,1,0,1,1,0,0,0,0],"sum_hessian":[8.3773056E1,3.5957146E1,4.781591E1,2.4947796E1,1.1009351E1,1.6079187E1,8.8686075E0,7.797124E0,8.282064E0,4.7284393E0,4.140168E0],"tree_param":{"num_deleted":"0","num_feature":"6","num_nodes":"11","size_leaf_vector":"0"}},{"base_weights":[-3.06395E-1,-1.0210257E-1,-1.5069059E-1,-1.4389272E-1,8.833766E-2,2.419666E-1,-1.3509265E-1,-1.692299E-2,1.8793687E-1],"categories":[0,1,3,0,0,3,0],"categories_nodes":[0,1,4,5],"categories_segments":[0,3,4,6],"categories_sizes":[3,1,2,1],"default_left":[1,1,0,0,1,1,0,0,0],"id":43,"left_children":[1,3,-1,-1,5,7,-1,-1,-1],"loss_changes":[3.3505063E0,3.124193E0,0E0,0E0,2.5365634E0,2.7285988E0,0E0,0E0,0E0],"parents":[2147483647,0,0,1,1,4,4,5,5],"right_children":[2,4,-1,-1,6,8,-1,-1,-1],"split_conditions":[NaN,NaN,-1.5069059E-1,-1.4389272E-1,NaN,NaN,-1.3509265E-1,-1.692299E-2,1.8793687E-1],"split_indices":[0,5,0,0,1,4,0,0,0],"split_type":[1,1,0,0,1,1,0,0,0],"sum_hessian":[8.399743E1,4.1863358E1,4.213407E1,1.352735E1,2.8336006E1,2.247627E1,5.8597355E0,1.3135769E1,9.340502E0],"tree_param":{"num_deleted":"0","num_feature":"6","num_nodes":"9","size_leaf_vector":"0"}},{"base_weights":[1.6335744E-1,1.02549374E-1,1.5246864E-1,4.7528777E-2,1.496379E-1,1.9060111E-1,-1.5622447E-1,1.8610193E-1,1.3707089E-2,5.558783E-2,-8.931036E-2],"categories":[0,1,1,2,0,1,2,1,2,3],"categories_nodes":[0,1,3,5,6],"categories_segments":[0,1,2,4,7],"categories_sizes":[1,1,2,3,3],"default_left":[1,1,0,1,0,1,1,0,0,0,0],"id":44,"left_children":[1,3,-1,5,-1,7,9,-1,-1,-1,-1],"loss_changes":[4.7697525E0,4.2650704E0,0E0,5.0974402E0,0E0,6.3595476E0,3.5466065E0,0E0,0E0,0E0,0E0],"parents":[2147483647,0,0,1,1,3,3,5,5,6,6],"right_children":[2,4,-1,6,-1,8,10,-1,-1,-1,-1],"split_conditions":[NaN,NaN,1.5246864E-1,NaN,1.496379E-1,NaN,NaN,1.8610193E-1,1.3707089E-2,5.558783E-2,-8.931036E-2],"split_indices":[3,5,0,1,0,0,2,0,0,0,0],"split_type":[1,1,0,1,0,1,1,0,0,0,0],"sum_hessian":[2.2893083E2,1.9571884E2,3.321199E1,1.7283913E2,2.2879713E1,1.0157753E2,7.12616E1,2.4787725E1,7.67898E1,2.0782953E1,5.047864E1],"tree_param":{"num_deleted":"0","num_feature":"6","num_nodes":"11","size_leaf_vector":"0"}},{"base_weights":[2.1453252E-2,4.960586E-2,-1.3971706E-1,1.0902386E-1,-1.2385347E-1,2.6158965E-1,3.5856158E-2,1.8212338E-1,-1.7484789E-1,1.291793E-1,-2.686152E-2,7.819555E-2,-2.6054807E-2,1.1654405E-1,-7.2352916E-2],"categories":[1,3,1,2,3,0,3,2,0,1,3,2],"categories_nodes":[0,1,3,4,5,6,7],"categories_segments":[0,1,2,5,7,8,11],"categories_sizes":[1,1,3,2,1,3,1],"default_left":[1,1,0,1,1,1,1,1,0,0,0,0,0,0,0],"id":45,"left_children":[1,3,-1,5,7,9,11,13,-1,-1,-1,-1,-1,-1,-1],"loss_changes":[3.1217918E0,2.224173E0,0E0,1.7799839E0,7.8574343E0,3.1124458E0,3.0429778E0,3.053052E0,0E0,0E0,0E0,0E0,0E0,0E0,0E0],"parents":[2147483647,0,0,1,1,3,3,4,4,5,5,6,6,7,7],"right_children":[2,4,-1,6,8,10,12,14,-1,-1,-1,-1,-1,-1,-1],"split_conditions":[NaN,NaN,-1.3971706E-1,NaN,NaN,NaN,NaN,NaN,-1.7484789E-1,1.291793E-1,-2.686152E-2,7.819555E-2,-2.6054807E-2,1.1654405E-1,-7.2352916E-2],"split_indices":[5,1,0,0,0,4,1,4,0,0,0,0,0,0,0],"split_type":[1,1,0,1,1,1,1,1,0,0,0,0,0,0,0],"sum_hessian":[2.2492943E2,2.1349057E2,1.1438858E1,1.5929573E2,5.4194828E1,5.0798317E1,1.0849741E2,3.287903E1,2.1315802E1,3.4139614E1,1.6658703E1,3.791436E1,7.058305E1,2.2158913E1,1.0720116E1],"tree_param":{"num_deleted":"0","num_feature":"6","num_nodes":"15","size_leaf_vector":"0"}},{"base_weights":[-3.014405E-1,-6.1102603E-2,-1.4985313E-1,1.0368651E-1,-1.3900054E-1,1.377163E-1,-8.678277E-2,7.005239E-2,-1.2055782E-2],"categories":[0,2,3,0,3,1,2],"categories_nodes":[0,1,3,5],"categories_segments":[0,3,5,6],"categories_sizes":[3,2,1,1],"default_left":[1,1,0,1,0,1,0,0,0],"id":46,"left_children":[1,3,-1,5,-1,7,-1,-1,-1],"loss_changes":[3.4367018E0,2.3047197E0,0E0,3.737272E-1,0E0,4.1251972E-1,0E0,0E0,0E0],"parents":[2147483647,0,0,1,1,3,3,5,5],"right_children":[2,4,-1,6,-1,8,-1,-1,-1],"split_conditions":[NaN,NaN,-1.4985313E-1,NaN,-1.3900054E-1,NaN,-8.678277E-2,7.005239E-2,-1.2055782E-2],"split_indices":[1,0,0,5,0,4,0,0,0],"split_type":[1,1,0,1,0,1,0,0,0],"sum_hessian":[7.183514E1,3.304583E1,3.8789303E1,2.396849E1,9.077338E0,2.2656063E1,1.3124276E0,1.4523373E1,8.132691E0],"tree_param":{"num_deleted":"0","num_feature":"6","num_nodes":"9","size_leaf_vector":"0"}},{"base_weights":[-2.8001598E-1,-7.614537E-2,-1.4923894E-1,-1.4093274E-1,9.470762E-2,2.3438929E-1,-1.3761754E-1,1.1013685E-1,-1.2695219E-1],"categories":[0,1,3,0,2,0],"categories_nodes":[0,1,4,5],"categories_segments":[0,3,4,5],"categories_sizes":[3,1,1,1],"default_left":[1,1,0,0,1,1,0,0,0],"id":47,"left_children":[1,3,-1,-1,5,7,-1,-1,-1],"loss_changes":[3.2000623E0,2.6591206E0,0E0,0E0,2.2676103E0,2.16048E0,0E0,0E0,0E0],"parents":[2147483647,0,0,1,1,4,4,5,5],"right_children":[2,4,-1,-1,6,8,-1,-1,-1],"split_conditions":[NaN,NaN,-1.4923894E-1,-1.4093274E-1,NaN,NaN,-1.3761754E-1,1.1013685E-1,-1.2695219E-1],"split_indices":[0,5,0,0,4,3,0,0,0],"split_type":[1,1,0,0,1,1,0,0,0],"sum_hessian":[7.204001E1,3.7877552E1,3.4162457E1,1.0934902E1,2.6942652E1,2.1973269E1,4.9693832E0,1.8650276E1,3.3229914E0],"tree_param":{"num_deleted":"0","num_feature":"6","num_nodes":"9","size_leaf_vector":"0"}},{"base_weights":[1.3957308E-1,8.506208E-2,1.4982052E-1,1.9593759E-1,-1.1831758E-1,3.129382E-1,-7.2274186E-2,1.3389432E-1,-2.3024245E-1,1.6065064E-1,2.451498E-2,-5.6964926E-2,1.330764E-1,1.6611035E-1,-9.929287E-2,-1.5747793E-2,-1.1941413E-1],"categories":[0,0,0,0,1,2,2,3,1,1,2,1],"categories_nodes":[0,1,3,4,5,6,7,8],"categories_segments":[0,1,2,3,6,8,9,11],"categories_sizes":[1,1,1,3,2,1,2,1],"default_left":[1,1,0,1,1,1,1,1,1,0,0,0,0,0,0,0,0],"id":48,"left_children":[1,3,-1,5,7,9,11,13,15,-1,-1,-1,-1,-1,-1,-1,-1],"loss_changes":[4.0434437E0,4.129729E0,0E0,3.7329235E0,1.8621846E0,4.2023697E0,2.3122575E0,4.1982236E0,1.3303511E0,0E0,0E0,0E0,0E0,0E0,0E0,0E0,0E0],"parents":[2147483647,0,0,1,1,3,3,4,4,5,5,6,6,7,7,8,8],"right_children":[2,4,-1,6,8,10,12,14,16,-1,-1,-1,-1,-1,-1,-1,-1],"split_conditions":[NaN,NaN,1.4982052E-1,NaN,NaN,NaN,NaN,NaN,NaN,1.6065064E-1,2.451498E-2,-5.6964926E-2,1.330764E-1,1.6611035E-1,-9.929287E-2,-1.5747793E-2,-1.1941413E-1],"split_indices":[3,5,0,4,1,2,5,0,3,0,0,0,0,0,0,0,0],"split_type":[1,1,0,1,1,1,1,1,1,0,0,0,0,0,0,0,0],"sum_hessian":[2.073101E2,1.8110988E2,2.6200226E1,1.1723437E2,6.3875507E1,8.151065E1,3.572372E1,1.9573107E1,4.4302402E1,4.086235E1,4.06483E1,2.9605923E1,6.117799E0,1.0184651E1,9.388455E0,2.2151201E1,2.2151201E1],"tree_param":{"num_deleted":"0","num_feature":"6","num_nodes":"17","size_leaf_vector":"0"}},{"base_weights":[2.0394286E-2,4.3379158E-2,-1.3611932E-1,-4.2729568E-2,1.4633186E-1,1.7705406E-1,-1.7010242E-1,2.3753294E-1,-4.475738E-3,2.027806E-1,4.607219E-3,-1.08056016E-1,5.0406165E-2,1.09260306E-1,-4.8251323E-2,1.4187014E-1,-1.17372E-1],"categories":[0,0,0,1,3,2,0,1,3,0,3,1,2],"categories_nodes":[0,1,3,4,5,6,7,8],"categories_segments":[0,1,2,5,6,9,10,11],"categories_sizes":[1,1,3,1,3,1,1,2],"default_left":[1,1,0,1,1,1,1,1,1,0,0,0,0,0,0,0,0],"id":49,"left_children":[1,3,-1,5,7,9,11,13,15,-1,-1,-1,-1,-1,-1,-1,-1],"loss_changes":[2.3232665E0,1.8016313E0,0E0,3.1390796E0,1.2728115E0,3.316096E0,4.612214E0,2.9670458E0,6.7998366E0,0E0,0E0,0E0,0E0,0E0,0E0,0E0,0E0],"parents":[2147483647,0,0,1,1,3,3,4,4,5,5,6,6,7,7,8,8],"right_children":[2,4,-1,6,8,10,12,14,16,-1,-1,-1,-1,-1,-1,-1,-1],"split_conditions":[NaN,NaN,-1.3611932E-1,NaN,NaN,NaN,NaN,NaN,NaN,2.027806E-1,4.607219E-3,-1.08056016E-1,5.0406165E-2,1.09260306E-1,-4.8251323E-2,1.4187014E-1,-1.17372E-1],"split_indices":[3,5,0,0,0,1,4,1,1,0,0,0,0,0,0,0,0],"split_type":[1,1,0,1,1,1,1,1,1,0,0,0,0,0,0,0,0],"sum_hessian":[2.1038242E2,2.0152147E2,8.860946E0,1.1005632E2,9.146516E1,4.0236916E1,6.9819405E1,5.663812E1,3.4827038E1,9.070748E0,3.1166166E1,4.4651943E1,2.516746E1,4.3038986E1,1.3599133E1,1.5487896E1,1.9339144E1],"tree_param":{"num_deleted":"0","num_feature":"6","num_nodes":"17","size_leaf_vector":"0"}},{"base_weights":[-2.7752808E-1,-5.2544557E-2,-1.483464E-1,8.932808E-2,-1.3590302E-1,1.7509899E-1,-6.7483515E-2,-5.6503758E-2,1.4006619E-1,-1.975356E-1,1.6612816E-1],"categories":[0,2,3,0,3,2,2,0],"categories_nodes":[0,1,3,5,6],"categories_segments":[0,3,5,6,7],"categories_sizes":[3,2,1,1,1],"default_left":[1,1,0,1,0,1,1,0,0,0,0],"id":50,"left_children":[1,3,-1,5,-1,7,9,-1,-1,-1,-1],"loss_changes":[3.0678654E0,1.8718863E0,0E0,3.4318882E-1,0E0,1.8064141E0,3.8278265E0,0E0,0E0,0E0,0E0],"parents":[2147483647,0,0,1,1,3,3,5,5,6,6],"right_children":[2,4,-1,6,-1,8,10,-1,-1,-1,-1],"split_conditions":[NaN,NaN,-1.483464E-1,NaN,-1.3590302E-1,NaN,NaN,-5.6503758E-2,1.4006619E-1,-1.975356E-1,1.6612816E-1],"split_indices":[1,0,0,4,0,5,5,0,0,0,0],"split_type":[1,1,0,1,0,1,1,0,0,0,0],"sum_hessian":[6.2382427E1,3.123474E1,3.1147688E1,2.3637602E1,7.5971384E0,1.520457E1,8.433031E0,6.9287677E0,8.275803E0,4.291131E0,4.1419005E0],"tree_param":{"num_deleted":"0","num_feature":"6","num_nodes":"11","size_leaf_vector":"0"}},{"base_weights":[-2.4997477E-1,-4.9845234E-2,-1.4766073E-1,1.1623702E-1,-1.4043126E-1,2.5525302E-1,-1.3304687E-1,1.1256665E-1,-1.19132265E-1],"categories":[0,1,3,0,3,2,0],"categories_nodes":[0,1,3,5],"categories_segments":[0,3,5,6],"categories_sizes":[3,2,1,1],"default_left":[1,1,0,1,0,1,0,0,0],"id":51,"left_children":[1,3,-1,5,-1,7,-1,-1,-1],"loss_changes":[3.0385606E0,2.5352063E0,0E0,2.1645675E0,0E0,1.8514694E0,0E0,0E0,0E0],"parents":[2147483647,0,0,1,1,3,3,5,5],"right_children":[2,4,-1,6,-1,8,-1,-1,-1],"split_conditions":[NaN,NaN,-1.4766073E-1,NaN,-1.4043126E-1,NaN,-1.3304687E-1,1.1256665E-1,-1.19132265E-1],"split_indices":[0,1,0,4,0,3,0,0,0],"split_type":[1,1,0,1,0,1,0,0,0],"sum_hessian":[6.218668E1,3.4712685E1,2.7473995E1,2.5363457E1,9.349229E0,2.07531E1,4.6103573E0,1.788827E1,2.8648295E0],"tree_param":{"num_deleted":"0","num_feature":"6","num_nodes":"9","size_leaf_vector":"0"}},{"base_weights":[1.1921935E-1,7.219904E-2,1.4646672E-1,2.9158926E-1,-1.1624545E-2,4.5527047E-1,-1.0767073E-1,1.0528178E-1,-2.1892077E-1,2.2777191E-1,2.273201E-2,1.0428004E-2,-9.9139E-2,1.7410457E-1,-8.044941E-3,-9.3954906E-2,1.3110293E-1],"categories":[1,1,2,3,0,1,2,1,1,2,0,1,2,0],"categories_nodes":[0,1,3,4,5,6,7,8],"categories_segments":[0,1,4,5,7,8,10,13],"categories_sizes":[1,3,1,2,1,2,3,1],"default_left":[1,1,0,1,1,1,1,1,1,0,0,0,0,0,0,0,0],"id":52,"left_children":[1,3,-1,5,7,9,11,13,15,-1,-1,-1,-1,-1,-1,-1,-1],"loss_changes":[3.2804089E0,3.1420665E0,0E0,3.1349616E0,3.039037E0,3.8278809E0,4.728359E-1,5.051691E0,2.9316516E0,0E0,0E0,0E0,0E0,0E0,0E0,0E0,0E0],"parents":[2147483647,0,0,1,1,3,3,4,4,5,5,6,6,7,7,8,8],"right_children":[2,4,-1,6,8,10,12,14,16,-1,-1,-1,-1,-1,-1,-1,-1],"split_conditions":[NaN,NaN,1.4646672E-1,NaN,NaN,NaN,NaN,NaN,NaN,2.2777191E-1,2.273201E-2,1.0428004E-2,-9.9139E-2,1.7410457E-1,-8.044941E-3,-9.3954906E-2,1.3110293E-1],"split_indices":[5,2,0,4,0,3,1,1,3,0,0,0,0,0,0,0,0],"split_type":[1,1,0,1,1,1,1,1,1,0,0,0,0,0,0,0,0],"sum_hessian":[1.9009721E2,1.6967233E2,2.0424881E1,4.6220776E1,1.2345155E2,3.268209E1,1.3538684E1,7.925001E1,4.420154E1,1.7591236E1,1.5090856E1,8.773676E0,4.7650084E0,1.650381E1,6.27462E1,3.9104465E1,5.097075E0],"tree_param":{"num_deleted":"0","num_feature":"6","num_nodes":"17","size_leaf_vector":"0"}},{"base_weights":[2.175409E-2,4.2269975E-2,-1.3329639E-1,9.2281036E-2,-1.1240081E-1,2.1902022E-1,3.3462897E-2,1.4950724E-1,-1.6849872E-1,1.1553348E-1,-3.451361E-2,4.2959284E-2,-6.462487E-2,1.0344495E-1,-7.271182E-2],"categories":[1,3,1,2,3,0,3,2,0,2],"categories_nodes":[0,1,3,4,5,6,7],"categories_segments":[0,1,2,5,7,8,9],"categories_sizes":[1,1,3,2,1,1,1],"default_left":[1,1,0,1,1,1,1,1,0,0,0,0,0,0,0],"id":53,"left_children":[1,3,-1,5,7,9,11,13,-1,-1,-1,-1,-1,-1,-1],"loss_changes":[1.9059877E0,1.4797448E0,0E0,1.0668257E0,5.5982757E0,2.568591E0,2.7509637E0,2.409941E0,0E0,0E0,0E0,0E0,0E0,0E0,0E0],"parents":[2147483647,0,0,1,1,3,3,4,4,5,5,6,6,7,7],"right_children":[2,4,-1,6,8,10,12,14,-1,-1,-1,-1,-1,-1,-1],"split_conditions":[NaN,NaN,-1.3329639E-1,NaN,NaN,NaN,NaN,NaN,-1.6849872E-1,1.1553348E-1,-3.451361E-2,4.2959284E-2,-6.462487E-2,1.0344495E-1,-7.271182E-2],"split_indices":[5,1,0,0,0,4,1,4,0,0,0,0,0,0,0],"split_type":[1,1,0,1,1,1,1,1,0,0,0,0,0,0,0],"sum_hessian":[1.9636627E2,1.8895795E2,7.4083185E0,1.4309361E2,4.586434E1,4.44946E1,9.8599014E1,2.9395014E1,1.6469328E1,2.9616838E1,1.4877759E1,6.872272E1,2.9876297E1,1.9697876E1,9.697137E0],"tree_param":{"num_deleted":"0","num_feature":"6","num_nodes":"15","size_leaf_vector":"0"}},{"base_weights":[-2.527515E-1,-3.7115145E-2,-1.4676103E-1,8.793954E-2,-1.3203254E-1,1.7425005E-1,-7.222784E-2,-4.4955716E-2,1.2566914E-1,-1.7891063E-1,1.3639024E-1],"categories":[0,2,3,0,3,2,2,0],"categories_nodes":[0,1,3,5,6],"categories_segments":[0,3,5,6,7],"categories_sizes":[3,2,1,1,1],"default_left":[1,1,0,1,0,1,1,0,0,0,0],"id":54,"left_children":[1,3,-1,5,-1,7,9,-1,-1,-1,-1],"loss_changes":[2.7900095E0,1.5449314E0,0E0,3.3943027E-1,0E0,1.3042175E0,2.7526612E0,0E0,0E0,0E0,0E0],"parents":[2147483647,0,0,1,1,3,3,5,5,6,6],"right_children":[2,4,-1,6,-1,8,10,-1,-1,-1,-1],"split_conditions":[NaN,NaN,-1.4676103E-1,NaN,-1.3203254E-1,NaN,NaN,-4.4955716E-2,1.2566914E-1,-1.7891063E-1,1.3639024E-1],"split_indices":[1,0,0,4,0,5,5,0,0,0,0],"split_type":[1,1,0,1,0,1,1,0,0,0,0],"sum_hessian":[5.407543E1,2.8887735E1,2.5187695E1,2.2643051E1,6.244684E0,1.4656876E1,7.9861765E0,6.4713135E0,8.185562E0,3.9372926E0,4.048884E0],"tree_param":{"num_deleted":"0","num_feature":"6","num_nodes":"11","size_leaf_vector":"0"}},{"base_weights":[-2.40986E-1,-5.5407684E-2,-1.4602873E-1,-1.3524905E-1,8.638115E-2,-1.4365354E-1,3.9746198E-1,6.923568E-2,-1.527637E-1,1.6470763E-1,-9.441918E-2],"categories":[0,1,3,0,0,0,1,0,3],"categories_nodes":[0,1,4,5,6],"categories_segments":[0,3,4,5,7],"categories_sizes":[3,1,1,2,2],"default_left":[1,1,0,0,1,1,1,0,0,0,0],"id":55,"left_children":[1,3,-1,-1,5,7,9,-1,-1,-1,-1],"loss_changes":[2.4629557E0,1.8461374E0,0E0,0E0,1.8149407E0,2.151076E0,1.3286722E0,0E0,0E0,0E0,0E0],"parents":[2147483647,0,0,1,1,4,4,5,5,6,6],"right_children":[2,4,-1,-1,6,8,10,-1,-1,-1,-1],"split_conditions":[NaN,NaN,-1.4602873E-1,-1.3524905E-1,NaN,NaN,NaN,6.923568E-2,-1.527637E-1,1.6470763E-1,-9.441918E-2],"split_indices":[0,5,0,0,4,2,1,0,0,0,0],"split_type":[1,1,0,0,1,1,1,0,0,0,0],"sum_hessian":[5.3590748E1,3.1233053E1,2.2357695E1,7.668225E0,2.3564829E1,1.3856549E1,9.70828E0,7.0272584E0,6.829291E0,8.193669E0,1.5146097E0],"tree_param":{"num_deleted":"0","num_feature":"6","num_nodes":"11","size_leaf_vector":"0"}},{"base_weights":[9.999944E-2,5.602093E-2,1.4541678E-1,2.6211217E-1,-2.0673972E-2,1.670874E-1,3.903921E-2,1.6846338E-1,-1.3387194E-1,6.6190705E-2,-1.2984453E-1,1.7942524E-1,-1.94936E-2,4.3356657E-2,-7.3934905E-2],"categories":[0,0,1,2,1,2,0,2,0,1,2,1,2,3],"categories_nodes":[0,1,3,4,6,7,8],"categories_segments":[0,1,4,6,8,9,11],"categories_sizes":[1,3,2,2,1,2,3],"default_left":[1,1,0,1,1,0,1,1,1,0,0,0,0,0,0],"id":56,"left_children":[1,3,-1,5,7,-1,9,11,13,-1,-1,-1,-1,-1,-1],"loss_changes":[2.9578295E0,2.5257804E0,0E0,2.8274415E0,2.5304189E0,0E0,2.300776E0,4.48175E0,2.349702E0,0E0,0E0,0E0,0E0,0E0,0E0],"parents":[2147483647,0,0,1,1,3,3,4,4,6,6,7,7,8,8],"right_children":[2,4,-1,6,8,-1,10,12,14,-1,-1,-1,-1,-1,-1],"split_conditions":[NaN,NaN,1.4541678E-1,NaN,NaN,1.670874E-1,NaN,NaN,NaN,6.6190705E-2,-1.2984453E-1,1.7942524E-1,-1.94936E-2,4.3356657E-2,-7.3934905E-2],"split_indices":[3,1,0,0,0,0,4,1,2,0,0,0,0,0,0],"split_type":[1,1,0,1,1,0,1,1,1,0,0,0,0,0,0],"sum_hessian":[1.7542216E2,1.5845451E2,1.6967655E1,4.231903E1,1.16135475E2,1.7582577E1,2.4736452E1,4.329972E1,7.2835754E1,1.8246548E1,6.489906E0,1.4694436E1,2.8605286E1,2.0890862E1,5.1944897E1],"tree_param":{"num_deleted":"0","num_feature":"6","num_nodes":"15","size_leaf_vector":"0"}},{"base_weights":[2.0017983E-2,3.729393E-2,-1.2930872E-1,7.973563E-2,-1.0487151E-1,1.9839327E-1,2.6316123E-2,1.1419387E-1,-1.602041E-1,-2.325478E-3,1.3905478E-1,3.828138E-2,-6.0946286E-2,-1.9686937E-2,1.5469888E-1],"categories":[0,3,1,2,3,0,3,0,0,0],"categories_nodes":[0,1,3,4,5,6,7],"categories_segments":[0,1,2,5,7,8,9],"categories_sizes":[1,1,3,2,1,1,1],"default_left":[1,1,0,1,1,1,1,1,0,0,0,0,0,0,0],"id":57,"left_children":[1,3,-1,5,7,9,11,13,-1,-1,-1,-1,-1,-1,-1],"loss_changes":[1.4670327E0,1.0959827E0,0E0,8.7827665E-1,3.997504E0,2.360097E0,2.286648E0,2.094592E0,0E0,0E0,0E0,0E0,0E0,0E0,0E0],"parents":[2147483647,0,0,1,1,3,3,4,4,5,5,6,6,7,7],"right_children":[2,4,-1,6,8,10,12,14,-1,-1,-1,-1,-1,-1,-1],"split_conditions":[NaN,NaN,-1.2930872E-1,NaN,NaN,NaN,NaN,NaN,-1.602041E-1,-2.325478E-3,1.3905478E-1,3.828138E-2,-6.0946286E-2,-1.9686937E-2,1.5469888E-1],"split_indices":[3,1,0,0,0,5,1,4,0,0,0,0,0,0,0],"split_type":[1,1,0,1,1,1,1,1,0,0,0,0,0,0,0],"sum_hessian":[1.852049E2,1.7925636E2,5.9485383E0,1.38383E2,4.0873363E1,4.211703E1,9.626597E1,2.7545856E1,1.3327508E1,2.4240053E1,1.7876976E1,6.709436E1,2.9171608E1,1.9602491E1,7.9433646E0],"tree_param":{"num_deleted":"0","num_feature":"6","num_nodes":"15","size_leaf_vector":"0"}},{"base_weights":[-2.2649173E-1,-1.8915296E-2,-1.4517255E-1,9.3368344E-2,-1.2807097E-1,1.750408E-1,-6.060294E-2,-3.3917937E-2,1.1358653E-1,-1.6858993E-1,1.2592594E-1],"categories":[0,2,3,0,3,2,2,0],"categories_nodes":[0,1,3,5,6],"categories_segments":[0,3,5,6,7],"categories_sizes":[3,2,1,1,1],"default_left":[1,1,0,1,0,1,1,0,0,0,0],"id":58,"left_children":[1,3,-1,5,-1,7,9,-1,-1,-1,-1],"loss_changes":[2.5834298E0,1.3180052E0,0E0,2.9606357E-1,0E0,9.278293E-1,2.3095632E0,0E0,0E0,0E0,0E0],"parents":[2147483647,0,0,1,1,3,3,5,5,6,6],"right_children":[2,4,-1,6,-1,8,10,-1,-1,-1,-1],"split_conditions":[NaN,NaN,-1.4517255E-1,NaN,-1.2807097E-1,NaN,NaN,-3.3917937E-2,1.1358653E-1,-1.6858993E-1,1.2592594E-1],"split_indices":[1,0,0,4,0,5,5,0,0,0,0],"split_type":[1,1,0,1,0,1,1,0,0,0,0],"sum_hessian":[4.751967E1,2.6900805E1,2.0618864E1,2.1699865E1,5.200939E0,1.4089433E1,7.610432E0,6.0178413E0,8.071591E0,3.6406598E0,3.9697723E0],"tree_param":{"num_deleted":"0","num_feature":"6","num_nodes":"11","size_leaf_vector":"0"}},{"base_weights":[-2.1496378E-1,-3.901866E-2,-1.4419755E-1,9.852165E-2,-1.343269E-1,2.1647452E-1,-1.2653233E-1,1.1453812E-1,-7.783049E-2],"categories":[0,1,3,0,3,2,0],"categories_nodes":[0,1,3,5],"categories_segments":[0,3,5,6],"categories_sizes":[3,2,1,1],"default_left":[1,1,0,1,0,1,0,0,0],"id":59,"left_children":[1,3,-1,5,-1,7,-1,-1,-1],"loss_changes":[2.2386186E0,1.7384725E0,0E0,1.5255568E0,0E0,1.6499505E0,0E0,0E0,0E0],"parents":[2147483647,0,0,1,1,3,3,5,5],"right_children":[2,4,-1,6,-1,8,-1,-1,-1],"split_conditions":[NaN,NaN,-1.4419755E-1,NaN,-1.343269E-1,NaN,-1.2653233E-1,1.1453812E-1,-7.783049E-2],"split_indices":[0,1,0,4,0,2,0,0,0],"split_type":[1,1,0,1,0,1,0,0,0],"sum_hessian":[4.7288445E1,2.9139133E1,1.814931E1,2.2370438E1,6.7686963E0,1.8712248E1,3.6581898E0,1.40347E1,4.677548E0],"tree_param":{"num_deleted":"0","num_feature":"6","num_nodes":"9","size_leaf_vector":"0"}}]},"name":"gbtree"},"learner_model_param":{"base_score":"5E-1","boost_from_average":"1","num_class":"4","num_feature":"6","num_target":"1"},"objective":{"name":"multi:softprob","softmax_multiclass_param":{"num_class":"4"}}},"version":[1,7,6]}