{"learner":{"attributes":{"best_iteration":"25","best_ntree_limit":"26","best_score":"0.80296708715032","scikit_learn":"{\"use_label_encoder\": null, \"n_estimators\": 500, \"objective\": \"binary:logistic\", \"max_depth\": 6, \"max_leaves\": null, \"max_bin\": null, \"grow_policy\": null, \"learning_rate\": null, \"verbosity\": null, \"booster\": null, \"tree_method\": \"hist\", \"gamma\": null, \"min_child_weight\": null, \"max_delta_step\": null, \"subsample\": null, \"sampling_method\": null, \"colsample_bytree\": null, \"colsample_bylevel\": null, \"colsample_bynode\": null, \"reg_alpha\": null, \"reg_lambda\": null, \"scale_pos_weight\": null, \"base_score\": null, \"missing\": NaN, \"num_parallel_tree\": null, \"random_state\": null, \"n_jobs\": null, \"monotone_constraints\": null, \"interaction_constraints\": null, \"importance_type\": null, \"gpu_id\": 0, \"validate_parameters\": null, \"predictor\": null, \"enable_categorical\": true, \"feature_types\": null, \"max_cat_to_onehot\": null, \"max_cat_threshold\": null, \"eval_metric\": [\"logloss\", \"error\", \"auc\", \"aucpr\"], \"early_stopping_rounds\": 10, \"callbacks\": null, \"kwargs\": {\"alpha\": 1.0, \"eta\": 0.3, \"lambda\": 1e-08}, \"classes_\": [false, true], \"n_classes_\": 2, \"evals_result_\": {\"validation_0\": {\"logloss\": [0.540722944707374, 0.45681144198384455, 0.4027017105876466, 0.3676267928078871, 0.3425523460861547, 0.32554145227472414, 0.31242329101404287, 0.3024275354053928, 0.2955881944308784, 0.2905148034916758, 0.28536391267957706, 0.2811122285041967, 0.27791521115573486, 0.27518220796177656, 0.2719456645034692, 0.26973394412993634, 0.26690661045964004, 0.2653020197191481, 0.26401011448780826, 0.2621753960816659, 0.26039361089427115, 0.2589554651733316, 0.25711082110593436, 0.25603029132372024, 0.25515066958596166, 0.25395101714729784, 0.2522724270708406, 0.2518901462660125, 0.25099793898424444, 0.2504004292176191, 0.24979829353734065, 0.24901444125112218, 0.24829826581390416, 0.24757576698152772, 0.2468431070916989, 0.2461286289014918], \"error\": [0.14434889434889434, 0.14273648648648649, 0.14027948402948404, 0.13847512285012284, 0.13494318181818182, 0.13367628992628994, 0.13187192874692874, 0.13060503685503685, 0.12945331695331697, 0.1286855036855037, 0.12691953316953317, 0.12588298525798525, 0.12434735872235872, 0.12357954545454546, 0.1222742628992629, 0.12158323095823095, 0.12093058968058969, 0.12012438574938575, 0.11927979115479115, 0.11851197788697788, 0.11843519656019656, 0.11801289926289926, 0.11705313267813268, 0.11655405405405406, 0.11628531941031942, 0.11521038083538084, 0.11501842751842752, 0.11486486486486487, 0.11428900491400491, 0.11344441031941031, 0.11336762899262899, 0.11317567567567567, 0.11298372235872235, 0.11283015970515971, 0.11225429975429975, 0.11110257985257985], \"auc\": [0.9028670888388376, 0.9098526466584957, 0.9160684599650063, 0.918807758708236, 0.9212050926228265, 0.9228188530343657, 0.9244143372829984, 0.9268952125211678, 0.9281333166730166, 0.9295642075725871, 0.9312938781742787, 0.9326876813291839, 0.9337308370795872, 0.9347340641688786, 0.9362040566273043, 0.9371336955897374, 0.9384024464773739, 0.9389453851673762, 0.9394434885220103, 0.9401769763884122, 0.9409156066731921, 0.9414550052057097, 0.9423193350551764, 0.942769302656742, 0.943103196245969, 0.9436710718692246, 0.9445131538666879, 0.944650061266301, 0.9450889808594632, 0.9453970384912453, 0.9456024914909158, 0.9459897871171448, 0.9462798442867724, 0.9465105179117744, 0.9469088615464066, 0.9472648791220819], \"aucpr\": [0.7822110167251286, 0.7940496724128362, 0.8055510078337138, 0.8112797618857913, 0.8166606007497944, 0.8204574205068655, 0.823968496909508, 0.8290089744165301, 0.8312952781377155, 0.8335214115260645, 0.8359623911478358, 0.838693087442737, 0.8410397545177967, 0.8428012161091075, 0.8456649662401198, 0.8477897796311542, 0.8500146748487897, 0.8510503848923376, 0.8521525698725049, 0.8536007976872635, 0.8553333572248465, 0.8564240416476657, 0.8584476296083652, 0.8592753242492491, 0.8600219652220219, 0.8614104677947733, 0.8632798132546589, 0.8635168372209934, 0.8643999774123855, 0.8650331919368907, 0.8654872615092775, 0.8660832404039016, 0.8665952759947315, 0.8671422938659861, 0.8679701119624709, 0.8688561341324438]}, \"validation_1\": {\"logloss\": [0.5413555317708063, 0.4588761899477872, 0.40616964603621675, 0.3723515665272167, 0.3482278829908638, 0.33288581473027873, 0.3198536606812951, 0.3120946912977226, 0.3060143607530303, 0.30518347835152515, 0.30212731194108583, 0.2986621381520468, 0.29601729683404704, 0.29702947979228694, 0.2948060612120312, 0.29379578871283846, 0.29220449983847424, 0.2917502883686739, 0.2910436451789072, 0.2909930354425124, 0.28979625159057487, 0.28901071034366277, 0.28861198524353954, 0.28781010977318, 0.2871044642743754, 0.286788581974346, 0.2870470049297475, 0.2868006357637215, 0.28684756918871795, 0.28688942471933404, 0.2864323925690604, 0.2923093767054359, 0.291761990138207, 0.29139690888401065, 0.2925045133866838, 0.2925505761190025], \"error\": [0.14601566098572086, 0.14478734838016274, 0.14263780132043605, 0.14248426224474128, 0.136803316444035, 0.13588208198986643, 0.13311837862736067, 0.13357899585444497, 0.13465376938430831, 0.13972055888223553, 0.13972055888223553, 0.13864578535237218, 0.13787808997389836, 0.13833870720098265, 0.13741747274681407, 0.13649623829264548, 0.13588208198986643, 0.13588208198986643, 0.1360356210655612, 0.13357899585444497, 0.13357899585444497, 0.1321971441731921, 0.13311837862736067, 0.13265776140027638, 0.13265776140027638, 0.13327191770305544, 0.1334254567787502, 0.13327191770305544, 0.13235068324888685, 0.1321971441731921, 0.13204360509749732, 0.13373253493013973, 0.13327191770305544, 0.13250422232458162, 0.1334254567787502, 0.1334254567787502], \"auc\": [0.8952016427823468, 0.9001827350500999, 0.9051530561590824, 0.9071606395900698, 0.9097676614222051, 0.9110116968094089, 0.9133245522743737, 0.9144911156003577, 0.9148242187029598, 0.9134698625653662, 0.9142578296958037, 0.9154055936701446, 0.9162868216411179, 0.9156755416554829, 0.9169764434088671, 0.9173483494436864, 0.9180527564666424, 0.9180126824038871, 0.9182946726785343, 0.9189948649002323, 0.9196027329038964, 0.919824846240036, 0.9199473430829491, 0.920487506660055, 0.9208444936364529, 0.92102499417287, 0.920765750444695, 0.9209093881955057, 0.9208450288493111, 0.9207846835995527, 0.921037571675037, 0.9191341540465705, 0.9193763378648914, 0.9196360499043174, 0.9192832108275703, 0.9192429360599931], \"aucpr\": [0.7522163367887691, 0.7597058187651997, 0.7701505143726131, 0.7752407573925928, 0.7807110289774901, 0.7832551431149772, 0.7874594004040162, 0.7910223627672311, 0.7911651195123224, 0.7885611890824062, 0.7905766246445753, 0.7928483462986292, 0.7946339839538622, 0.7910386544145364, 0.7931263423455159, 0.7936011383732615, 0.7955307922347923, 0.7959356924876438, 0.7972071326488622, 0.7986905965237656, 0.8001011374094106, 0.8008310662253331, 0.801166895286965, 0.8019158353482743, 0.8026439128134691, 0.80296708715032, 0.8021709070214692, 0.8026322643847071, 0.8022748071508381, 0.8020743104529086, 0.8026480474858534, 0.7996354707295503, 0.8000978448472198, 0.8004793012713428, 0.8001598163320579, 0.8000584902776182]}}, \"_estimator_type\": \"classifier\"}"},"feature_names":["age","workclass","education","marital_status","occupation","relationship","race","sex","capital_gain","capital_loss","hours_per_week","native_country"],"feature_types":["int","c","c","c","c","c","c","c","int","int","int","c"],"gradient_booster":{"model":{"gbtree_model_param":{"num_parallel_tree":"1","num_trees":"36","size_leaf_vector":"0"},"tree_info":[0,0,0,0,0,0,0,0,0,0,0,0,0,0,0,0,0,0,0,0,0,0,0,0,0,0,0,0,0,0,0,0,0,0,0,0],"trees":[{"base_weights":[-1.0241094E0,-1.7002541E-1,-1.7322657E0,9.3010145E-1,-6.429436E-1,-1.7963823E0,1.8247012E0,7.336011E-1,5.914286E-1,-7.839183E-1,5.8032787E-1,-1.4010695E0,-1.8951887E0,-0E0,1.8704454E0,9.1133386E-1,-4.2639595E-1,-2.673367E-1,-1.101031E0,-1.6471839E0,-8.949079E-1,-1.9026581E0,-0E0,7.368421E-1,5.842105E-1,7.811683E-1,5.68E-1,-5.308311E-1,1.2380953E0,-9.2923075E-1,-8.137045E-2,-9.4950545E-1,-1.6746032E0,-1.9E0,-1.3796096E0,-1.7701149E0,-6.862483E-1,-1.9409689E0,-1.6997199E0,-6.086956E-1,4.347826E-1,4.8000002E-1,-0E0,-8.129033E-2,2.5778404E-1,-2.2709166E-1,-9.836066E-3,5.1428574E-1,-0E0,-4.2000002E-1,-2.1333335E-1,-5.108696E-2,4.299213E-1,-3.0185536E-1,2.1951221E-1,-5.1052094E-1,-1.8620689E-1,-5.7238495E-1,-0E0,-9.8734185E-2,-4.419929E-1,-5.4285717E-1,-0E0,-2.201087E-1,5.0769234E-1,-5.321116E-1,-5.8992094E-1,-5.133183E-1,-0E0,-4.8000002E-1,-0E0,3.8823533E-1,-4.0000004E-1,3E-1,-3.6E-1],"categories":[1,2,3,4,0,1,2,3,4,5,6,7,8,11,13,15,0,1,2,3,4,5,6,7,8,11,13,15,1,2,4,5,6,7,8,13,2,4,5,6,7,8,13,0,1,3,4,5,6,13,9,12,0,2,4,5,6,7,8,11,13,3],"categories_nodes":[0,1,5,7,9,18,34,37,42],"categories_segments":[0,4,16,28,36,43,50,52,61],"categories_sizes":[4,12,12,8,7,7,2,9,1],"default_left":[1,1,0,0,0,1,0,0,0,0,0,0,0,0,0,0,0,0,1,0,0,0,0,0,0,0,0,0,0,0,0,0,0,0,1,0,0,0,0,0,0,0,1,0,0,0,0,0,0,0,0,0,0,0,0,0,0,0,0,0,0,0,0,0,0,0,0,0,0,0,0,0,0,0,0],"id":0,"left_children":[1,3,5,7,9,11,13,15,-1,17,-1,19,21,-1,23,25,27,29,31,33,35,37,39,41,-1,43,-1,45,47,49,51,53,55,57,59,61,63,65,67,69,71,-1,73,-1,-1,-1,-1,-1,-1,-1,-1,-1,-1,-1,-1,-1,-1,-1,-1,-1,-1,-1,-1,-1,-1,-1,-1,-1,-1,-1,-1,-1,-1,-1,-1],"loss_changes":[3.9367178E3,1.53581E3,8.117549E2,1.78794E2,7.493364E2,1.3328418E2,7.1081543E0,1.5449356E2,0E0,3.1950342E2,0E0,8.4815186E1,3.7668945E1,0E0,2.700409E0,8.021838E1,1.641513E1,9.0845276E1,1.0275525E2,2.854834E1,3.9683273E1,1.8004883E1,3.2173913E0,3.8210528E0,0E0,4.7720947E1,0E0,9.712824E0,2.2380953E0,1.4575043E1,7.734688E1,9.180005E1,4.883789E0,3.625061E0,2.0886078E1,1.2249603E0,2.0173698E1,6.205078E0,7.746704E0,4.2695656E0,8.697357E0,0E0,2.8E0,0E0,0E0,0E0,0E0,0E0,0E0,0E0,0E0,0E0,0E0,0E0,0E0,0E0,0E0,0E0,0E0,0E0,0E0,0E0,0E0,0E0,0E0,0E0,0E0,0E0,0E0,0E0,0E0,0E0,0E0,0E0,0E0],"parents":[2147483647,0,0,1,1,2,2,3,3,4,4,5,5,6,6,7,7,9,9,11,11,12,12,14,14,15,15,16,16,17,17,18,18,19,19,20,20,21,21,22,22,23,23,25,25,27,27,28,28,29,29,30,30,31,31,32,32,33,33,34,34,35,35,36,36,37,37,38,38,39,39,40,40,42,42],"right_children":[2,4,6,8,10,12,14,16,-1,18,-1,20,22,-1,24,26,28,30,32,34,36,38,40,42,-1,44,-1,46,48,50,52,54,56,58,60,62,64,66,68,70,72,-1,74,-1,-1,-1,-1,-1,-1,-1,-1,-1,-1,-1,-1,-1,-1,-1,-1,-1,-1,-1,-1,-1,-1,-1,-1,-1,-1,-1,-1,-1,-1,-1,-1],"split_conditions":[NaN,NaN,7.298E3,5.06E3,5.06E3,NaN,2E1,NaN,5.914286E-1,NaN,5.8032787E-1,4.4E1,2.231E3,-0E0,8.614E3,1.741E3,1.741E3,3.3E1,NaN,3.4E1,2.8E1,4.5E1,2.352E3,7.443E3,5.842105E-1,3.1E1,5.68E-1,4.1E1,1.98E3,2.7E1,1.741E3,1.741E3,6.25E2,2.002E3,NaN,7.8E1,2.352E3,NaN,4.687E3,4.5E1,3.683E3,4.8000002E-1,NaN,-8.129033E-2,2.5778404E-1,-2.2709166E-1,-9.836066E-3,5.1428574E-1,-0E0,-4.2000002E-1,-2.1333335E-1,-5.108696E-2,4.299213E-1,-3.0185536E-1,2.1951221E-1,-5.1052094E-1,-1.8620689E-1,-5.7238495E-1,-0E0,-9.8734185E-2,-4.419929E-1,-5.4285717E-1,-0E0,-2.201087E-1,5.0769234E-1,-5.321116E-1,-5.8992094E-1,-5.133183E-1,-0E0,-4.8000002E-1,-0E0,3.8823533E-1,-4.0000004E-1,3E-1,-3.6E-1],"split_indices":[5,2,8,8,8,2,0,4,0,4,0,10,9,0,8,9,9,0,2,0,0,10,9,8,0,10,0,10,9,0,9,9,9,9,2,10,9,4,8,0,9,0,1,0,0,0,0,0,0,0,0,0,0,0,0,0,0,0,0,0,0,0,0,0,0,0,0,0,0,0,0,0,0,0,0],"split_type":[1,1,0,0,0,1,0,1,0,1,0,0,0,0,0,0,0,0,1,0,0,0,0,0,0,0,0,0,0,0,0,0,0,0,1,0,0,1,0,0,0,0,1,0,0,0,0,0,0,0,0,0,0,0,0,0,0,0,0,0,0,0,0,0,0,0,0,0,0,0,0,0,0,0,0],"sum_hessian":[6.512E3,2.9525E3,3.5595E3,8.87E2,2.0655E3,3.49675E3,6.275E1,7.47E2,1.4E2,1.95875E3,1.0675E2,7.0125E2,2.7955E3,1E0,6.175E1,6.485E2,9.85E1,7.4625E2,1.2125E3,4.705E2,2.3075E2,2.784E3,1.15E1,4.75E0,5.7E1,5.735E2,7.5E1,9.325E1,5.25E0,1.625E2,5.8375E2,9.605E2,2.52E2,2.4E2,2.305E2,4.35E1,1.8725E2,2.33775E3,4.4625E2,5.75E0,5.75E0,2.5E0,2.25E0,3.875E1,5.3475E2,6.275E1,3.05E1,3.5E0,1.75E0,5E1,1.125E2,5.52E2,3.175E1,9.2975E2,3.075E1,2.4475E2,7.25E0,2.39E2,1E0,1.975E1,2.1075E2,4.2E1,1.5E0,1.84E2,3.25E0,3.1375E2,2.024E3,4.43E2,3.25E0,2.5E0,3.25E0,4.25E0,1.5E0,1E0,1.25E0],"tree_param":{"num_deleted":"0","num_feature":"12","num_nodes":"75","size_leaf_vector":"0"}},{"base_weights":[-7.63262E-1,-1.2195241E-1,-1.3208561E0,6.2178326E-1,-4.8925123E-1,-1.3697108E0,1.3992414E0,4.723845E-1,1.5239308E0,-5.896372E-1,1.4842201E0,-1.0494177E0,-1.459458E0,-0E0,1.4413705E0,6.5677184E-1,-2.3073071E-1,1.5312046E0,-0E0,-3.5032356E-1,-9.5603365E-1,4.5136747E-1,3.3280555E-2,-1.3973837E0,-8.631959E-1,-1.4643377E0,5.9537834E-1,3.5399708E-1,4.4707295E-1,-6.286252E-3,7.6793635E-1,-1.1203713E-2,-8.376211E-1,4.6158156E-1,-0E0,-7.781722E-1,-1.5503065E-1,-1.0831678E0,-6.4252853E-1,-1.44933E0,-8.208088E-1,1.5048692E-1,-9.4546324E-1,-1.5056429E0,-1.2636807E0,1.0395097E0,-5.0199233E-2,-0E0,2.315436E-1,-3.1892665E-2,3.1936145E-1,2.4016963E-1,-2.9422742E-1,-3.3324096E-2,3.6826903E-1,1.6313484E-1,-2.70548E-1,-9.930377E-2,-2.744849E-1,-9.406032E-3,-3.2582885E-1,-2.9666686E-1,-4.3110648E-1,-1.1216595E-1,-2.9805365E-1,-4.3811312E-1,-0E0,-4.378555E-1,-1.5375808E-1,2.8506842E-1,-1.2917942E-2,-2.0399792E-1,-3.369105E-1,-4.522354E-1,-1.0477418E-1,-8.365577E-3,-3.8736543E-1,-0E0,4.3053445E-1],"categories":[1,2,3,4,0,1,2,3,4,5,6,8,11,13,15,0,2,4,5,6,7,8,11,12,13,0,1,2,4,5,6,7,8,13,4,5,6,7,8,13,4,5,7,13,1,4,0,1,2,3,4,5,6,7,8,9,11,12,15,0,1,2,3,4,5,6,7,8,9,0,1,2,3,5,6,7,0,2,10,11,0,1,2,3,4,5,6,1,3,4,5,6,13,4,5,7,1,2,3,4,6,7,0,0,1,2,3,4,5,6,7,8,9,11,13,15],"categories_nodes":[0,1,5,7,9,16,17,24,27,32,35,36,37,38,41,42,44],"categories_segments":[0,4,15,25,34,40,44,46,59,69,76,80,87,93,96,102,103],"categories_sizes":[4,11,10,9,6,4,2,13,10,7,4,7,6,3,6,1,13],"default_left":[1,1,0,0,0,0,0,0,0,0,0,0,0,0,0,0,1,1,0,0,0,0,0,0,1,0,0,1,0,0,0,0,1,0,0,1,1,1,1,0,0,1,1,0,1,0,0,0,0,0,0,0,0,0,0,0,0,0,0,0,0,0,0,0,0,0,0,0,0,0,0,0,0,0,0,0,0,0,0],"id":1,"left_children":[1,3,5,7,9,11,13,15,17,19,21,23,25,-1,27,29,31,33,-1,35,37,-1,-1,39,41,43,45,47,-1,49,51,53,55,-1,-1,57,59,61,63,65,67,69,71,73,75,77,-1,-1,-1,-1,-1,-1,-1,-1,-1,-1,-1,-1,-1,-1,-1,-1,-1,-1,-1,-1,-1,-1,-1,-1,-1,-1,-1,-1,-1,-1,-1,-1,-1],"loss_changes":[2.2084521E3,7.852547E2,4.391587E2,1.25986206E2,3.8056085E2,9.082617E1,4.857445E0,1.0616612E2,2.8823853E-1,1.5939697E2,9.742279E-1,4.3948425E1,2.6274902E1,0E0,1.1822281E0,4.8472107E1,2.1576786E1,3.0249023E-1,0E0,9.1838455E1,2.7069702E1,0E0,0E0,5.119507E0,3.968857E1,1.8185547E1,2.741157E0,2.8607154E-1,0E0,8.857768E0,3.152356E1,1.4326849E1,4.2164936E0,0E0,0E0,1.9938065E1,8.685069E1,1.4646423E1,1.8500862E1,4.6019897E0,2.35635E0,6.1849465E0,1.8575226E1,2.5195312E0,1.3509399E1,1.744978E0,0E0,0E0,0E0,0E0,0E0,0E0,0E0,0E0,0E0,0E0,0E0,0E0,0E0,0E0,0E0,0E0,0E0,0E0,0E0,0E0,0E0,0E0,0E0,0E0,0E0,0E0,0E0,0E0,0E0,0E0,0E0,0E0,0E0],"parents":[2147483647,0,0,1,1,2,2,3,3,4,4,5,5,6,6,7,7,8,8,9,9,10,10,11,11,12,12,14,14,15,15,16,16,17,17,19,19,20,20,23,23,24,24,25,25,26,26,27,27,29,29,30,30,31,31,32,32,35,35,36,36,37,37,38,38,39,39,40,40,41,41,42,42,43,43,44,44,45,45],"right_children":[2,4,6,8,10,12,14,16,18,20,22,24,26,-1,28,30,32,34,-1,36,38,-1,-1,40,42,44,46,48,-1,50,52,54,56,-1,-1,58,60,62,64,66,68,70,72,74,76,78,-1,-1,-1,-1,-1,-1,-1,-1,-1,-1,-1,-1,-1,-1,-1,-1,-1,-1,-1,-1,-1,-1,-1,-1,-1,-1,-1,-1,-1,-1,-1,-1,-1],"split_conditions":[NaN,NaN,7.298E3,5.06E3,5.06E3,NaN,2E1,NaN,8E1,NaN,7.1E1,3.1E1,2.352E3,-0E0,7.688E3,3.2E1,NaN,NaN,-0E0,3.6E1,4.4E1,4.5136747E-1,3.3280555E-2,5.5E1,NaN,4.3E1,3.004E3,NaN,4.4707295E-1,1.741E3,3.137E3,1.741E3,NaN,4.6158156E-1,-0E0,NaN,NaN,NaN,NaN,1.977E3,2.6E1,NaN,NaN,2.231E3,NaN,3.4E1,-5.0199233E-2,-0E0,2.315436E-1,-3.1892665E-2,3.1936145E-1,2.4016963E-1,-2.9422742E-1,-3.3324096E-2,3.6826903E-1,1.6313484E-1,-2.70548E-1,-9.930377E-2,-2.744849E-1,-9.406032E-3,-3.2582885E-1,-2.9666686E-1,-4.3110648E-1,-1.1216595E-1,-2.9805365E-1,-4.3811312E-1,-0E0,-4.378555E-1,-1.5375808E-1,2.8506842E-1,-1.2917942E-2,-2.0399792E-1,-3.369105E-1,-4.522354E-1,-1.0477418E-1,-8.365577E-3,-3.8736543E-1,-0E0,4.3053445E-1],"split_indices":[5,2,8,8,8,4,0,4,0,4,0,0,9,0,8,0,4,4,0,0,10,0,0,10,2,10,9,2,0,9,8,9,1,0,0,4,2,2,4,9,0,1,7,9,2,0,0,0,0,0,0,0,0,0,0,0,0,0,0,0,0,0,0,0,0,0,0,0,0,0,0,0,0,0,0,0,0,0,0],"split_type":[1,1,0,0,0,1,0,1,0,1,0,0,0,0,0,0,1,1,0,0,0,0,0,0,1,0,0,1,0,0,0,0,1,0,0,1,1,1,1,0,0,1,1,0,1,0,0,0,0,0,0,0,0,0,0,0,0,0,0,0,0,0,0,0,0,0,0,0,0,0,0,0,0,0,0,0,0,0,0],"sum_hessian":[6.1799614E3,2.875052E3,3.3049097E3,9.4956836E2,1.9254836E3,3.2469597E3,5.7949844E1,8.156092E2,1.3395921E2,1.832762E3,9.272172E1,7.1311414E2,2.5338455E3,1E0,5.6949844E1,6.4728516E2,1.6832402E2,1.3281245E2,1.1467619E0,1.1102959E3,7.2246606E2,9.065101E1,2.0707083E0,2.4672484E2,4.663893E2,2.5283281E3,5.5173907E0,3.3296416E0,5.3620205E1,9.164693E1,5.556382E2,1.24820984E2,4.350304E1,1.316657E2,1.1467619E0,3.4636255E2,7.6393335E2,5.1174927E2,2.107168E2,2.2474242E2,2.1982424E1,3.4096977E1,4.3229233E2,2.0925862E3,4.357421E2,4.3155365E0,1.2018542E0,2.1489644E0,1.1806772E0,8.467184E1,6.975093E0,5.460218E2,9.616414E0,1.1625508E2,8.565906E0,1.2404009E0,4.2262638E1,8.284212E1,2.6352042E2,6.75304E2,8.862933E1,4.0631854E2,1.05430725E2,1.20973274E2,8.974352E1,2.2351297E2,1.2294462E0,6.1001425E0,1.588228E1,7.650711E0,2.6446266E1,1.7552039E2,2.5677194E2,2.0884553E3,4.1307354E0,1.028957E1,4.254525E2,1.2040565E0,3.1114802E0],"tree_param":{"num_deleted":"0","num_feature":"12","num_nodes":"79","size_leaf_vector":"0"}},{"base_weights":[-6.070238E-1,-8.9616425E-2,-1.1048503E0,2.699894E-1,-5.630311E-1,-1.1541976E0,8.651369E-1,1.5652257E-1,3.948347E-1,-6.2537134E-1,1.2321814E0,-8.1673104E-1,-1.2447232E0,9.196978E-2,1.2244788E0,4.800366E-1,-1.4508787E-1,-1.2113953E0,-5.234284E-1,3.833369E-1,-0E0,-1.028542E0,-4.1520888E-1,-1.2509089E0,-0E0,7.5319207E-1,-4.999536E-1,-0E0,1.2735869E0,3.9786988E-1,1.2470734E0,-2.075106E-1,1.043411E0,-1.2391769E0,-0E0,-3.8447136E-1,-9.7506475E-1,-1.0457971E0,5.936572E-1,-8.6036414E-1,-1.6631834E-1,-1.117107E0,-1.3070912E0,-4.2840162E-1,3.4187132E-1,-0E0,-1.2183996E0,3.8821784E-1,-0E0,-1.00908205E-1,1.4364813E-1,4.2249468E-1,1.1663721E-1,-2.717038E-2,-1.9985019E-1,4.734877E-1,-1.2607287E-1,-3.2056877E-1,-4.289381E-1,4.271676E-1,-3.5393572E-1,-2.2752653E-1,-5.8646765E-2,-2.4551657E-1,-3.8381726E-1,-3.7595814E-1,-2.5667894E-1,1.6927851E-2,-2.8228995E-1,5.649925E-2,-1.4104238E-1,-0E0,-3.4032583E-1,-3.965969E-1,-3.4301478E-1,7.243046E-2,-3.4285325E-1,2.4047996E-1,-7.7263094E-3,5.5305195E-1,-1.7167845E-1,-4.0335575E-1,-0E0],"categories":[1,2,3,4,0,1,2,3,4,5,6,11,13,0,1,2,3,4,5,6,7,8,11,13,15,0,1,2,4,5,6,7,8,10,11,13,0,1,2,3,4,5,6,13,0,4,5,6,7,8,11,1,0,1,2,3,4,5,6,13,4,5,6,7,2,4,11,0,4,5,7,10,1,2,3,4,5,0,1,2,4,5,6,7,8,9,13,0,3,4,5,6,0,1,2,3,11],"categories_nodes":[0,1,5,7,18,23,26,28,31,33,36,39,40,41,43],"categories_segments":[0,4,13,25,36,44,51,52,60,64,67,72,77,87,92],"categories_sizes":[4,9,12,11,8,7,1,8,4,3,5,5,10,5,5],"default_left":[1,1,0,0,0,1,0,0,0,0,0,0,0,0,0,0,0,0,1,0,0,0,0,0,0,0,1,0,1,0,0,1,0,0,0,0,0,0,0,1,0,1,0,1,0,0,0,0,0,0,0,0,0,0,0,0,0,0,0,0,0,0,0,0,0,0,0,0,0,0,0,0,0,0,0,0,0,0,0,0,0,0,0],"id":2,"left_children":[1,3,5,7,9,11,13,15,-1,17,19,21,23,25,27,29,31,33,35,-1,-1,37,39,41,43,-1,45,-1,47,49,51,53,55,57,59,61,63,65,-1,67,69,71,73,75,77,79,81,-1,-1,-1,-1,-1,-1,-1,-1,-1,-1,-1,-1,-1,-1,-1,-1,-1,-1,-1,-1,-1,-1,-1,-1,-1,-1,-1,-1,-1,-1,-1,-1,-1,-1,-1,-1],"loss_changes":[1.4388408E3,4.6716626E2,2.771775E2,1.8338394E2,1.3201846E2,8.283984E1,1.7884113E1,1.375072E2,0E0,6.671829E1,2.7424622E0,4.8747498E1,1.6993408E1,3.4668427E1,4.0575485E0,4.1204163E1,5.3020718E1,5.1354218E0,5.9986145E1,0E0,0E0,1.9031189E1,2.1734901E1,1.3950439E1,1.5626302E0,0E0,5.7853312E0,0E0,4.3437958E-1,3.6714935E1,7.14373E0,3.6279762E1,2.8892193E1,2.8423004E0,6.8151298E0,5.1991974E1,8.787506E0,1.2993805E1,0E0,6.222103E0,1.4635007E1,1.15896E1,1.2636719E0,3.112335E0,1.8093901E0,1.0968018E1,3.3849144E-1,0E0,0E0,0E0,0E0,0E0,0E0,0E0,0E0,0E0,0E0,0E0,0E0,0E0,0E0,0E0,0E0,0E0,0E0,0E0,0E0,0E0,0E0,0E0,0E0,0E0,0E0,0E0,0E0,0E0,0E0,0E0,0E0,0E0,0E0,0E0,0E0],"parents":[2147483647,0,0,1,1,2,2,3,3,4,4,5,5,6,6,7,7,9,9,10,10,11,11,12,12,13,13,14,14,15,15,16,16,17,17,18,18,21,21,22,22,23,23,24,24,26,26,28,28,29,29,30,30,31,31,32,32,33,33,34,34,35,35,36,36,37,37,39,39,40,40,41,41,42,42,43,43,44,44,45,45,46,46],"right_children":[2,4,6,8,10,12,14,16,-1,18,20,22,24,26,28,30,32,34,36,-1,-1,38,40,42,44,-1,46,-1,48,50,52,54,56,58,60,62,64,66,-1,68,70,72,74,76,78,80,82,-1,-1,-1,-1,-1,-1,-1,-1,-1,-1,-1,-1,-1,-1,-1,-1,-1,-1,-1,-1,-1,-1,-1,-1,-1,-1,-1,-1,-1,-1,-1,-1,-1,-1,-1,-1],"split_conditions":[NaN,NaN,4.687E3,5.06E3,5.06E3,NaN,7.688E3,NaN,3.948347E-1,4E1,6.8E1,4.4E1,2.231E3,4.865E3,2E1,1.741E3,1.741E3,1.741E3,NaN,3.833369E-1,-0E0,2.352E3,3.2E1,NaN,4.3E1,7.5319207E-1,NaN,-0E0,NaN,3E1,1.98E3,NaN,1.98E3,NaN,1.98E3,3.6E1,NaN,3.3E1,5.936572E-1,NaN,NaN,NaN,5E1,NaN,5.6E1,5.455E3,5.4E1,3.8821784E-1,-0E0,-1.00908205E-1,1.4364813E-1,4.2249468E-1,1.1663721E-1,-2.717038E-2,-1.9985019E-1,4.734877E-1,-1.2607287E-1,-3.2056877E-1,-4.289381E-1,4.271676E-1,-3.5393572E-1,-2.2752653E-1,-5.8646765E-2,-2.4551657E-1,-3.8381726E-1,-3.7595814E-1,-2.5667894E-1,1.6927851E-2,-2.8228995E-1,5.649925E-2,-1.4104238E-1,-0E0,-3.4032583E-1,-3.965969E-1,-3.4301478E-1,7.243046E-2,-3.4285325E-1,2.4047996E-1,-7.7263094E-3,5.5305195E-1,-1.7167845E-1,-4.0335575E-1,-0E0],"split_indices":[5,2,8,8,8,2,8,4,0,10,0,10,9,8,0,9,9,9,2,0,0,9,0,4,0,0,5,0,2,0,9,4,9,4,9,0,4,0,0,3,4,3,10,2,0,8,0,0,0,0,0,0,0,0,0,0,0,0,0,0,0,0,0,0,0,0,0,0,0,0,0,0,0,0,0,0,0,0,0,0,0,0,0],"split_type":[1,1,0,0,0,1,0,1,0,0,0,0,0,0,0,0,0,0,1,0,0,0,0,1,0,0,1,0,1,0,0,1,0,1,0,0,1,0,0,1,1,1,0,1,0,0,0,0,0,0,0,0,0,0,0,0,0,0,0,0,0,0,0,0,0,0,0,0,0,0,0,0,0,0,0,0,0,0,0,0,0,0,0],"sum_hessian":[5.5906533E3,2.7423982E3,2.8482554E3,1.5573345E3,1.1850637E3,2.7791467E3,6.9108665E1,1.4058107E3,1.515237E2,1.1458308E3,3.9232903E1,5.901604E2,2.1889863E3,2.281098E1,4.6297684E1,6.798761E2,7.259346E2,1.6833575E2,9.7749506E2,3.8161865E1,1.0710384E0,3.8472153E2,2.054389E2,2.178251E3,1.0735318E1,4.817107E0,1.7993874E1,1E0,4.5297684E1,6.152707E2,6.460544E1,6.9050885E2,3.5425743E1,1.6421674E2,4.1190267E0,7.4919965E2,2.2829544E2,3.828574E2,1.864143E0,7.2231255E1,1.3320764E2,6.4941907E2,1.5288319E3,4.619959E0,6.115359E0,1.1066974E1,6.926899E0,4.4135166E1,1.1625175E0,5.9876503E1,5.5539417E2,5.3406967E1,1.1198469E1,5.519577E2,1.3855115E2,2.6444881E1,8.980862E0,8.942324E1,7.479349E1,1.7022102E0,2.4168162E0,2.497375E2,4.9946213E2,1.5287616E2,7.541929E1,1.8063437E2,2.02223E2,4.8346114E0,6.739664E1,5.9944134E1,7.326352E1,1.06646E1,6.3875446E2,1.3957062E3,1.3312576E2,1.6620167E0,2.9579422E0,3.9259644E0,2.1893947E0,2.3913028E0,8.675672E0,5.875571E0,1.0513281E0],"tree_param":{"num_deleted":"0","num_feature":"12","num_nodes":"83","size_leaf_vector":"0"}},{"base_weights":[-4.9316543E-1,-7.126249E-2,-9.6626896E-1,3.7668017E-1,-2.9634753E-1,-1.0020664E0,1.0686065E0,2.8446156E-1,1.2210691E0,-3.5536253E-1,1.1096857E0,-6.562816E-1,-1.1135224E0,-0E0,1.124219E0,2.1057329E-1,1.125125E0,3.694322E-1,-0E0,-1.0239643E-1,-5.435233E-1,1.1608638E0,-0E0,-1.0472068E0,-4.9550876E-1,-1.1698371E0,-8.677769E-1,2.3577532E-1,3.562863E-1,-5.320406E-1,2.7747998E-1,3.9107496E-1,2.8128088E-1,-7.533616E-1,-1.657777E-2,-1.0444309E0,-4.6100166E-1,3.6876717E-1,5.516554E-1,9.681851E-2,-1.4466985E-1,-1.1371212E0,-6.436563E-1,-6.7708635E-1,-1.8511905E-1,-1.1745719E0,-0E0,-1.0400817E0,-5.6104875E-1,3.4087262E-1,-5.5497844E-2,1.157837E-1,-2.9154438E-1,1.8872423E-1,4.7999028E-2,-6.496244E-1,2.674542E-1,2.8913498E-1,-2.4048124E-1,-1.0536594E-1,4.391372E-2,-3.1819153E-1,-0E0,-2.7963746E-1,-1.0774789E-1,2.6857004E-1,-0E0,-3.467393E-1,2.4865704E-2,-0E0,-2.286395E-1,-2.106559E-1,3.4981057E-1,-2.1749355E-2,-2.4913034E-1,-3.6314794E-1,-3.2708105E-1,1.8023817E-1,-3.7039205E-1,-2.3922701E-1,-3.4105587E-1,-8.2769796E-2,-2.629039E-1],"categories":[0,3,4,5,6,0,1,2,4,5,6,7,8,10,11,13,0,2,4,5,6,7,8,11,12,13,0,1,2,3,4,5,6,11,13,1,3,4,0,1,2,3,0,1,2,3,4,5,6,7,8,9,11,13,15,7,8,9,12,14,15,0,1,2,3,4,5,6,7,8,9,10,9,11,12,14,15,7,11,0,1,2,3,4,11,0,2,4,8,11,15,0,4,5,6,7,8],"categories_nodes":[0,1,5,9,10,29,30,33,38,42,44,46,47,48],"categories_segments":[0,5,16,26,35,38,42,55,61,72,77,79,85,91],"categories_sizes":[5,11,10,9,3,4,13,6,11,5,2,6,6,6],"default_left":[1,0,0,0,0,0,0,0,0,1,1,0,0,0,0,0,0,0,0,0,0,0,0,0,0,0,0,0,0,1,1,0,0,1,0,0,0,0,1,0,0,0,1,0,1,0,1,1,0,0,0,0,0,0,0,0,0,0,0,0,0,0,0,0,0,0,0,0,0,0,0,0,0,0,0,0,0,0,0,0,0,0,0],"id":3,"left_children":[1,3,5,7,9,11,13,15,17,19,21,23,25,-1,27,29,31,-1,-1,33,35,37,39,41,43,45,47,49,-1,51,53,-1,55,57,59,61,63,-1,65,-1,-1,67,69,71,73,75,77,79,81,-1,-1,-1,-1,-1,-1,-1,-1,-1,-1,-1,-1,-1,-1,-1,-1,-1,-1,-1,-1,-1,-1,-1,-1,-1,-1,-1,-1,-1,-1,-1,-1,-1,-1],"loss_changes":[9.945077E2,2.6585458E2,1.7111719E2,6.706681E1,1.450335E2,8.72522E1,2.7584114E0,4.8044655E1,2.8012848E-1,7.964644E1,3.8031998E0,3.3982574E1,2.210669E1,0E0,7.4261856E-1,3.610782E1,7.922615E0,0E0,0E0,3.955315E1,3.838675E1,1.0039444E0,4.770192E-1,4.1302643E0,2.181314E1,6.99292E0,1.5764236E1,2.3197615E0,0E0,2.450612E1,2.6993912E1,0E0,1.664164E1,6.6899376E0,3.505529E1,2.4342194E0,3.8546127E1,0E0,1.8865032E0,0E0,0E0,4.062256E0,3.163703E0,1.1185196E1,1.0036812E1,1.9683838E0,5.1503496E0,2.9571228E0,9.661152E0,0E0,0E0,0E0,0E0,0E0,0E0,0E0,0E0,0E0,0E0,0E0,0E0,0E0,0E0,0E0,0E0,0E0,0E0,0E0,0E0,0E0,0E0,0E0,0E0,0E0,0E0,0E0,0E0,0E0,0E0,0E0,0E0,0E0,0E0],"parents":[2147483647,0,0,1,1,2,2,3,3,4,4,5,5,6,6,7,7,8,8,9,9,10,10,11,11,12,12,14,14,15,15,16,16,19,19,20,20,21,21,22,22,23,23,24,24,25,25,26,26,27,27,29,29,30,30,32,32,33,33,34,34,35,35,36,36,38,38,41,41,42,42,43,43,44,44,45,45,46,46,47,47,48,48],"right_children":[2,4,6,8,10,12,14,16,18,20,22,24,26,-1,28,30,32,-1,-1,34,36,38,40,42,44,46,48,50,-1,52,54,-1,56,58,60,62,64,-1,66,-1,-1,68,70,72,74,76,78,80,82,-1,-1,-1,-1,-1,-1,-1,-1,-1,-1,-1,-1,-1,-1,-1,-1,-1,-1,-1,-1,-1,-1,-1,-1,-1,-1,-1,-1,-1,-1,-1,-1,-1,-1],"split_conditions":[NaN,NaN,7.298E3,5.06E3,5.06E3,NaN,2.3E1,1.741E3,7.3E1,NaN,NaN,3E1,4.3E1,-0E0,8.614E3,3.5E1,1.98E3,3.694322E-1,-0E0,3.4E1,4E1,6.2E1,1.1678E4,4.9E1,4.5E1,2.231E3,3.8E1,7.443E3,3.562863E-1,NaN,NaN,3.9107496E-1,2.163E3,NaN,3.6E1,4.101E3,3.1E1,3.6876717E-1,NaN,9.681851E-2,-1.4466985E-1,1.977E3,NaN,2.231E3,NaN,3.9E1,NaN,NaN,NaN,3.4087262E-1,-5.5497844E-2,1.157837E-1,-2.9154438E-1,1.8872423E-1,4.7999028E-2,-6.496244E-1,2.674542E-1,2.8913498E-1,-2.4048124E-1,-1.0536594E-1,4.391372E-2,-3.1819153E-1,-0E0,-2.7963746E-1,-1.0774789E-1,2.6857004E-1,-0E0,-3.467393E-1,2.4865704E-2,-0E0,-2.286395E-1,-2.106559E-1,3.4981057E-1,-2.1749355E-2,-2.4913034E-1,-3.6314794E-1,-3.2708105E-1,1.8023817E-1,-3.7039205E-1,-2.3922701E-1,-3.4105587E-1,-8.2769796E-2,-2.629039E-1],"split_indices":[3,4,8,8,8,4,0,9,0,2,4,0,10,0,8,10,9,0,0,10,10,0,8,10,10,9,0,8,0,5,2,0,9,2,0,8,0,0,4,0,0,9,2,9,2,0,2,2,4,0,0,0,0,0,0,0,0,0,0,0,0,0,0,0,0,0,0,0,0,0,0,0,0,0,0,0,0,0,0,0,0,0,0],"split_type":[1,1,0,0,0,1,0,0,0,1,1,0,0,0,0,0,0,0,0,0,0,0,0,0,0,0,0,0,0,1,1,0,0,1,0,0,0,0,1,0,0,0,1,0,1,0,1,1,1,0,0,0,0,0,0,0,0,0,0,0,0,0,0,0,0,0,0,0,0,0,0,0,0,0,0,0,0,0,0,0,0,0,0],"sum_hessian":[4.987608E3,2.6375842E3,2.3500237E3,8.8061865E2,1.7569656E3,2.3098796E3,4.0143887E1,7.949804E2,8.563824E1,1.6868741E3,7.009144E1,5.6523785E2,1.7446418E3,1.6908972E0,3.8452988E1,7.3184595E2,6.3134476E1,8.4386505E1,1.2517333E0,7.2179584E2,9.6507825E2,6.686973E1,3.2217066E0,1.6290591E2,4.023319E2,1.416068E3,3.2857388E2,3.611921E0,3.484107E1,5.9251595E1,6.7259436E2,5.1135223E1,1.1999252E1,8.271565E1,6.390802E2,1.3478906E2,8.302892E2,5.8647358E1,8.222372E0,2.1198957E0,1.101811E0,1.311963E2,3.1709606E1,2.5180472E2,1.505272E2,1.4097434E3,6.324644E0,2.083006E2,1.20273285E2,1.907141E0,1.70478E0,1.8454885E1,4.079671E1,1.6632104E2,5.0627332E2,2.0682006E0,9.931052E0,1.693912E0,8.1021736E1,2.1129968E2,4.2778052E2,1.3286493E2,1.9241238E0,1.4583493E2,6.844543E2,5.47608E0,2.7462916E0,1.3002548E2,1.1708224E0,3.6456697E0,2.8063936E1,2.4895694E2,2.8477786E0,1.2947986E2,2.1047348E1,9.802095E2,4.2953387E2,3.8598936E0,2.4647508E0,6.2332474E1,1.4596812E2,6.48215E1,5.5451782E1],"tree_param":{"num_deleted":"0","num_feature":"12","num_nodes":"83","size_leaf_vector":"0"}},{"base_weights":[-4.0028468E-1,-5.1177107E-2,-8.503848E-1,-1.1069564E-1,1.090455E0,-8.905665E-1,6.667495E-1,1.1270226E-1,-3.712944E-1,1.1182363E0,-0E0,-5.1272696E-1,-1.011782E0,1.0499469E-1,1.0241954E0,5.7451595E-2,9.605124E-1,-4.0847287E-1,6.505055E-1,3.3955997E-1,-0E0,7.267456E-2,-9.30717E-2,-1.0406581E0,-3.4676573E-1,-1.0666165E0,-7.664833E-1,5.4952335E-1,-4.019488E-1,-0E0,3.2972646E-1,-5.1654786E-1,1.1624723E-1,3.8134998E-1,-5.5106252E-2,-3.6341304E-1,-1.1795325E0,5.0867444E-1,-1.0235252E0,-1.0625967E0,5.5755045E-2,-5.2524114E-1,1.3222692E-2,-9.134427E-1,-1.1173645E0,-9.267719E-1,-4.843371E-1,-0E0,-9.8381644E-1,-3.0451423E-1,-1.110157E-1,5.0787598E-2,-1.9643626E-1,-4.663243E-1,2.0845844E-1,-8.030659E-2,-2.0067908E-1,-3.5828224E-1,-0E0,-4.5999542E-1,-0E0,-3.2496303E-1,-2.0724664E-2,-8.7206885E-2,-2.1310617E-1,4.9441554E-2,-2.1266101E-1,-3.2847607E-1,-2.1591283E-1,-3.3646736E-1,-0E0,-0E0,-2.8535235E-1,-6.2766045E-2,-2.4197753E-1,4.1308767E-1,-9.095991E-2,-0E0,-3.5631442E-1],"categories":[0,3,4,5,6,2,4,5,6,7,8,13,1,4,0,1,2,3,4,5,6,7,8,11,13,15,2,3,5,7,11,12,17,21,24,25,30,31,0,4,5,6,7,8,11,13,1,3,4,5,7,8,0,1,0,2,3,4,0,9,11,12,15],"categories_nodes":[0,3,4,5,17,25,28,35,41,42,45,46,48],"categories_segments":[0,5,12,14,26,38,46,48,52,53,54,58,59],"categories_sizes":[5,7,2,12,12,8,2,4,1,1,4,1,4],"default_left":[1,0,0,0,1,1,0,0,0,0,0,0,0,0,0,0,0,1,0,0,0,0,0,0,0,0,0,0,1,0,0,0,0,0,0,1,0,0,0,0,0,1,0,0,0,1,1,0,1,0,0,0,0,0,0,0,0,0,0,0,0,0,0,0,0,0,0,0,0,0,0,0,0,0,0,0,0,0,0],"id":4,"left_children":[1,3,5,7,9,11,13,15,17,19,21,23,25,27,29,31,33,35,37,-1,-1,-1,-1,39,41,43,45,-1,47,-1,-1,49,51,-1,53,55,57,-1,59,61,-1,63,65,67,69,71,73,75,77,-1,-1,-1,-1,-1,-1,-1,-1,-1,-1,-1,-1,-1,-1,-1,-1,-1,-1,-1,-1,-1,-1,-1,-1,-1,-1,-1,-1,-1,-1],"loss_changes":[7.004104E2,1.6989856E2,1.18996826E2,1.3945882E2,3.6173706E0,8.543628E1,8.836113E0,5.919043E1,4.1762344E1,2.1332245E0,2.3102307E-1,3.9194656E1,1.7475952E1,1.9275703E1,2.6074066E0,4.0361885E1,2.5677963E1,3.5557404E1,6.6933014E1,0E0,0E0,0E0,0E0,3.8188553E0,2.3245972E1,7.0633545E0,1.0600754E1,0E0,4.221545E0,0E0,0E0,6.694933E0,4.4388184E1,0E0,2.0431952E1,2.8604034E1,5.290756E-1,0E0,8.358145E0,1.0640106E0,0E0,9.350639E0,1.2089908E1,8.593994E0,3.2460938E0,4.3554993E0,7.7156334E0,4.203585E0,1.5217066E0,0E0,0E0,0E0,0E0,0E0,0E0,0E0,0E0,0E0,0E0,0E0,0E0,0E0,0E0,0E0,0E0,0E0,0E0,0E0,0E0,0E0,0E0,0E0,0E0,0E0,0E0,0E0,0E0,0E0,0E0],"parents":[2147483647,0,0,1,1,2,2,3,3,4,4,5,5,6,6,7,7,8,8,9,9,10,10,11,11,12,12,13,13,14,14,15,15,16,16,17,17,18,18,23,23,24,24,25,25,26,26,28,28,31,31,32,32,34,34,35,35,36,36,38,38,39,39,41,41,42,42,43,43,44,44,45,45,46,46,47,47,48,48],"right_children":[2,4,6,8,10,12,14,16,18,20,22,24,26,28,30,32,34,36,38,-1,-1,-1,-1,40,42,44,46,-1,48,-1,-1,50,52,-1,54,56,58,-1,60,62,-1,64,66,68,70,72,74,76,78,-1,-1,-1,-1,-1,-1,-1,-1,-1,-1,-1,-1,-1,-1,-1,-1,-1,-1,-1,-1,-1,-1,-1,-1,-1,-1,-1,-1,-1,-1],"split_conditions":[NaN,5.06E3,4.687E3,NaN,NaN,NaN,8.614E3,1.741E3,1.741E3,8.1E1,1.1678E4,2.8E1,4.5E1,4.865E3,2.3E1,2.9E1,1.98E3,NaN,1.98E3,3.3955997E-1,-0E0,7.267456E-2,-9.30717E-2,1.887E3,4.9E1,NaN,3.9E1,5.4952335E-1,NaN,-0E0,3.2972646E-1,2.5E1,6.3E1,3.8134998E-1,2.205E3,NaN,3.418E3,5.0867444E-1,2.377E3,6.1E1,5.5755045E-2,NaN,NaN,3.5E1,2.231E3,NaN,NaN,5.013E3,NaN,-3.0451423E-1,-1.110157E-1,5.0787598E-2,-1.9643626E-1,-4.663243E-1,2.0845844E-1,-8.030659E-2,-2.0067908E-1,-3.5828224E-1,-0E0,-4.5999542E-1,-0E0,-3.2496303E-1,-2.0724664E-2,-8.7206885E-2,-2.1310617E-1,4.9441554E-2,-2.1266101E-1,-3.2847607E-1,-2.1591283E-1,-3.3646736E-1,-0E0,-0E0,-2.8535235E-1,-6.2766045E-2,-2.4197753E-1,4.1308767E-1,-9.095991E-2,-0E0,-3.5631442E-1],"split_indices":[3,8,8,4,4,2,8,9,9,0,8,0,10,8,0,0,9,11,9,0,0,0,0,9,10,4,0,0,5,0,0,0,0,0,9,4,8,0,9,10,0,7,1,0,9,6,7,8,2,0,0,0,0,0,0,0,0,0,0,0,0,0,0,0,0,0,0,0,0,0,0,0,0,0,0,0,0,0,0],"split_type":[1,0,0,1,1,1,0,0,0,0,0,0,0,0,0,0,0,1,0,0,0,0,0,0,0,1,0,0,1,0,0,0,0,0,0,1,0,0,0,0,0,1,1,0,0,1,1,0,1,0,0,0,0,0,0,0,0,0,0,0,0,0,0,0,0,0,0,0,0,0,0,0,0,0,0,0,0,0,0],"sum_hessian":[4.463165E3,2.5148296E3,1.9483357E3,2.391049E3,1.2378046E2,1.8987069E3,4.962873E1,1.2853486E3,1.1057004E3,1.2059931E2,3.1811397E0,4.631808E2,1.4355261E3,2.0386831E1,2.92419E1,1.2078163E3,7.753228E1,1.067826E3,3.7874454E1,1.19377365E2,1.2219493E0,2.000751E0,1.1803887E0,1.093398E2,3.53841E2,1.169923E3,2.6560315E2,5.074543E0,1.5312289E1,1.6908972E0,2.7551003E1,1.1064297E2,1.0971733E3,6.012581E1,1.740647E1,1.0100942E3,5.7731815E1,2.3685352E1,1.4189101E1,1.0821939E2,1.1204034E0,2.3841652E2,1.15424484E2,2.960507E2,8.738723E2,1.6711826E2,9.848489E1,8.394757E0,6.917531E0,2.3579563E1,8.70634E1,1.0277634E3,6.940993E1,6.248362E0,1.1158107E1,7.7160785E2,2.3848636E2,5.668633E1,1.0454857E0,9.877529E0,4.3115726E0,1.0503362E2,3.1857703E0,1.0754773E2,1.3086879E2,9.6542946E1,1.8881536E1,1.5019525E2,1.4585544E2,8.699306E2,3.9416592E0,3.6507583E0,1.634675E2,5.4802097E1,4.3682796E1,1.9022683E0,6.4924893E0,1.0925192E0,5.8250117E0],"tree_param":{"num_deleted":"0","num_feature":"12","num_nodes":"79","size_leaf_vector":"0"}},{"base_weights":[-3.2367027E-1,-3.6953714E-2,-7.498906E-1,3.0270234E-1,-1.7643236E-1,-3.5504177E-1,-9.0942305E-1,2.3764038E-1,1.0577495E0,-1.08605064E-1,-6.931167E-1,-4.1053054E-1,7.311769E-1,-9.3285376E-1,3.4607455E-1,3.032379E-1,-3.0044425E-1,1.0872566E0,2.3265494E-2,-1.3875179E-1,9.631589E-1,-5.446437E-1,-9.7286457E-1,-9.068102E-1,-2.9509854E-1,8.8585544E-1,-0E0,-1.0146062E0,-6.455117E-1,-5.0904594E-2,8.6854476E-1,4.1212323E-1,-2.6337756E-3,-7.763152E-1,-2.8980328E-3,3.307669E-1,-0E0,-0E0,8.021685E-2,-7.172811E-1,-8.417208E-2,3.288366E-1,1.9309558E-2,-9.170998E-1,-4.099787E-1,-2.9956767E-1,-0E0,-9.326804E-1,-0E0,-1.3853438E-1,-6.031897E-1,2.7898398E-1,-0E0,-1.09312996E-1,3.9170408E-1,-1.0208277E0,-0E0,-9.078791E-1,-4.3234423E-1,3.8571015E-1,-5.9804183E-1,-0E0,3.0461898E-1,1.3372542E-1,-3.6678076E-1,7.015096E-2,-5.6406282E-2,4.1863047E-2,-2.719547E-1,8.466564E-2,-1.4832231E-1,-8.577434E-2,-2.7969012E-1,-1.0534267E-1,1.1590043E-2,2.4181801E-1,-1.2332254E-1,7.0025316E-3,-3.0077434E-1,-1.5279727E-1,-0E0,-0E0,-2.858854E-1,1.2477063E-1,-6.4836375E-2,-1.9473608E-1,3.328327E-1,1.6714188E-1,-0E0,-3.220988E-1,-2.7045035E-1,1.22814976E-1,-2.5834352E-1,-2.2489913E-1,-3.264545E-1,-6.823311E-2,-2.1080345E-1,-0E0,-2.917815E-1],"categories":[0,3,4,5,6,0,1,2,3,4,5,6,7,8,11,13,15,0,2,4,5,6,7,8,11,12,13,0,1,3,4,5,6,13,0,1,2,3,4,5,6,7,8,9,10,11,12,13,14,15,16,17,18,19,21,22,23,24,25,26,27,29,30,31,33,38,1,4,0,4,5,7,9,10,1,2,5,7,2,3,4,0,2,3,9,0,3,5,6,0,1,2,3,0,0,1,2,4,5,6,7,8,9,10,0,1,2,3,4,5,6,7,8,9,10,11,12,24,37,0,1,2,3,4,6,0,1,2,3,4,5,6,7,8,9,11,12,15,0,1,2,3,4,11,0,4,5,6,12,0,4,5,6,7,0,1,2,3,4,5,6],"categories_nodes":[0,1,2,4,7,8,10,15,24,25,32,33,34,39,42,43,47,49,56,57,58,60],"categories_segments":[0,5,17,27,34,66,68,74,78,81,84,85,89,93,94,104,119,125,138,144,149,154],"categories_sizes":[5,12,10,7,32,2,6,4,3,3,1,4,4,1,10,15,6,13,6,5,5,7],"default_left":[1,1,0,0,1,0,0,0,0,0,0,0,0,0,0,0,0,0,0,0,0,0,0,0,1,1,0,0,0,0,0,0,1,0,1,0,0,0,0,1,0,0,1,1,0,0,0,1,0,1,0,0,0,0,0,0,1,0,0,0,0,0,0,0,0,0,0,0,0,0,0,0,0,0,0,0,0,0,0,0,0,0,0,0,0,0,0,0,0,0,0,0,0,0,0,0,0,0,0],"id":5,"left_children":[1,3,5,7,9,11,13,15,17,19,21,23,25,27,29,31,33,35,37,39,41,43,45,47,49,51,53,55,57,59,61,63,65,67,69,-1,-1,-1,-1,71,73,-1,75,77,79,-1,-1,81,-1,83,85,-1,-1,-1,87,89,91,93,95,-1,97,-1,-1,-1,-1,-1,-1,-1,-1,-1,-1,-1,-1,-1,-1,-1,-1,-1,-1,-1,-1,-1,-1,-1,-1,-1,-1,-1,-1,-1,-1,-1,-1,-1,-1,-1,-1,-1,-1],"loss_changes":[4.910231E2,1.1392331E2,1.00598206E2,3.302897E1,5.9079273E1,2.7835846E1,3.441504E1,2.2751896E1,5.442848E-1,4.8032097E1,6.64682E0,2.4309013E1,2.1130047E0,2.4876587E1,5.0251074E0,1.9597397E1,8.902519E0,5.0437164E-1,7.46324E-2,4.566721E1,3.962387E0,5.2307854E0,2.1076202E0,1.9708633E0,1.6764227E1,4.916315E-1,6.196686E-1,5.5041504E0,1.280529E1,6.946909E0,1.6098452E0,2.2712463E1,6.4790587E0,3.7496214E0,6.2891417E0,0E0,0E0,0E0,0E0,1.0402672E1,4.4453392E1,0E0,2.401156E0,3.611843E0,3.5971222E0,0E0,0E0,1.2866135E0,0E0,1.0244273E1,8.989624E0,0E0,0E0,0E0,9.557727E-2,3.5184937E0,1.9071939E0,1.336441E0,6.9159985E0,0E0,1.6276109E0,0E0,0E0,0E0,0E0,0E0,0E0,0E0,0E0,0E0,0E0,0E0,0E0,0E0,0E0,0E0,0E0,0E0,0E0,0E0,0E0,0E0,0E0,0E0,0E0,0E0,0E0,0E0,0E0,0E0,0E0,0E0,0E0,0E0,0E0,0E0,0E0,0E0,0E0],"parents":[2147483647,0,0,1,1,2,2,3,3,4,4,5,5,6,6,7,7,8,8,9,9,10,10,11,11,12,12,13,13,14,14,15,15,16,16,17,17,18,18,19,19,20,20,21,21,22,22,23,23,24,24,25,25,26,26,27,27,28,28,29,29,30,30,31,31,32,32,33,33,34,34,39,39,40,40,42,42,43,43,44,44,47,47,49,49,50,50,54,54,55,55,56,56,57,57,58,58,60,60],"right_children":[2,4,6,8,10,12,14,16,18,20,22,24,26,28,30,32,34,36,38,40,42,44,46,48,50,52,54,56,58,60,62,64,66,68,70,-1,-1,-1,-1,72,74,-1,76,78,80,-1,-1,82,-1,84,86,-1,-1,-1,88,90,92,94,96,-1,98,-1,-1,-1,-1,-1,-1,-1,-1,-1,-1,-1,-1,-1,-1,-1,-1,-1,-1,-1,-1,-1,-1,-1,-1,-1,-1,-1,-1,-1,-1,-1,-1,-1,-1,-1,-1,-1,-1],"split_conditions":[NaN,NaN,NaN,5.06E3,NaN,4.687E3,4.687E3,NaN,NaN,5.06E3,NaN,2.8E1,5.3E1,4.1E1,8.614E3,NaN,3.7E1,7.7E1,6.7E1,3.5E1,6.1E1,3.6E1,4.101E3,6.1E1,NaN,NaN,7.298E3,2.231E3,3.3E1,4.865E3,3.3E1,3.137E3,NaN,NaN,NaN,3.307669E-1,-0E0,-0E0,8.021685E-2,NaN,3.6E1,3.288366E-1,NaN,NaN,4.6E1,-2.9956767E-1,-0E0,NaN,-0E0,NaN,1.755E3,2.7898398E-1,-0E0,-1.09312996E-1,4.9E1,3.9E1,NaN,NaN,NaN,3.8571015E-1,NaN,-0E0,3.0461898E-1,1.3372542E-1,-3.6678076E-1,7.015096E-2,-5.6406282E-2,4.1863047E-2,-2.719547E-1,8.466564E-2,-1.4832231E-1,-8.577434E-2,-2.7969012E-1,-1.0534267E-1,1.1590043E-2,2.4181801E-1,-1.2332254E-1,7.0025316E-3,-3.0077434E-1,-1.5279727E-1,-0E0,-0E0,-2.858854E-1,1.2477063E-1,-6.4836375E-2,-1.9473608E-1,3.328327E-1,1.6714188E-1,-0E0,-3.220988E-1,-2.7045035E-1,1.22814976E-1,-2.5834352E-1,-2.2489913E-1,-3.264545E-1,-6.823311E-2,-2.1080345E-1,-0E0,-2.917815E-1],"split_indices":[3,2,4,8,2,8,8,11,4,8,4,0,10,10,8,1,0,0,0,10,0,0,8,10,5,5,8,9,0,8,10,8,2,1,6,0,0,0,0,5,0,0,4,11,10,0,0,1,0,2,9,0,0,0,0,0,2,4,4,0,4,0,0,0,0,0,0,0,0,0,0,0,0,0,0,0,0,0,0,0,0,0,0,0,0,0,0,0,0,0,0,0,0,0,0,0,0,0,0],"split_type":[1,1,1,0,1,0,0,1,1,0,1,0,0,0,0,1,0,0,0,0,0,0,0,0,1,1,0,0,0,0,0,0,1,1,1,0,0,0,0,1,0,0,1,1,0,0,0,1,0,1,0,0,0,0,0,0,1,1,1,0,1,0,0,0,0,0,0,0,0,0,0,0,0,0,0,0,0,0,0,0,0,0,0,0,0,0,0,0,0,0,0,0,0,0,0,0,0,0,0],"sum_hessian":[4.0244858E3,2.4073909E3,1.617095E3,6.987171E2,1.7086737E3,4.671498E2,1.1499452E3,6.4450494E2,5.4212177E1,1.5121084E3,1.965653E2,4.4532147E2,2.1828327E1,1.1296594E3,2.028577E1,5.76128E2,6.8376915E1,5.1768883E1,2.4432952E0,1.4716467E3,4.0461655E1,1.307473E2,6.5818016E1,8.239886E1,3.629226E2,1.75636E1,4.264726E0,8.7673663E2,2.5292278E2,1.043963E1,9.846141E0,4.272893E2,1.4883871E2,2.501275E1,4.3364162E1,5.075701E1,1.0118709E0,1.3809463E0,1.0623491E0,1.25289734E2,1.346357E3,3.453685E1,5.9248066E0,3.2747772E1,9.799953E1,6.4588104E1,1.2299051E0,8.0156815E1,2.2420433E0,2.4278911E2,1.20133514E2,1.6506104E1,1.0574967E0,1.6783307E0,2.5863955E0,8.713645E2,5.3721104E0,1.1127448E2,1.416483E2,2.5013561E0,7.9382734E0,1.0806577E0,8.765484E0,4.1927603E2,8.013263E0,6.3037373E1,8.580134E1,2.1573062E0,2.2855444E1,2.6156595E1,1.7207565E1,4.322449E1,8.206525E1,4.2675858E2,9.1959845E2,2.9166408E0,3.0081658E0,1.75386E0,3.099391E1,7.736418E1,2.0635345E1,1.957078E0,7.819973E1,2.8222443E1,2.1456667E2,1.1756449E2,2.569027E0,1.58636E0,1.0000355E0,5.981409E2,2.7322354E2,3.6179307E0,1.7541798E0,6.2221428E1,4.905305E1,8.26799E1,5.8968395E1,3.2163363E0,4.721937E0],"tree_param":{"num_deleted":"0","num_feature":"12","num_nodes":"99","size_leaf_vector":"0"}},{"base_weights":[-2.5876933E-1,-2.7172146E-2,-6.545454E-1,-6.1574973E-2,9.6511626E-1,-2.4246088E-1,-8.262614E-1,-9.828042E-2,7.472784E-1,1.0059979E0,-0E0,-8.482868E-1,-1.08971626E-1,-5.908149E-1,-9.5241684E-1,4.5137636E-2,-2.910491E-1,1.2319916E0,-3.9165378E-1,1.0259521E0,-0E0,2.8063666E-2,-7.546358E-2,-8.805578E-1,1.01575315E-1,1.9748515E-1,-2.8011516E-1,-7.8886217E-1,-3.1663907E-1,-9.958676E-1,-5.972417E-1,6.266825E-2,-5.390289E-1,-2.2564203E-1,-6.950866E-1,3.9400458E-1,7.400497E-1,-1.26719E0,3.500607E-1,-0E0,3.1509033E-1,-9.060483E-1,-0E0,-6.4240955E-2,5.397435E-1,-3.3284506E-1,3.0603874E-1,-8.1034565E-1,1.24309E-1,-5.516788E-2,-6.265184E-1,-1.0016458E0,-0E0,-8.114315E-1,-1.8642402E-1,2.6561532E-2,-2.425486E-1,-2.1488002E-1,-5.089171E-2,-2.3792583E-1,-9.3862034E-2,-5.4315146E-2,2.7839738E-1,-4.359077E-1,-0E0,3.0638155E-1,-1.5035495E-1,1.3532813E-1,-0E0,-2.8030375E-1,-0E0,-1.3012126E-1,3.955649E-2,2.532435E-1,-3.134949E-2,3.7887607E-2,-1.3039513E-1,-1.4308259E-1,-2.6814768E-1,1.1946646E-1,-9.727431E-2,-0E0,-2.0993783E-1,-3.0249858E-1,-0E0,-0E0,1.14247836E-1,-0E0,-2.551289E-1,9.4054356E-2,-1.5332073E-1],"categories":[0,3,4,5,6,0,1,2,3,4,5,6,7,8,11,13,15,1,4,0,4,5,6,7,8,11,0,1,2,3,4,5,6,11,13,0,1,2,4,5,6,7,8,9,12,13,1,3,4,5,6,13,0,1,2,6,7,0,0,1,2,3,4,5,6,7,11,15,2,4,5,6,7,9,12,3,0,1,2,3,4,5,6,7,9,10,11,12,13,0,1,2,3,4,5,8,11,15,0,1,2,3,4,5,6,7,8,9,10,11,12,13,14,15,16,17,18,19,20,21,22,23,24,25,26,27,28,37,0,1,2,3,4,5,6,7,8,11],"categories_nodes":[0,2,4,6,7,12,16,17,28,38,44,45,47,49,50,53,54],"categories_segments":[0,5,17,19,26,35,46,52,57,58,68,73,75,76,89,98,128],"categories_sizes":[5,12,2,7,9,11,6,5,1,10,5,2,1,13,9,30,10],"default_left":[1,0,1,0,1,0,0,1,0,0,0,0,0,0,0,0,1,1,0,0,0,0,0,0,0,0,0,0,1,0,0,0,0,0,0,0,0,0,1,0,0,0,0,0,1,1,0,1,0,1,1,0,0,1,1,0,0,0,0,0,0,0,0,0,0,0,0,0,0,0,0,0,0,0,0,0,0,0,0,0,0,0,0,0,0,0,0,0,0,0,0],"id":6,"left_children":[1,3,5,7,9,11,13,15,17,19,21,23,25,27,29,31,33,35,37,39,-1,-1,-1,41,-1,43,45,47,49,51,53,55,-1,57,59,-1,61,63,65,67,-1,69,-1,71,73,75,-1,77,-1,79,81,83,85,87,89,-1,-1,-1,-1,-1,-1,-1,-1,-1,-1,-1,-1,-1,-1,-1,-1,-1,-1,-1,-1,-1,-1,-1,-1,-1,-1,-1,-1,-1,-1,-1,-1,-1,-1,-1,-1],"loss_changes":[3.3634448E2,7.833469E1,9.486578E1,6.598403E1,3.1666718E0,3.1430403E1,2.6830688E1,5.963337E1,5.3972153E1,1.6906128E0,9.168446E-2,3.2597694E0,1.7365654E1,1.714116E1,7.963135E0,3.7941505E1,2.3375084E1,6.732712E-1,1.9175655E1,7.828903E-1,0E0,0E0,0E0,2.1207695E0,0E0,1.086554E1,1.3953218E1,5.3846054E0,1.0908781E1,3.7683105E0,5.162081E0,2.6723413E1,0E0,2.09138E1,3.612194E0,0E0,2.7225537E0,4.4346123E0,8.863701E0,3.018791E-1,0E0,1.0169983E0,0E0,4.9442897E0,1.0921071E1,9.9352E0,0E0,3.9290543E0,0E0,9.6046915E0,3.300455E0,3.0075684E0,1.9315168E-1,1.7741852E0,4.350974E0,0E0,0E0,0E0,0E0,0E0,0E0,0E0,0E0,0E0,0E0,0E0,0E0,0E0,0E0,0E0,0E0,0E0,0E0,0E0,0E0,0E0,0E0,0E0,0E0,0E0,0E0,0E0,0E0,0E0,0E0,0E0,0E0,0E0,0E0,0E0,0E0],"parents":[2147483647,0,0,1,1,2,2,3,3,4,4,5,5,6,6,7,7,8,8,9,9,10,10,11,11,12,12,13,13,14,14,15,15,16,16,17,17,18,18,19,19,23,23,25,25,26,26,27,27,28,28,29,29,30,30,31,31,33,33,34,34,36,36,37,37,38,38,39,39,41,41,43,43,44,44,45,45,47,47,49,49,50,50,51,51,52,52,53,53,54,54],"right_children":[2,4,6,8,10,12,14,16,18,20,22,24,26,28,30,32,34,36,38,40,-1,-1,-1,42,-1,44,46,48,50,52,54,56,-1,58,60,-1,62,64,66,68,-1,70,-1,72,74,76,-1,78,-1,80,82,84,86,88,90,-1,-1,-1,-1,-1,-1,-1,-1,-1,-1,-1,-1,-1,-1,-1,-1,-1,-1,-1,-1,-1,-1,-1,-1,-1,-1,-1,-1,-1,-1,-1,-1,-1,-1,-1,-1],"split_conditions":[NaN,5.06E3,NaN,1.741E3,NaN,2.8E1,NaN,NaN,1.98E3,8.1E1,1.1678E4,1.887E3,NaN,3.9E1,5E1,1.504E3,NaN,NaN,2.205E3,2.1E1,-0E0,2.8063666E-2,-7.546358E-2,4.687E3,1.01575315E-1,4.3E1,7.298E3,7.688E3,NaN,7.688E3,3.9E1,3.137E3,-5.390289E-1,2.9E1,4.8E1,3.9400458E-1,3.2E1,6.5E1,NaN,1.9E1,3.1509033E-1,6.1E1,-0E0,4.3E1,NaN,NaN,3.0603874E-1,NaN,1.24309E-1,NaN,NaN,2.231E3,3.6E1,NaN,NaN,2.6561532E-2,-2.425486E-1,-2.1488002E-1,-5.089171E-2,-2.3792583E-1,-9.3862034E-2,-5.4315146E-2,2.7839738E-1,-4.359077E-1,-0E0,3.0638155E-1,-1.5035495E-1,1.3532813E-1,-0E0,-2.8030375E-1,-0E0,-1.3012126E-1,3.955649E-2,2.532435E-1,-3.134949E-2,3.7887607E-2,-1.3039513E-1,-1.4308259E-1,-2.6814768E-1,1.1946646E-1,-9.727431E-2,-0E0,-2.0993783E-1,-3.0249858E-1,-0E0,-0E0,1.14247836E-1,-0E0,-2.551289E-1,9.4054356E-2,-1.5332073E-1],"split_indices":[3,8,2,9,4,0,4,2,9,0,8,9,4,0,10,9,2,1,9,10,0,0,0,8,0,0,8,8,7,8,0,8,0,0,10,0,0,0,2,10,0,10,0,10,1,2,0,1,0,2,2,9,10,11,2,0,0,0,0,0,0,0,0,0,0,0,0,0,0,0,0,0,0,0,0,0,0,0,0,0,0,0,0,0,0,0,0,0,0,0,0],"split_type":[1,0,1,0,1,0,1,1,0,0,0,0,1,0,0,0,1,1,0,0,0,0,0,0,0,0,0,0,1,0,0,0,0,0,0,0,0,0,1,0,0,0,0,0,1,1,0,1,0,1,1,0,0,1,1,0,0,0,0,0,0,0,0,0,0,0,0,0,0,0,0,0,0,0,0,0,0,0,0,0,0,0,0,0,0,0,0,0,0,0,0],"sum_hessian":[3.6768914E3,2.3211472E3,1.3557441E3,2.2443433E3,7.680403E1,4.0048428E2,9.552599E2,2.1480996E3,9.624361E1,7.381757E1,2.986455E0,7.095802E1,3.2952625E2,3.3603586E2,6.1922406E2,1.2287406E3,9.193589E2,6.812752E1,2.8116085E1,7.258025E1,1.2373271E0,1.7842249E0,1.20223E0,6.99E1,1.0580252E0,1.159888E2,2.1353745E2,1.9298697E2,1.4304887E2,5.4921924E2,7.000483E1,1.217694E3,1.1046701E1,7.9339606E2,1.2596286E2,5.671524E1,1.1412278E1,1.3513123E1,1.46029625E1,2.6165333E0,6.9963715E1,6.860563E1,1.2943723E0,6.40714E1,5.1917393E1,2.059543E2,7.5831532E0,1.9041817E2,2.5688024E0,7.9334656E1,6.3714226E1,5.4665674E2,2.5624704E0,4.4414223E1,2.5590603E1,1.1836908E3,3.400315E1,7.945547E1,7.139406E2,9.817456E1,2.7788298E1,1.0322788E0,1.0379999E1,1.2378056E1,1.1350669E0,8.821727E0,5.781235E0,1.4835404E0,1.1329929E0,6.5677925E1,2.9277017E0,2.398218E1,4.0089226E1,3.631223E1,1.5605165E1,3.5595894E1,1.703584E2,4.0529503E1,1.4988867E2,2.8163626E1,5.1171024E1,5.904689E0,5.7809536E1,5.423929E2,4.263846E0,1.2306519E0,1.3318186E0,1.5268606E0,4.2887363E1,8.862488E0,1.6728115E1],"tree_param":{"num_deleted":"0","num_feature":"12","num_nodes":"91","size_leaf_vector":"0"}},{"base_weights":[-2.0444682E-1,-1.9424397E-2,-5.6368124E-1,-1.4547423E-1,1.7751248E-1,-2.8336182E-1,-8.240763E-1,4.0182102E-1,-1.9189468E-1,2.7009213E-1,-3.078387E-1,-8.393068E-1,-1.3900025E-1,-9.1144115E-1,-5.0126904E-1,6.986663E-1,1.4672226E-1,-1.631357E-1,-1.0764716E0,-1.2833045E-1,3.7148657E-1,1.1434983E0,-4.092717E-1,-0E0,-8.803429E-1,9.017322E-2,-3.591133E-1,-9.226624E-1,3.3793342E-1,-7.682655E-1,-2.8191033E-1,4.9199024E-1,5.812169E-1,6.902419E-1,-0E0,-8.713945E-1,-1.3033976E-1,-1.1175226E0,-0E0,1.5319927E-1,-4.569443E-1,4.2126307E-1,-9.2200026E-2,4.2295295E-1,-0E0,-4.5695987E-1,6.6739523E-1,3.1135094E-1,-1.06360115E-1,-8.983716E-1,-0E0,1.6404969E-1,-5.034724E-1,-4.02171E-1,5.2569115E-1,-9.322727E-1,-0E0,1.984392E-1,-0E0,-0E0,-8.399879E-1,2.5591552E-1,-3.6185652E-1,1.9329756E-1,-0E0,2.7058956E-1,-2.3085259E-2,-7.6937914E-2,4.0191643E-2,-2.721857E-1,-0E0,-2.2457805E-2,-1.628131E-1,-0E0,-3.4319553E-1,2.828032E-1,4.8032296E-3,5.7921536E-2,-1.540601E-1,1.7457774E-1,8.366872E-2,1.5075514E-1,-9.355928E-2,-1.529054E-1,1.6320254E-1,3.200132E-1,-0E0,-0E0,2.314164E-1,-2.7364933E-1,-0E0,-1.8948418E-1,6.588612E-2,5.11665E-2,-2.3008473E-1,-7.379974E-2,-1.8192226E-1,-0E0,2.4330948E-1,-3.0196398E-1,-2.3626986E-1,1.0951885E-1,-2.1629624E-1,1.2405662E-1,-8.695174E-2,-2.605276E-1,-0E0,3.7059185E-1,-0E0,-1.467388E-1,-0E0],"categories":[0,3,4,5,6,0,2,4,5,6,7,8,13,1,2,3,5,6,7,2,5,7,0,1,2,3,4,5,6,7,9,13,15,3,5,6,7,11,12,24,31,0,1,2,3,5,6,7,8,9,10,11,12,15,0,1,3,6,0,0,1,2,3,4,1,2,3,5,6,7,8,9,10,11,12,0,1,2,5,6,7,8,9,0,1,2,3,4,5,6,7,13,0,2,3,0,1,2,3,4,5,6,7,24,37,0,1,2,3,4,5,6,9,11,15,0,2,0,1,2,3,4,5,6,7,8,9,10,11,12,13,14,15,16,17,18,19,20,21,22,23,24,25,26,27,28,29,30,0,1,2,3,4,5,6,9,10,11,13,14,15,0,4,1,4,5,6,7,8,9,10,11,13,0,1,2,4,5,7,8,9,10,11,12,13,0,1,3,2,3,4,0,1,2,3,4,11,0,1,3,4,5,6,7,8,9,10,11,12,13],"categories_nodes":[0,2,3,4,7,8,10,11,12,15,16,19,20,23,25,29,30,32,33,39,40,41,42,52,53,56,61],"categories_segments":[0,5,13,19,22,33,41,54,58,59,64,75,83,92,93,95,105,115,117,148,161,163,173,185,188,191,197],"categories_sizes":[5,8,6,3,11,8,13,4,1,5,11,8,9,1,2,10,10,2,31,13,2,10,12,3,3,6,13],"default_left":[1,0,0,0,1,0,0,1,1,0,1,1,1,0,0,1,1,0,0,0,1,0,0,1,0,1,0,0,0,1,1,0,1,0,0,0,0,0,0,1,1,1,0,0,0,0,0,0,0,0,0,0,1,1,0,0,1,0,0,0,0,0,0,0,0,0,0,0,0,0,0,0,0,0,0,0,0,0,0,0,0,0,0,0,0,0,0,0,0,0,0,0,0,0,0,0,0,0,0,0,0,0,0,0,0,0,0,0,0,0,0],"id":7,"left_children":[1,3,5,7,9,11,13,15,17,19,21,23,25,27,29,31,33,35,37,39,41,43,45,47,49,51,53,55,57,59,61,-1,63,65,67,69,71,73,-1,75,77,79,81,-1,-1,83,85,87,-1,89,-1,91,93,95,97,99,101,-1,-1,103,105,107,109,-1,-1,-1,-1,-1,-1,-1,-1,-1,-1,-1,-1,-1,-1,-1,-1,-1,-1,-1,-1,-1,-1,-1,-1,-1,-1,-1,-1,-1,-1,-1,-1,-1,-1,-1,-1,-1,-1,-1,-1,-1,-1,-1,-1,-1,-1,-1,-1],"loss_changes":[2.2545557E2,5.5735207E1,8.3147644E1,3.4669067E1,3.921794E1,4.378279E1,1.5411316E1,7.155411E0,3.099799E1,2.9952457E1,1.9613464E1,4.256813E0,2.267521E1,7.132599E0,6.534481E0,2.9771957E0,5.3094177E0,2.7531956E1,2.2435608E0,1.3920824E1,1.3905823E1,1.5987196E0,6.455799E0,5.179204E-1,2.3772964E0,9.106629E0,8.593018E0,4.075592E0,6.2815034E-1,3.7699356E0,3.2511468E0,0E0,1.7676058E0,3.0655284E0,1.6531118E0,2.5349045E0,2.6273851E1,9.1052246E-1,0E0,7.4496927E0,2.8789368E0,1.13340225E1,7.0045047E0,0E0,0E0,6.574089E0,1.8841877E0,7.386203E-1,0E0,1.8249817E0,0E0,8.123669E0,4.5636325E0,6.140953E0,6.3430786E-1,3.1377869E0,1.2827452E0,0E0,0E0,5.616604E-1,1.6250725E0,2.5002143E0,3.4661703E0,0E0,0E0,0E0,0E0,0E0,0E0,0E0,0E0,0E0,0E0,0E0,0E0,0E0,0E0,0E0,0E0,0E0,0E0,0E0,0E0,0E0,0E0,0E0,0E0,0E0,0E0,0E0,0E0,0E0,0E0,0E0,0E0,0E0,0E0,0E0,0E0,0E0,0E0,0E0,0E0,0E0,0E0,0E0,0E0,0E0,0E0,0E0,0E0],"parents":[2147483647,0,0,1,1,2,2,3,3,4,4,5,5,6,6,7,7,8,8,9,9,10,10,11,11,12,12,13,13,14,14,15,15,16,16,17,17,18,18,19,19,20,20,21,21,22,22,23,23,24,24,25,25,26,26,27,27,28,28,29,29,30,30,32,32,33,33,34,34,35,35,36,36,37,37,39,39,40,40,41,41,42,42,45,45,46,46,47,47,49,49,51,51,52,52,53,53,54,54,55,55,56,56,59,59,60,60,61,61,62,62],"right_children":[2,4,6,8,10,12,14,16,18,20,22,24,26,28,30,32,34,36,38,40,42,44,46,48,50,52,54,56,58,60,62,-1,64,66,68,70,72,74,-1,76,78,80,82,-1,-1,84,86,88,-1,90,-1,92,94,96,98,100,102,-1,-1,104,106,108,110,-1,-1,-1,-1,-1,-1,-1,-1,-1,-1,-1,-1,-1,-1,-1,-1,-1,-1,-1,-1,-1,-1,-1,-1,-1,-1,-1,-1,-1,-1,-1,-1,-1,-1,-1,-1,-1,-1,-1,-1,-1,-1,-1,-1,-1,-1,-1,-1],"split_conditions":[NaN,4.2E1,NaN,NaN,NaN,2.8E1,4.4E1,NaN,NaN,3.3E1,NaN,NaN,NaN,8.614E3,3.4E1,NaN,NaN,2.6E1,4.064E3,NaN,NaN,4.8E1,1.741E3,NaN,7.298E3,NaN,4.687E3,2.231E3,2.7828E4,NaN,NaN,4.9199024E-1,NaN,NaN,4.5E1,1.59E3,6.1E1,2.3E1,-0E0,NaN,NaN,NaN,NaN,4.2295295E-1,-0E0,3.942E3,1.98E3,4.1E1,-1.06360115E-1,1.887E3,-0E0,3.1E1,NaN,NaN,7.298E3,3.9E1,NaN,1.984392E-1,-0E0,3E1,4.687E3,NaN,5.2E1,1.9329756E-1,-0E0,2.7058956E-1,-2.3085259E-2,-7.6937914E-2,4.0191643E-2,-2.721857E-1,-0E0,-2.2457805E-2,-1.628131E-1,-0E0,-3.4319553E-1,2.828032E-1,4.8032296E-3,5.7921536E-2,-1.540601E-1,1.7457774E-1,8.366872E-2,1.5075514E-1,-9.355928E-2,-1.529054E-1,1.6320254E-1,3.200132E-1,-0E0,-0E0,2.314164E-1,-2.7364933E-1,-0E0,-1.8948418E-1,6.588612E-2,5.11665E-2,-2.3008473E-1,-7.379974E-2,-1.8192226E-1,-0E0,2.4330948E-1,-3.0196398E-1,-2.3626986E-1,1.0951885E-1,-2.1629624E-1,1.2405662E-1,-8.695174E-2,-2.605276E-1,-0E0,3.7059185E-1,-0E0,-1.467388E-1,-0E0],"split_indices":[3,10,4,1,1,0,10,2,11,0,2,1,7,8,0,5,4,0,8,4,2,0,9,7,8,5,8,9,8,11,2,0,6,11,0,9,0,0,0,2,6,4,4,0,0,8,9,10,0,9,0,10,1,5,8,0,2,0,0,0,8,4,0,0,0,0,0,0,0,0,0,0,0,0,0,0,0,0,0,0,0,0,0,0,0,0,0,0,0,0,0,0,0,0,0,0,0,0,0,0,0,0,0,0,0,0,0,0,0,0,0],"split_type":[1,0,1,1,1,0,0,1,1,0,1,1,1,0,0,1,1,0,0,1,1,0,0,1,0,1,0,0,0,1,1,0,1,1,0,0,0,0,0,1,1,1,1,0,0,0,0,0,0,0,0,0,1,1,0,0,1,0,0,0,0,1,0,0,0,0,0,0,0,0,0,0,0,0,0,0,0,0,0,0,0,0,0,0,0,0,0,0,0,0,0,0,0,0,0,0,0,0,0,0,0,0,0,0,0,0,0,0,0,0,0],"sum_hessian":[3.400795E3,2.2465178E3,1.1542772E3,1.3728806E3,8.736371E2,5.577215E2,5.965557E2,1.05656204E2,1.2672244E3,7.3541815E2,1.3821896E2,1.1354108E2,4.4418042E2,4.6705408E2,1.2950168E2,4.7020653E1,5.863555E1,1.2284171E3,3.880729E1,1.4718849E2,5.882296E2,8.38499E0,1.2983397E2,4.8458295E0,1.08695244E2,2.1538574E2,2.2879468E2,4.6368985E2,3.3642352E0,5.6352478E1,7.31492E1,4.2715874E0,4.2749065E1,1.37935E1,4.4842052E1,5.3015102E1,1.175402E3,3.780505E1,1.002239E0,7.763447E1,6.9554016E1,5.331526E2,5.5077026E1,6.320422E0,2.0645676E0,1.2521661E2,4.617355E0,3.1706781E0,1.6751513E0,1.0732199E2,1.3732548E0,1.9304651E2,2.2339243E1,2.1925514E2,9.539529E0,4.588685E2,4.8213387E0,2.3137429E0,1.0504922E0,3.8694434E0,5.2483032E1,7.847553E0,6.530164E1,3.9042767E1,3.7062993E0,1.1831733E1,1.9617672E0,1.7737528E1,2.7104523E1,5.1983086E1,1.0320154E0,1.0381536E3,1.372484E2,1.0330168E0,3.6772034E1,1.0414271E1,6.72202E1,4.155103E0,6.539891E1,2.4718182E2,2.859708E2,1.36280775E1,4.1448948E1,1.1990006E2,5.3165574E0,3.463338E0,1.1540172E0,1.4128386E0,1.7578397E0,1.0629427E2,1.027716E0,1.1427789E1,1.8161871E2,5.211571E0,1.712767E1,1.27022316E2,9.2232834E1,4.56734E0,4.9721894E0,2.9866254E2,1.6020595E2,3.1651545E0,1.6561841E0,2.7197485E0,1.1496952E0,5.1256893E1,1.22614E0,1.9752355E0,5.8723173E0,5.0227394E1,1.5074249E1],"tree_param":{"num_deleted":"0","num_feature":"12","num_nodes":"111","size_leaf_vector":"0"}},{"base_weights":[-1.5874541E-1,-8.088999E-1,-8.0474325E-2,-9.4577163E-1,-4.8141393E-1,-1.05006956E-1,9.336705E-1,-9.5986265E-1,-0E0,-3.4760788E-1,-9.4612354E-1,-1.2226862E-2,-3.5925448E-1,9.6589863E-1,-0E0,-9.7130334E-1,-0E0,-2.657194E-1,2.0514442E-1,4.1072252E-1,-4.3828693E-1,-0E0,-2.9625043E-1,1.2544659E-2,-6.971397E-1,-1.7861596E-1,-7.640281E-1,2.9253218E-1,-0E0,1.9445486E-1,-1.7834485E-1,-0E0,-9.781388E-1,-1.1720877E-1,2.4555081E-1,9.072469E-1,-1.1806093E-1,-6.1316806E-1,-4.8592094E-2,-1.303408E-2,6.909122E-1,-3.9617622E-1,-8.6316967E-1,-2.0177884E-1,1.2575074E0,-0E0,-7.918943E-1,-2.954475E-1,-0E0,3.297426E-1,-0E0,-1.9660863E-1,-0E0,-4.9301542E-2,2.6697928E-1,8.960198E-5,-4.3390107E-1,3.2657814E-1,-6.529811E-2,-3.343084E-2,-3.2580003E-1,-1.8959653E-1,-3.7308276E-1,-3.3285394E-2,-1.399762E-1,4.2399374E-1,-0E0,1.205857E-1,-1.6888697E-1,-2.567487E-1,-1.2277506E-1],"categories":[5,6,7,0,3,4,5,6,1,4,0,1,2,3,4,2,4,2,3,5,7,11,12,13,17,21,24,27,31,33,38,0,4,5,6,7,8,0,2,4,5,0,15,0,2,4,6,7,10,11,1,3,4,5,6,1,2,3,3,11,31,33,2,3,7,11,17,21,31,0,2,4,7,11,1,2,3,5,0,1,2,3,4,5,6,7,11],"categories_nodes":[4,5,6,9,10,11,12,15,19,24,26,35,41,42,43,44,45],"categories_segments":[0,3,8,10,15,17,31,37,41,43,50,55,58,62,69,74,78],"categories_sizes":[3,5,2,5,2,14,6,4,2,7,5,3,4,7,5,4,9],"default_left":[0,0,0,0,0,1,1,0,0,1,1,1,0,0,0,1,0,0,0,1,0,0,0,0,0,0,0,0,0,0,0,0,0,0,0,1,0,0,0,0,0,1,1,1,1,1,0,0,0,0,0,0,0,0,0,0,0,0,0,0,0,0,0,0,0,0,0,0,0,0,0],"id":8,"left_children":[1,3,5,7,9,11,13,15,17,19,21,23,25,27,29,31,33,-1,-1,35,37,-1,-1,39,41,43,45,-1,-1,-1,-1,-1,47,-1,-1,49,-1,51,53,55,57,59,61,63,65,67,69,-1,-1,-1,-1,-1,-1,-1,-1,-1,-1,-1,-1,-1,-1,-1,-1,-1,-1,-1,-1,-1,-1,-1,-1],"loss_changes":[1.6227097E2,1.3953827E1,7.0404205E1,3.443634E0,5.129404E0,6.5593994E1,1.4606705E0,2.9256134E0,1.9181082E0,5.6576576E0,6.6477394E-1,3.5493973E1,5.3512817E1,9.315872E-2,1.112547E0,1.089035E0,9.244041E-1,0E0,0E0,3.5354123E0,4.4023457E0,0E0,0E0,3.5011005E1,2.3895264E0,1.6130947E1,4.574127E0,0E0,0E0,0E0,0E0,0E0,6.9895935E-1,0E0,0E0,4.2853832E-1,0E0,1.8315754E0,1.9672104E0,3.785672E1,2.7362106E1,4.322587E0,2.0751038E0,1.166843E1,4.202776E-1,1.975541E0,4.1078644E0,0E0,0E0,0E0,0E0,0E0,0E0,0E0,0E0,0E0,0E0,0E0,0E0,0E0,0E0,0E0,0E0,0E0,0E0,0E0,0E0,0E0,0E0,0E0,0E0],"parents":[2147483647,0,0,1,1,2,2,3,3,4,4,5,5,6,6,7,7,8,8,9,9,10,10,11,11,12,12,13,13,14,14,15,15,16,16,19,19,20,20,23,23,24,24,25,25,26,26,32,32,35,35,37,37,38,38,39,39,40,40,41,41,42,42,43,43,44,44,45,45,46,46],"right_children":[2,4,6,8,10,12,14,16,18,20,22,24,26,28,30,32,34,-1,-1,36,38,-1,-1,40,42,44,46,-1,-1,-1,-1,-1,48,-1,-1,50,-1,52,54,56,58,60,62,64,66,68,70,-1,-1,-1,-1,-1,-1,-1,-1,-1,-1,-1,-1,-1,-1,-1,-1,-1,-1,-1,-1,-1,-1,-1,-1],"split_conditions":[2.7E1,2.5E1,7.298E3,4.386E3,NaN,NaN,NaN,1.816E3,3.3E1,NaN,NaN,NaN,NaN,8E1,1.5831E4,NaN,2.3E1,-2.657194E-1,2.0514442E-1,NaN,4.4E1,-0E0,-2.9625043E-1,1.741E3,NaN,2.352E3,NaN,2.9253218E-1,-0E0,1.9445486E-1,-1.7834485E-1,-0E0,6.7E1,-1.1720877E-1,2.4555081E-1,NaN,-1.1806093E-1,2.907E3,7.6E1,1.504E3,1.98E3,NaN,NaN,NaN,NaN,NaN,5E1,-2.954475E-1,-0E0,3.297426E-1,-0E0,-1.9660863E-1,-0E0,-4.9301542E-2,2.6697928E-1,8.960198E-5,-4.3390107E-1,3.2657814E-1,-6.529811E-2,-3.343084E-2,-3.2580003E-1,-1.8959653E-1,-3.7308276E-1,-3.3285394E-2,-1.399762E-1,4.2399374E-1,-0E0,1.205857E-1,-1.6888697E-1,-2.567487E-1,-1.2277506E-1],"split_indices":[0,0,8,8,4,3,4,9,10,5,6,11,4,0,8,3,0,0,0,2,10,0,0,9,4,9,1,0,0,0,0,0,10,0,0,4,0,8,10,9,9,11,11,2,3,2,10,0,0,0,0,0,0,0,0,0,0,0,0,0,0,0,0,0,0,0,0,0,0,0,0],"split_type":[0,0,0,0,1,1,1,0,0,1,1,1,1,0,0,1,0,0,0,1,0,0,0,0,1,0,1,0,0,0,0,0,0,0,0,1,0,0,0,0,0,1,1,1,1,1,0,0,0,0,0,0,0,0,0,0,0,0,0,0,0,0,0,0,0,0,0,0,0,0,0],"sum_hessian":[3.2062449E3,3.4314594E2,2.863099E3,2.3984843E2,1.032975E2,2.796438E3,6.666106E1,2.3659569E2,3.252741E0,8.187479E1,2.1422714E1,2.0516736E3,7.447643E2,6.3852486E1,2.8085718E0,2.3415598E2,2.4397151E0,1.2530646E0,1.9996766E0,7.566849E0,7.430794E1,1.0759703E0,2.0346743E1,1.978651E3,7.302271E1,5.1666327E2,2.2810103E2,6.2750156E1,1.1023297E0,1.7978134E0,1.0107584E0,2.1229868E0,2.3203299E2,1.372647E0,1.0670681E0,5.447261E0,2.1195884E0,4.9519325E1,2.4788614E1,1.9053337E3,7.3317245E1,2.810309E1,4.4919624E1,5.0914764E2,7.5155973E0,8.4768305E0,2.196242E2,2.2961372E2,2.4192708E0,4.0659785E0,1.3812824E0,4.7612644E1,1.9066777E0,2.3015638E1,1.772974E0,1.8870822E3,1.8251553E1,5.1761776E1,2.1555466E1,2.091826E1,7.1848297E0,2.9575846E1,1.5343779E1,3.8192596E2,1.272217E2,6.160288E0,1.3553095E0,4.5762277E0,3.9006028E0,1.8594235E2,3.3681843E1],"tree_param":{"num_deleted":"0","num_feature":"12","num_nodes":"71","size_leaf_vector":"0"}},{"base_weights":[-1.2177184E-1,-8.883645E-1,-7.104556E-2,-9.0369797E-1,-0E0,-2.3241341E-2,-4.917161E-1,-0E0,-9.188382E-1,-2.0601572E-1,1.5917489E-1,-4.185874E-2,9.1450024E-1,-3.6901113E-1,-7.5066644E-1,3.061287E-2,-6.6925E-2,-9.3020445E-1,-0E0,-4.5215893E-1,-3.9735604E-3,2.896385E-1,2.4665634E-1,-3.9617765E-1,3.4684524E-1,-8.936416E-1,-3.7163147E-1,-5.5993795E-1,-9.695889E-1,8.357661E-2,-6.016098E-1,-1.1380854E-1,1.3922192E-1,2.2416131E-1,-4.3458074E-2,-4.6181327E-1,-4.8282385E-2,6.8908477E-1,-0E0,-9.087771E-1,-0E0,3.0994254E-1,-5.934222E-1,-2.1800996E-1,-0E0,-1.1080052E-1,-2.959292E-1,1.4713131E-1,-4.0391915E-2,7.671164E-2,-2.0632452E-1,1.2912264E-1,-4.711232E-2,4.9812894E-2,-2.46909E-1,-7.153371E-2,-1.6332597E-1,7.7699655E-1,-5.5576403E-2,-1.8272066E-1,6.5393925E-2,-0E0,-2.7671552E-1,5.407658E-1,-3.2459453E-2,-0E0,-2.0333596E-1],"categories":[4,5,7,8,0,2,3,4,1,2,3,4,0,1,2,3,4,5,6,2,5,7,0,2,4,5,6,7,9,11,12,0,1,2,3,4,0,1,2,3,4,5,6,8,11,15,0,1,2,3,4,0,1,2,3,4,5,6,8,10,11,13,14,15,0,1,2,3,4,5,6,7,8,9,11,12,13,15,0,1,2,3,4,2,3,4,5,11,17,21,24,31,38,4,7,0,1,2,3,4,5,6,7,8,9,10,11,12,13,14,15,16,17,18,19,20,21,22,23,24,25,26,27,28,37,1,2,3,4,5,0,1,2,4,5],"categories_nodes":[2,3,6,7,12,17,19,26,28,29,30,31,32,35,39,41,42],"categories_segments":[0,4,8,12,19,22,31,36,46,51,64,78,83,93,95,125,130],"categories_sizes":[4,4,4,7,3,9,5,10,5,13,14,5,10,2,30,5,5],"default_left":[0,0,1,1,0,0,1,0,0,0,0,0,1,0,0,0,0,0,0,1,0,0,0,0,0,0,1,0,1,1,1,1,1,0,0,1,0,0,0,0,0,1,1,0,0,0,0,0,0,0,0,0,0,0,0,0,0,0,0,0,0,0,0,0,0,0,0],"id":9,"left_children":[1,3,5,7,9,11,13,15,17,-1,-1,19,21,23,25,-1,-1,27,-1,29,31,-1,33,35,37,39,41,43,45,47,49,51,53,-1,-1,55,57,-1,59,61,-1,63,65,-1,-1,-1,-1,-1,-1,-1,-1,-1,-1,-1,-1,-1,-1,-1,-1,-1,-1,-1,-1,-1,-1,-1,-1],"loss_changes":[1.17638695E2,2.7281952E0,5.70353E1,2.4606323E0,1.0596547E0,4.402852E1,8.091423E0,8.078923E-2,1.8848419E0,0E0,0E0,3.876036E1,4.5629883E-1,3.9253426E0,3.64357E0,0E0,0E0,1.0910187E0,0E0,1.7414299E1,3.6335186E1,0E0,1.5560846E0,3.9053078E0,5.0770197E0,8.5463715E-1,4.323464E0,2.2074094E0,2.615509E-1,4.312847E0,1.2724709E1,3.0601871E1,2.5140638E1,0E0,0E0,2.1741486E0,9.560008E0,0E0,8.2326156E-1,5.474472E-1,0E0,5.098644E0,1.0554509E0,0E0,0E0,0E0,0E0,0E0,0E0,0E0,0E0,0E0,0E0,0E0,0E0,0E0,0E0,0E0,0E0,0E0,0E0,0E0,0E0,0E0,0E0,0E0,0E0],"parents":[2147483647,0,0,1,1,2,2,3,3,4,4,5,5,6,6,7,7,8,8,11,11,12,12,13,13,14,14,17,17,19,19,20,20,22,22,23,23,24,24,25,25,26,26,27,27,28,28,29,29,30,30,31,31,32,32,35,35,36,36,38,38,39,39,41,41,42,42],"right_children":[2,4,6,8,10,12,14,16,18,-1,-1,20,22,24,26,-1,-1,28,-1,30,32,-1,34,36,38,40,42,44,46,48,50,52,54,-1,-1,56,58,-1,60,62,-1,64,66,-1,-1,-1,-1,-1,-1,-1,-1,-1,-1,-1,-1,-1,-1,-1,-1,-1,-1,-1,-1,-1,-1,-1,-1],"split_conditions":[2.5E1,4.386E3,NaN,NaN,3.3E1,7.298E3,NaN,NaN,1.816E3,-2.0601572E-1,1.5917489E-1,3.5E1,NaN,4.101E3,4.1E1,3.061287E-2,-6.6925E-2,NaN,-0E0,NaN,4.4E1,2.896385E-1,5.5E1,5.6E1,4.416E3,2.206E3,NaN,4.8E1,NaN,NaN,NaN,NaN,NaN,2.2416131E-1,-4.3458074E-2,NaN,5.8E1,6.8908477E-1,6.849E3,NaN,-0E0,NaN,NaN,-2.1800996E-1,-0E0,-1.1080052E-1,-2.959292E-1,1.4713131E-1,-4.0391915E-2,7.671164E-2,-2.0632452E-1,1.2912264E-1,-4.711232E-2,4.9812894E-2,-2.46909E-1,-7.153371E-2,-1.6332597E-1,7.7699655E-1,-5.5576403E-2,-1.8272066E-1,6.5393925E-2,-0E0,-2.7671552E-1,5.407658E-1,-3.2459453E-2,-0E0,-2.0333596E-1],"split_indices":[0,8,4,3,10,8,5,4,9,0,0,10,1,8,10,0,0,4,0,5,0,0,0,10,8,9,2,10,5,2,2,5,11,0,0,4,10,0,8,11,0,3,3,0,0,0,0,0,0,0,0,0,0,0,0,0,0,0,0,0,0,0,0,0,0,0,0],"split_type":[0,0,1,1,0,0,1,1,0,0,0,0,1,0,0,0,0,1,0,1,0,0,0,0,0,0,1,0,1,1,1,1,1,0,0,1,0,0,0,1,0,1,1,0,0,0,0,0,0,0,0,0,0,0,0,0,0,0,0,0,0,0,0,0,0,0,0],"sum_hessian":[3.0498616E3,1.8806384E2,2.8617976E3,1.8507666E2,2.9871747E0,2.571908E3,2.8988974E2,3.1344624E0,1.819422E2,1.1507145E0,1.8364602E0,2.5228865E3,4.9021587E1,1.9930826E2,9.058149E1,1.9109128E0,1.2235495E0,1.7970134E2,2.2408578E0,2.1102876E2,2.3118577E3,4.415489E1,4.866697E0,1.9336697E2,5.941287E0,6.385614E1,2.6725348E1,1.9717844E1,1.5998349E2,4.456953E1,1.6645923E2,1.312283E3,9.995747E2,3.2569306E0,1.6097664E0,1.6025757E2,3.3109394E1,1.0977621E0,4.843525E0,6.278164E1,1.0744979E0,5.4545336E0,2.1270815E1,1.5886524E1,3.8313203E0,5.986749E0,1.5399675E2,1.7159155E1,2.7410378E1,1.4138016E1,1.5232121E2,9.4873276E1,1.2174097E3,9.734799E2,2.6094776E1,4.6534447E1,1.1372312E2,1.2737873E0,3.183561E1,1.8337338E0,3.0097911E0,1.1953092E0,6.158633E1,1.7170017E0,3.737532E0,2.6681428E0,1.860267E1],"tree_param":{"num_deleted":"0","num_feature":"12","num_nodes":"67","size_leaf_vector":"0"}},{"base_weights":[-9.231933E-2,-2.6344916E-2,-5.686103E-1,6.304908E-2,-1.7139404E-1,-7.6053435E-1,-1.6862497E-1,1.1572686E-1,-2.1438392E-1,-5.1705366E-1,-1.24138586E-1,-0E0,-8.1828445E-1,2.7491203E-1,-4.0220633E-1,-1.0309547E-1,1.9295216E-1,7.985999E-2,-4.0586826E-1,-1.2756704E-1,-7.003809E-1,-7.215935E-2,-3.9292988E-1,6.175668E-1,-6.596204E-1,-5.2626586E-1,-8.907528E-1,6.8244123E-1,-2.4479687E-1,8.8704133E-1,-4.6630365E-1,-7.630664E-1,-5.6007132E-2,2.6028326E-1,-1.3138689E-1,8.333485E-1,-0E0,-4.436089E-1,6.616849E-1,2.4334797E-1,-3.3322516E-1,-8.9410955E-1,-5.3308606E-1,-3.6025167E-2,-4.464079E-1,-2.9402852E-1,-8.449943E-1,8.223446E-1,-0E0,-2.813909E-1,-0E0,-0E0,-5.792918E-1,-0E0,-9.04448E-1,1.0118253E0,-2.5457107E-3,-0E0,-2.4096937E-1,4.675027E-1,-0E0,-5.880139E-1,2.313002E-2,-2.586308E-1,-0E0,4.0383197E-2,-5.8029E-2,7.280179E-2,2.8412673E-1,1.1894664E-1,-6.253854E-2,3.099608E-1,-0E0,2.8750777E-1,-2.4548028E-2,-1.4151007E-1,1.1116321E-1,3.0420753E-1,-0E0,2.4931023E-1,-4.369445E-2,1.6030222E-1,-1.4269829E-1,-0E0,-2.7484307E-1,-4.650282E-2,-2.6740703E-1,-0E0,-1.0342403E-1,-1.5811852E-1,1.2127189E-1,-1.8728852E-1,-4.6811327E-2,-0E0,-2.767105E-1,4.0884486E-1,5.3510923E-2,1.2829003E-1,-8.1041194E-2,1.1545861E-1,-0E0,-1.8363203E-1,-0E0,1.2694538E-1,-1.9287376E-1,-1.1169186E-1,-2.774053E-1,1.2164239E-1,4.3487E-1,2.2701652E-1,-2.2101378E-1,-7.297146E-2,1.0892194E-1,-1.9272482E-1,1.495487E-1,6.1217405E-2,-1.8625103E-1],"categories":[2,3,4,0,1,2,3,4,5,6,11,13,2,5,6,7,0,1,3,4,5,0,2,3,4,7,10,11,13,2,4,5,6,7,10,11,12,0,1,3,4,5,6,13,0,1,2,4,5,6,7,8,10,0,1,2,5,6,7,8,11,15,0,1,2,4,5,6,7,8,10,0,2,3,4,0,1,5,6,7,8,13,0,1,2,3,4,0,1,0,2,3,0,7,9,10,0,1,2,0,1,2,3,4,6,1,3,4,5,6,0,1,2,3,4,7,0,1,2,3,4,5,6,0,1,6,9,11,12,1,3,0,9,0,1,2,4,0,1,3,5,0,1,2,3,4,6,11,0,4,6,0,1,2,4,1,2,3,4,5,1,2,3,4,5,0,1,2,3,4,5,6,7,8,9,10,11,12,13,14,15,24,28,37,0,1,3,5],"categories_nodes":[0,1,3,5,6,8,9,10,11,12,13,14,16,17,19,21,22,23,25,26,27,28,29,32,34,36,38,40,41,43,50,51,53,54,56,62],"categories_segments":[0,3,12,16,21,22,29,37,44,53,62,71,75,82,87,89,92,96,99,105,110,114,116,123,129,131,133,137,141,148,151,155,160,165,184,187],"categories_sizes":[3,9,4,5,1,7,8,7,9,9,9,4,7,5,2,3,4,3,6,5,4,2,7,6,2,2,4,4,7,3,4,5,5,19,3,1],"default_left":[1,1,0,1,0,1,1,0,1,0,1,0,1,0,1,0,1,1,0,1,0,1,0,1,0,0,0,1,0,0,0,0,0,0,1,0,1,0,1,0,1,1,0,1,0,0,0,0,0,0,1,1,0,1,1,0,1,0,0,0,0,0,1,0,0,0,0,0,0,0,0,0,0,0,0,0,0,0,0,0,0,0,0,0,0,0,0,0,0,0,0,0,0,0,0,0,0,0,0,0,0,0,0,0,0,0,0,0,0,0,0,0,0,0,0,0,0],"id":10,"left_children":[1,3,5,7,9,11,13,15,17,19,21,23,25,27,29,31,33,35,37,39,41,43,45,47,49,51,53,55,57,59,61,63,65,67,69,71,73,75,77,79,81,83,85,87,89,91,93,95,-1,-1,97,99,101,103,105,107,109,111,-1,-1,-1,113,115,-1,-1,-1,-1,-1,-1,-1,-1,-1,-1,-1,-1,-1,-1,-1,-1,-1,-1,-1,-1,-1,-1,-1,-1,-1,-1,-1,-1,-1,-1,-1,-1,-1,-1,-1,-1,-1,-1,-1,-1,-1,-1,-1,-1,-1,-1,-1,-1,-1,-1,-1,-1,-1,-1],"loss_changes":[9.1881676E1,3.3649475E1,2.6415886E1,2.3228317E1,1.5539598E1,1.0322174E1,1.226828E1,2.280953E1,1.4506305E1,7.4972363E0,1.174618E1,6.987665E0,3.2786255E0,8.686916E0,6.04478E0,9.974966E0,2.1904484E1,6.384887E0,6.0075417E0,3.0695264E0,1.0856094E0,9.463821E0,5.0537796E0,1.6406662E0,1.7342653E0,1.60324E0,1.2406006E0,6.178109E0,1.4618949E0,2.1262217E0,5.048828E0,8.254833E-1,8.588398E0,8.828293E0,6.6823015E0,2.6563544E0,6.2616544E0,3.5351448E0,1.5468168E0,3.4740217E0,3.26082E0,4.1002274E-2,4.964327E0,7.39711E0,4.3987274E0,4.4817305E0,1.7833042E0,1.0069361E0,0E0,0E0,2.9642117E-1,1.8395141E-1,1.0697174E0,1.2358841E0,5.4751587E-1,2.5127678E0,3.5771606E0,9.7583306E-1,0E0,0E0,0E0,3.803831E0,1.1391706E0,0E0,0E0,0E0,0E0,0E0,0E0,0E0,0E0,0E0,0E0,0E0,0E0,0E0,0E0,0E0,0E0,0E0,0E0,0E0,0E0,0E0,0E0,0E0,0E0,0E0,0E0,0E0,0E0,0E0,0E0,0E0,0E0,0E0,0E0,0E0,0E0,0E0,0E0,0E0,0E0,0E0,0E0,0E0,0E0,0E0,0E0,0E0,0E0,0E0,0E0,0E0,0E0,0E0,0E0],"parents":[2147483647,0,0,1,1,2,2,3,3,4,4,5,5,6,6,7,7,8,8,9,9,10,10,11,11,12,12,13,13,14,14,15,15,16,16,17,17,18,18,19,19,20,20,21,21,22,22,23,23,24,24,25,25,26,26,27,27,28,28,29,29,30,30,31,31,32,32,33,33,34,34,35,35,36,36,37,37,38,38,39,39,40,40,41,41,42,42,43,43,44,44,45,45,46,46,47,47,50,50,51,51,52,52,53,53,54,54,55,55,56,56,57,57,61,61,62,62],"right_children":[2,4,6,8,10,12,14,16,18,20,22,24,26,28,30,32,34,36,38,40,42,44,46,48,50,52,54,56,58,60,62,64,66,68,70,72,74,76,78,80,82,84,86,88,90,92,94,96,-1,-1,98,100,102,104,106,108,110,112,-1,-1,-1,114,116,-1,-1,-1,-1,-1,-1,-1,-1,-1,-1,-1,-1,-1,-1,-1,-1,-1,-1,-1,-1,-1,-1,-1,-1,-1,-1,-1,-1,-1,-1,-1,-1,-1,-1,-1,-1,-1,-1,-1,-1,-1,-1,-1,-1,-1,-1,-1,-1,-1,-1,-1,-1,-1,-1],"split_conditions":[NaN,NaN,4.2E1,NaN,4E1,NaN,NaN,3.4E1,NaN,NaN,NaN,NaN,NaN,NaN,NaN,2.4E1,NaN,NaN,4.386E3,NaN,4.6E1,NaN,NaN,NaN,3.6E1,NaN,NaN,NaN,NaN,NaN,5E1,4.6E1,NaN,7.298E3,NaN,5.1E1,NaN,1.887E3,NaN,4.4E1,NaN,NaN,6.2E1,NaN,5.7E1,3.7E1,2.7E1,3.1E1,-0E0,-2.813909E-1,NaN,NaN,3.411E3,NaN,NaN,4.8E1,NaN,4.3E1,-2.4096937E-1,4.675027E-1,-0E0,1.735E3,NaN,-2.586308E-1,-0E0,4.0383197E-2,-5.8029E-2,7.280179E-2,2.8412673E-1,1.1894664E-1,-6.253854E-2,3.099608E-1,-0E0,2.8750777E-1,-2.4548028E-2,-1.4151007E-1,1.1116321E-1,3.0420753E-1,-0E0,2.4931023E-1,-4.369445E-2,1.6030222E-1,-1.4269829E-1,-0E0,-2.7484307E-1,-4.650282E-2,-2.6740703E-1,-0E0,-1.0342403E-1,-1.5811852E-1,1.2127189E-1,-1.8728852E-1,-4.6811327E-2,-0E0,-2.767105E-1,4.0884486E-1,5.3510923E-2,1.2829003E-1,-8.1041194E-2,1.1545861E-1,-0E0,-1.8363203E-1,-0E0,1.2694538E-1,-1.9287376E-1,-1.1169186E-1,-2.774053E-1,1.2164239E-1,4.3487E-1,2.2701652E-1,-2.2101378E-1,-7.297146E-2,1.0892194E-1,-1.9272482E-1,1.495487E-1,6.1217405E-2,-1.8625103E-1],"split_indices":[5,2,0,1,10,3,7,0,4,4,2,4,2,4,6,0,4,5,8,5,0,6,4,6,0,1,1,5,4,4,10,10,4,8,1,0,4,9,4,0,1,2,0,3,10,0,0,0,0,0,5,3,8,3,11,0,1,10,0,0,0,9,3,0,0,0,0,0,0,0,0,0,0,0,0,0,0,0,0,0,0,0,0,0,0,0,0,0,0,0,0,0,0,0,0,0,0,0,0,0,0,0,0,0,0,0,0,0,0,0,0,0,0,0,0,0,0],"split_type":[1,1,0,1,0,1,1,0,1,1,1,1,1,1,1,0,1,1,0,1,0,1,1,1,0,1,1,1,1,1,0,0,1,0,1,0,1,0,1,0,1,1,0,1,0,0,0,0,0,0,1,1,0,1,1,0,1,0,0,0,0,0,1,0,0,0,0,0,0,0,0,0,0,0,0,0,0,0,0,0,0,0,0,0,0,0,0,0,0,0,0,0,0,0,0,0,0,0,0,0,0,0,0,0,0,0,0,0,0,0,0,0,0,0,0,0,0],"sum_hessian":[2.9429583E3,2.586749E3,3.5620926E2,1.596147E3,9.9060205E2,2.3902051E2,1.1718874E2,1.3444694E3,2.5167758E2,1.1659348E2,8.7400854E2,1.713137E1,2.2188914E2,3.8949036E1,7.823971E1,3.4733276E2,9.971366E2,9.715786E1,1.5451971E2,3.9061134E1,7.753234E1,7.3549744E2,1.3851115E2,8.679481E0,8.45189E0,4.686022E1,1.7502892E2,2.2909067E1,1.6039968E1,2.9666896E0,7.527302E1,2.1717163E1,3.256156E2,8.282743E2,1.6886229E2,1.0086146E1,8.707172E1,1.5014833E2,4.371392E0,1.2198349E1,2.6862787E1,3.3157852E1,4.4374493E1,6.7317365E2,6.2323765E1,1.1546265E2,2.3048513E1,7.321136E0,1.358345E0,6.151117E0,2.3007724E0,3.4086108E0,4.345161E1,3.743882E0,1.7128503E2,1.6455925E1,6.453144E0,1.2284277E1,3.7556908E0,1.8367984E0,1.129891E0,6.191856E1,1.3354458E1,1.8124817E1,3.5923474E0,1.3335855E2,1.9225703E2,8.0898676E2,1.9287525E1,1.9861206E1,1.4900108E2,9.049935E0,1.0362103E0,6.2282577E0,8.084346E1,1.4632774E2,3.8205817E0,3.3656597E0,1.0057322E0,5.8822722E0,6.3160768E0,2.7982342E0,2.4064552E1,1.5269091E0,3.1630943E1,2.2948517E1,2.1425974E1,6.035839E2,6.958974E1,5.8000088E1,4.3236775E0,3.189012E1,8.357253E1,1.6085979E0,2.1439915E1,3.1361718E0,4.184964E0,1.1695061E0,1.1312664E0,1.2419183E0,2.1666925E0,4.1772675E1,1.6789356E0,1.330031E0,2.4138508E0,8.085359E0,1.6319968E2,7.8570065E0,8.598917E0,2.5027444E0,3.9503994E0,8.856731E0,3.4275455E0,5.9842583E1,2.075975E0,1.1637639E1,1.7168193E0],"tree_param":{"num_deleted":"0","num_feature":"12","num_nodes":"117","size_leaf_vector":"0"}},{"base_weights":[-7.1520485E-2,-7.75451E-1,-3.8738135E-2,-3.1031257E-1,-8.467153E-1,-1.3175742E-1,9.706274E-2,1.5186776E-1,-6.318444E-1,-8.678074E-1,-0E0,-6.091354E-2,-4.069298E-1,1.553693E-1,-1.1778422E-1,1.5083863E-1,-0E0,-0E0,-2.327288E-1,-8.8020873E-1,-0E0,-7.936252E-2,5.050285E-1,-2.601354E-1,-7.099443E-1,1.8498643E-1,-3.0267626E-1,9.7414476E-1,-1.8872654E-1,-9.395332E-1,-5.429925E-1,-9.794458E-2,5.042113E-1,9.513232E-1,-1.2714587E-1,-6.2397826E-1,-1.3856682E-1,-0E0,-7.4733543E-1,-3.1050332E-2,2.323258E-1,-9.5441E-2,-8.063601E-1,1.12428E0,-0E0,3.8427836E-1,-2.6314756E-1,-0E0,-2.8484935E-1,1.5825668E-2,-2.1290301E-1,-2.2045888E-2,-4.3325603E-1,6.7095494E-1,7.743553E-3,2.9581687E-1,-0E0,-3.2383263E-1,7.571715E-2,-1.9278337E-1,-0E0,1.6219169E-1,-5.9184674E-2,1.0536573E-1,-2.0258482E-1,-2.318209E-1,-0E0,1.524356E-2,-1.9990496E-1,8.1009805E-2,-1.02612255E-2,-0E0,-3.836436E-1,-3.0215466E-1,8.090088E-2,3.705781E-1,-0E0,4.1863415E-1,5.2997213E-2,5.8835335E-2,-9.569421E-2],"categories":[0,2,3,4,5,6,7,11,12,0,4,0,4,5,1,2,5,7,0,1,2,3,4,5,6,7,8,9,10,11,0,3,6,0,5,6,7,13,0,2,3,4,5,6,7,11,12,13,14,15,16,17,19,20,21,23,24,25,26,27,28,29,30,31,32,33,0,2,3,5,6,7,8,9,10,11,12,13,15,1,3,5,6,4,5,10,15,0,2,3,4,7,9,11,13,0,2,4,5,0,1,9,11,15,0,0,1,2,3,4,5,6,7,8,9,11,12,15,0,1,2,3,4,5,6,7,11,0,5,6,0,2,5,0,2,3,4,5],"categories_nodes":[1,3,5,6,7,8,12,13,14,24,26,28,29,30,33,36,37,39,40,41,45],"categories_segments":[0,9,11,14,18,30,33,38,66,79,83,87,95,99,104,105,118,127,130,131,133],"categories_sizes":[9,2,3,4,12,3,5,28,13,4,4,8,4,5,1,13,9,3,1,2,5],"default_left":[0,0,0,1,0,1,1,1,1,0,0,0,0,0,1,0,0,0,0,0,0,0,0,0,0,0,1,0,1,1,1,0,0,1,0,0,1,1,0,0,1,1,0,0,0,1,0,0,0,0,0,0,0,0,0,0,0,0,0,0,0,0,0,0,0,0,0,0,0,0,0,0,0,0,0,0,0,0,0,0,0],"id":11,"left_children":[1,3,5,7,9,11,13,15,17,19,-1,21,23,25,27,-1,-1,-1,-1,29,-1,31,33,35,37,39,41,43,45,47,49,51,53,55,57,59,61,63,65,67,69,71,73,75,-1,77,79,-1,-1,-1,-1,-1,-1,-1,-1,-1,-1,-1,-1,-1,-1,-1,-1,-1,-1,-1,-1,-1,-1,-1,-1,-1,-1,-1,-1,-1,-1,-1,-1,-1,-1],"loss_changes":[6.476248E1,2.9895325E0,3.435125E1,3.2267551E0,2.4732895E0,3.1047285E1,1.3817019E1,4.306061E-1,1.2820778E0,1.3676071E0,0E0,1.3027971E1,1.3624184E1,1.16690235E1,1.7119423E1,0E0,0E0,0E0,0E0,5.901642E-1,0E0,1.3144028E1,1.1818246E1,9.112209E0,2.3590431E0,8.568285E0,4.3920565E0,2.83282E0,9.170774E0,6.4668274E-1,2.4465404E0,3.8411507E1,2.8317883E1,5.693226E-1,6.3201838E0,7.944164E-1,6.412221E0,1.6084013E0,2.0142326E0,8.065725E0,7.018299E0,4.9329934E0,3.6282501E0,1.593257E0,0E0,3.3619988E0,5.107561E0,0E0,0E0,0E0,0E0,0E0,0E0,0E0,0E0,0E0,0E0,0E0,0E0,0E0,0E0,0E0,0E0,0E0,0E0,0E0,0E0,0E0,0E0,0E0,0E0,0E0,0E0,0E0,0E0,0E0,0E0,0E0,0E0,0E0,0E0],"parents":[2147483647,0,0,1,1,2,2,3,3,4,4,5,5,6,6,7,7,8,8,9,9,11,11,12,12,13,13,14,14,19,19,21,21,22,22,23,23,24,24,25,25,26,26,27,27,28,28,29,29,30,30,31,31,32,32,33,33,34,34,35,35,36,36,37,37,38,38,39,39,40,40,41,41,42,42,43,43,45,45,46,46],"right_children":[2,4,6,8,10,12,14,16,18,20,-1,22,24,26,28,-1,-1,-1,-1,30,-1,32,34,36,38,40,42,44,46,48,50,52,54,56,58,60,62,64,66,68,70,72,74,76,-1,78,80,-1,-1,-1,-1,-1,-1,-1,-1,-1,-1,-1,-1,-1,-1,-1,-1,-1,-1,-1,-1,-1,-1,-1,-1,-1,-1,-1,-1,-1,-1,-1,-1,-1,-1],"split_conditions":[2.5E1,NaN,4.1E1,NaN,4.386E3,NaN,NaN,NaN,NaN,2.206E3,-0E0,1.816E3,NaN,NaN,NaN,1.5083863E-1,-0E0,-0E0,-2.327288E-1,4.5E1,-0E0,4.101E3,1.98E3,3.3E1,NaN,3.2E1,NaN,6.1E1,NaN,NaN,NaN,3.137E3,4.416E3,NaN,2.174E3,4.687E3,NaN,NaN,4.687E3,NaN,NaN,NaN,2.13E2,6.8E1,-0E0,NaN,3.2E1,-0E0,-2.8484935E-1,1.5825668E-2,-2.1290301E-1,-2.2045888E-2,-4.3325603E-1,6.7095494E-1,7.743553E-3,2.9581687E-1,-0E0,-3.2383263E-1,7.571715E-2,-1.9278337E-1,-0E0,1.6219169E-1,-5.9184674E-2,1.0536573E-1,-2.0258482E-1,-2.318209E-1,-0E0,1.524356E-2,-1.9990496E-1,8.1009805E-2,-1.02612255E-2,-0E0,-3.836436E-1,-3.0215466E-1,8.090088E-2,3.705781E-1,-0E0,4.1863415E-1,5.2997213E-2,5.8835335E-2,-9.569421E-2],"split_indices":[0,4,10,3,8,3,1,2,1,9,0,9,4,11,2,0,0,0,0,10,0,8,9,0,1,0,2,0,4,3,2,8,8,1,9,8,2,2,8,4,7,5,9,10,0,5,0,0,0,0,0,0,0,0,0,0,0,0,0,0,0,0,0,0,0,0,0,0,0,0,0,0,0,0,0,0,0,0,0,0,0],"split_type":[0,1,0,1,0,1,1,1,1,0,0,0,1,1,1,0,0,0,0,0,0,0,0,0,1,0,1,0,1,1,1,0,0,1,0,0,1,1,0,1,1,1,0,0,0,1,0,0,0,0,0,0,0,0,0,0,0,0,0,0,0,0,0,0,0,0,0,0,0,0,0,0,0,0,0,0,0,0,0,0,0],"sum_hessian":[2.8417085E3,1.25093346E2,2.716615E3,1.848367E1,1.0660968E2,1.616635E3,1.09998E3,6.307275E0,1.21763935E1,1.0477454E2,1.8351364E0,1.2885327E3,3.2810226E2,8.688424E2,2.3113763E2,2.278752E0,4.0285225E0,1.9684358E0,1.0207958E1,1.03608154E2,1.1663846E0,1.2495656E3,3.896726E1,2.2324982E2,1.0485244E2,8.1812573E2,5.0716652E1,1.3240882E1,2.1789676E2,8.558607E1,1.8022095E1,1.2126656E3,3.6899918E1,2.3768972E1,1.5198284E1,5.385157E1,1.6939824E2,6.005779E0,9.8846664E1,1.4325352E2,6.748722E2,3.7339214E1,1.337744E1,1.2181801E1,1.0590811E0,2.3502459E1,1.9439429E2,1.0696576E0,8.45164E1,2.6284394E0,1.5393655E1,1.1917567E3,2.0908825E1,7.532848E0,2.936707E1,2.2709518E1,1.0594542E0,5.0819464E0,1.0116338E1,5.2697674E1,1.1538945E0,1.2123639E1,1.572746E2,3.3977685E0,2.60801E0,9.582825E1,3.0184147E0,1.255071E2,1.7746414E1,5.94516E2,8.035623E1,3.4114777E1,3.2244372E0,1.2056625E1,1.3208146E0,1.1135377E1,1.0464238E0,3.1831605E0,2.0319298E1,1.9129616E1,1.7526468E2],"tree_param":{"num_deleted":"0","num_feature":"12","num_nodes":"81","size_leaf_vector":"0"}},{"base_weights":[-5.418348E-2,-8.1480753E-1,-3.170037E-2,-8.417152E-1,-0E0,-4.383661E-2,7.8815E-1,-8.6553156E-1,-0E0,1.7727498E-2,-1.7877004E-1,8.976894E-1,1.1486909E-1,-0E0,-8.9536715E-1,3.6102846E-2,-5.385284E-1,-9.241686E-2,-4.9204776E-1,-0E0,2.7513328E-1,6.3966995E-1,-4.4853464E-1,-1.5899928E-1,5.072553E-2,-0E0,-9.072046E-1,2.272975E-2,5.8823436E-1,-4.0982118E-1,-7.187537E-2,7.0983446E-1,-1.09353974E-1,-6.3008916E-1,-1.9364323E-1,2.3329674E-1,-0E0,-5.150458E-1,-0E0,-2.8922543E-1,-1.2704253E-1,1.0932134E-2,-4.271833E-1,1.9286503E-1,-2.678647E-1,3.158738E-1,-4.0965084E-2,3.808799E-2,-4.657039E-2,-0E0,-1.990229E-1,-1.4993687E-3,-1.5092415E-1],"categories":[0,4,5,6,7,8,13,0,1,2,3,4,1,2,3,4,0,1,2,4,0,1,2,3,4,5,6,7,0,1,2,3,4,5,6,7,8,9,11,12,13,0,2,3,5,6,7,9,11,12,13,14,15,16,17,18,19,21,22,23,24,25,26,27,28,29,30,31,32,33,34,35,36,37,38,0,1,2,3,4,5,6,7,8,0,1,3,5,6,4,5,6,8],"categories_nodes":[5,7,10,12,13,14,17,31,32,33,34],"categories_segments":[0,7,12,16,20,28,41,75,84,85,89],"categories_sizes":[7,5,4,4,8,13,34,9,1,4,4],"default_left":[0,0,0,0,0,0,0,1,0,0,1,0,1,1,0,0,0,0,0,0,0,0,0,0,0,0,0,0,0,0,0,1,1,0,0,0,0,0,0,0,0,0,0,0,0,0,0,0,0,0,0,0,0],"id":12,"left_children":[1,3,5,7,-1,9,11,13,-1,15,17,19,21,23,25,27,29,31,33,-1,-1,35,37,-1,-1,-1,39,41,-1,-1,43,45,47,49,51,-1,-1,-1,-1,-1,-1,-1,-1,-1,-1,-1,-1,-1,-1,-1,-1,-1,-1],"loss_changes":[4.642814E1,2.494709E0,2.5984268E1,1.8301926E0,0E0,2.2160894E1,1.7887554E0,1.4281273E0,0E0,1.8034096E1,2.1999826E1,2.5229836E-1,2.140352E0,4.8548812E-1,5.918579E-1,4.3246193E1,2.0284882E1,8.32592E0,6.5039406E0,0E0,0E0,2.281748E-1,2.4952374E0,0E0,0E0,0E0,5.5778503E-1,3.3237133E1,0E0,0E0,2.181054E1,4.505949E0,7.0169587E0,2.0466423E0,2.9100173E0,0E0,0E0,0E0,0E0,0E0,0E0,0E0,0E0,0E0,0E0,0E0,0E0,0E0,0E0,0E0,0E0,0E0,0E0],"parents":[2147483647,0,0,1,1,2,2,3,3,5,5,6,6,7,7,9,9,10,10,11,11,12,12,13,13,14,14,15,15,16,16,17,17,18,18,21,21,22,22,26,26,27,27,30,30,31,31,32,32,33,33,34,34],"right_children":[2,4,6,8,-1,10,12,14,-1,16,18,20,22,24,26,28,30,32,34,-1,-1,36,38,-1,-1,-1,40,42,-1,-1,44,46,48,50,52,-1,-1,-1,-1,-1,-1,-1,-1,-1,-1,-1,-1,-1,-1,-1,-1,-1,-1],"split_conditions":[2.4E1,2.206E3,7.298E3,4.65E3,-0E0,NaN,6.1E1,NaN,-0E0,3.137E3,NaN,2.6E1,NaN,NaN,NaN,3.103E3,4.386E3,NaN,4.4E1,-0E0,2.7513328E-1,7.3E1,6.4E1,-1.5899928E-1,5.072553E-2,-0E0,4.8E1,1.14E2,5.8823436E-1,-4.0982118E-1,5.013E3,NaN,NaN,NaN,NaN,2.3329674E-1,-0E0,-5.150458E-1,-0E0,-2.8922543E-1,-1.2704253E-1,1.0932134E-2,-4.271833E-1,1.9286503E-1,-2.678647E-1,3.158738E-1,-4.0965084E-2,3.808799E-2,-4.657039E-2,-0E0,-1.990229E-1,-1.4993687E-3,-1.5092415E-1],"split_indices":[0,9,8,8,0,4,0,5,0,8,5,10,4,4,4,8,8,11,10,0,0,0,0,0,0,0,10,8,0,0,8,2,5,1,4,0,0,0,0,0,0,0,0,0,0,0,0,0,0,0,0,0,0],"split_type":[0,0,0,0,0,1,0,1,0,0,1,0,1,1,1,0,0,1,0,0,0,0,0,0,0,0,0,0,0,0,0,1,1,1,1,0,0,0,0,0,0,0,0,0,0,0,0,0,0,0,0,0,0],"sum_hessian":[2.764406E3,7.80895E1,2.6863167E3,7.66978E1,1.3916999E0,2.648333E3,3.7983517E1,7.497802E1,1.7197826E0,1.813502E3,8.348311E2,3.1391083E1,6.592435E0,3.132188E0,7.184583E1,1.7572507E3,5.625125E1,6.5694116E2,1.7788995E2,1.0154778E0,3.0375607E1,4.3320923E0,2.260343E0,1.569273E0,1.5629152E0,1.1435745E0,7.0702255E1,1.7456411E3,1.1609537E1,1.9510056E1,3.67412E1,1.2361855E1,6.4457935E2,1.19334755E2,5.855521E1,3.3084333E0,1.0236588E0,1.0008525E0,1.2594906E0,6.141358E1,9.288674E0,1.7299371E3,1.5704052E1,1.8990381E1,1.7750816E1,9.637027E0,2.724828E0,1.012554E2,5.433239E2,7.036144E0,1.1229861E2,3.838553E1,2.016968E1],"tree_param":{"num_deleted":"0","num_feature":"12","num_nodes":"53","size_leaf_vector":"0"}},{"base_weights":[-4.0709067E-2,-1.5350293E-2,-5.685133E-1,-2.7869537E-1,1.4961828E-2,-1.9578526E-2,-7.8192055E-1,2.9065317E-2,-3.807645E-1,2.5299022E-1,-1.5402074E-2,1.3813083E-1,-4.6596575E-1,-0E0,-8.184361E-1,3.3813423E-1,-1.6539119E-1,-6.763206E-1,-2.5098142E-1,5.38708E-1,1.4515427E-1,-4.769877E-3,-5.216675E-1,3.6158287E-3,1.0740846E0,-0E0,-2.540605E-1,-1.6391286E-1,1.2430824E-1,-8.4091634E-1,-0E0,9.2264104E-1,1.00839026E-1,1.7666613E-1,-4.7685134E-1,-0E0,-7.4212164E-1,-2.3415377E-2,-4.3965805E-1,-2.5361136E-1,6.256147E-1,2.2258487E-1,-1.9360702E-1,2.4537206E-2,-2.0017862E-1,9.1430105E-2,-6.949013E-1,-6.0292322E-2,5.0402856E-1,5.1566243E-1,-0E0,-1.6024089E-1,5.714812E-1,-0E0,-6.627824E-2,-8.5793346E-1,-0E0,3.4306616E-1,-0E0,-1.6031182E-1,1.282741E-1,-4.5124937E-2,1.5151855E-1,9.276576E-2,-1.7980506E-1,2.7673942E-1,-5.7916593E-2,-2.3275174E-1,-0E0,5.3626066E-3,-2.4820195E-1,-0E0,-1.9667947E-1,1.9919735E-1,-6.597004E-2,8.640749E-2,-6.875345E-2,-3.0730426E-1,-0E0,1.3987807E-2,-8.30267E-2,-6.746249E-2,1.5048534E-1,2.0897393E-1,-5.6549285E-2,-1.22794986E-1,-2.8834337E-1,-0E0,-1.857981E-1,-0E0,4.1723087E-1,3.589704E-1,-0E0,-0E0,-2.6310354E-1],"categories":[2,3,4,5,6,0,1,4,0,1,2,3,4,5,6,7,8,9,11,13,15,0,1,4,5,6,7,8,0,1,2,3,4,5,6,7,8,9,11,15,0,1,2,3,4,5,6,10,11,13,14,15,1,2,4,5,6,7,8,9,10,11,12,13,2,3,5,7,12,24,31,38,0,1,2,3,4,5,6,7,8,9,10,11,12,13,14,15,16,17,18,0,1,2,3,4,5,6,7,8,11,0,1,2,4,5,6,8,9,10,11,13,1,2,4,5,6,7,8,9,10,11,12,13,0,1,2,3,4,5,6,7,9,10,11,12,15,0,2,4,6,7,9,10,13,1,5,6,0,3,0,1,2,3,4,5,6,7,8,9,10,11,12,13,14,15,16,17,18,19,20,21,22,23,24,25,26,27,28,29,30,31,32,33,34,35,36,38,39,2,4,0,1,2,3,4,5,6,7,8,10,11,12,0,1,2,3,4,5,6,7,8,9,10,11,12,13,14,15,16,17,18,19,20,21,22,23,24,25,26,27,28,29,30,31,32,33,34,35,36,38,39,5,7,8,9,11,15,0,1,2,3,4,5,6,7,8,9,11,12,13,14,15,16,18,19,20,21,22,23,24,25,26,27,28,29,30,31,32,33,0,1,2,4,5,6,0,1,2,3,4,5,6,7,0,2,9,11,1,2,3,4,5,6,7,8,9,10,11,12,13,0,1,2,3,4,5,6,7,8,9,11,12,13],"categories_nodes":[0,2,3,4,5,6,7,9,10,11,12,15,16,17,18,20,21,22,31,34,35,37,38,41,43,45,46,52,55],"categories_segments":[0,2,5,8,21,28,40,52,64,72,91,101,112,124,137,145,146,148,150,189,191,203,242,248,280,286,294,298,311],"categories_sizes":[2,3,3,13,7,12,12,12,8,19,10,11,12,13,8,1,2,2,39,2,12,39,6,32,6,8,4,13,13],"default_left":[1,0,1,1,1,0,1,1,0,0,1,1,1,0,0,0,0,1,1,0,1,1,0,0,0,0,0,0,0,0,0,0,0,0,1,0,0,0,1,0,0,0,0,1,0,1,0,0,0,0,0,0,0,0,0,0,0,0,0,0,0,0,0,0,0,0,0,0,0,0,0,0,0,0,0,0,0,0,0,0,0,0,0,0,0,0,0,0,0,0,0,0,0,0,0],"id":13,"left_children":[1,3,5,7,9,11,13,15,17,19,21,23,25,27,29,31,33,35,37,39,41,43,45,47,49,51,-1,53,-1,55,-1,57,59,61,63,65,67,69,71,-1,73,75,77,79,81,83,85,87,89,-1,-1,-1,91,-1,-1,93,-1,-1,-1,-1,-1,-1,-1,-1,-1,-1,-1,-1,-1,-1,-1,-1,-1,-1,-1,-1,-1,-1,-1,-1,-1,-1,-1,-1,-1,-1,-1,-1,-1,-1,-1,-1,-1,-1,-1],"loss_changes":[3.564776E1,2.0896233E1,1.3524292E1,8.839628E0,1.6965536E1,2.8301826E0,2.5760498E0,4.070577E0,6.9495544E0,7.498543E0,1.0502339E1,2.0206974E0,2.5310752E0,2.8317842E-1,2.0143661E0,2.7259417E0,4.329725E0,3.3412113E0,5.76455E0,8.227543E0,5.1529408E0,1.167927E1,4.8741713E0,1.1617517E0,4.8378038E-1,1.2761123E0,0E0,3.4528896E-3,0E0,1.0643921E0,0E0,1.515275E0,4.1362925E0,2.126503E0,2.3437676E0,1.3858206E0,2.1158123E0,3.071622E0,7.7718973E0,0E0,2.6102333E0,4.830488E0,5.031931E0,1.1365172E1,4.340852E0,1.793279E0,1.1100569E0,1.0509646E0,2.3787823E0,0E0,0E0,0E0,9.854435E-1,0E0,0E0,6.887245E-1,0E0,0E0,0E0,0E0,0E0,0E0,0E0,0E0,0E0,0E0,0E0,0E0,0E0,0E0,0E0,0E0,0E0,0E0,0E0,0E0,0E0,0E0,0E0,0E0,0E0,0E0,0E0,0E0,0E0,0E0,0E0,0E0,0E0,0E0,0E0,0E0,0E0,0E0,0E0],"parents":[2147483647,0,0,1,1,2,2,3,3,4,4,5,5,6,6,7,7,8,8,9,9,10,10,11,11,12,12,13,13,14,14,15,15,16,16,17,17,18,18,19,19,20,20,21,21,22,22,23,23,24,24,25,25,27,27,29,29,31,31,32,32,33,33,34,34,35,35,36,36,37,37,38,38,40,40,41,41,42,42,43,43,44,44,45,45,46,46,47,47,48,48,52,52,55,55],"right_children":[2,4,6,8,10,12,14,16,18,20,22,24,26,28,30,32,34,36,38,40,42,44,46,48,50,52,-1,54,-1,56,-1,58,60,62,64,66,68,70,72,-1,74,76,78,80,82,84,86,88,90,-1,-1,-1,92,-1,-1,94,-1,-1,-1,-1,-1,-1,-1,-1,-1,-1,-1,-1,-1,-1,-1,-1,-1,-1,-1,-1,-1,-1,-1,-1,-1,-1,-1,-1,-1,-1,-1,-1,-1,-1,-1,-1,-1,-1,-1],"split_conditions":[NaN,3.6E1,NaN,NaN,NaN,NaN,NaN,NaN,4.1E1,NaN,NaN,NaN,NaN,4.1E1,2.206E3,NaN,NaN,NaN,NaN,3E1,NaN,NaN,NaN,4.8E1,3.3E1,3.9E1,-2.540605E-1,3.1E1,1.2430824E-1,4.687E3,-0E0,NaN,3.2E1,4E1,NaN,NaN,6.53E2,NaN,NaN,-2.5361136E-1,7E1,NaN,3.5E1,NaN,1.887E3,NaN,NaN,5.1E1,4.1E1,5.1566243E-1,-0E0,-1.6024089E-1,NaN,-0E0,-6.627824E-2,NaN,-0E0,3.4306616E-1,-0E0,-1.6031182E-1,1.282741E-1,-4.5124937E-2,1.5151855E-1,9.276576E-2,-1.7980506E-1,2.7673942E-1,-5.7916593E-2,-2.3275174E-1,-0E0,5.3626066E-3,-2.4820195E-1,-0E0,-1.9667947E-1,1.9919735E-1,-6.597004E-2,8.640749E-2,-6.875345E-2,-3.0730426E-1,-0E0,1.3987807E-2,-8.30267E-2,-6.746249E-2,1.5048534E-1,2.0897393E-1,-5.6549285E-2,-1.22794986E-1,-2.8834337E-1,-0E0,-1.857981E-1,-0E0,4.1723087E-1,3.589704E-1,-0E0,-0E0,-2.6310354E-1],"split_indices":[5,10,3,5,2,4,2,2,0,4,11,11,2,10,9,4,4,2,4,0,1,1,1,0,0,0,0,0,0,8,0,11,0,0,6,4,9,11,2,0,0,11,0,2,9,4,4,10,10,0,0,0,4,0,0,4,0,0,0,0,0,0,0,0,0,0,0,0,0,0,0,0,0,0,0,0,0,0,0,0,0,0,0,0,0,0,0,0,0,0,0,0,0,0,0],"split_type":[1,0,1,1,1,1,1,1,0,1,1,1,1,0,0,1,1,1,1,0,1,1,1,0,0,0,0,0,0,0,0,1,0,0,1,1,0,1,1,0,0,1,0,1,0,1,1,0,0,0,0,0,1,0,0,1,0,0,0,0,0,0,0,0,0,0,0,0,0,0,0,0,0,0,0,0,0,0,0,0,0,0,0,0,0,0,0,0,0,0,0,0,0,0,0],"sum_hessian":[2.7069905E3,2.584701E3,1.22289375E2,2.7020544E2,2.3144956E3,3.5544994E1,8.6744385E1,6.485531E1,2.0535013E2,2.6557065E2,2.048925E3,2.4610023E1,1.093497E1,3.721973E0,8.302241E1,2.7032469E1,3.7822834E1,6.0307102E1,1.4504303E2,7.022691E1,1.9534373E2,2.0087147E3,4.021023E1,2.2451702E1,2.1583228E0,4.0952926E0,6.8396773E0,2.457167E0,1.2648059E0,8.149147E1,1.5309391E0,6.5887837E0,2.0443686E1,1.649582E1,2.1327017E1,4.1535645E0,5.6153538E1,6.814829E1,7.689474E1,3.4692314E0,6.675768E1,1.6140366E2,3.394008E1,1.7422913E3,2.6642346E2,7.5868406E0,3.262339E1,1.8137053E1,4.3146496E0,1.0065039E0,1.1518189E0,1.4864074E0,2.6088853E0,1.033849E0,1.423318E0,7.973685E1,1.7546213E0,5.447734E0,1.1410497E0,5.9044423E0,1.4539244E1,6.738829E0,9.75699E0,1.7748057E0,1.955221E1,1.5129162E0,2.6406484E0,5.489388E1,1.259659E0,6.363596E1,4.5123334E0,2.4230453E1,5.2664284E1,6.4990585E1,1.7670969E0,1.4291524E2,1.8488419E1,6.0080085E0,2.793207E1,1.6263751E3,1.15916115E2,2.5874316E2,7.6802936E0,3.5293715E0,4.0574694E0,1.7552135E1,1.5071257E1,1.5225177E1,2.9118748E0,2.5181317E0,1.7965178E0,1.283359E0,1.3255262E0,2.5359817E0,7.720087E1],"tree_param":{"num_deleted":"0","num_feature":"12","num_nodes":"95","size_leaf_vector":"0"}},{"base_weights":[-3.1278014E-2,6.4989007E-3,-2.8332296E-1,-2.8021783E-3,5.881293E-1,-6.536189E-2,-5.320906E-1,3.9658886E-3,-4.286258E-1,7.514217E-1,-1.8146455E-2,3.2777674E-2,-3.660847E-1,-6.8009895E-1,-2.1486278E-1,-4.7753747E-3,9.99486E-1,9.490836E-1,5.981326E-2,-5.272657E-1,3.442791E-1,9.323194E-2,-6.2914354E-1,-6.034122E-1,1.7599729E-1,-2.691615E-1,-7.833988E-1,2.5495675E-1,-2.6628718E-1,8.634096E-3,-3.7582377E-1,1.2228533E0,-2.321803E-2,2.9972827E-1,-0E0,2.5910476E-1,-7.659734E-2,-0E0,-2.2295296E-1,1.444319E-1,-0E0,-1.1861838E-1,2.7337915E-1,-0E0,-3.797637E-1,-0E0,-7.1006733E-1,8.776074E-1,-2.6621835E-2,4.4048615E-3,-5.630119E-1,-8.5794204E-1,-1.9861172E-1,4.3518897E-2,-3.859146E-1,-1.0124479E-3,5.6696963E-1,4.2039806E-1,-0E0,-2.2498201E-1,6.936716E-3,1.029273E-1,-1.211711E-1,-2.5951323E-1,-3.4612014E-3,2.3971854E-1,-0E0,2.0215541E-2,-2.011262E-1,9.1532655E-2,-1.8484703E-1,-0E0,-2.2520223E-1,-0E0,4.929482E-1,4.0615205E-2,-2.3319986E-1,2.094381E-1,-2.632049E-2,-0E0,-1.8933171E-1,-2.6240784E-1,-0E0,4.8829198E-2,-1.6638757E-1,1.3832562E-1,-1.5393549E-1,3.7716772E-2,-1.5458706E-1],"categories":[4,5,0,1,2,4,6,8,11,15,0,1,3,1,2,5,6,0,2,3,4,5,6,7,11,0,2,3,4,1,1,2,3,4,0,1,2,4,5,6,7,8,9,10,0,1,2,9,0,1,2,3,4,5,7,9,12,0,1,5,0,1,2,3,4,5,6,8,11,3,1,2,4,0,1,2,3,4,5,6,7,8,9,11,13,15,6,4,0,2,3,4,6,0,1,2,3,4,0,1,2,3,4,5,6,11,4],"categories_nodes":[0,2,4,5,13,14,16,17,18,19,23,24,25,28,31,42,45,46,49,50,52,54],"categories_segments":[0,2,10,13,17,25,29,30,34,44,48,57,60,69,70,73,86,87,88,93,98,106],"categories_sizes":[2,8,3,4,8,4,1,4,10,4,9,3,9,1,3,13,1,1,5,5,8,1],"default_left":[1,0,1,0,1,0,0,0,0,0,0,0,0,0,1,0,1,1,0,1,0,0,0,1,1,1,0,0,0,0,0,1,0,0,0,0,0,0,0,0,0,0,1,0,0,1,1,0,0,1,1,0,1,0,1,0,0,0,0,0,0,0,0,0,0,0,0,0,0,0,0,0,0,0,0,0,0,0,0,0,0,0,0,0,0,0,0,0,0],"id":14,"left_children":[1,3,5,7,9,11,13,15,-1,17,19,21,23,25,27,29,31,33,35,37,39,41,43,45,47,49,51,-1,53,55,-1,57,59,-1,-1,-1,61,-1,-1,-1,-1,63,65,67,-1,69,71,73,75,77,79,81,83,85,87,-1,-1,-1,-1,-1,-1,-1,-1,-1,-1,-1,-1,-1,-1,-1,-1,-1,-1,-1,-1,-1,-1,-1,-1,-1,-1,-1,-1,-1,-1,-1,-1,-1,-1],"loss_changes":[2.5572515E1,1.3065489E1,1.8365938E1,2.3322313E1,4.4955893E0,5.8980656E0,6.673027E0,2.064005E1,0E0,3.2615833E0,1.4311265E0,5.0524535E0,6.718524E0,3.5216637E0,2.3417475E0,3.8677685E1,5.915926E0,6.65205E-1,1.6718012E0,2.7213967E-1,8.160332E-2,5.091322E0,3.0029054E0,2.0612993E0,2.7853575E0,2.4550056E0,2.6123886E0,0E0,2.2644808E0,5.1867188E1,0E0,2.582178E0,8.2442516E-1,0E0,0E0,0E0,8.622231E-1,0E0,0E0,0E0,0E0,3.670805E0,1.05803175E1,8.014904E-1,0E0,1.1669693E0,8.065033E-1,4.320492E0,1.7915056E0,1.2786462E0,6.1339664E-1,8.617172E-1,1.8112271E0,2.7647426E0,3.0203362E0,0E0,0E0,0E0,0E0,0E0,0E0,0E0,0E0,0E0,0E0,0E0,0E0,0E0,0E0,0E0,0E0,0E0,0E0,0E0,0E0,0E0,0E0,0E0,0E0,0E0,0E0,0E0,0E0,0E0,0E0,0E0,0E0,0E0,0E0],"parents":[2147483647,0,0,1,1,2,2,3,3,4,4,5,5,6,6,7,7,9,9,10,10,11,11,12,12,13,13,14,14,15,15,16,16,17,17,18,18,19,19,20,20,21,21,22,22,23,23,24,24,25,25,26,26,28,28,29,29,31,31,32,32,36,36,41,41,42,42,43,43,45,45,46,46,47,47,48,48,49,49,50,50,51,51,52,52,53,53,54,54],"right_children":[2,4,6,8,10,12,14,16,-1,18,20,22,24,26,28,30,32,34,36,38,40,42,44,46,48,50,52,-1,54,56,-1,58,60,-1,-1,-1,62,-1,-1,-1,-1,64,66,68,-1,70,72,74,76,78,80,82,84,86,88,-1,-1,-1,-1,-1,-1,-1,-1,-1,-1,-1,-1,-1,-1,-1,-1,-1,-1,-1,-1,-1,-1,-1,-1,-1,-1,-1,-1,-1,-1,-1,-1,-1,-1],"split_conditions":[NaN,5.06E3,NaN,5.013E3,NaN,NaN,4.5E1,4.386E3,-4.286258E-1,6.1E1,8.614E3,5.5E1,4.5E1,NaN,NaN,3.137E3,NaN,NaN,NaN,NaN,5.2E1,3.3E1,4.9E1,NaN,NaN,NaN,4.7E1,2.5495675E-1,NaN,3.103E3,-3.7582377E-1,NaN,4.687E3,2.9972827E-1,-0E0,2.5910476E-1,6.767E3,-0E0,-2.2295296E-1,1.444319E-1,-0E0,4E1,NaN,6.5E1,-3.797637E-1,NaN,NaN,5.1E1,5.4E1,NaN,NaN,4.508E3,NaN,3.9E1,NaN,-1.0124479E-3,5.6696963E-1,4.2039806E-1,-0E0,-2.2498201E-1,6.936716E-3,1.029273E-1,-1.211711E-1,-2.5951323E-1,-3.4612014E-3,2.3971854E-1,-0E0,2.0215541E-2,-2.011262E-1,9.1532655E-2,-1.8484703E-1,-0E0,-2.2520223E-1,-0E0,4.929482E-1,4.0615205E-2,-2.3319986E-1,2.094381E-1,-2.632049E-2,-0E0,-1.8933171E-1,-2.6240784E-1,-0E0,4.8829198E-2,-1.6638757E-1,1.3832562E-1,-1.5393549E-1,3.7716772E-2,-1.5458706E-1],"split_indices":[3,8,2,8,3,1,10,8,0,0,8,0,0,4,6,8,5,5,4,4,0,0,10,2,1,2,0,0,1,8,0,4,8,0,0,0,8,0,0,0,0,10,2,0,0,1,3,0,0,1,1,8,2,0,3,0,0,0,0,0,0,0,0,0,0,0,0,0,0,0,0,0,0,0,0,0,0,0,0,0,0,0,0,0,0,0,0,0,0],"split_type":[1,0,1,0,1,1,0,0,0,0,0,0,0,1,1,0,1,1,1,1,0,0,0,1,1,1,0,0,1,0,0,1,0,0,0,0,0,0,0,0,0,0,1,0,0,1,1,0,0,1,1,0,1,0,1,0,0,0,0,0,0,0,0,0,0,0,0,0,0,0,0,0,0,0,0,0,0,0,0,0,0,0,0,0,0,0,0,0,0],"sum_hessian":[2.6566973E3,2.3069587E3,3.4973834E2,2.2689558E3,3.8003067E1,1.8855402E2,1.6118433E2,2.2575393E3,1.141637E1,3.1238735E1,6.764331E0,1.3965343E2,4.8900597E1,1.0775635E2,5.3427982E1,2.2368936E3,2.0645767E1,2.317065E1,8.068084E0,3.9602854E0,2.8040454E0,1.293504E2,1.0303014E1,3.5293556E1,1.360704E1,2.3590696E1,8.416565E1,1.5656612E0,5.186232E1,2.2123208E3,2.4572739E1,1.7747387E1,2.89838E0,2.1575462E1,1.5951885E0,2.2339861E0,5.834098E0,1.4741238E0,2.4861617E0,1.7859784E0,1.0180671E0,5.6893513E1,7.2456894E1,5.884116E0,4.4188976E0,5.7179203E0,2.9575638E1,4.154971E0,9.452069E0,1.0454635E1,1.3136062E1,7.313328E1,1.1032372E1,1.2118654E1,3.9743668E1,2.19776E3,1.4560806E1,1.4829578E1,2.9178076E0,1.4672971E0,1.431083E0,1.2175952E0,4.616503E0,5.966229E0,5.0927284E1,2.5051643E1,4.7405254E1,4.1427546E0,1.741362E0,3.5030787E0,2.2148416E0,1.6819577E0,2.789368E1,1.3695292E0,2.7854419E0,6.6787114E0,2.7733576E0,2.498261E0,7.956374E0,1.1416751E0,1.1994387E1,7.148533E1,1.6479466E0,4.0810113E0,6.951361E0,7.9507947E0,4.1678596E0,6.4614325E0,3.3282234E1],"tree_param":{"num_deleted":"0","num_feature":"12","num_nodes":"89","size_leaf_vector":"0"}},{"base_weights":[-2.3890445E-2,-6.6258156E-1,-1.1780089E-2,-7.0567155E-1,6.594519E-3,2.1831368E-1,-3.5423107E-2,-7.4239856E-1,-0E0,3.1990737E-1,-0E0,-1.5429801E-2,-3.6288825E-1,-8.369956E-1,-1.8611103E-1,4.1683027E-1,-3.866879E-2,4.0718086E-2,-7.7589023E-1,-7.948844E-2,8.911224E-2,-1.7959201E-1,-6.526515E-1,-0E0,-8.5784864E-1,2.7820563E-1,-5.441293E-1,4.758083E-1,-1.976912E-1,1.8733251E-1,-4.2049992E-1,1.1752442E-1,-4.638574E-1,-0E0,-3.6585945E-1,2.3970754E-1,-1.1498854E-1,1.7289211E-1,-1.3232413E-1,-1.1089054E-1,-7.092716E-1,1.3247068E-1,-7.91118E-1,-0E0,-2.6373887E-1,-0E0,2.6426634E-1,-0E0,-2.4963701E-1,1.5438569E-1,-1.2667697E-2,-1.0346199E-1,8.352232E-3,-4.4089835E-2,1.703665E-1,3.155467E-2,-1.7664205E-1,6.649788E-2,-6.1801586E-2,-3.7913886E-1,3.8276143E-2,9.636946E-2,-1.604422E-1,-6.15984E-2,1.825571E-2,7.638281E-2,1.1616301E-2,5.128558E-3,-1.1432642E-1,3.7235852E-2,-4.858985E-2,-4.1581962E-2,-3.0367994E-1,-0E0,5.044833E-1,-0E0,-2.6104757E-1],"categories":[1,2,3,5,6,7,0,1,2,3,4,5,6,7,9,13,1,2,4,5,6,7,8,10,5,0,4,7,9,10,13,0,2,4,0,1,11,15,1,3,4,12,15,1,2,12,0,1,2,3,4,1,4,6,7,8,11,12,0,5,14,0,1,2,3,4,8,9,11,12,14,15,0,1,2,3,4,5,6,7,9,11,12,13,0,1,2,3,4,0,1,2,3,4,5,6,7,8,9,10,11,0,1,3,0,1,2,3,4,5,6,7,2,1,2,3,4,5,7,11,13,0,1,2,3,4,5,6,7,9,11,15,0,1,2,3,4,5,6,7,8,0,1,2,3,4,5,6,7,8,9,10,11,12,13,14,15,16,37],"categories_nodes":[2,5,9,10,12,13,14,15,16,17,19,20,21,22,24,25,26,27,30,35,37,39,40,42],"categories_segments":[0,6,16,24,25,31,34,38,41,43,46,51,58,61,72,84,89,101,104,112,113,121,132,141],"categories_sizes":[6,10,8,1,6,3,4,3,2,3,5,7,3,11,12,5,12,3,8,1,8,11,9,18],"default_left":[0,0,0,0,0,1,0,0,0,1,1,0,1,1,1,1,1,1,0,1,1,1,1,0,0,1,0,1,0,0,1,0,0,0,0,1,0,1,0,1,1,0,1,0,0,0,0,0,0,0,0,0,0,0,0,0,0,0,0,0,0,0,0,0,0,0,0,0,0,0,0,0,0,0,0,0,0],"id":15,"left_children":[1,3,5,7,-1,9,11,13,-1,15,17,19,21,23,25,27,29,31,33,35,37,39,41,-1,43,45,47,49,51,53,55,57,59,-1,-1,61,63,65,67,69,71,73,75,-1,-1,-1,-1,-1,-1,-1,-1,-1,-1,-1,-1,-1,-1,-1,-1,-1,-1,-1,-1,-1,-1,-1,-1,-1,-1,-1,-1,-1,-1,-1,-1,-1,-1],"loss_changes":[1.9561842E1,2.0744457E0,1.3793378E1,1.4870281E0,0E0,5.2422466E0,1.4900457E1,1.2931252E0,0E0,5.969185E0,2.402411E0,1.473853E1,6.1469994E0,3.9633942E-1,1.5847237E0,4.9475956E0,2.9976761E0,2.3966568E0,9.7973037E-1,1.5415958E1,1.5453547E1,2.185754E0,5.9640102E0,0E0,2.081585E-1,6.096337E-1,1.5078388E0,2.865717E0,6.422509E-1,2.7718353E0,1.6830568E0,2.1431594E0,4.746345E0,0E0,0E0,8.275457E0,1.9794914E1,6.3512306E0,8.718857E0,9.3558E-1,2.0000982E-1,2.7329931E0,3.3617077E0,0E0,0E0,0E0,0E0,0E0,0E0,0E0,0E0,0E0,0E0,0E0,0E0,0E0,0E0,0E0,0E0,0E0,0E0,0E0,0E0,0E0,0E0,0E0,0E0,0E0,0E0,0E0,0E0,0E0,0E0,0E0,0E0,0E0,0E0],"parents":[2147483647,0,0,1,1,2,2,3,3,5,5,6,6,7,7,9,9,10,10,11,11,12,12,13,13,14,14,15,15,16,16,17,17,18,18,19,19,20,20,21,21,22,22,24,24,25,25,26,26,27,27,28,28,29,29,30,30,31,31,32,32,35,35,36,36,37,37,38,38,39,39,40,40,41,41,42,42],"right_children":[2,4,6,8,-1,10,12,14,-1,16,18,20,22,24,26,28,30,32,34,36,38,40,42,-1,44,46,48,50,52,54,56,58,60,-1,-1,62,64,66,68,70,72,74,76,-1,-1,-1,-1,-1,-1,-1,-1,-1,-1,-1,-1,-1,-1,-1,-1,-1,-1,-1,-1,-1,-1,-1,-1,-1,-1,-1,-1,-1,-1,-1,-1,-1,-1],"split_conditions":[2.4E1,2.206E3,NaN,4.65E3,6.594519E-3,NaN,6.3E1,4.6E1,-0E0,NaN,NaN,4.5E1,NaN,NaN,NaN,NaN,NaN,NaN,4.2E1,NaN,NaN,NaN,NaN,-0E0,NaN,NaN,NaN,NaN,6.1E1,4.4E1,NaN,5.9E1,4.4E1,-0E0,-3.6585945E-1,NaN,4.8E1,NaN,5.4E1,NaN,NaN,5.6E1,NaN,-0E0,-2.6373887E-1,-0E0,2.6426634E-1,-0E0,-2.4963701E-1,1.5438569E-1,-1.2667697E-2,-1.0346199E-1,8.352232E-3,-4.4089835E-2,1.703665E-1,3.155467E-2,-1.7664205E-1,6.649788E-2,-6.1801586E-2,-3.7913886E-1,3.8276143E-2,9.636946E-2,-1.604422E-1,-6.15984E-2,1.825571E-2,7.638281E-2,1.1616301E-2,5.128558E-3,-1.1432642E-1,3.7235852E-2,-4.858985E-2,-4.1581962E-2,-3.0367994E-1,-0E0,5.044833E-1,-0E0,-2.6104757E-1],"split_indices":[0,9,1,8,0,2,0,10,0,4,5,0,4,3,2,3,2,4,0,5,4,2,2,0,4,4,4,6,10,0,4,10,0,0,0,6,10,2,0,2,4,10,11,0,0,0,0,0,0,0,0,0,0,0,0,0,0,0,0,0,0,0,0,0,0,0,0,0,0,0,0,0,0,0,0,0,0],"split_type":[0,0,1,0,0,1,0,0,0,1,1,0,1,1,1,1,1,1,0,1,1,1,1,0,1,1,1,1,0,0,1,0,0,0,0,1,0,1,0,1,1,0,1,0,0,0,0,0,0,0,0,0,0,0,0,0,0,0,0,0,0,0,0,0,0,0,0,0,0,0,0,0,0,0,0,0,0],"sum_hessian":[2.616262E3,4.7147808E1,2.5691143E3,4.5730103E1,1.4177034E0,2.3544722E2,2.333667E3,4.4015434E1,1.714669E0,1.6087303E2,7.457418E1,2.2022622E3,1.3140485E2,3.608203E1,7.9334025E0,1.2883722E2,3.203581E1,7.0778435E1,3.7957504E0,1.3714594E3,8.308028E2,8.260334E1,4.8801502E1,1.1943094E0,3.4887722E1,2.2378995E0,5.6955028E0,1.19039795E2,9.797428E0,1.847922E1,1.3556589E1,6.3147938E1,7.6304975E0,1.6005725E0,2.1951778E0,1.344445E2,1.2370148E3,6.0602924E2,2.247736E2,7.479064E1,7.812699E0,6.2336984E0,4.2567802E1,1.3992622E0,3.348846E1,1.229033E0,1.0088667E0,1.0825479E0,4.612955E0,1.1253886E2,6.5009356E0,8.611517E0,1.1859117E0,8.438605E0,1.0040614E1,1.8468121E0,1.1709777E1,5.010988E1,1.3038059E1,3.9622555E0,3.668242E0,1.22809E2,1.1635514E1,8.2093884E2,4.16076E2,3.720053E2,2.3402391E2,1.379153E2,8.68583E1,9.857112E0,6.493353E1,3.8541396E0,3.958559E0,5.228546E0,1.0051522E0,2.942239E0,3.9625565E1],"tree_param":{"num_deleted":"0","num_feature":"12","num_nodes":"77","size_leaf_vector":"0"}},{"base_weights":[-1.8022206E-2,4.139082E-3,-2.673258E-1,-4.1312454E-3,6.4929134E-1,-1.1957557E-1,-5.5790865E-1,1.3437046E-3,-3.7831944E-1,7.156501E-1,-0E0,6.828746E-2,-2.9373488E-1,-7.9101205E-1,-3.0774346E-1,-1.0189163E-2,3.629025E-1,2.6784948E-1,1.6488287E-1,3.991442E-1,-1.4933512E-1,-7.816653E-2,-5.9539795E-1,-0E0,-8.407708E-1,2.1583347E-1,-4.0513763E-1,1.3728818E-3,-3.862181E-1,7.451535E-1,-7.766302E-2,2.488835E-1,-0E0,-4.969726E-1,8.042518E-1,-3.5804868E-1,3.0880326E-1,6.9689304E-1,-2.3013103E-1,-0E0,-6.5225315E-1,-2.5725284E-1,-0E0,-0E0,2.742317E-1,-4.6394354E-1,1.15359776E-1,-1.3851281E-3,1.1469986E0,2.7897775E-1,-2.903743E-1,-3.277839E-1,1.315075E-1,-6.4761445E-2,6.611544E-2,-0E0,-2.2671145E-1,2.786276E-1,-1.2185344E-1,-0E0,-1.7523065E-1,2.5244164E-1,-0E0,4.8634845E-1,-0E0,7.30392E-2,-9.566887E-2,-0E0,-2.1996987E-1,-0E0,-1.6317582E-1],"categories":[2,3,4,0,4,5,6,7,8,10,0,0,1,2,3,4,5,9,11,11,14,15,0,1,2,3,4,5,6,7,8,9,10,11,12,13,14,15,16,17,18,19,20,21,22,23,24,25,26,27,28,29,37,0,1,2,3,4,0,1,2,4,5,6,7,8,9,10,0,1,3,4,5,3,4,0,1,3,4,5,6,0,1,2,3,4,0,1,2,9,13,0,1,2,3,5,1,2,3,4,5,1,3,5,0,4,5,6],"categories_nodes":[0,2,4,5,11,12,13,14,18,21,22,29,33,35,36,38,40,45],"categories_segments":[0,3,10,11,12,19,22,53,58,68,73,75,81,86,91,96,101,104],"categories_sizes":[3,7,1,1,7,3,31,5,10,5,2,6,5,5,5,5,3,4],"default_left":[1,0,0,0,1,1,0,0,0,0,0,1,1,1,0,0,0,0,0,0,0,1,1,0,0,0,0,0,0,1,0,0,0,1,0,1,1,0,1,0,1,0,0,0,0,1,0,0,0,0,0,0,0,0,0,0,0,0,0,0,0,0,0,0,0,0,0,0,0,0,0],"id":16,"left_children":[1,3,5,7,9,11,13,15,-1,17,-1,19,21,23,25,27,29,-1,31,33,35,37,39,-1,41,43,45,47,-1,49,51,-1,53,55,57,59,61,63,65,-1,67,-1,-1,-1,-1,69,-1,-1,-1,-1,-1,-1,-1,-1,-1,-1,-1,-1,-1,-1,-1,-1,-1,-1,-1,-1,-1,-1,-1,-1,-1],"loss_changes":[1.4532168E1,1.3280713E1,8.532765E0,1.73397E1,1.6702042E0,4.953024E0,2.9849033E0,1.0050526E1,0E0,1.7911568E0,0E0,5.0559416E0,4.3820615E0,1.7752628E0,2.0172765E0,3.4528946E1,1.3225925E1,0E0,1.1090957E0,1.05837345E1,3.72507E0,5.1014585E0,1.146739E0,0E0,1.7396355E-1,1.0795845E0,1.5577555E0,5.4875088E1,0E0,1.2985195E1,1.8161793E1,0E0,3.0982715E-1,1.4725432E0,3.576415E0,1.7382224E0,1.0695025E0,3.833948E0,1.7824054E0,0E0,8.814621E-1,0E0,0E0,0E0,0E0,1.321631E0,0E0,0E0,0E0,0E0,0E0,0E0,0E0,0E0,0E0,0E0,0E0,0E0,0E0,0E0,0E0,0E0,0E0,0E0,0E0,0E0,0E0,0E0,0E0,0E0,0E0],"parents":[2147483647,0,0,1,1,2,2,3,3,4,4,5,5,6,6,7,7,9,9,11,11,12,12,13,13,14,14,15,15,16,16,18,18,19,19,20,20,21,21,22,22,24,24,25,25,26,26,27,27,29,29,30,30,32,32,33,33,34,34,35,35,36,36,37,37,38,38,40,40,45,45],"right_children":[2,4,6,8,10,12,14,16,-1,18,-1,20,22,24,26,28,30,-1,32,34,36,38,40,-1,42,44,46,48,-1,50,52,-1,54,56,58,60,62,64,66,-1,68,-1,-1,-1,-1,70,-1,-1,-1,-1,-1,-1,-1,-1,-1,-1,-1,-1,-1,-1,-1,-1,-1,-1,-1,-1,-1,-1,-1,-1,-1],"split_conditions":[NaN,5.06E3,NaN,4.865E3,NaN,NaN,3.6E1,1.825E3,-3.7831944E-1,6.1E1,-0E0,NaN,NaN,NaN,NaN,1.573E3,1.98E3,2.6784948E-1,NaN,3.2E1,4.6E1,NaN,NaN,-0E0,2.13E2,4.3E1,4.687E3,1.564E3,-3.862181E-1,NaN,2.231E3,2.488835E-1,1.0605E4,NaN,6.3E1,NaN,NaN,4.5E1,NaN,-0E0,NaN,-2.5725284E-1,-0E0,-0E0,2.742317E-1,NaN,1.15359776E-1,-1.3851281E-3,1.1469986E0,2.7897775E-1,-2.903743E-1,-3.277839E-1,1.315075E-1,-6.4761445E-2,6.611544E-2,-0E0,-2.2671145E-1,2.786276E-1,-1.2185344E-1,-0E0,-1.7523065E-1,2.5244164E-1,-0E0,4.8634845E-1,-0E0,7.30392E-2,-9.566887E-2,-0E0,-2.1996987E-1,-0E0,-1.6317582E-1],"split_indices":[5,8,4,8,3,7,0,9,0,0,0,2,2,11,1,9,9,0,4,0,0,3,5,0,9,10,8,9,0,3,9,0,8,1,0,4,3,0,1,0,1,0,0,0,0,3,0,0,0,0,0,0,0,0,0,0,0,0,0,0,0,0,0,0,0,0,0,0,0,0,0],"split_type":[1,0,1,0,1,1,0,0,0,0,0,1,1,1,1,0,0,0,1,0,0,1,1,0,0,0,0,0,0,1,0,0,0,1,0,1,1,0,1,0,1,0,0,0,0,1,0,0,0,0,0,0,0,0,0,0,0,0,0,0,0,0,0,0,0,0,0,0,0,0,0],"sum_hessian":[2.5826733E3,2.3681506E3,2.1452267E2,2.3366467E3,3.1503933E1,1.4449425E2,7.002841E1,2.3257207E3,1.0925961E1,2.9193521E1,2.3104122E0,6.675008E1,7.774417E1,3.418114E1,3.5847275E1,2.2511487E3,7.4572105E1,2.0714146E1,8.479375E0,2.8307947E1,3.844213E1,4.7275833E1,3.0468344E1,1.4147638E0,3.2766376E1,4.0119667E0,3.1835306E1,2.2301768E3,2.0971899E1,4.114392E1,3.342818E1,1.946398E0,6.532977E0,8.04455E0,2.02634E1,2.7909967E1,1.0532164E1,6.6710763E0,4.0604755E1,2.3847377E0,2.8083605E1,3.1736235E1,1.030142E0,2.4962952E0,1.5156714E0,3.0807459E1,1.0278469E0,2.2264258E3,3.7510207E0,3.7665092E1,3.478827E0,1.1920312E1,2.150787E1,3.7968955E0,2.7360814E0,1.9870083E0,6.0575414E0,1.9122572E1,1.1408271E0,1.2327808E1,1.5582159E1,2.9288464E0,7.6033173E0,2.6915448E0,3.9795313E0,4.6309977E0,3.597376E1,4.2211375E0,2.3862469E1,3.926318E0,2.6881142E1],"tree_param":{"num_deleted":"0","num_feature":"12","num_nodes":"71","size_leaf_vector":"0"}},{"base_weights":[-1.41465785E-2,-2.613195E-1,6.0414546E-3,-7.356775E-1,-1.8275969E-1,-0E0,6.5594786E-1,-2.760261E-1,-7.608139E-2,9.096932E-2,-2.85933E-1,2.4365248E-2,-1.704594E-1,8.137983E-1,-0E0,2.1686679E-2,-1.773065E-1,-2.57274E-1,2.4088164E-1,-3.303655E-1,5.8472764E-1,3.940676E-2,-2.068349E-1,-8.058937E-2,-4.001613E-1,2.834657E-1,-0E0,-1.1371429E-1,3.948279E-1,2.3509736E-1,-5.8557305E-2,-0E0,-6.493505E-1,4.005426E-1,-1.6960728E-1,2.3025298E-1,-4.078949E-1,2.8968066E-1,-0E0,5.3857744E-1,3.0036502E-2,1.124668E-1,-2.859527E-1,