{"learner":{"attributes":{"best_iteration":"42","best_ntree_limit":"43","best_score":"0.8833362794587462","scikit_learn":"{\"use_label_encoder\": null, \"n_estimators\": 500, \"objective\": \"binary:logistic\", \"max_depth\": 2, \"max_leaves\": null, \"max_bin\": null, \"grow_policy\": null, \"learning_rate\": null, \"verbosity\": null, \"booster\": null, \"tree_method\": \"approx\", \"gamma\": null, \"min_child_weight\": null, \"max_delta_step\": null, \"subsample\": null, \"sampling_method\": null, \"colsample_bytree\": null, \"colsample_bylevel\": null, \"colsample_bynode\": null, \"reg_alpha\": null, \"reg_lambda\": null, \"scale_pos_weight\": null, \"base_score\": null, \"missing\": NaN, \"num_parallel_tree\": null, \"random_state\": null, \"n_jobs\": null, \"monotone_constraints\": null, \"interaction_constraints\": null, \"importance_type\": null, \"gpu_id\": 0, \"validate_parameters\": null, \"predictor\": null, \"enable_categorical\": false, \"feature_types\": null, \"max_cat_to_onehot\": null, \"max_cat_threshold\": null, \"eval_metric\": [\"logloss\", \"error\", \"auc\", \"aucpr\"], \"early_stopping_rounds\": 10, \"callbacks\": null, \"kwargs\": {\"alpha\": 0.1, \"eta\": 0.3, \"lambda\": 1.0}, \"classes_\": [false, true], \"n_classes_\": 2, \"evals_result_\": {\"validation_0\": {\"logloss\": [0.6204869125913732, 0.5795264865826437, 0.5533584164286438, 0.5328673973806299, 0.5133364056006516, 0.5023551091138264, 0.4910307008214633, 0.4804892096014439, 0.47061345074681654, 0.4651793686008872, 0.45866832190220896, 0.4515070301004865, 0.44335202210201097, 0.438494049575065, 0.4330839527671913, 0.4288168195261564, 0.4239042925980737, 0.42103621890801396, 0.4123290321088755, 0.4095805322737636, 0.406116698567552, 0.40331421396289224, 0.3979103227858845, 0.39492910656077485, 0.3930616697765863, 0.39069239313460563, 0.388691787593474, 0.3869561559714043, 0.38513438290811314, 0.379317937415156, 0.3746710124465721, 0.3717209149903748, 0.36987094818738453, 0.3686213629133376, 0.36696298904032537, 0.3652964666324224, 0.3641997749481354, 0.3631888123901631, 0.3605299854340956, 0.3592653879604435, 0.3581775748986972, 0.35689083834038743, 0.35590485868939936, 0.3550276450481899, 0.352952698824062, 0.3520593333805481, 0.3511787914078846, 0.3486491423027861, 0.3471739932172058, 0.346435329646818, 0.34550104578730007, 0.3446396552260044, 0.3425886624638358], \"error\": [0.2665179193975736, 0.23065123413749825, 0.22194951889555153, 0.22521266211128155, 0.2165109468693348, 0.2165109468693348, 0.20948263840468553, 0.20340259378050482, 0.20312369265095523, 0.20502022033189235, 0.1960117138474411, 0.19484032910333288, 0.19096360340259377, 0.18948542741598104, 0.18876028447915214, 0.18424208618044904, 0.17941709663924138, 0.18022590991493515, 0.17375540370938503, 0.17576349184214196, 0.1702970297029703, 0.17230511783572725, 0.16895830428113234, 0.1671454469390601, 0.16664342490587086, 0.1665039743410961, 0.16427276530469948, 0.16357551248082555, 0.1626830288662669, 0.1567982150327709, 0.15674243480686098, 0.1550132478036536, 0.15406498396318505, 0.15445544554455445, 0.15292148933203178, 0.1518058848138335, 0.14993724724585134, 0.1504950495049505, 0.1505508297308604, 0.15013247803653604, 0.1495746757774369, 0.14999302747176127, 0.14790126900013945, 0.14935155487379723, 0.14759447775763493, 0.1464230930135267, 0.14765025798354484, 0.14617208199693207, 0.14600474131920235, 0.14628364244875192, 0.1453911588341933, 0.14483335657509414, 0.14522381815646354], \"auc\": [0.7907776187446599, 0.8214627769707642, 0.8283125385122844, 0.8396842687253134, 0.8449126893475076, 0.8517168659054624, 0.8634608527104777, 0.8738817391846924, 0.8755249907480774, 0.8783963788602791, 0.8829097939204757, 0.8838428916423783, 0.889787428705416, 0.8916196667797218, 0.8940626778847336, 0.8964350819665307, 0.8994731782493699, 0.899461312255972, 0.9066743436444786, 0.9072024660425994, 0.9087661004672472, 0.9091766691361312, 0.912104712069489, 0.9127738506436136, 0.9133367250090058, 0.913542594385533, 0.9144875456365545, 0.9150964786281057, 0.9160494054595112, 0.9186709486616176, 0.9217447364067411, 0.9230358315857065, 0.9237119501559474, 0.9236542234068162, 0.9244611140739394, 0.925026394045136, 0.9253663946416764, 0.925610548050474, 0.9272483698624159, 0.9273483723290967, 0.9272467058811988, 0.9277531949654634, 0.9280373275484455, 0.9281186928022817, 0.929261450599495, 0.9298886094826911, 0.9303075666111935, 0.9310306209812127, 0.9318493122042701, 0.93210732900714, 0.9323863792804499, 0.932728149804577, 0.9331464790450358], \"aucpr\": [0.796145437537545, 0.8161958683623075, 0.8382856322560469, 0.843654044128694, 0.8555430290897316, 0.8627681546825399, 0.8782949762716048, 0.8885182865337798, 0.8903554301912391, 0.8938490960889728, 0.897805599341254, 0.8998499534193491, 0.9065047616579646, 0.9074784659366381, 0.9089676643299263, 0.9116039326407024, 0.9143322617407093, 0.914543789494261, 0.9223379363961601, 0.9225955609428542, 0.9241512504515939, 0.9245251621361157, 0.9280069584595377, 0.9280837189307491, 0.9289464786031306, 0.9290505155731387, 0.9300617627688181, 0.9302223725211122, 0.9310173770260735, 0.9332383634077777, 0.934818123849922, 0.9363414709664569, 0.9370478308656044, 0.9369460891195782, 0.9376735735001908, 0.9382322278189932, 0.9384674158343117, 0.9385089208592083, 0.9391840648818955, 0.939359540487138, 0.9393825702800328, 0.9399344044308527, 0.9402286377586475, 0.9402016804493283, 0.9411400763299347, 0.9417490116568316, 0.9421774101977117, 0.9427529743756572, 0.9430232664094316, 0.9432738623194131, 0.9435611602601731, 0.9438520888685078, 0.9441382193513195]}, \"validation_1\": {\"logloss\": [0.6722012271390648, 0.6303656043111613, 0.6325177000149825, 0.5958995160973801, 0.595657444752284, 0.583950147601256, 0.5669164216808313, 0.5555183740880462, 0.538640801643139, 0.5314140235211423, 0.5244512858018047, 0.5251277351618105, 0.5120935591493785, 0.504639563666443, 0.5063417722512201, 0.4985756710045362, 0.49299547847548214, 0.49646658961532747, 0.49615958042107006, 0.5012939468064395, 0.49479511785472624, 0.49135427755444566, 0.5064602756909344, 0.5015104713312374, 0.497934898348265, 0.49514892829780743, 0.4908023966039543, 0.486725872256392, 0.48477127511986845, 0.5004313953560792, 0.48412164164223326, 0.49644975617963494, 0.49227577703662084, 0.4913974166171403, 0.48934548211025075, 0.48721429416041245, 0.4826236770797724, 0.4797613887629143, 0.46572394363612474, 0.4646119809001335, 0.4653746597068854, 0.46338370183939076, 0.4608230331226093, 0.4646680445680648, 0.4636441735628268, 0.462135163462683, 0.4664259657232795, 0.4761889058784264, 0.468778686386723, 0.46605287435267573, 0.4647430829220796, 0.4639970664746269, 0.4770596367565708], \"error\": [0.5419455600178492, 0.3815261044176707, 0.3815261044176707, 0.2708612226684516, 0.36412315930388217, 0.36412315930388217, 0.35787594823739405, 0.3507362784471218, 0.2780008924587238, 0.2688531905399375, 0.2603748326639893, 0.26238286479250333, 0.26238286479250333, 0.24096385542168675, 0.2525658188308791, 0.23873270861222667, 0.24386434627398482, 0.24765729585006693, 0.2525658188308791, 0.2574743418116912, 0.2568049977688532, 0.25992860330209727, 0.2677376171352075, 0.26215975011155734, 0.25591253904506917, 0.2539045069165551, 0.2574743418116912, 0.24118697010263276, 0.24319500223114682, 0.2626059794734494, 0.24051762605979474, 0.2545738509593931, 0.2539045069165551, 0.25479696564033916, 0.25301204819277107, 0.2525658188308791, 0.25122713074520303, 0.24386434627398482, 0.2222222222222222, 0.22445336903168228, 0.22378402498884425, 0.22333779562695225, 0.2246764837126283, 0.2278000892458724, 0.23114680946006247, 0.2284694332887104, 0.23293172690763053, 0.24185631414547076, 0.23560910307898258, 0.23471664435519857, 0.23404730031236054, 0.23248549754573852, 0.2389558232931727], \"auc\": [0.6704924482682765, 0.7358661585722287, 0.7645943630073132, 0.7827436056884491, 0.7733129900373731, 0.7890343926298901, 0.8156619248217822, 0.827764127123608, 0.8294032751276035, 0.8319292755964471, 0.8358456642088805, 0.8393044389547715, 0.8498207344802824, 0.8555845235070548, 0.8472294608678982, 0.8529676820734681, 0.8571182919813096, 0.857485465946971, 0.8552317878404255, 0.8553144069959976, 0.8596041860639533, 0.8603030398434889, 0.8611280282076236, 0.8637959050176498, 0.8655989878752378, 0.8658400272563, 0.8690114397450678, 0.8713081319508127, 0.8722474235156176, 0.8645809875275154, 0.8699438129582531, 0.8704016273567264, 0.8729078754303666, 0.8725112232708483, 0.8738249079508303, 0.8755536937279829, 0.8766050826422167, 0.8778209077398708, 0.8790852615648269, 0.878664846371485, 0.8787657139327781, 0.8796691102819338, 0.8813062529666192, 0.8810846651828641, 0.8801756539396403, 0.8811015098650681, 0.8795798735726388, 0.8752706429073761, 0.877478098403826, 0.8793721224921226, 0.8804780560915886, 0.8810635090641435, 0.8749827793204253], \"aucpr\": [0.6822370991129949, 0.7102668717716605, 0.7574837147383795, 0.768584816089676, 0.7634315952388216, 0.7800964537223518, 0.8162911860055364, 0.8304933970806869, 0.8314719066381281, 0.8363942975318593, 0.8404695371953301, 0.8454787767607672, 0.8566139131645581, 0.8600531521365319, 0.8534268727546735, 0.8591115057227118, 0.8632817536183482, 0.8640511763955692, 0.8623152943278964, 0.8609618039648138, 0.864941868120684, 0.8658017849500453, 0.8664828427533379, 0.8672373634153883, 0.870291072815961, 0.8712061928104265, 0.8745034108928313, 0.8754413792351398, 0.8765554295859403, 0.8668253099644793, 0.8716159482915504, 0.8720214539189128, 0.8743878940986685, 0.8739691470862176, 0.8754345040997948, 0.8773686489126826, 0.8784743159085056, 0.8788418202257918, 0.8798991855732508, 0.8801467831574816, 0.8803817411727236, 0.8816494843763543, 0.8833362794587462, 0.8826959965046469, 0.881935481255686, 0.8831050008530977, 0.882666666743025, 0.877627292178258, 0.8794956027013818, 0.8812013735484208, 0.8825570639266638, 0.8830164707641297, 0.8758381216637449]}}, \"_estimator_type\": \"classifier\"}"},"feature_names":["white_piece0_strength","white_piece0_file","white_piece0_rank","black_piece0_strength","black_piece0_file","black_piece0_rank"],"feature_types":["float","float","float","float","float","float"],"gradient_booster":{"model":{"gbtree_model_param":{"num_parallel_tree":"1","num_trees":"53","size_leaf_vector":"0"},"tree_info":[0,0,0,0,0,0,0,0,0,0,0,0,0,0,0,0,0,0,0,0,0,0,0,0,0,0,0,0,0,0,0,0,0,0,0,0,0,0,0,0,0,0,0,0,0,0,0,0,0,0,0,0,0],"trees":[{"base_weights":[7.712429E-2,-5.818051E-1,1.1524732E0,-3.2177934E-1,9.17157E-2,1.3794326E-2,4.5522937E-1],"categories":[],"categories_nodes":[],"categories_segments":[],"categories_sizes":[],"default_left":[0,0,0,0,0,0,0],"id":0,"left_children":[1,3,5,-1,-1,-1,-1],"loss_changes":[6.3529614E3,2.4219595E3,1.3753975E3,0E0,0E0,0E0,0E0],"parents":[2147483647,0,0,1,1,2,2],"right_children":[2,4,6,-1,-1,-1,-1],"split_conditions":[6E0,6E0,2E0,-3.2177934E-1,9.17157E-2,1.3794326E-2,4.5522937E-1],"split_indices":[2,0,5,0,0,0,0],"split_type":[0,0,0,0,0,0,0],"sum_hessian":[8.96375E3,5.55825E3,3.4055E3,3.579E3,1.97925E3,8.45E2,2.5605E3],"tree_param":{"num_deleted":"0","num_feature":"6","num_nodes":"7","size_leaf_vector":"0"}},{"base_weights":[5.6543496E-2,-4.1617444E-1,8.4445834E-1,-3.4300143E-1,3.5829544E-3,9.661422E-3,3.3793753E-1],"categories":[],"categories_nodes":[],"categories_segments":[],"categories_sizes":[],"default_left":[0,0,0,0,0,0,0],"id":1,"left_children":[1,3,5,-1,-1,-1,-1],"loss_changes":[3.2561846E3,1.7011409E3,7.507505E2,0E0,0E0,0E0,0E0],"parents":[2147483647,0,0,1,1,2,2],"right_children":[2,4,6,-1,-1,-1,-1],"split_conditions":[6E0,3E0,2E0,-3.4300143E-1,3.5829544E-3,9.661422E-3,3.3793753E-1],"split_indices":[2,5,5,0,0,0,0],"split_type":[0,0,0,0,0,0,0],"sum_hessian":[8.74028E3,5.463025E3,3.2772551E3,2.0239244E3,3.4391006E3,8.449598E2,2.4322954E3],"tree_param":{"num_deleted":"0","num_feature":"6","num_nodes":"7","size_leaf_vector":"0"}},{"base_weights":[4.366278E-2,-2.3772089E-1,9.5618886E-1,-1.7522486E-1,1.0344244E-1,3.8851187E-2,3.2326603E-1],"categories":[],"categories_nodes":[],"categories_segments":[],"categories_sizes":[],"default_left":[0,0,0,0,0,0,0],"id":2,"left_children":[1,3,5,-1,-1,-1,-1],"loss_changes":[2.15505E3,1.2944896E3,1.9820032E2,0E0,0E0,0E0,0E0],"parents":[2147483647,0,0,1,1,2,2],"right_children":[2,4,6,-1,-1,-1,-1],"split_conditions":[7E0,6E0,1E0,-1.7522486E-1,1.0344244E-1,3.8851187E-2,3.2326603E-1],"split_indices":[2,0,5,0,0,0,0],"split_type":[0,0,0,0,0,0,0],"sum_hessian":[8.390757E3,6.413683E3,1.9770732E3,4.022275E3,2.3914084E3,2.5346515E2,1.7236082E3],"tree_param":{"num_deleted":"0","num_feature":"6","num_nodes":"7","size_leaf_vector":"0"}},{"base_weights":[3.4584437E-2,-3.2909447E-1,5.025108E-1,-3.8447732E-3,-2.6567996E-1,-6.10443E-2,2.3386641E-1],"categories":[],"categories_nodes":[],"categories_segments":[],"categories_sizes":[],"default_left":[0,0,0,0,0,0,0],"id":3,"left_children":[1,3,5,-1,-1,-1,-1],"loss_changes":[1.3708622E3,7.976841E2,6.892697E2,0E0,0E0,0E0,0E0],"parents":[2147483647,0,0,1,1,2,2],"right_children":[2,4,6,-1,-1,-1,-1],"split_conditions":[5E0,6E0,2E0,-3.8447732E-3,-2.6567996E-1,-6.10443E-2,2.3386641E-1],"split_indices":[2,3,5,0,0,0,0],"split_type":[0,0,0,0,0,0,0],"sum_hessian":[8.053532E3,4.5315957E3,3.5219365E3,2.8902073E3,1.6413882E3,9.9254236E2,2.5293943E3],"tree_param":{"num_deleted":"0","num_feature":"6","num_nodes":"7","size_leaf_vector":"0"}},{"base_weights":[2.5951203E-2,-4.4895855E-1,3.1808138E-1,-2.2373678E-1,1.3080974E-1,-7.9380665E-3,2.578918E-1],"categories":[],"categories_nodes":[],"categories_segments":[],"categories_sizes":[],"default_left":[0,0,0,0,0,0,0],"id":4,"left_children":[1,3,5,-1,-1,-1,-1],"loss_changes":[1.0691101E3,7.713137E2,8.903872E2,0E0,0E0,0E0,0E0],"parents":[2147483647,0,0,1,1,2,2],"right_children":[2,4,6,-1,-1,-1,-1],"split_conditions":[3E0,7E0,6E0,-2.2373678E-1,1.3080974E-1,-7.9380665E-3,2.578918E-1],"split_indices":[5,2,0,0,0,0,0],"split_type":[0,0,0,0,0,0,0],"sum_hessian":[7.7041704E3,2.9338289E3,4.770342E3,2.19716E3,7.366689E2,2.915961E3,1.8543807E3],"tree_param":{"num_deleted":"0","num_feature":"6","num_nodes":"7","size_leaf_vector":"0"}},{"base_weights":[1.9536885E-2,-1.3530307E-1,6.022244E-1,-2.2168227E-1,1.3657598E-2,-8.5530214E-2,2.2910762E-1],"categories":[],"categories_nodes":[],"categories_segments":[],"categories_sizes":[],"default_left":[0,0,0,0,0,0,0],"id":5,"left_children":[1,3,5,-1,-1,-1,-1],"loss_changes":[6.6936536E2,6.3985596E2,2.2342908E2,0E0,0E0,0E0,0E0],"parents":[2147483647,0,0,1,1,2,2],"right_children":[2,4,6,-1,-1,-1,-1],"split_conditions":[7E0,2E0,1E0,-2.2168227E-1,1.3657598E-2,-8.5530214E-2,2.2910762E-1],"split_indices":[2,5,1,0,0,0,0],"split_type":[0,0,0,0,0,0,0],"sum_hessian":[7.4165645E3,5.8599673E3,1.5565969E3,1.3502052E3,4.509762E3,2.3943369E2,1.3171632E3],"tree_param":{"num_deleted":"0","num_feature":"6","num_nodes":"7","size_leaf_vector":"0"}},{"base_weights":[1.4711281E-2,5.896587E-1,-1.04279295E-1,1.3805411E-2,3.3759642E-1,-8.497339E-2,1.7634222E-1],"categories":[],"categories_nodes":[],"categories_segments":[],"categories_sizes":[],"default_left":[0,0,0,0,0,0,0],"id":6,"left_children":[1,3,5,-1,-1,-1,-1],"loss_changes":[4.9125418E2,3.5839575E2,7.369479E2,0E0,0E0,0E0,0E0],"parents":[2147483647,0,0,1,1,2,2],"right_children":[2,4,6,-1,-1,-1,-1],"split_conditions":[1E0,4E0,6E0,1.3805411E-2,3.3759642E-1,-8.497339E-2,1.7634222E-1],"split_indices":[4,2,4,0,0,0,0],"split_type":[0,0,0,0,0,0,0],"sum_hessian":[7.1780723E3,1.2303005E3,5.9477715E3,6.1123486E2,6.190657E2,4.7263335E3,1.221438E3],"tree_param":{"num_deleted":"0","num_feature":"6","num_nodes":"7","size_leaf_vector":"0"}},{"base_weights":[1.1626729E-2,1.3003096E-1,-5.567612E-1,-9.699399E-2,1.18633054E-1,-3.2993147E-1,-3.6183152E-2],"categories":[],"categories_nodes":[],"categories_segments":[],"categories_sizes":[],"default_left":[0,0,0,0,0,0,0],"id":7,"left_children":[1,3,5,-1,-1,-1,-1],"loss_changes":[4.7912274E2,7.091368E2,2.9042178E2,0E0,0E0,0E0,0E0],"parents":[2147483647,0,0,1,1,2,2],"right_children":[2,4,6,-1,-1,-1,-1],"split_conditions":[6E0,2E0,4E0,-9.699399E-2,1.18633054E-1,-3.2993147E-1,-3.6183152E-2],"split_indices":[1,1,5,0,0,0,0],"split_type":[0,0,0,0,0,0,0],"sum_hessian":[7.1178164E3,5.8914756E3,1.226341E3,2.1753027E3,3.716173E3,5.454729E2,6.80868E2],"tree_param":{"num_deleted":"0","num_feature":"6","num_nodes":"7","size_leaf_vector":"0"}},{"base_weights":[7.472573E-3,1.9177692E-1,-3.236105E-1,-6.4194426E-2,1.6103503E-1,-1.9262639E-1,2.0050399E-2],"categories":[],"categories_nodes":[],"categories_segments":[],"categories_sizes":[],"default_left":[0,0,0,0,0,0,0],"id":8,"left_children":[1,3,5,-1,-1,-1,-1],"loss_changes":[4.3201093E2,6.368685E2,3.1490717E2,0E0,0E0,0E0,0E0],"parents":[2147483647,0,0,1,1,2,2],"right_children":[2,4,6,-1,-1,-1,-1],"split_conditions":[6E0,4E0,5E0,-6.4194426E-2,1.6103503E-1,-1.9262639E-1,2.0050399E-2],"split_indices":[3,5,2,0,0,0,0],"split_type":[0,0,0,0,0,0,0],"sum_hessian":[7.0780186E3,4.547359E3,2.53066E3,2.0897346E3,2.457624E3,1.3935686E3,1.1370913E3],"tree_param":{"num_deleted":"0","num_feature":"6","num_nodes":"7","size_leaf_vector":"0"}},{"base_weights":[4.705346E-3,-7.056201E-2,7.4704605E-1,2.2973029E-2,-1.2691012E-1,2.6430237E-1,3.3898536E-2],"categories":[],"categories_nodes":[],"categories_segments":[],"categories_sizes":[],"default_left":[0,0,0,0,0,0,0],"id":9,"left_children":[1,3,5,-1,-1,-1,-1],"loss_changes":[3.8353232E2,3.2322906E2,5.347525E1,0E0,0E0,0E0,0E0],"parents":[2147483647,0,0,1,1,2,2],"right_children":[2,4,6,-1,-1,-1,-1],"split_conditions":[8E0,5E0,6E0,2.2973029E-2,-1.2691012E-1,2.6430237E-1,3.3898536E-2],"split_indices":[2,1,1,0,0,0,0],"split_type":[0,0,0,0,0,0,0],"sum_hessian":[6.861078E3,6.23016E3,6.309177E2,4.3956865E3,1.8344736E3,5.204172E2,1.10500534E2],"tree_param":{"num_deleted":"0","num_feature":"6","num_nodes":"7","size_leaf_vector":"0"}},{"base_weights":[4.5772367E-3,-4.6004027E-1,1.0556735E-1,-2.805681E-1,-2.4584863E-2,9.0404585E-2,-7.235945E-2],"categories":[],"categories_nodes":[],"categories_segments":[],"categories_sizes":[],"default_left":[0,0,0,0,0,0,0],"id":10,"left_children":[1,3,5,-1,-1,-1,-1],"loss_changes":[3.1804105E2,2.1725104E2,3.78134E2,0E0,0E0,0E0,0E0],"parents":[2147483647,0,0,1,1,2,2],"right_children":[2,4,6,-1,-1,-1,-1],"split_conditions":[1E0,4E0,5E0,-2.805681E-1,-2.4584863E-2,9.0404585E-2,-7.235945E-2],"split_indices":[1,5,1,0,0,0,0],"split_type":[0,0,0,0,0,0,0],"sum_hessian":[6.776832E3,1.2092023E3,5.56763E3,5.350324E2,6.7416986E2,3.5587854E3,2.0088446E3],"tree_param":{"num_deleted":"0","num_feature":"6","num_nodes":"7","size_leaf_vector":"0"}},{"base_weights":[2.5967085E-3,-1.7804867E-1,2.5383472E-1,-1.2279194E-1,4.7723766E-2,2.702127E-2,3.3039084E-1],"categories":[],"categories_nodes":[],"categories_segments":[],"categories_sizes":[],"default_left":[0,0,0,0,0,0,0],"id":11,"left_children":[1,3,5,-1,-1,-1,-1],"loss_changes":[3.0555325E2,3.054058E2,3.906231E2,0E0,0E0,0E0,0E0],"parents":[2147483647,0,0,1,1,2,2],"right_children":[2,4,6,-1,-1,-1,-1],"split_conditions":[5E0,6E0,6E0,-1.2279194E-1,4.7723766E-2,2.702127E-2,3.3039084E-1],"split_indices":[2,0,4,0,0,0,0],"split_type":[0,0,0,0,0,0,0],"sum_hessian":[6.730312E3,3.9151387E3,2.815173E3,2.3222441E3,1.5928947E3,2.3602961E3,4.548769E2],"tree_param":{"num_deleted":"0","num_feature":"6","num_nodes":"7","size_leaf_vector":"0"}},{"base_weights":[2.2362291E-3,3.4640095E-1,-1.4655809E-1,5.743034E-3,2.018384E-1,-1.3762005E-1,8.20911E-2],"categories":[],"categories_nodes":[],"categories_segments":[],"categories_sizes":[],"default_left":[0,0,0,0,0,0,0],"id":12,"left_children":[1,3,5,-1,-1,-1,-1],"loss_changes":[3.3499286E2,2.1083319E2,5.991675E2,0E0,0E0,0E0,0E0],"parents":[2147483647,0,0,1,1,2,2],"right_children":[2,4,6,-1,-1,-1,-1],"split_conditions":[2E0,4E0,5E0,5.743034E-3,2.018384E-1,-1.3762005E-1,8.20911E-2],"split_indices":[4,2,4,0,0,0,0],"split_type":[0,0,0,0,0,0,0],"sum_hessian":[6.5392017E3,1.9735887E3,4.565613E3,9.8617194E2,9.874168E2,2.6195889E3,1.9460239E3],"tree_param":{"num_deleted":"0","num_feature":"6","num_nodes":"7","size_leaf_vector":"0"}},{"base_weights":[2.2731337E-3,-6.3197654E-1,8.479475E-2,-2.2563083E-1,3.691353E-2,-8.057372E-2,6.599141E-2],"categories":[],"categories_nodes":[],"categories_segments":[],"categories_sizes":[],"default_left":[0,0,0,0,0,0,0],"id":13,"left_children":[1,3,5,-1,-1,-1,-1],"loss_changes":[3.3918048E2,6.7822296E1,2.7402048E2,0E0,0E0,0E0,0E0],"parents":[2147483647,0,0,1,1,2,2],"right_children":[2,4,6,-1,-1,-1,-1],"split_conditions":[1E0,8E0,2E0,-2.2563083E-1,3.691353E-2,-8.057372E-2,6.599141E-2],"split_indices":[5,2,2,0,0,0,0],"split_type":[0,0,0,0,0,0,0],"sum_hessian":[6.479437E3,7.4506915E2,5.7343677E3,6.429157E2,1.0215348E2,1.5861595E3,4.1482085E3],"tree_param":{"num_deleted":"0","num_feature":"6","num_nodes":"7","size_leaf_vector":"0"}},{"base_weights":[7.68292E-4,1.4044586E-1,-2.646185E-1,-4.4205904E-2,1.1675788E-1,-1.5673804E-1,3.90364E-2],"categories":[],"categories_nodes":[],"categories_segments":[],"categories_sizes":[],"default_left":[0,0,0,0,0,0,0],"id":14,"left_children":[1,3,5,-1,-1,-1,-1],"loss_changes":[2.3638142E2,2.9921002E2,2.2390112E2,0E0,0E0,0E0,0E0],"parents":[2147483647,0,0,1,1,2,2],"right_children":[2,4,6,-1,-1,-1,-1],"split_conditions":[6E0,4E0,7E0,-4.4205904E-2,1.1675788E-1,-1.5673804E-1,3.90364E-2],"split_indices":[3,5,3,0,0,0,0],"split_type":[0,0,0,0,0,0,0],"sum_hessian":[6.3752E3,4.177407E3,2.1977927E3,1.9366826E3,2.2407246E3,1.3293798E3,8.68413E2],"tree_param":{"num_deleted":"0","num_feature":"6","num_nodes":"7","size_leaf_vector":"0"}},{"base_weights":[7.0601725E-4,4.31775E-1,-8.405629E-2,4.9957443E-2,2.634947E-1,-7.373804E-2,6.170029E-2],"categories":[],"categories_nodes":[],"categories_segments":[],"categories_sizes":[],"default_left":[0,0,0,0,0,0,0],"id":15,"left_children":[1,3,5,-1,-1,-1,-1],"loss_changes":[2.2960255E2,1.2205719E2,2.4607953E2,0E0,0E0,0E0,0E0],"parents":[2147483647,0,0,1,1,2,2],"right_children":[2,4,6,-1,-1,-1,-1],"split_conditions":[1E0,5E0,5E0,4.9957443E-2,2.634947E-1,-7.373804E-2,6.170029E-2],"split_indices":[4,2,4,0,0,0,0],"split_type":[0,0,0,0,0,0,0],"sum_hessian":[6.280925E3,1.0316138E3,5.249311E3,6.4818274E2,3.8343103E2,3.3690498E3,1.8802611E3],"tree_param":{"num_deleted":"0","num_feature":"6","num_nodes":"7","size_leaf_vector":"0"}},{"base_weights":[1.3848885E-3,-2.8568882E-1,1.2730536E-1,-1.8698609E-1,-2.9491007E-2,1.1135254E-1,-5.9485722E-2],"categories":[],"categories_nodes":[],"categories_segments":[],"categories_sizes":[],"default_left":[0,0,0,0,0,0,0],"id":16,"left_children":[1,3,5,-1,-1,-1,-1],"loss_changes":[2.2535904E2,1.2010661E2,3.4421832E2,0E0,0E0,0E0,0E0],"parents":[2147483647,0,0,1,1,2,2],"right_children":[2,4,6,-1,-1,-1,-1],"split_conditions":[2E0,3E0,5E0,-1.8698609E-1,-2.9491007E-2,1.1135254E-1,-5.9485722E-2],"split_indices":[1,5,1,0,0,0,0],"split_type":[0,0,0,0,0,0,0],"sum_hessian":[6.232697E3,1.8996982E3,4.3329985E3,6.770496E2,1.2226487E3,2.4775015E3,1.8554971E3],"tree_param":{"num_deleted":"0","num_feature":"6","num_nodes":"7","size_leaf_vector":"0"}},{"base_weights":[5.860768E-4,-5.234558E-2,5.8812076E-1,-5.7602085E-2,5.0678737E-2,2.1553636E-1,2.5378818E-2],"categories":[],"categories_nodes":[],"categories_segments":[],"categories_sizes":[],"default_left":[0,0,0,0,0,0,0],"id":17,"left_children":[1,3,5,-1,-1,-1,-1],"loss_changes":[1.9253773E2,1.7549553E2,3.343849E1,0E0,0E0,0E0,0E0],"parents":[2147483647,0,0,1,1,2,2],"right_children":[2,4,6,-1,-1,-1,-1],"split_conditions":[8E0,6E0,6E0,-5.7602085E-2,5.0678737E-2,2.1553636E-1,2.5378818E-2],"split_indices":[2,0,1,0,0,0,0],"split_type":[0,0,0,0,0,0,0],"sum_hessian":[6.1873735E3,5.6766943E3,5.1067908E2,3.4805002E3,2.1961938E3,4.0517657E2,1.0550247E2],"tree_param":{"num_deleted":"0","num_feature":"6","num_nodes":"7","size_leaf_vector":"0"}},{"base_weights":[1.2152917E-3,7.867907E-2,-4.2948595E-1,1.4469454E-1,-3.6197416E-2,-3.455074E-1,1.4309008E-1],"categories":[],"categories_nodes":[],"categories_segments":[],"categories_sizes":[],"default_left":[0,0,0,0,0,0,0],"id":18,"left_children":[1,3,5,-1,-1,-1,-1],"loss_changes":[2.0306235E2,4.152343E2,6.079647E2,0E0,0E0,0E0,0E0],"parents":[2147483647,0,0,1,1,2,2],"right_children":[2,4,6,-1,-1,-1,-1],"split_conditions":[7E0,4E0,4E0,1.4469454E-1,-3.6197416E-2,-3.455074E-1,1.4309008E-1],"split_indices":[0,3,3,0,0,0,0],"split_type":[0,0,0,0,0,0,0],"sum_hessian":[6.085356E3,5.1586045E3,9.2675146E2,1.7050815E3,3.4535232E3,5.157075E2,4.1104395E2],"tree_param":{"num_deleted":"0","num_feature":"6","num_nodes":"7","size_leaf_vector":"0"}},{"base_weights":[2.0008576E-3,-4.6273884E-1,5.8627825E-2,2.7607186E-2,-1.7744626E-1,-2.4985643E-2,8.68389E-2],"categories":[],"categories_nodes":[],"categories_segments":[],"categories_sizes":[],"default_left":[0,0,0,0,0,0,0],"id":19,"left_children":[1,3,5,-1,-1,-1,-1],"loss_changes":[1.6028162E2,4.735034E1,1.7794002E2,0E0,0E0,0E0,0E0],"parents":[2147483647,0,0,1,1,2,2],"right_children":[2,4,6,-1,-1,-1,-1],"split_conditions":[1E0,2E0,6E0,2.7607186E-2,-1.7744626E-1,-2.4985643E-2,8.68389E-2],"split_indices":[5,2,0,0,0,0,0],"split_type":[0,0,0,0,0,0,0],"sum_hessian":[6.089972E3,6.604767E2,5.4294956E3,1.2431723E2,5.361595E2,3.362498E3,2.0669973E3],"tree_param":{"num_deleted":"0","num_feature":"6","num_nodes":"7","size_leaf_vector":"0"}},{"base_weights":[1.3830179E-3,2.4900556E-1,-1.01763986E-1,1.3996011E-2,1.7082082E-1,-8.9001596E-2,4.8284665E-2],"categories":[],"categories_nodes":[],"categories_segments":[],"categories_sizes":[],"default_left":[0,0,0,0,0,0,0],"id":20,"left_children":[1,3,5,-1,-1,-1,-1],"loss_changes":[1.5373549E2,1.1467078E2,2.1760016E2,0E0,0E0,0E0,0E0],"parents":[2147483647,0,0,1,1,2,2],"right_children":[2,4,6,-1,-1,-1,-1],"split_conditions":[2E0,5E0,5E0,1.3996011E-2,1.7082082E-1,-8.9001596E-2,4.8284665E-2],"split_indices":[4,2,4,0,0,0,0],"split_type":[0,0,0,0,0,0,0],"sum_hessian":[6.0164727E3,1.7690682E3,4.2474043E3,1.0851692E3,6.8389905E2,2.4385115E3,1.8088926E3],"tree_param":{"num_deleted":"0","num_feature":"6","num_nodes":"7","size_leaf_vector":"0"}},{"base_weights":[1.5241195E-3,-3.4353617E-1,7.3973745E-2,-2.2111419E-1,-4.415441E-2,-3.1443503E-2,7.7938594E-2],"categories":[],"categories_nodes":[],"categories_segments":[],"categories_sizes":[],"default_left":[0,0,0,0,0,0,0],"id":21,"left_children":[1,3,5,-1,-1,-1,-1],"loss_changes":[1.4914966E2,7.979343E1,1.6389241E2,0E0,0E0,0E0,0E0],"parents":[2147483647,0,0,1,1,2,2],"right_children":[2,4,6,-1,-1,-1,-1],"split_conditions":[1E0,3E0,4E0,-2.2111419E-1,-4.415441E-2,-3.1443503E-2,7.7938594E-2],"split_indices":[1,5,2,0,0,0,0],"split_type":[0,0,0,0,0,0,0],"sum_hessian":[5.96517E3,1.0342347E3,4.9309355E3,3.431903E2,6.9104443E2,2.512994E3,2.4179414E3],"tree_param":{"num_deleted":"0","num_feature":"6","num_nodes":"7","size_leaf_vector":"0"}},{"base_weights":[8.2190544E-4,6.4339034E-2,-3.4500962E-1,-2.8172133E-2,1.4599165E-1,-2.4943861E-1,9.72976E-2],"categories":[],"categories_nodes":[],"categories_segments":[],"categories_sizes":[],"default_left":[0,0,0,0,0,0,0],"id":22,"left_children":[1,3,5,-1,-1,-1,-1],"loss_changes":[1.2929744E2,3.3249518E2,2.9768835E2,0E0,0E0,0E0,0E0],"parents":[2147483647,0,0,1,1,2,2],"right_children":[2,4,6,-1,-1,-1,-1],"split_conditions":[7E0,6E0,4E0,-2.8172133E-2,1.4599165E-1,-2.4943861E-1,9.72976E-2],"split_indices":[0,0,3,0,0,0,0],"split_type":[0,0,0,0,0,0,0],"sum_hessian":[5.8854604E3,4.973167E3,9.1229333E2,3.6179663E3,1.3552004E3,5.282699E2,3.840234E2],"tree_param":{"num_deleted":"0","num_feature":"6","num_nodes":"7","size_leaf_vector":"0"}},{"base_weights":[1.4785675E-3,-2.5554729E-1,8.267013E-2,-3.9236866E-2,-2.83152E-1,-6.8767436E-2,6.286067E-2],"categories":[],"categories_nodes":[],"categories_segments":[],"categories_sizes":[],"default_left":[0,0,0,0,0,0,0],"id":23,"left_children":[1,3,5,-1,-1,-1,-1],"loss_changes":[1.2181976E2,1.2009416E2,1.7561661E2,0E0,0E0,0E0,0E0],"parents":[2147483647,0,0,1,1,2,2],"right_children":[2,4,6,-1,-1,-1,-1],"split_conditions":[2E0,6E0,2E0,-3.9236866E-2,-2.83152E-1,-6.8767436E-2,6.286067E-2],"split_indices":[5,1,2,0,0,0,0],"split_type":[0,0,0,0,0,0,0],"sum_hessian":[5.836359E3,1.4002495E3,4.4361094E3,1.18652E3,2.1372949E2,1.2822183E3,3.1538909E3],"tree_param":{"num_deleted":"0","num_feature":"6","num_nodes":"7","size_leaf_vector":"0"}},{"base_weights":[4.971034E-4,-4.0590238E-2,4.99061E-1,-7.517746E-2,1.4127607E-2,1.9310997E-1,-6.439129E-2],"categories":[],"categories_nodes":[],"categories_segments":[],"categories_sizes":[],"default_left":[0,0,0,0,0,0,0],"id":24,"left_children":[1,3,5,-1,-1,-1,-1],"loss_changes":[1.1803005E2,9.80087E1,4.5468025E1,0E0,0E0,0E0,0E0],"parents":[2147483647,0,0,1,1,2,2],"right_children":[2,4,6,-1,-1,-1,-1],"split_conditions":[8E0,2E0,7E0,-7.517746E-2,1.4127607E-2,1.9310997E-1,-6.439129E-2],"split_indices":[2,1,5,0,0,0,0],"split_type":[0,0,0,0,0,0,0],"sum_hessian":[5.757647E3,5.319941E3,4.3770575E2,1.5667697E3,3.7531714E3,3.6414578E2,7.355996E1],"tree_param":{"num_deleted":"0","num_feature":"6","num_nodes":"7","size_leaf_vector":"0"}},{"base_weights":[8.660159E-4,6.2456053E-2,-2.995827E-1,-4.132345E-3,1.259046E-1,-2.2650431E-1,-2.4511755E-2],"categories":[],"categories_nodes":[],"categories_segments":[],"categories_sizes":[],"default_left":[0,0,0,0,0,0,0],"id":25,"left_children":[1,3,5,-1,-1,-1,-1],"loss_changes":[1.05838745E2,1.2933867E2,9.639923E1,0E0,0E0,0E0,0E0],"parents":[2147483647,0,0,1,1,2,2],"right_children":[2,4,6,-1,-1,-1,-1],"split_conditions":[6E0,7E0,3E0,-4.132345E-3,1.259046E-1,-2.2650431E-1,-2.4511755E-2],"split_indices":[1,2,5,0,0,0,0],"split_type":[0,0,0,0,0,0,0],"sum_hessian":[5.718847E3,4.7468906E3,9.7195685E2,3.9126326E3,8.34258E2,3.1357056E2,6.583863E2],"tree_param":{"num_deleted":"0","num_feature":"6","num_nodes":"7","size_leaf_vector":"0"}},{"base_weights":[7.2953786E-4,3.200983E-1,-5.935709E-2,7.064609E-2,2.962462E-1,-4.170563E-2,7.832474E-2],"categories":[],"categories_nodes":[],"categories_segments":[],"categories_sizes":[],"default_left":[0,0,0,0,0,0,0],"id":26,"left_children":[1,3,5,-1,-1,-1,-1],"loss_changes":[1.0836353E2,5.0141632E1,1.21310585E2,0E0,0E0,0E0,0E0],"parents":[2147483647,0,0,1,1,2,2],"right_children":[2,4,6,-1,-1,-1,-1],"split_conditions":[1E0,7E0,6E0,7.064609E-2,2.962462E-1,-4.170563E-2,7.832474E-2],"split_indices":[4,2,4,0,0,0,0],"split_type":[0,0,0,0,0,0,0],"sum_hessian":[5.6435874E3,8.932384E2,4.750349E3,7.940693E2,9.916914E1,3.80524E3,9.451091E2],"tree_param":{"num_deleted":"0","num_feature":"6","num_nodes":"7","size_leaf_vector":"0"}},{"base_weights":[1.0760408E-3,-3.8144055E-1,4.5571104E-2,5.6838583E-2,-1.5619753E-1,-9.7251736E-2,2.9985314E-2],"categories":[],"categories_nodes":[],"categories_segments":[],"categories_sizes":[],"default_left":[0,0,0,0,0,0,0],"id":27,"left_children":[1,3,5,-1,-1,-1,-1],"loss_changes":[9.560407E1,4.664991E1,1.0122269E2,0E0,0E0,0E0,0E0],"parents":[2147483647,0,0,1,1,2,2],"right_children":[2,4,6,-1,-1,-1,-1],"split_conditions":[1E0,2E0,1E0,5.6838583E-2,-1.5619753E-1,-9.7251736E-2,2.9985314E-2],"split_indices":[5,2,2,0,0,0,0],"split_type":[0,0,0,0,0,0,0],"sum_hessian":[5.6170796E3,5.8428235E2,5.0327974E3,1.1433599E2,4.6994635E2,6.444195E2,4.388378E3],"tree_param":{"num_deleted":"0","num_feature":"6","num_nodes":"7","size_leaf_vector":"0"}},{"base_weights":[3.6733528E-4,-2.6050392E-1,5.468054E-2,-1.6670515E-1,-1.9096844E-2,5.266331E-2,-4.8437487E-2],"categories":[],"categories_nodes":[],"categories_segments":[],"categories_sizes":[],"default_left":[0,0,0,0,0,0,0],"id":28,"left_children":[1,3,5,-1,-1,-1,-1],"loss_changes":[7.909322E1,5.5792877E1,1.2076677E2,0E0,0E0,0E0,0E0],"parents":[2147483647,0,0,1,1,2,2],"right_children":[2,4,6,-1,-1,-1,-1],"split_conditions":[1E0,4E0,5E0,-1.6670515E-1,-1.9096844E-2,5.266331E-2,-4.8437487E-2],"split_indices":[1,5,1,0,0,0,0],"split_type":[0,0,0,0,0,0,0],"sum_hessian":[5.581677E3,9.608741E2,4.6208027E3,3.8348874E2,5.773853E2,2.9639988E3,1.6568038E3],"tree_param":{"num_deleted":"0","num_feature":"6","num_nodes":"7","size_leaf_vector":"0"}},{"base_weights":[-4.0161526E-6,-9.414975E-2,1.5214701E-1,1.1672606E-1,-9.74783E-2,-4.69005E-2,2.071064E-1],"categories":[],"categories_nodes":[],"categories_segments":[],"categories_sizes":[],"default_left":[0,0,0,0,0,0,0],"id":29,"left_children":[1,3,5,-1,-1,-1,-1],"loss_changes":[7.961173E1,3.8308127E2,3.5283405E2,0E0,0E0,0E0,0E0],"parents":[2147483647,0,0,1,1,2,2],"right_children":[2,4,6,-1,-1,-1,-1],"split_conditions":[6E0,4E0,6E0,1.1672606E-1,-9.74783E-2,-4.69005E-2,2.071064E-1],"split_indices":[0,3,5,0,0,0,0],"split_type":[0,0,0,0,0,0,0],"sum_hessian":[5.5561875E3,3.4330037E3,2.123184E3,1.1092253E3,2.323778E3,1.3499584E3,7.732257E2],"tree_param":{"num_deleted":"0","num_feature":"6","num_nodes":"7","size_leaf_vector":"0"}},{"base_weights":[8.610335E-4,-4.7199566E-2,2.990548E-1,-8.4452346E-2,1.9680142E-2,2.9115027E-1,-1.7563914E-1],"categories":[],"categories_nodes":[],"categories_segments":[],"categories_sizes":[],"default_left":[0,0,0,0,0,0,0],"id":30,"left_children":[1,3,5,-1,-1,-1,-1],"loss_changes":[7.833735E1,1.2441027E2,4.5123505E2,0E0,0E0,0E0,0E0],"parents":[2147483647,0,0,1,1,2,2],"right_children":[2,4,6,-1,-1,-1,-1],"split_conditions":[7E0,4E0,4E0,-8.4452346E-2,1.9680142E-2,2.9115027E-1,-1.7563914E-1],"split_indices":[3,0,0,0,0,0,0],"split_type":[0,0,0,0,0,0,0],"sum_hessian":[5.4624023E3,4.7046494E3,7.577531E2,1.5286753E3,3.1759739E3,4.3076865E2,3.269845E2],"tree_param":{"num_deleted":"0","num_feature":"6","num_nodes":"7","size_leaf_vector":"0"}},{"base_weights":[-2.3114494E-4,5.3460564E-2,-2.9234484E-1,-1.7108876E-2,1.0953132E-1,-1.9856799E-1,7.497932E-2],"categories":[],"categories_nodes":[],"categories_segments":[],"categories_sizes":[],"default_left":[0,0,0,0,0,0,0],"id":31,"left_children":[1,3,5,-1,-1,-1,-1],"loss_changes":[8.562041E1,1.5878648E2,1.7007487E2,0E0,0E0,0E0,0E0],"parents":[2147483647,0,0,1,1,2,2],"right_children":[2,4,6,-1,-1,-1,-1],"split_conditions":[7E0,6E0,4E0,-1.7108876E-2,1.0953132E-1,-1.9856799E-1,7.497932E-2],"split_indices":[0,0,3,0,0,0,0],"split_type":[0,0,0,0,0,0,0],"sum_hessian":[5.455544E3,4.608886E3,8.466578E2,3.4029138E3,1.2059724E3,5.0349884E2,3.4315894E2],"tree_param":{"num_deleted":"0","num_feature":"6","num_nodes":"7","size_leaf_vector":"0"}},{"base_weights":[2.7976683E-4,1.8725099E-1,-7.582332E-2,3.2461576E-2,2.0373435E-1,-6.873893E-2,3.8843818E-2],"categories":[],"categories_nodes":[],"categories_segments":[],"categories_sizes":[],"default_left":[0,0,0,0,0,0,0],"id":32,"left_children":[1,3,5,-1,-1,-1,-1],"loss_changes":[7.713638E1,6.0825554E1,1.2127471E2,0E0,0E0,0E0,0E0],"parents":[2147483647,0,0,1,1,2,2],"right_children":[2,4,6,-1,-1,-1,-1],"split_conditions":[2E0,7E0,5E0,3.2461576E-2,2.0373435E-1,-6.873893E-2,3.8843818E-2],"split_indices":[4,2,4,0,0,0,0],"split_type":[0,0,0,0,0,0,0],"sum_hessian":[5.4182544E3,1.5673699E3,3.8508845E3,1.3515846E3,2.1578535E2,2.2048328E3,1.6460515E3],"tree_param":{"num_deleted":"0","num_feature":"6","num_nodes":"7","size_leaf_vector":"0"}},{"base_weights":[6.2136987E-4,-3.014867E-2,4.0432206E-1,-7.4510306E-2,9.041881E-3,6.270279E-2,2.8932515E-1],"categories":[],"categories_nodes":[],"categories_segments":[],"categories_sizes":[],"default_left":[0,0,0,0,0,0,0],"id":33,"left_children":[1,3,5,-1,-1,-1,-1],"loss_changes":[6.6989204E1,6.591342E1,4.1463764E1,0E0,0E0,0E0,0E0],"parents":[2147483647,0,0,1,1,2,2],"right_children":[2,4,6,-1,-1,-1,-1],"split_conditions":[8E0,2E0,5E0,-7.4510306E-2,9.041881E-3,6.270279E-2,2.8932515E-1],"split_indices":[2,5,4,0,0,0,0],"split_type":[0,0,0,0,0,0,0],"sum_hessian":[5.3878433E3,5.0068955E3,3.8094763E2,1.0835228E3,3.9233726E3,2.836031E2,9.734454E1],"tree_param":{"num_deleted":"0","num_feature":"6","num_nodes":"7","size_leaf_vector":"0"}},{"base_weights":[7.8803237E-4,-1.7361484E-1,7.4866705E-2,-1.5023784E-1,-2.669424E-2,6.8399124E-2,-4.0174674E-2],"categories":[],"categories_nodes":[],"categories_segments":[],"categories_sizes":[],"default_left":[0,0,0,0,0,0,0],"id":34,"left_children":[1,3,5,-1,-1,-1,-1],"loss_changes":[6.8955475E1,4.395223E1,1.1983648E2,0E0,0E0,0E0,0E0],"parents":[2147483647,0,0,1,1,2,2],"right_children":[2,4,6,-1,-1,-1,-1],"split_conditions":[2E0,2E0,5E0,-1.5023784E-1,-2.669424E-2,6.8399124E-2,-4.0174674E-2],"split_indices":[1,5,1,0,0,0,0],"split_type":[0,0,0,0,0,0,0],"sum_hessian":[5.3360615E3,1.5900127E3,3.7460486E3,3.2552E2,1.2644927E3,2.1612656E3,1.5847831E3],"tree_param":{"num_deleted":"0","num_feature":"6","num_nodes":"7","size_leaf_vector":"0"}},{"base_weights":[3.1308515E-4,-4.910604E-2,2.3559123E-1,1.52818E-3,-1.0264562E-1,1.2524034E-2,2.4110392E-1],"categories":[],"categories_nodes":[],"categories_segments":[],"categories_sizes":[],"default_left":[0,0,0,0,0,0,0],"id":35,"left_children":[1,3,5,-1,-1,-1,-1],"loss_changes":[6.1786682E1,6.9760056E1,1.01467834E2,0E0,0E0,0E0,0E0],"parents":[2147483647,0,0,1,1,2,2],"right_children":[2,4,6,-1,-1,-1,-1],"split_conditions":[7E0,7E0,5E0,1.52818E-3,-1.0264562E-1,1.2524034E-2,2.4110392E-1],"split_indices":[2,0,4,0,0,0,0],"split_type":[0,0,0,0,0,0,0],"sum_hessian":[5.3103604E3,4.388865E3,9.2149524E2,3.7043694E3,6.844958E2,6.879879E2,2.3350732E2],"tree_param":{"num_deleted":"0","num_feature":"6","num_nodes":"7","size_leaf_vector":"0"}},{"base_weights":[9.252216E-4,2.3189308E-1,-4.228737E-2,2.0159464E-2,1.8395479E-1,2.6768604E-2,-3.75829E-2],"categories":[],"categories_nodes":[],"categories_segments":[],"categories_sizes":[],"default_left":[0,0,0,0,0,0,0],"id":36,"left_children":[1,3,5,-1,-1,-1,-1],"loss_changes":[5.2768684E1,5.222149E1,4.860386E1,0E0,0E0,0E0,0E0],"parents":[2147483647,0,0,1,1,2,2],"right_children":[2,4,6,-1,-1,-1,-1],"split_conditions":[1E0,5E0,4E0,2.0159464E-2,1.8395479E-1,2.6768604E-2,-3.75829E-2],"split_indices":[4,2,3,0,0,0,0],"split_type":[0,0,0,0,0,0,0],"sum_hessian":[5.2831797E3,8.323394E2,4.4508403E3,5.822708E2,2.500686E2,1.721472E3,2.7293682E3],"tree_param":{"num_deleted":"0","num_feature":"6","num_nodes":"7","size_leaf_vector":"0"}},{"base_weights":[1.0071296E-3,-2.7455336E-1,3.156763E-2,7.095393E-2,-1.2243879E-1,-8.057174E-2,2.2471529E-2],"categories":[],"categories_nodes":[],"categories_segments":[],"categories_sizes":[],"default_left":[0,0,0,0,0,0,0],"id":37,"left_children":[1,3,5,-1,-1,-1,-1],"loss_changes":[4.4276794E1,3.594313E1,6.1600025E1,0E0,0E0,0E0,0E0],"parents":[2147483647,0,0,1,1,2,2],"right_children":[2,4,6,-1,-1,-1,-1],"split_conditions":[1E0,2E0,1E0,7.095393E-2,-1.2243879E-1,-8.057174E-2,2.2471529E-2],"split_indices":[5,2,2,0,0,0,0],"split_type":[0,0,0,0,0,0,0],"sum_hessian":[5.2585923E3,5.238492E2,4.734743E3,1.0823163E2,4.1561755E2,5.96448E2,4.1382954E3],"tree_param":{"num_deleted":"0","num_feature":"6","num_nodes":"7","size_leaf_vector":"0"}},{"base_weights":[4.3858102E-4,-3.522662E-2,2.166139E-1,1.5159848E-2,-9.31085E-2,2.0354012E-1,-1.3368559E-1],"categories":[],"categories_nodes":[],"categories_segments":[],"categories_sizes":[],"default_left":[0,0,0,0,0,0,0],"id":38,"left_children":[1,3,5,-1,-1,-1,-1],"loss_changes":[4.0391262E1,1.0609212E2,2.2726364E2,0E0,0E0,0E0,0E0],"parents":[2147483647,0,0,1,1,2,2],"right_children":[2,4,6,-1,-1,-1,-1],"split_conditions":[7E0,6E0,4E0,1.5159848E-2,-9.31085E-2,2.0354012E-1,-1.3368559E-1],"split_indices":[3,3,0,0,0,0,0],"split_type":[0,0,0,0,0,0,0],"sum_hessian":[5.2345156E3,4.493534E3,7.409812E2,3.4260798E3,1.0674545E3,4.3660873E2,3.0437247E2],"tree_param":{"num_deleted":"0","num_feature":"6","num_nodes":"7","size_leaf_vector":"0"}},{"base_weights":[-1.5859547E-4,-4.116353E-2,2.008463E-1,-2.4672786E-2,6.844072E-2,2.7727913E-2,3.2720384E-1],"categories":[],"categories_nodes":[],"categories_segments":[],"categories_sizes":[],"default_left":[0,0,0,0,0,0,0],"id":39,"left_children":[1,3,5,-1,-1,-1,-1],"loss_changes":[4.3034893E1,4.8000687E1,8.512176E1,0E0,0E0,0E0,0E0],"parents":[2147483647,0,0,1,1,2,2],"right_children":[2,4,6,-1,-1,-1,-1],"split_conditions":[7E0,8E0,6E0,-2.4672786E-2,6.844072E-2,2.7727913E-2,3.2720384E-1],"split_indices":[2,5,4,0,0,0,0],"split_type":[0,0,0,0,0,0,0],"sum_hessian":[5.221226E3,4.337641E3,8.835847E2,3.7644722E3,5.7316907E2,7.88703E2,9.488168E1],"tree_param":{"num_deleted":"0","num_feature":"6","num_nodes":"7","size_leaf_vector":"0"}},{"base_weights":[5.064098E-4,-1.3551708E-1,5.7757437E-2,-7.6667175E-2,1.2888893E-2,-1.7601868E-2,7.3399454E-2],"categories":[],"categories_nodes":[],"categories_segments":[],"categories_sizes":[],"default_left":[0,0,0,0,0,0,0],"id":40,"left_children":[1,3,5,-1,-1,-1,-1],"loss_changes":[4.0359463E1,3.2918213E1,7.94337E1,0E0,0E0,0E0,0E0],"parents":[2147483647,0,0,1,1,2,2],"right_children":[2,4,6,-1,-1,-1,-1],"split_conditions":[2E0,6E0,5E0,-7.6667175E-2,1.2888893E-2,-1.7601868E-2,7.3399454E-2],"split_indices":[1,0,2,0,0,0,0],"split_type":[0,0,0,0,0,0,0],"sum_hessian":[5.181599E3,1.5339509E3,3.6476484E3,9.171994E2,6.167515E2,2.247662E3,1.3999863E3],"tree_param":{"num_deleted":"0","num_feature":"6","num_nodes":"7","size_leaf_vector":"0"}},{"base_weights":[4.5655173E-4,4.4511884E-2,-2.1735112E-1,-1.3131115E-2,5.5306952E-2,-2.035538E-3,-1.9569309E-1],"categories":[],"categories_nodes":[],"categories_segments":[],"categories_sizes":[],"default_left":[0,0,0,0,0,0,0],"id":41,"left_children":[1,3,5,-1,-1,-1,-1],"loss_changes":[4.9256508E1,5.2757317E1,7.901819E1,0E0,0E0,0E0,0E0],"parents":[2147483647,0,0,1,1,2,2],"right_children":[2,4,6,-1,-1,-1,-1],"split_conditions":[6E0,5E0,6E0,-1.3131115E-2,5.5306952E-2,-2.035538E-3,-1.9569309E-1],"split_indices":[1,2,2,0,0,0,0],"split_type":[0,0,0,0,0,0,0],"sum_hessian":[5.1330376E3,4.270509E3,8.6252875E2,2.6178577E3,1.652651E3,5.8201685E2,2.805119E2],"tree_param":{"num_deleted":"0","num_feature":"6","num_nodes":"7","size_leaf_vector":"0"}},{"base_weights":[6.6565E-4,1.4299743E-1,-5.7074998E-2,2.6580205E-2,1.6174954E-1,-3.9006148E-2,5.5653926E-2],"categories":[],"categories_nodes":[],"categories_segments":[],"categories_sizes":[],"default_left":[0,0,0,0,0,0,0],"id":42,"left_children":[1,3,5,-1,-1,-1,-1],"loss_changes":[4.205659E1,3.1720785E1,6.441854E1,0E0,0E0,0E0,0E0],"parents":[2147483647,0,0,1,1,2,2],"right_children":[2,4,6,-1,-1,-1,-1],"split_conditions":[2E0,7E0,6E0,2.6580205E-2,1.6174954E-1,-3.9006148E-2,5.5653926E-2],"split_indices":[4,2,4,0,0,0,0],"split_type":[0,0,0,0,0,0,0],"sum_hessian":[5.1143755E3,1.4760759E3,3.6382993E3,1.2991667E3,1.7690912E2,2.797866E3,8.4043335E2],"tree_param":{"num_deleted":"0","num_feature":"6","num_nodes":"7","size_leaf_vector":"0"}},{"base_weights":[7.381542E-4,-2.6330435E-1,2.9619223E-2,6.147772E-2,-1.1820413E-1,-1.901136E-2,4.6384446E-2],"categories":[],"categories_nodes":[],"categories_segments":[],"categories_sizes":[],"default_left":[0,0,0,0,0,0,0],"id":43,"left_children":[1,3,5,-1,-1,-1,-1],"loss_changes":[3.8838936E1,3.0830288E1,5.34168E1,0E0,0E0,0E0,0E0],"parents":[2147483647,0,0,1,1,2,2],"right_children":[2,4,6,-1,-1,-1,-1],"split_conditions":[1E0,2E0,5E0,6.147772E-2,-1.1820413E-1,-1.901136E-2,4.6384446E-2],"split_indices":[5,2,0,0,0,0,0],"split_type":[0,0,0,0,0,0,0],"sum_hessian":[5.0941187E3,5.0111758E2,4.593001E3,1.0907039E2,3.920472E2,2.6335017E3,1.9594993E3],"tree_param":{"num_deleted":"0","num_feature":"6","num_nodes":"7","size_leaf_vector":"0"}},{"base_weights":[4.1981306E-4,3.719991E-2,-1.9552328E-1,8.52896E-2,-2.660291E-2,-1.5507106E-1,8.377668E-2],"categories":[],"categories_nodes":[],"categories_segments":[],"categories_sizes":[],"default_left":[0,0,0,0,0,0,0],"id":44,"left_children":[1,3,5,-1,-1,-1,-1],"loss_changes":[3.6497475E1,1.3274017E2,1.2228036E2,0E0,0E0,0E0,0E0],"parents":[2147483647,0,0,1,1,2,2],"right_children":[2,4,6,-1,-1,-1,-1],"split_conditions":[7E0,4E0,4E0,8.52896E-2,-2.660291E-2,-1.5507106E-1,8.377668E-2],"split_indices":[0,3,3,0,0,0,0],"split_type":[0,0,0,0,0,0,0],"sum_hessian":[5.0644946E3,4.2652026E3,7.9929236E2,1.4393173E3,2.8258853E3,4.7672003E2,3.2257233E2],"tree_param":{"num_deleted":"0","num_feature":"6","num_nodes":"7","size_leaf_vector":"0"}},{"base_weights":[3.86912E-4,-1.8881147E-1,3.845782E-2,-9.869859E-3,-1.5048914E-1,3.5588857E-2,-3.1217365E-2],"categories":[],"categories_nodes":[],"categories_segments":[],"categories_sizes":[],"default_left":[0,0,0,0,0,0,0],"id":45,"left_children":[1,3,5,-1,-1,-1,-1],"loss_changes":[3.636747E1,4.1175972E1,4.8063095E1,0E0,0E0,0E0,0E0],"parents":[2147483647,0,0,1,1,2,2],"right_children":[2,4,6,-1,-1,-1,-1],"split_conditions":[1E0,6E0,5E0,-9.869859E-3,-1.5048914E-1,3.5588857E-2,-3.1217365E-2],"split_indices":[1,2,1,0,0,0,0],"split_type":[0,0,0,0,0,0,0],"sum_hessian":[5.0490454E3,8.446851E2,4.2043604E3,5.6467206E2,2.800131E2,2.6912668E3,1.5130934E3],"tree_param":{"num_deleted":"0","num_feature":"6","num_nodes":"7","size_leaf_vector":"0"}},{"base_weights":[3.5626366E-4,-2.273614E-2,3.3041266E-1,-1.7919483E-2,6.05815E-2,1.5163627E-1,-1.359736E-1],"categories":[],"categories_nodes":[],"categories_segments":[],"categories_sizes":[],"default_left":[0,0,0,0,0,0,0],"id":46,"left_children":[1,3,5,-1,-1,-1,-1],"loss_changes":[3.8545773E1,3.925154E1,4.5599606E1,0E0,0E0,0E0,0E0],"parents":[2147483647,0,0,1,1,2,2],"right_children":[2,4,6,-1,-1,-1,-1],"split_conditions":[8E0,7E0,7E0,-1.7919483E-2,6.05815E-2,1.5163627E-1,-1.359736E-1],"split_indices":[2,3,5,0,0,0,0],"split_type":[0,0,0,0,0,0,0],"sum_hessian":[5.051286E3,4.7215693E3,3.2971658E2,4.0550361E3,6.6653326E2,2.6991068E2,5.980591E1],"tree_param":{"num_deleted":"0","num_feature":"6","num_nodes":"7","size_leaf_vector":"0"}},{"base_weights":[5.466619E-4,-7.1306735E-2,9.4987996E-2,7.684991E-2,-7.8281626E-2,-3.9800562E-2,1.1471232E-1],"categories":[],"categories_nodes":[],"categories_segments":[],"categories_sizes":[],"default_left":[0,0,0,0,0,0,0],"id":47,"left_children":[1,3,5,-1,-1,-1,-1],"loss_changes":[3.425618E1,1.7805087E2,1.428118E2,0E0,0E0,0E0,0E0],"parents":[2147483647,0,0,1,1,2,2],"right_children":[2,4,6,-1,-1,-1,-1],"split_conditions":[5E0,4E0,5E0,7.684991E-2,-7.8281626E-2,-3.9800562E-2,1.1471232E-1],"split_indices":[0,3,5,0,0,0,0],"split_type":[0,0,0,0,0,0,0],"sum_hessian":[5.045771E3,2.8651086E3,2.1806624E3,1.0503663E3,1.8147423E3,1.2168838E3,9.637785E2],"tree_param":{"num_deleted":"0","num_feature":"6","num_nodes":"7","size_leaf_vector":"0"}},{"base_weights":[5.788934E-4,-3.612445E-2,2.1906604E-1,-5.634328E-2,1.114438E-2,1.6483451E-1,-8.5655585E-2],"categories":[],"categories_nodes":[],"categories_segments":[],"categories_sizes":[],"default_left":[0,0,0,0,0,0,0],"id":48,"left_children":[1,3,5,-1,-1,-1,-1],"loss_changes":[4.001977E1,4.7484978E1,1.1984999E2,0E0,0E0,0E0,0E0],"parents":[2147483647,0,0,1,1,2,2],"right_children":[2,4,6,-1,-1,-1,-1],"split_conditions":[7E0,4E0,4E0,-5.634328E-2,1.114438E-2,1.6483451E-1,-8.5655585E-2],"split_indices":[3,0,0,0,0,0,0],"split_type":[0,0,0,0,0,0,0],"sum_hessian":[4.98622E3,4.2693887E3,7.1683154E2,1.3905376E3,2.8788513E3,4.3325946E2,2.835721E2],"tree_param":{"num_deleted":"0","num_feature":"6","num_nodes":"7","size_leaf_vector":"0"}},{"base_weights":[1.4750494E-4,1.8336187E-1,-3.3583496E-2,-3.8910266E-2,1.0033499E-1,-2.3777174E-2,4.6436295E-2],"categories":[],"categories_nodes":[],"categories_segments":[],"categories_sizes":[],"default_left":[0,0,0,0,0,0,0],"id":49,"left_children":[1,3,5,-1,-1,-1,-1],"loss_changes":[3.0796663E1,3.6716255E1,3.619122E1,0E0,0E0,0E0,0E0],"parents":[2147483647,0,0,1,1,2,2],"right_children":[2,4,6,-1,-1,-1,-1],"split_conditions":[1E0,2E0,6E0,-3.8910266E-2,1.0033499E-1,-2.3777174E-2,4.6436295E-2],"split_indices":[4,2,4,0,0,0,0],"split_type":[0,0,0,0,0,0,0],"sum_hessian":[4.978856E3,7.738914E2,4.204965E3,2.5174393E2,5.221475E2,3.3852612E3,8.197034E2],"tree_param":{"num_deleted":"0","num_feature":"6","num_nodes":"7","size_leaf_vector":"0"}},{"base_weights":[1.7416762E-4,-3.4079656E-2,1.7257753E-1,2.794488E-3,-7.9941094E-2,8.054516E-3,2.007278E-1],"categories":[],"categories_nodes":[],"categories_segments":[],"categories_sizes":[],"default_left":[0,0,0,0,0,0,0],"id":50,"left_children":[1,3,5,-1,-1,-1,-1],"loss_changes":[2.9348562E1,4.181378E1,5.9522503E1,0E0,0E0,0E0,0E0],"parents":[2147483647,0,0,1,1,2,2],"right_children":[2,4,6,-1,-1,-1,-1],"split_conditions":[7E0,7E0,5E0,2.794488E-3,-7.9941094E-2,8.054516E-3,2.007278E-1],"split_indices":[2,0,4,0,0,0,0],"split_type":[0,0,0,0,0,0,0],"sum_hessian":[4.96538E3,4.142544E3,8.2283575E2,3.4911638E3,6.5138007E2,6.370999E2,1.8573584E2],"tree_param":{"num_deleted":"0","num_feature":"6","num_nodes":"7","size_leaf_vector":"0"}},{"base_weights":[5.3686E-4,-1.1494219E-1,4.9221933E-2,-1.285691E-1,-1.2101362E-2,6.331379E-2,-1.6499227E-2],"categories":[],"categories_nodes":[],"categories_segments":[],"categories_sizes":[],"default_left":[0,0,0,0,0,0,0],"id":51,"left_children":[1,3,5,-1,-1,-1,-1],"loss_changes":[2.782146E1,3.426718E1,5.8759216E1,0E0,0E0,0E0,0E0],"parents":[2147483647,0,0,1,1,2,2],"right_children":[2,4,6,-1,-1,-1,-1],"split_conditions":[2E0,2E0,4E0,-1.285691E-1,-1.2101362E-2,6.331379E-2,-1.6499227E-2],"split_indices":[1,5,1,0,0,0,0],"split_type":[0,0,0,0,0,0,0],"sum_hessian":[4.9477466E3,1.4663079E3,3.4814387E3,2.8060718E2,1.1857007E3,1.3637869E3,2.1176519E3],"tree_param":{"num_deleted":"0","num_feature":"6","num_nodes":"7","size_leaf_vector":"0"}},{"base_weights":[2.0739014E-4,-5.706749E-2,9.712715E-2,6.0689177E-2,-5.646731E-2,-3.401413E-2,1.4935856E-1],"categories":[],"categories_nodes":[],"categories_segments":[],"categories_sizes":[],"default_left":[0,0,0,0,0,0,0],"id":52,"left_children":[1,3,5,-1,-1,-1,-1],"loss_changes":[2.7384233E1,1.0547901E2,1.5470349E2,0E0,0E0,0E0,0E0],"parents":[2147483647,0,0,1,1,2,2],"right_children":[2,4,6,-1,-1,-1,-1],"split_conditions":[6E0,4E0,6E0,6.0689177E-2,-5.646731E-2,-3.401413E-2,1.4935856E-1],"split_indices":[0,3,5,0,0,0,0],"split_type":[0,0,0,0,0,0,0],"sum_hessian":[4.930427E3,3.0986526E3,1.8317742E3,1.0402457E3,2.058407E3,1.2012305E3,6.3054376E2],"tree_param":{"num_deleted":"0","num_feature":"6","num_nodes":"7","size_leaf_vector":"0"}}]},"name":"gbtree"},"learner_model_param":{"base_score":"5E-1","boost_from_average":"1","num_class":"0","num_feature":"6","num_target":"1"},"objective":{"name":"binary:logistic","reg_loss_param":{"scale_pos_weight":"1"}}},"version":[1,7,6]}