{"learner":{"attributes":{"best_iteration":"60","best_ntree_limit":"61","best_score":"0.9218955800402115","scikit_learn":"{\"use_label_encoder\": null, \"n_estimators\": 500, \"objective\": \"binary:logistic\", \"max_depth\": 4, \"max_leaves\": null, \"max_bin\": null, \"grow_policy\": null, \"learning_rate\": null, \"verbosity\": null, \"booster\": null, \"tree_method\": \"approx\", \"gamma\": null, \"min_child_weight\": null, \"max_delta_step\": null, \"subsample\": null, \"sampling_method\": null, \"colsample_bytree\": null, \"colsample_bylevel\": null, \"colsample_bynode\": null, \"reg_alpha\": null, \"reg_lambda\": null, \"scale_pos_weight\": null, \"base_score\": null, \"missing\": NaN, \"num_parallel_tree\": null, \"random_state\": null, \"n_jobs\": null, \"monotone_constraints\": null, \"interaction_constraints\": null, \"importance_type\": null, \"gpu_id\": null, \"validate_parameters\": null, \"predictor\": null, \"enable_categorical\": false, \"feature_types\": null, \"max_cat_to_onehot\": null, \"max_cat_threshold\": null, \"eval_metric\": [\"logloss\", \"error\", \"auc\", \"aucpr\"], \"early_stopping_rounds\": 10, \"callbacks\": null, \"classes_\": [false, true], \"n_classes_\": 2, \"evals_result_\": {\"validation_0\": {\"logloss\": [0.5865740320885668, 0.5245312807192913, 0.4840136340103826, 0.4541380505069099, 0.432035440099512, 0.41518513449206546, 0.40297710174730245, 0.3895731305321953, 0.37927224918963054, 0.3684574069715273, 0.3597640973146059, 0.35464445313685794, 0.348886441828543, 0.3434592212919572, 0.33916438160649365, 0.3343478648532029, 0.33068186592086246, 0.3247296204425139, 0.31424976383140946, 0.31068928410809393, 0.30432003970856525, 0.2982311405582862, 0.2950072830983063, 0.2922051967082991, 0.28813840272591773, 0.2865438258892289, 0.2843419465474099, 0.2808919213478118, 0.27920991736063383, 0.27656874356798294, 0.2726983679090738, 0.2707187078003982, 0.2690576776632313, 0.26714078109606204, 0.2642638739524745, 0.26175602565158235, 0.2597104155112876, 0.25826472887940666, 0.256492349310317, 0.2555223085538648, 0.25441371425709913, 0.25340662537045006, 0.2516074190546829, 0.2505491063735427, 0.24861455672429944, 0.24683311259351495, 0.24499399783776302, 0.24400179123543245, 0.24303683715003727, 0.24194929545530133, 0.2405900643420103, 0.2396622196695051, 0.23919918206791346, 0.23825371736938022, 0.23763951780430795, 0.23712329348890127, 0.23549382515491976, 0.23453326901278154, 0.23400115847912709, 0.233475872245263, 0.23246634740417352, 0.23151997559887016, 0.23080434311020626, 0.22952810673465354, 0.22883517442830087, 0.22840475785604888, 0.22802913647056056, 0.22748925169110443, 0.22678595665346127, 0.22623177565674119, 0.22517902684351637], \"error\": [0.20725142936828894, 0.20220331892344165, 0.18365639380839494, 0.17919397573560172, 0.17300237065960117, 0.16987867800864592, 0.1662808534374564, 0.16067494073350996, 0.15635197322549158, 0.15216845628224795, 0.15013247803653604, 0.1460884116580672, 0.14500069725282388, 0.14237902663505786, 0.13950634500069725, 0.13839074048249894, 0.13696834472179611, 0.13445823455584996, 0.13077673964579556, 0.1306372890810208, 0.12489192581229953, 0.12444568400502022, 0.12305117835727235, 0.12193557383907405, 0.12112676056338029, 0.12034583740064148, 0.11864454051038907, 0.11727792497559615, 0.11886766141402873, 0.11716636452377632, 0.11641333147399247, 0.11602286989262306, 0.11426579277646075, 0.11356853995258681, 0.11301073769348766, 0.11250871566029842, 0.11262027611211825, 0.112787616789848, 0.11169990238460466, 0.1111421001255055, 0.1112815506902803, 0.11153256170687491, 0.11103053967368567, 0.11052851764049644, 0.1098312648166225, 0.1083251987170548, 0.1072095941988565, 0.10743271510249616, 0.10687491284339702, 0.10623344024543299, 0.10458792358109051, 0.10478315437177521, 0.10483893459768512, 0.10503416538836982, 0.1053688467438293, 0.10517361595314462, 0.10436480267745084, 0.1038070004183517, 0.10372333007948682, 0.10341653883698229, 0.10302607725561289, 0.10260772556128853, 0.10263561567424348, 0.10294240691674801, 0.1026913959001534, 0.10260772556128853, 0.1025519453353786, 0.10266350578719843, 0.1021614837540092, 0.1023567145446939, 0.10207781341514433], \"auc\": [0.8656917622995727, 0.8834058083364611, 0.8894519915929436, 0.8982248885198022, 0.9063731879727537, 0.9139624473840726, 0.9168763075262145, 0.9213256374970676, 0.9252000354708445, 0.9290797619237996, 0.9319894683450383, 0.9338997873357219, 0.9355920250727443, 0.9372104571410103, 0.9383789474417635, 0.9393939635198729, 0.9403138974053498, 0.9429233440249009, 0.9480497943824019, 0.9490512586734086, 0.9516586206423339, 0.9538566697184623, 0.9548879610285876, 0.95563319090859, 0.9567095187740146, 0.9569375979372915, 0.9574982723574791, 0.9586047326168525, 0.9591825329560828, 0.9599152876510619, 0.9610486707525985, 0.9615188872275806, 0.9620304025322628, 0.9624013581651515, 0.9631670029757593, 0.9640321142890604, 0.9644283692918012, 0.964704959428087, 0.9651928377860993, 0.9653187270017697, 0.9655231084550177, 0.965595088106933, 0.9659945417552155, 0.9661996383464584, 0.9667678240526453, 0.9673923576471236, 0.9679915248762512, 0.9681968520566515, 0.9683407132042867, 0.968590385172514, 0.9688947005389092, 0.9690236575251943, 0.9690999747461247, 0.969366227321198, 0.9693391938585607, 0.9694708182005044, 0.9699516916338428, 0.9701602470624469, 0.9702431454225727, 0.9703121788305916, 0.9706411952814578, 0.9708345801247528, 0.9709448687374961, 0.9712544705161287, 0.9713407794145357, 0.9713610650282488, 0.9714254960013285, 0.9714092550460791, 0.971610389554705, 0.9716923967188983, 0.9719413815937578], \"aucpr\": [0.8714951491317613, 0.8933774424503959, 0.9006598450339994, 0.907224492592413, 0.9147635771466058, 0.9242257445878679, 0.9274791668841895, 0.9317331065830929, 0.9355239496715194, 0.9395729573135947, 0.9423172385195171, 0.9439789034566926, 0.9454892713837201, 0.9469604480742707, 0.9480780684388666, 0.949105363714735, 0.9500007928248784, 0.9517396413811609, 0.9554204957757336, 0.9564436537507043, 0.9587769645523694, 0.960078115485232, 0.9608854757930054, 0.9615137941110123, 0.9623904068035181, 0.9627032748057612, 0.9631825914573948, 0.9640813987680402, 0.9644984148244897, 0.9651676180790425, 0.9660773272933791, 0.9664634800331332, 0.9669757844227593, 0.9672415915892881, 0.9680709209954509, 0.9688360354497608, 0.9690965452222411, 0.9693081883327206, 0.9697511486280054, 0.9699127912528368, 0.9700452847771049, 0.9700299611075249, 0.9703936111086138, 0.9705933547495111, 0.9710845097896432, 0.9715947332220477, 0.9722240124137591, 0.9723600172420457, 0.9724800659474166, 0.9726980524642772, 0.9729720644201874, 0.9730336666913784, 0.973122322926134, 0.9733251324261861, 0.9733152524900212, 0.9733956785159479, 0.9737757239209466, 0.9739658585387958, 0.9740448200225404, 0.9741005343055481, 0.9743538930639214, 0.9744721054980957, 0.9746141233552451, 0.974925013254284, 0.9750277563758114, 0.9750647155016818, 0.9751107582047326, 0.9750627156224754, 0.9752702507126384, 0.9753244641318373, 0.9755143060608044]}, \"validation_1\": {\"logloss\": [0.6585500965768447, 0.6619456521119459, 0.6755407329670343, 0.6861084793120397, 0.6999876817246996, 0.652001631101664, 0.6456471403752359, 0.6463441336905648, 0.6247017419207567, 0.6175088013619158, 0.6023040252265183, 0.5891696668268647, 0.5901319486342972, 0.582129235511969, 0.5827853010008622, 0.5824163245062757, 0.5836493114723472, 0.5786989294362389, 0.5328935252151185, 0.5309514144752615, 0.529732418773631, 0.5039165472905395, 0.5016407476226824, 0.4886728304061463, 0.5017765100257268, 0.4987935774503729, 0.493658226092394, 0.46641124909540965, 0.4610371947873343, 0.4585342335359517, 0.46486833023395246, 0.46770560654733195, 0.4667140299353442, 0.4719410316562084, 0.4472402091497863, 0.44861390003016194, 0.4577369015943316, 0.4529715958177617, 0.4469912087222335, 0.444040582651424, 0.44298793946778386, 0.4472949985962687, 0.4291706779569989, 0.42767763642954354, 0.42642709005527574, 0.4259566126256755, 0.4237799633577155, 0.42686286618355535, 0.42808937540837494, 0.41964628898408407, 0.42171448718961807, 0.4221565001154952, 0.42071865025716004, 0.41972148498310446, 0.4206652851413578, 0.41576162893953705, 0.4122530872100765, 0.41152244338136873, 0.4126473474109614, 0.410512087897021, 0.40804519676482975, 0.41343732446069176, 0.4037475672206106, 0.40366477084002145, 0.40943203567171516, 0.41000334256464754, 0.4089484345931424, 0.41426514199047293, 0.4145112813633147, 0.4156621324990119, 0.4154023671036881], \"error\": [0.357206604194556, 0.357429718875502, 0.35118250780901383, 0.3471664435519857, 0.3391343150379295, 0.33288710397144133, 0.32663989290495316, 0.3275323516287372, 0.3192771084337349, 0.3103525211958947, 0.30477465417224453, 0.29852744310575635, 0.3000892458723784, 0.2931726907630522, 0.2940651494868362, 0.29473449352967424, 0.29116465863453816, 0.2815707273538599, 0.2739848282016957, 0.2739848282016957, 0.2809013833110219, 0.27599286033020975, 0.27331548415885765, 0.26595269968763946, 0.27242302543507363, 0.27219991075412764, 0.27041499330655955, 0.2534582775546631, 0.250557786702365, 0.250557786702365, 0.25546630968317713, 0.2563587684069612, 0.25502008032128515, 0.2583668005354752, 0.2425256581883088, 0.24319500223114682, 0.249888442659527, 0.24364123159303883, 0.23962516733601072, 0.23828647925033467, 0.23850959393128068, 0.2389558232931727, 0.22646140116019634, 0.22556894243641232, 0.22623828647925034, 0.22735385988398035, 0.22735385988398035, 0.22913877733154842, 0.2289156626506024, 0.22289156626506024, 0.2242302543507363, 0.2248995983935743, 0.2246764837126283, 0.22445336903168228, 0.22400713966979027, 0.2217759928603302, 0.21954484605087016, 0.22043730477465417, 0.22043730477465417, 0.21954484605087016, 0.2177599286033021, 0.2186523873270861, 0.21128960285586793, 0.20995091477019187, 0.214190093708166, 0.214190093708166, 0.21329763498438198, 0.2179830432842481, 0.2182061579651941, 0.21909861668897815, 0.2213297634984382], \"auc\": [0.714445237436825, 0.7140163999023811, 0.7200721634206897, 0.7060336247931263, 0.7129760402443521, 0.7783623840599574, 0.7910525459834757, 0.7979782170184632, 0.8094057296384389, 0.8148805521526401, 0.8231397605287787, 0.8330621807406327, 0.8344225893605378, 0.8386051841113739, 0.8407130755040821, 0.8422095450391709, 0.8462284054683453, 0.8539506895992309, 0.868143938611561, 0.8712035545487962, 0.8711050933706751, 0.8817201508722036, 0.8831928573734689, 0.8884249359851943, 0.887538083520346, 0.8893825762216856, 0.8918632564741232, 0.8974864726172646, 0.8987328788343961, 0.9003929824251811, 0.8977231002958448, 0.8975564582611836, 0.8980599939399251, 0.8988557046421337, 0.9036191401311118, 0.9033057087229586, 0.9022767793849966, 0.9036462119417968, 0.9055494604989194, 0.9063613140215736, 0.9070245733833567, 0.907326373939512, 0.9102415066204614, 0.9110758197193877, 0.9112486782439098, 0.9112346410087397, 0.9121490666141006, 0.9126112927150559, 0.9127635967166506, 0.914523665475039, 0.9146706553804622, 0.9152830798977367, 0.9156320054576771, 0.91554838364245, 0.9159672948463093, 0.9169569199257952, 0.9178467803696084, 0.918536209148387, 0.9185946642062736, 0.9190363357843014, 0.9196364275878195, 0.91910321318329, 0.919640137428543, 0.9198142994106167, 0.9187108724602882, 0.918576115002656, 0.9189525134371433, 0.9184531889289529, 0.9184207027561309, 0.9183260516846988, 0.9180397923531961], \"aucpr\": [0.7000370531953343, 0.7054090478705046, 0.7106815973363255, 0.6722781845128549, 0.679240053897893, 0.7714820483763347, 0.7872591341537621, 0.7917402622056667, 0.8037343554253034, 0.810194544214241, 0.818462000069636, 0.8298297519629598, 0.8324911572012623, 0.8348278330468107, 0.8376517220295249, 0.8408838512912719, 0.8465735320929149, 0.8520486361126526, 0.8695545423159516, 0.8719016801117035, 0.872702365225985, 0.8838224909028891, 0.8847479948106657, 0.8906781864194001, 0.8897140109498289, 0.8914462130724492, 0.8942037763868641, 0.900224798425693, 0.9014593790819653, 0.9033034176732987, 0.9010004649440194, 0.900731374746955, 0.9013378722702083, 0.9016777513159996, 0.9063330036511917, 0.9058828900596315, 0.9049141651334902, 0.9059170967614645, 0.9080411889355912, 0.9091539632254252, 0.9097156018194846, 0.909722498841131, 0.912915127627957, 0.913859001877752, 0.9141341255928942, 0.9139625462175311, 0.9153123584475141, 0.9155688345412386, 0.9157797130852733, 0.9178238179137092, 0.9178603358994378, 0.9180350697331499, 0.9185353812550944, 0.9182944713105963, 0.918760063021018, 0.919617030051102, 0.9204750563082481, 0.9210904331046409, 0.9211856477677351, 0.9214336727852749, 0.9218955800402115, 0.920826593643187, 0.9213418260559847, 0.9211690418658659, 0.9201614855858209, 0.9201695810608196, 0.9203815361712256, 0.9199059102120696, 0.920195954062668, 0.9200264031159913, 0.9197896461377132]}}, \"_estimator_type\": \"classifier\"}"},"feature_names":["white_piece0_strength","white_piece0_file","white_piece0_rank","black_piece0_strength","black_piece0_file","black_piece0_rank"],"feature_types":["float","float","float","float","float","float"],"gradient_booster":{"model":{"gbtree_model_param":{"num_parallel_tree":"1","num_trees":"71","size_leaf_vector":"0"},"tree_info":[0,0,0,0,0,0,0,0,0,0,0,0,0,0,0,0,0,0,0,0,0,0,0,0,0,0,0,0,0,0,0,0,0,0,0,0,0,0,0,0,0,0,0,0,0,0,0,0,0,0,0,0,0,0,0,0,0,0,0,0,0,0,0,0,0,0,0,0,0,0,0],"trees":[{"base_weights":[7.713544E-2,-5.818231E-1,1.1525025E0,-1.0726258E0,3.0576947E-1,4.609929E-2,1.5174702E0,-3.244529E-1,-1.383004E0,-7.256944E-1,1.103155E0,-8.542544E-1,5.315766E-1,1.1371237E0,1.721405E0,-2.9804775E-1,5.9390865E-2,-4.554684E-1,-1.7225276E-1,-3.4802634E-1,-7.188264E-2,4.909887E-1,7.690532E-2,-5.017544E-1,-1.5618375E-1,-2.2807018E-1,2.3027377E-1,9.3023255E-2,3.823147E-1,3.9455253E-1,5.38276E-1],"categories":[],"categories_nodes":[],"categories_segments":[],"categories_sizes":[],"default_left":[0,0,0,0,0,0,0,0,0,0,0,0,0,0,0,0,0,0,0,0,0,0,0,0,0,0,0,0,0,0,0],"id":0,"left_children":[1,3,5,7,9,11,13,15,17,19,21,23,25,27,29,-1,-1,-1,-1,-1,-1,-1,-1,-1,-1,-1,-1,-1,-1,-1,-1],"loss_changes":[6.3532925E3,2.4221196E3,1.3754795E3,8.308867E2,1.6295056E3,3.7024176E2,1.9672754E2,3.6754352E2,2.758423E2,1.8215768E2,5.0429565E2,8.014377E1,1.683386E2,1.0143152E2,4.6927734E1,0E0,0E0,0E0,0E0,0E0,0E0,0E0,0E0,0E0,0E0,0E0,0E0,0E0,0E0,0E0,0E0],"parents":[2147483647,0,0,1,1,2,2,3,3,4,4,5,5,6,6,7,7,8,8,9,9,10,10,11,11,12,12,13,13,14,14],"right_children":[2,4,6,8,10,12,14,16,18,20,22,24,26,28,30,-1,-1,-1,-1,-1,-1,-1,-1,-1,-1,-1,-1,-1,-1,-1,-1],"split_conditions":[6E0,6E0,2E0,4E0,4E0,7E0,7E0,4E0,5E0,2E0,7E0,2E0,1E0,1E0,1E0,-2.9804775E-1,5.9390865E-2,-4.554684E-1,-1.7225276E-1,-3.4802634E-1,-7.188264E-2,4.909887E-1,7.690532E-2,-5.017544E-1,-1.5618375E-1,-2.2807018E-1,2.3027377E-1,9.3023255E-2,3.823147E-1,3.9455253E-1,5.38276E-1],"split_indices":[2,0,5,3,5,2,2,5,2,5,0,1,1,1,1,0,0,0,0,0,0,0,0,0,0,0,0,0,0,0,0],"split_type":[0,0,0,0,0,0,0,0,0,0,0,0,0,0,0,0,0,0,0,0,0,0,0,0,0,0,0,0,0,0,0],"sum_hessian":[8.96375E3,5.55825E3,3.4055E3,3.579E3,1.97925E3,8.45E2,2.5605E3,1.05E3,2.529E3,8.63E2,1.11625E3,2.9575E2,5.4925E2,8.96E2,1.6645E3,4.6E2,5.9E2,2.166E3,3.63E2,4.55E2,4.08E2,6.8425E2,4.32E2,8.45E1,2.1125E2,8.45E1,4.6475E2,1.28E2,7.68E2,2.56E2,1.4085E3],"tree_param":{"num_deleted":"0","num_feature":"6","num_nodes":"31","size_leaf_vector":"0"}},{"base_weights":[5.7093408E-2,-4.2312136E-1,8.5046405E-1,-7.827038E-1,2.2275437E-1,3.135086E-2,1.1310749E0,-2.3061433E-1,-1.019858E0,-6.819522E-1,7.240372E-1,2.6644272E-1,-1.2840902E0,1.2342582E0,5.405528E-1,-2.656862E-1,2.3510361E-2,-3.7905714E-1,-1.5946947E-1,-3.679958E-1,-1.6082968E-1,1.7803019E-3,4.0374073E-1,-1.549206E-1,2.0573686E-1,-5.1754874E-1,-1.1373489E-1,2.1310152E-1,4.049142E-1,4.1211164E-1,4.838787E-2],"categories":[],"categories_nodes":[],"categories_segments":[],"categories_sizes":[],"default_left":[0,0,0,0,0,0,0,0,0,0,0,0,0,0,0,0,0,0,0,0,0,0,0,0,0,0,0,0,0,0,0],"id":1,"left_children":[1,3,5,7,9,11,13,15,17,19,21,23,25,27,29,-1,-1,-1,-1,-1,-1,-1,-1,-1,-1,-1,-1,-1,-1,-1,-1],"loss_changes":[3.2922363E3,1.2503794E3,7.4887866E2,4.5254468E2,8.739364E2,2.5776685E2,1.4720459E2,2.1063383E2,2.871128E2,5.393631E1,5.535366E2,2.3246191E2,4.9792877E1,1.23956055E2,1.1440098E2,0E0,0E0,0E0,0E0,0E0,0E0,0E0,0E0,0E0,0E0,0E0,0E0,0E0,0E0,0E0,0E0],"parents":[2147483647,0,0,1,1,2,2,3,3,4,4,5,5,6,6,7,7,8,8,9,9,10,10,11,11,12,12,13,13,14,14],"right_children":[2,4,6,8,10,12,14,16,18,20,22,24,26,28,30,-1,-1,-1,-1,-1,-1,-1,-1,-1,-1,-1,-1,-1,-1,-1,-1],"split_conditions":[6E0,6E0,2E0,4E0,3E0,6E0,6E0,3E0,7E0,1E0,4E0,2E0,8E0,1E0,2E0,-2.656862E-1,2.3510361E-2,-3.7905714E-1,-1.5946947E-1,-3.679958E-1,-1.6082968E-1,1.7803019E-3,4.0374073E-1,-1.549206E-1,2.0573686E-1,-5.1754874E-1,-1.1373489E-1,2.1310152E-1,4.049142E-1,4.1211164E-1,4.838787E-2],"split_indices":[2,0,5,3,5,1,1,5,3,1,3,1,2,1,4,0,0,0,0,0,0,0,0,0,0,0,0,0,0,0,0],"split_type":[0,0,0,0,0,0,0,0,0,0,0,0,0,0,0,0,0,0,0,0,0,0,0,0,0,0,0,0,0,0,0],"sum_hessian":[8.639361E3,5.382117E3,3.2572441E3,3.457172E3,1.9249451E3,8.314177E2,2.4258264E3,1.0394136E3,2.4177583E3,6.8617957E2,1.2387655E3,7.0603467E2,1.2538304E2,2.0640754E3,3.6175098E2,3.325596E2,7.06854E2,1.6118389E3,8.0591943E2,1.4336429E2,5.4281525E2,5.753171E2,6.6344836E2,2.4619734E2,4.5983734E2,8.368821E1,4.1694828E1,3.7401343E2,1.6900621E3,1.1234064E2,2.4941035E2],"tree_param":{"num_deleted":"0","num_feature":"6","num_nodes":"31","size_leaf_vector":"0"}},{"base_weights":[4.500384E-2,-3.9863455E-1,5.759825E-1,-7.062872E-1,1.1567176E-1,-1.4177606E-1,8.3727086E-1,-2.5651535E-1,-9.1579723E-1,-3.1443486E-1,7.962468E-1,-7.492297E-1,3.7240705E-1,5.5505383E-1,1.1015964E0,-1.6118577E-1,8.500639E-2,-3.4824094E-1,-1.3819866E-1,1.6863879E-2,-2.4654675E-1,8.883528E-2,3.3664003E-1,1.07555985E-1,-2.8531525E-1,4.657973E-1,4.6454184E-2,1.13080524E-1,4.1608897E-1,2.9745296E-1,4.0657914E-1],"categories":[],"categories_nodes":[],"categories_segments":[],"categories_sizes":[],"default_left":[0,0,0,0,0,0,0,0,0,0,0,0,0,0,0,0,0,0,0,0,0,0,0,0,0,0,0,0,0,0,0],"id":2,"left_children":[1,3,5,7,9,11,13,15,17,19,21,23,25,27,29,-1,-1,-1,-1,-1,-1,-1,-1,-1,-1,-1,-1,-1,-1,-1,-1],"loss_changes":[1.9024701E3,6.962963E2,6.8956616E2,2.5921387E2,4.8258655E2,3.069895E2,2.0044727E2,1.3298889E2,2.0887756E2,1.9006369E2,1.03713745E2,1.0105534E2,1.3648729E2,1.9292892E2,3.7492798E1,0E0,0E0,0E0,0E0,0E0,0E0,0E0,0E0,0E0,0E0,0E0,0E0,0E0,0E0,0E0,0E0],"parents":[2147483647,0,0,1,1,2,2,3,3,4,4,5,5,6,6,7,7,8,8,9,9,10,10,11,11,12,12,13,13,14,14],"right_children":[2,4,6,8,10,12,14,16,18,20,22,24,26,28,30,-1,-1,-1,-1,-1,-1,-1,-1,-1,-1,-1,-1,-1,-1,-1,-1],"split_conditions":[5E0,6E0,2E0,4E0,6E0,7E0,7E0,6E0,7E0,7E0,4E0,1E0,1E0,6E0,5E0,-1.6118577E-1,8.500639E-2,-3.4824094E-1,-1.3819866E-1,1.6863879E-2,-2.4654675E-1,8.883528E-2,3.3664003E-1,1.07555985E-1,-2.8531525E-1,4.657973E-1,4.6454184E-2,1.13080524E-1,4.1608897E-1,2.9745296E-1,4.0657914E-1],"split_indices":[2,0,5,3,5,2,2,5,3,0,3,4,4,4,4,0,0,0,0,0,0,0,0,0,0,0,0,0,0,0,0],"split_type":[0,0,0,0,0,0,0,0,0,0,0,0,0,0,0,0,0,0,0,0,0,0,0,0,0,0,0,0,0,0,0],"sum_hessian":[8.0743105E3,4.3990806E3,3.67523E3,2.7523064E3,1.6467742E3,9.809687E2,2.6942612E3,8.7534906E2,1.8769573E3,1.0093977E3,6.3737646E2,4.494882E2,5.3148047E2,1.3045303E3,1.3897311E3,5.758639E2,2.9948514E2,1.219131E3,6.5782635E2,5.838114E2,4.2558633E2,2.5221602E2,3.8516043E2,6.915203E1,3.8033615E2,8.176623E1,4.4971426E2,1.0756727E3,2.2885748E2,9.72566E2,4.1716513E2],"tree_param":{"num_deleted":"0","num_feature":"6","num_nodes":"31","size_leaf_vector":"0"}},{"base_weights":[3.525971E-2,-1.6963771E-1,7.260902E-1,-6.205036E-1,9.786672E-2,-1.3361636E-1,8.66564E-1,-4.3267438E-1,-1.0547873E0,-1.9104569E-1,5.7680225E-1,-4.0590468E-1,1.1835757E0,7.0734245E-1,1.2559527E0,-2.950761E-1,-8.658559E-3,-3.8836005E-1,-1.312376E-1,-1.4741401E-1,7.234715E-2,2.915675E-1,1.0700074E-2,1.1462333E-1,-2.7274385E-1,1.9429874E-1,5.2261066E-1,3.7096918E-1,9.841292E-2,4.0295017E-1,2.3870133E-1],"categories":[],"categories_nodes":[],"categories_segments":[],"categories_sizes":[],"default_left":[0,0,0,0,0,0,0,0,0,0,0,0,0,0,0,0,0,0,0,0,0,0,0,0,0,0,0,0,0,0,0],"id":3,"left_children":[1,3,5,7,9,11,13,15,17,19,21,23,25,27,29,-1,-1,-1,-1,-1,-1,-1,-1,-1,-1,-1,-1,-1,-1,-1,-1],"loss_changes":[1.0621871E3,6.9809576E2,2.074143E2,1.7535437E2,5.0285135E2,8.725728E1,9.059607E1,3.3506427E2,9.5640625E1,2.9438403E2,2.922946E2,8.015097E1,1.1352871E1,2.1028705E2,1.6070923E1,0E0,0E0,0E0,0E0,0E0,0E0,0E0,0E0,0E0,0E0,0E0,0E0,0E0,0E0,0E0,0E0],"parents":[2147483647,0,0,1,1,2,2,3,3,4,4,5,5,6,6,7,7,8,8,9,9,10,10,11,11,12,12,13,13,14,14],"right_children":[2,4,6,8,10,12,14,16,18,20,22,24,26,28,30,-1,-1,-1,-1,-1,-1,-1,-1,-1,-1,-1,-1,-1,-1,-1,-1],"split_conditions":[7E0,3E0,1E0,5E0,6E0,6E0,5E0,2E0,5E0,4E0,7E0,2E0,8E0,2E0,6E0,-2.950761E-1,-8.658559E-3,-3.8836005E-1,-1.312376E-1,-1.4741401E-1,7.234715E-2,2.915675E-1,1.0700074E-2,1.1462333E-1,-2.7274385E-1,1.9429874E-1,5.2261066E-1,3.7096918E-1,9.841292E-2,4.0295017E-1,2.3870133E-1],"split_indices":[2,5,5,1,0,4,4,1,4,2,0,4,2,4,1,0,0,0,0,0,0,0,0,0,0,0,0,0,0,0,0],"split_type":[0,0,0,0,0,0,0,0,0,0,0,0,0,0,0,0,0,0,0,0,0,0,0,0,0,0,0,0,0,0,0],"sum_hessian":[7.502133E3,5.7866045E3,1.7155281E3,2.154306E3,3.6322988E3,2.4095009E2,1.474578E3,1.5052684E3,6.4903754E2,2.2659758E3,1.3663229E3,2.0024709E2,4.070299E1,1.0486147E3,4.2596332E2,6.360642E2,8.6920416E2,4.6669464E2,1.8234288E2,1.3368633E3,9.2911255E2,7.892709E2,5.7705206E2,7.8138115E1,1.2210898E2,2.1872894E1,1.8830097E1,4.3684375E2,6.11771E2,3.5649606E2,6.946727E1],"tree_param":{"num_deleted":"0","num_feature":"6","num_nodes":"31","size_leaf_vector":"0"}},{"base_weights":[2.9203013E-2,-2.531226E-1,3.7464774E-1,-7.1082604E-1,-1.15809746E-1,1.1173086E0,2.272668E-1,-5.103034E-1,-1.1678574E0,-3.1896433E-1,2.135401E-1,3.3091706E-1,1.2371035E0,-9.2357814E-2,8.354014E-1,-9.387512E-2,-2.6055628E-1,-2.2121763E-1,-3.7245232E-1,-1.9408613E-2,-1.9600004E-1,-7.422675E-2,2.0433967E-1,-9.295727E-3,4.2502743E-1,2.5042373E-1,3.9468843E-1,-1.8059897E-1,8.564081E-2,3.273264E-1,7.024537E-2],"categories":[],"categories_nodes":[],"categories_segments":[],"categories_sizes":[],"default_left":[0,0,0,0,0,0,0,0,0,0,0,0,0,0,0,0,0,0,0,0,0,0,0,0,0,0,0,0,0,0,0],"id":4,"left_children":[1,3,5,7,9,11,13,15,17,19,21,23,25,27,29,-1,-1,-1,-1,-1,-1,-1,-1,-1,-1,-1,-1,-1,-1,-1,-1],"loss_changes":[6.8494507E2,2.4280617E2,3.454493E2,8.112033E1,1.9905547E2,4.8836243E1,5.125827E2,4.3674347E1,7.6806335E0,1.563768E2,2.4485329E2,2.7736584E1,1.3223022E1,3.331417E2,1.3940527E2,0E0,0E0,0E0,0E0,0E0,0E0,0E0,0E0,0E0,0E0,0E0,0E0,0E0,0E0,0E0,0E0],"parents":[2147483647,0,0,1,1,2,2,3,3,4,4,5,5,6,6,7,7,8,8,9,9,10,10,11,11,12,12,13,13,14,14],"right_children":[2,4,6,8,10,12,14,16,18,20,22,24,26,28,30,-1,-1,-1,-1,-1,-1,-1,-1,-1,-1,-1,-1,-1,-1,-1,-1],"split_conditions":[5E0,2E0,1E0,3E0,6E0,1E0,5E0,6E0,1E0,4E0,4E0,8E0,1E0,3E0,5E0,-9.387512E-2,-2.6055628E-1,-2.2121763E-1,-3.7245232E-1,-1.9408613E-2,-1.9600004E-1,-7.422675E-2,2.0433967E-1,-9.295727E-3,4.2502743E-1,2.5042373E-1,3.9468843E-1,-1.8059897E-1,8.564081E-2,3.273264E-1,7.024537E-2],"split_indices":[2,5,4,2,0,5,4,3,4,0,3,2,1,5,1,0,0,0,0,0,0,0,0,0,0,0,0,0,0,0,0],"split_type":[0,0,0,0,0,0,0,0,0,0,0,0,0,0,0,0,0,0,0,0,0,0,0,0,0,0,0,0,0,0,0],"sum_hessian":[7.0210957E3,3.8636624E3,3.157433E3,8.906597E2,2.9730027E3,5.217457E2,2.6356873E3,6.205221E2,2.7013766E2,1.8387985E3,1.1342042E3,6.947042E1,4.5227527E2,1.7282161E3,9.074712E2,4.012805E2,2.1924158E2,4.107542E1,2.2906224E2,1.0451863E3,7.9361224E2,5.713881E2,5.628161E2,5.2833027E1,1.6637396E1,7.575247E1,3.765228E2,7.355131E2,9.9270294E2,6.361349E2,2.7133633E2],"tree_param":{"num_deleted":"0","num_feature":"6","num_nodes":"31","size_leaf_vector":"0"}},{"base_weights":[2.3384865E-2,-1.1724565E-1,5.3920877E-1,4.0444708E-1,-2.2370552E-1,6.7663735E-1,-1.1735337E-1,-1.2959296E-1,6.583162E-1,-3.769991E-1,3.8672766E-1,-6.948573E-2,8.730714E-1,-7.1548474E-1,3.799586E-1,3.0245686E-2,-1.6943987E-1,-1.416988E-1,2.40912E-1,-5.680715E-2,-2.269847E-1,-4.0824022E-2,1.928855E-1,-1.7447828E-1,1.07111774E-1,2.9759216E-1,1.4084493E-1,-2.9718518E-1,2.4327277E-1,2.3438774E-1,-1.09077744E-1],"categories":[],"categories_nodes":[],"categories_segments":[],"categories_sizes":[],"default_left":[0,0,0,0,0,0,0,0,0,0,0,0,0,0,0,0,0,0,0,0,0,0,0,0,0,0,0,0,0,0,0],"id":5,"left_children":[1,3,5,7,9,11,13,15,17,19,21,23,25,27,29,-1,-1,-1,-1,-1,-1,-1,-1,-1,-1,-1,-1,-1,-1,-1,-1],"loss_changes":[4.8268533E2,2.9048737E2,1.2869934E2,1.2027583E2,4.0655856E2,1.728424E2,7.391632E1,2.8783867E1,9.872818E1,2.4716788E2,1.16929474E2,5.407433E1,4.431964E1,4.815115E1,4.081916E1,0E0,0E0,0E0,0E0,0E0,0E0,0E0,0E0,0E0,0E0,0E0,0E0,0E0,0E0,0E0,0E0],"parents":[2147483647,0,0,1,1,2,2,3,3,4,4,5,5,6,6,7,7,8,8,9,9,10,10,11,11,12,12,13,13,14,14],"right_children":[2,4,6,8,10,12,14,16,18,20,22,24,26,28,30,-1,-1,-1,-1,-1,-1,-1,-1,-1,-1,-1,-1,-1,-1,-1,-1],"split_conditions":[7E0,1E0,6E0,2E0,6E0,1E0,3E0,6E0,1E0,6E0,2E0,3E0,5E0,6E0,6E0,3.0245686E-2,-1.6943987E-1,-1.416988E-1,2.40912E-1,-5.680715E-2,-2.269847E-1,-4.0824022E-2,1.928855E-1,-1.7447828E-1,1.07111774E-1,2.9759216E-1,1.4084493E-1,-2.9718518E-1,2.4327277E-1,2.3438774E-1,-1.09077744E-1],"split_indices":[2,4,1,2,4,1,5,3,5,3,2,5,1,4,3,0,0,0,0,0,0,0,0,0,0,0,0,0,0,0,0],"split_type":[0,0,0,0,0,0,0,0,0,0,0,0,0,0,0,0,0,0,0,0,0,0,0,0,0,0,0,0,0,0,0],"sum_hessian":[6.652132E3,5.2276704E3,1.4244617E3,8.8551587E2,4.3421543E3,1.1778822E3,2.4657944E2,2.8547635E2,6.0003955E2,3.4709124E3,8.712422E2,2.4561174E2,9.3227045E2,1.1174355E2,1.3483588E2,1.8715762E2,9.831872E1,6.78332E1,5.3220636E2,2.3237812E3,1.147131E3,2.867063E2,5.845359E2,1.1144336E2,1.3416838E2,7.1898895E2,2.1328154E2,9.497527E1,1.6768284E1,8.753685E1,4.7299026E1],"tree_param":{"num_deleted":"0","num_feature":"6","num_nodes":"31","size_leaf_vector":"0"}},{"base_weights":[1.845365E-2,-5.6038614E-2,7.407689E-1,-4.7447348E-1,7.7400334E-2,8.4827554E-1,3.0914658E-1,-3.004324E-1,-9.1010654E-1,-2.9981712E-1,2.3307137E-1,5.4790187E-1,1.0790291E0,-7.0180696E-1,4.888328E-1,-2.5630358E-1,1.6552303E-2,-3.4513867E-1,-1.2290365E-1,-1.3191059E-1,-1.3232873E-3,1.194382E-2,1.7683549E-1,1.02733366E-1,3.362193E-1,3.7560597E-1,2.3088278E-1,3.165652E-1,-3.21735E-1,3.134016E-1,3.7883382E-2],"categories":[],"categories_nodes":[],"categories_segments":[],"categories_sizes":[],"default_left":[0,0,0,0,0,0,0,0,0,0,0,0,0,0,0,0,0,0,0,0,0,0,0,0,0,0,0,0,0,0,0],"id":6,"left_children":[1,3,5,7,9,11,13,15,17,19,21,23,25,27,29,-1,-1,-1,-1,-1,-1,-1,-1,-1,-1,-1,-1,-1,-1,-1,-1],"loss_changes":[3.4445236E2,3.2407193E2,2.7508423E1,1.0612634E2,2.5850662E2,3.257907E1,2.2307724E1,1.9785727E2,4.7655E1,5.3143272E1,2.1458217E2,2.4325397E1,1.3468048E1,1.3282594E1,2.0676472E1,0E0,0E0,0E0,0E0,0E0,0E0,0E0,0E0,0E0,0E0,0E0,0E0,0E0,0E0,0E0,0E0],"parents":[2147483647,0,0,1,1,2,2,3,3,4,4,5,5,6,6,7,7,8,8,9,9,10,10,11,11,12,12,13,13,14,14],"right_children":[2,4,6,8,10,12,14,16,18,20,22,24,26,28,30,-1,-1,-1,-1,-1,-1,-1,-1,-1,-1,-1,-1,-1,-1,-1,-1],"split_conditions":[8E0,2E0,6E0,5E0,2E0,2E0,1E0,2E0,5E0,7E0,6E0,5E0,5E0,1E0,3E0,-2.5630358E-1,1.6552303E-2,-3.4513867E-1,-1.2290365E-1,-1.3191059E-1,-1.3232873E-3,1.194382E-2,1.7683549E-1,1.02733366E-1,3.362193E-1,3.7560597E-1,2.3088278E-1,3.165652E-1,-3.21735E-1,3.134016E-1,3.7883382E-2],"split_indices":[2,5,1,1,2,1,5,1,4,5,0,4,1,4,4,0,0,0,0,0,0,0,0,0,0,0,0,0,0,0,0],"split_type":[0,0,0,0,0,0,0,0,0,0,0,0,0,0,0,0,0,0,0,0,0,0,0,0,0,0,0,0,0,0,0],"sum_hessian":[6.399867E3,5.80239E3,5.974772E2,1.4023564E3,4.4000337E3,4.7756265E2,1.1991453E2,1.0032391E3,3.9911737E2,1.2850975E3,3.1149363E3,2.0894795E2,2.6861472E2,1.765846E1,1.0225607E2,3.9170114E2,6.1153796E2,2.687417E2,1.3037569E2,8.7178784E2,4.1330972E2,2.0204137E3,1.0945225E3,1.5496446E2,5.3983486E1,1.7033649E2,9.827822E1,2.7543833E0,1.49040785E1,3.9624947E1,6.2631123E1],"tree_param":{"num_deleted":"0","num_feature":"6","num_nodes":"31","size_leaf_vector":"0"}},{"base_weights":[1.4084356E-2,1.0988658E-1,-4.3600598E-1,-2.754169E-1,3.2973984E-1,-7.515515E-1,-1.8389283E-1,-3.5802165E-1,4.270626E-1,4.6750836E-2,6.167832E-1,-9.3788636E-1,1.652162E-1,-4.9374142E-1,3.1032526E-1,-1.8956268E-1,-4.3836683E-2,-8.192925E-2,1.7289813E-1,-4.5331314E-2,8.602849E-2,3.392017E-1,1.2127839E-1,-3.2012144E-1,-2.2450726E-2,-2.0021798E-1,1.3792033E-1,3.1587813E-2,-2.4477284E-1,2.1681501E-1,-5.6748487E-2],"categories":[],"categories_nodes":[],"categories_segments":[],"categories_sizes":[],"default_left":[0,0,0,0,0,0,0,0,0,0,0,0,0,0,0,0,0,0,0,0,0,0,0,0,0,0,0,0,0,0,0],"id":7,"left_children":[1,3,5,7,9,11,13,15,17,19,21,23,25,27,29,-1,-1,-1,-1,-1,-1,-1,-1,-1,-1,-1,-1,-1,-1,-1,-1],"loss_changes":[2.6483667E2,4.290551E2,8.561122E1,1.0693967E2,2.6190927E2,8.187744E1,9.2108185E1,9.549237E1,2.0440895E1,7.7204216E1,1.7436755E2,4.4265015E1,2.0331486E1,7.139118E1,4.7928047E1,0E0,0E0,0E0,0E0,0E0,0E0,0E0,0E0,0E0,0E0,0E0,0E0,0E0,0E0,0E0,0E0],"parents":[2147483647,0,0,1,1,2,2,3,3,4,4,5,5,6,6,7,7,8,8,9,9,10,10,11,11,12,12,13,13,14,14],"right_children":[2,4,6,8,10,12,14,16,18,20,22,24,26,28,30,-1,-1,-1,-1,-1,-1,-1,-1,-1,-1,-1,-1,-1,-1,-1,-1],"split_conditions":[6E0,2E0,4E0,8E0,4E0,6E0,6E0,4E0,1E0,5E0,2E0,8E0,1E0,4E0,7E0,-1.8956268E-1,-4.3836683E-2,-8.192925E-2,1.7289813E-1,-4.5331314E-2,8.602849E-2,3.392017E-1,1.2127839E-1,-3.2012144E-1,-2.2450726E-2,-2.0021798E-1,1.3792033E-1,3.1587813E-2,-2.4477284E-1,2.1681501E-1,-5.6748487E-2],"split_indices":[1,1,5,2,2,4,0,5,5,0,4,2,5,3,0,0,0,0,0,0,0,0,0,0,0,0,0,0,0,0,0],"split_type":[0,0,0,0,0,0,0,0,0,0,0,0,0,0,0,0,0,0,0,0,0,0,0,0,0,0,0,0,0,0,0],"sum_hessian":[6.13979E3,5.062902E3,1.0768883E3,1.8392588E3,3.2236428E3,4.773965E2,5.9949176E2,1.646175E3,1.9308372E2,1.6238712E3,1.5997717E3,3.9673608E2,8.066044E1,3.684771E2,2.3101468E2,7.1724365E2,9.289314E2,3.3783703E1,1.5930003E2,8.9030774E2,7.335634E2,4.6677222E2,1.1329995E3,3.44877E2,5.1859066E1,2.0745737E1,5.9914703E1,1.2910132E2,2.3937578E2,1.2629489E2,1.0471979E2],"tree_param":{"num_deleted":"0","num_feature":"6","num_nodes":"31","size_leaf_vector":"0"}},{"base_weights":[1.0487757E-2,-5.2910036E-1,7.9314664E-2,-2.6308777E-2,-6.598076E-1,-6.812653E-3,5.1627326E-1,9.496266E-2,-3.0631983E-1,-8.1622124E-1,1.18903585E-1,3.791683E-1,-2.0918623E-1,1.5720214E-1,9.269125E-1,9.01849E-2,-3.3683633E-3,6.644442E-2,-1.9927917E-1,-4.790382E-2,-2.8377804E-1,-2.4268517E-2,3.8239768E-1,3.9135817E-2,2.324208E-1,-1.7575268E-2,-1.5768191E-1,-3.6781847E-2,1.5222439E-1,3.4327188E-1,1.4374837E-1],"categories":[],"categories_nodes":[],"categories_segments":[],"categories_sizes":[],"default_left":[0,0,0,0,0,0,0,0,0,0,0,0,0,0,0,0,0,0,0,0,0,0,0,0,0,0,0,0,0,0,0],"id":8,"left_children":[1,3,5,7,9,11,13,15,17,19,21,23,25,27,29,-1,-1,-1,-1,-1,-1,-1,-1,-1,-1,-1,-1,-1,-1,-1,-1],"loss_changes":[2.1985837E2,4.3994522E1,1.9758902E2,4.756585E0,6.483243E1,3.4273547E2,1.2731877E2,2.1415544E0,8.140444E0,3.7549103E1,2.083302E1,1.4838289E2,1.3713876E2,4.5373478E1,3.867392E1,0E0,0E0,0E0,0E0,0E0,0E0,0E0,0E0,0E0,0E0,0E0,0E0,0E0,0E0,0E0,0E0],"parents":[2147483647,0,0,1,1,2,2,3,3,4,4,5,5,6,6,7,7,8,8,9,9,10,10,11,11,12,12,13,13,14,14],"right_children":[2,4,6,8,10,12,14,16,18,20,22,24,26,28,30,-1,-1,-1,-1,-1,-1,-1,-1,-1,-1,-1,-1,-1,-1,-1,-1],"split_conditions":[1E0,2E0,6E0,6E0,8E0,2E0,4E0,2E0,4E0,1E0,6E0,5E0,6E0,5E0,5E0,9.01849E-2,-3.3683633E-3,6.644442E-2,-1.9927917E-1,-4.790382E-2,-2.8377804E-1,-2.4268517E-2,3.8239768E-1,3.9135817E-2,2.324208E-1,-1.7575268E-2,-1.5768191E-1,-3.6781847E-2,1.5222439E-1,3.4327188E-1,1.4374837E-1],"split_indices":[5,2,4,3,2,4,2,4,0,4,4,2,3,0,1,0,0,0,0,0,0,0,0,0,0,0,0,0,0,0,0],"split_type":[0,0,0,0,0,0,0,0,0,0,0,0,0,0,0,0,0,0,0,0,0,0,0,0,0,0,0,0,0,0,0],"sum_hessian":[5.917879E3,6.687032E2,5.249176E3,1.3821867E2,5.304845E2,4.385709E3,8.6346674E2,9.6908806E1,4.130987E1,4.417129E2,8.877158E1,1.5082314E3,2.8774778E3,4.6139587E2,4.020709E2,3.237633E1,6.453247E1,1.6848055E1,2.4461817E1,7.323647E1,3.6847644E2,7.648024E1,1.2291346E1,9.268185E2,5.81413E2,1.950372E3,9.271058E2,2.5683948E2,2.045564E2,2.696393E2,1.3243158E2],"tree_param":{"num_deleted":"0","num_feature":"6","num_nodes":"31","size_leaf_vector":"0"}},{"base_weights":[8.74126E-3,1.2592587E-1,-2.6592338E-1,-2.2036971E-1,3.8648823E-1,-3.4249824E-1,3.7121052E-1,-6.281844E-2,-5.3212696E-1,1.5822841E-1,7.481935E-1,-5.9293115E-1,-1.5247902E-1,-1.4174913E-1,6.516199E-1,1.17804684E-1,-7.294625E-2,-2.4802652E-1,-4.158701E-2,-8.271736E-2,8.7254405E-2,8.593376E-2,2.5322303E-1,-2.597988E-1,-6.3360636E-3,-1.0027115E-1,5.2527808E-2,-1.8657593E-1,2.8817263E-1,2.9506E-1,-2.450993E-2],"categories":[],"categories_nodes":[],"categories_segments":[],"categories_sizes":[],"default_left":[0,0,0,0,0,0,0,0,0,0,0,0,0,0,0,0,0,0,0,0,0,0,0,0,0,0,0,0,0,0,0],"id":9,"left_children":[1,3,5,7,9,11,13,15,17,19,21,23,25,27,29,-1,-1,-1,-1,-1,-1,-1,-1,-1,-1,-1,-1,-1,-1,-1,-1],"loss_changes":[1.8537053E2,3.6433914E2,8.415796E1,8.513297E1,1.901026E2,7.310214E1,2.6741854E1,9.480336E1,6.735626E1,8.144614E1,3.9212433E1,1.035361E2,5.220668E1,3.5692688E1,2.9280598E1,0E0,0E0,0E0,0E0,0E0,0E0,0E0,0E0,0E0,0E0,0E0,0E0,0E0,0E0,0E0,0E0],"parents":[2147483647,0,0,1,1,2,2,3,3,4,4,5,5,6,6,7,7,8,8,9,9,10,10,11,11,12,12,13,13,14,14],"right_children":[2,4,6,8,10,12,14,16,18,20,22,24,26,28,30,-1,-1,-1,-1,-1,-1,-1,-1,-1,-1,-1,-1,-1,-1,-1,-1],"split_conditions":[5E0,2E0,8E0,6E0,5E0,4E0,2E0,2E0,7E0,2E0,1E0,5E0,6E0,5E0,7E0,1.17804684E-1,-7.294625E-2,-2.4802652E-1,-4.158701E-2,-8.271736E-2,8.7254405E-2,8.593376E-2,2.5322303E-1,-2.597988E-1,-6.3360636E-3,-1.0027115E-1,5.2527808E-2,-1.8657593E-1,2.8817263E-1,2.9506E-1,-2.450993E-2],"split_indices":[1,1,2,3,2,5,5,4,3,5,5,4,0,4,5,0,0,0,0,0,0,0,0,0,0,0,0,0,0,0,0],"split_type":[0,0,0,0,0,0,0,0,0,0,0,0,0,0,0,0,0,0,0,0,0,0,0,0,0,0,0,0,0,0,0],"sum_hessian":[5.757229E3,4.0358784E3,1.7213505E3,1.7329232E3,2.3029553E3,1.537077E3,1.8427342E2,1.1519629E3,5.8096045E2,1.4128141E3,8.901412E2,6.6220886E2,8.7486816E2,6.530461E1,1.189688E2,3.2638538E2,8.2557745E2,3.3158884E2,2.4937158E2,3.304497E2,1.0823644E3,1.537432E2,7.36398E2,4.4783398E2,2.1437486E2,5.6265186E2,3.122163E2,4.5793053E1,1.951156E1,8.166471E1,3.7304096E1],"tree_param":{"num_deleted":"0","num_feature":"6","num_nodes":"31","size_leaf_vector":"0"}},{"base_weights":[7.3293326E-3,-9.520005E-2,2.5087118E-1,2.2382809E-1,-3.1684542E-1,9.07867E-2,6.42811E-1,7.554374E-2,6.1074245E-1,-6.532258E-1,-1.3120812E-1,-3.2474783E-1,1.7848751E-1,8.9639235E-1,1.8981221E-1,-2.287279E-2,8.806147E-2,-3.570662E-2,2.4145801E-1,-2.6767341E-2,-2.4067251E-1,6.117565E-3,-1.3957366E-1,-2.6694062E-1,-2.4044568E-2,1.07335374E-1,8.615045E-4,1.4298885E-1,3.201666E-1,-7.173912E-2,1.8210311E-1],"categories":[],"categories_nodes":[],"categories_segments":[],"categories_sizes":[],"default_left":[0,0,0,0,0,0,0,0,0,0,0,0,0,0,0,0,0,0,0,0,0,0,0,0,0,0,0,0,0,0,0],"id":10,"left_children":[1,3,5,7,9,11,13,15,17,19,21,23,25,27,29,-1,-1,-1,-1,-1,-1,-1,-1,-1,-1,-1,-1,-1,-1,-1,-1],"loss_changes":[1.3951807E2,2.7811264E2,1.038039E2,9.246923E1,1.4482137E2,4.293167E1,5.4954514E1,3.8632988E1,6.3365295E1,6.926373E1,7.579684E1,2.831498E1,3.060744E1,2.1533524E1,3.1191916E1,0E0,0E0,0E0,0E0,0E0,0E0,0E0,0E0,0E0,0E0,0E0,0E0,0E0,0E0,0E0,0E0],"parents":[2147483647,0,0,1,1,2,2,3,3,4,4,5,5,6,6,7,7,8,8,9,9,10,10,11,11,12,12,13,13,14,14],"right_children":[2,4,6,8,10,12,14,16,18,20,22,24,26,28,30,-1,-1,-1,-1,-1,-1,-1,-1,-1,-1,-1,-1,-1,-1,-1,-1],"split_conditions":[5E0,2E0,6E0,6E0,3E0,1E0,5E0,5E0,1E0,2E0,6E0,3E0,4E0,1E0,6E0,-2.287279E-2,8.806147E-2,-3.570662E-2,2.4145801E-1,-2.6767341E-2,-2.4067251E-1,6.117565E-3,-1.3957366E-1,-2.6694062E-1,-2.4044568E-2,1.07335374E-1,8.615045E-4,1.4298885E-1,3.201666E-1,-7.173912E-2,1.8210311E-1],"split_indices":[4,4,2,2,5,1,1,0,1,2,3,5,1,1,4,0,0,0,0,0,0,0,0,0,0,0,0,0,0,0,0],"split_type":[0,0,0,0,0,0,0,0,0,0,0,0,0,0,0,0,0,0,0,0,0,0,0,0,0,0,0,0,0,0,0],"sum_hessian":[5.5854272E3,3.9310798E3,1.6543474E3,1.611515E3,2.319565E3,1.1754688E3,4.7887863E2,1.1658861E3,4.456289E2,8.2397626E2,1.4955886E3,2.043825E2,9.710863E2,3.0638852E2,1.7249011E2,6.877005E2,4.781856E2,9.3712715E1,3.5191617E2,1.725398E2,6.5143646E2,1.029361E3,4.662277E2,6.094782E1,1.434347E2,4.799937E2,4.9109256E2,8.9719536E1,2.1666898E2,8.5258415E1,8.723169E1],"tree_param":{"num_deleted":"0","num_feature":"6","num_nodes":"31","size_leaf_vector":"0"}},{"base_weights":[6.405098E-3,-3.8823783E-2,5.3479457E-1,-4.7731975E-1,1.0327599E-2,6.6131073E-1,1.9466806E-2,6.2821314E-2,-6.6305184E-1,-4.0358695E-1,7.5573795E-2,1.1192706E-1,8.284714E-1,-4.0860766E-1,7.013268E-1,7.729101E-2,-1.5537168E-2,-1.5770468E-1,-3.2567334E-1,2.2641052E-2,-1.7736217E-1,-7.964362E-2,4.574958E-2,3.6639655E-1,-1.7497871E-2,1.7047402E-1,2.8718E-1,-3.5674658E-1,-4.4019017E-2,2.4599896E-1,1.0459994E-2],"categories":[],"categories_nodes":[],"categories_segments":[],"categories_sizes":[],"default_left":[0,0,0,0,0,0,0,0,0,0,0,0,0,0,0,0,0,0,0,0,0,0,0,0,0,0,0,0,0,0,0],"id":11,"left_children":[1,3,5,7,9,11,13,15,17,19,21,23,25,27,29,-1,-1,-1,-1,-1,-1,-1,-1,-1,-1,-1,-1,-1,-1,-1,-1],"loss_changes":[1.3020401E2,1.0817279E2,2.7994736E1,5.0792007E1,1.2193415E2,3.157901E1,2.5303263E1,2.9239125E0,2.1283524E1,5.5303635E1,1.0236076E2,1.5485814E1,8.313034E0,1.0717119E1,2.6148033E0,0E0,0E0,0E0,0E0,0E0,0E0,0E0,0E0,0E0,0E0,0E0,0E0,0E0,0E0,0E0,0E0],"parents":[2147483647,0,0,1,1,2,2,3,3,4,4,5,5,6,6,7,7,8,8,9,9,10,10,11,11,12,12,13,13,14,14],"right_children":[2,4,6,8,10,12,14,16,18,20,22,24,26,28,30,-1,-1,-1,-1,-1,-1,-1,-1,-1,-1,-1,-1,-1,-1,-1,-1],"split_conditions":[8E0,1E0,7E0,2E0,1E0,1E0,6E0,4E0,5E0,4E0,1E0,1E0,2E0,1E0,6E0,7.729101E-2,-1.5537168E-2,-1.5770468E-1,-3.2567334E-1,2.2641052E-2,-1.7736217E-1,-7.964362E-2,4.574958E-2,3.6639655E-1,-1.7497871E-2,1.7047402E-1,2.8718E-1,-3.5674658E-1,-4.4019017E-2,2.4599896E-1,1.0459994E-2],"split_indices":[2,5,5,2,2,5,0,3,1,0,1,4,5,1,3,0,0,0,0,0,0,0,0,0,0,0,0,0,0,0,0],"split_type":[0,0,0,0,0,0,0,0,0,0,0,0,0,0,0,0,0,0,0,0,0,0,0,0,0,0,0,0,0,0,0],"sum_hessian":[5.4463477E3,5.017765E3,4.285822E2,5.0487698E2,4.512888E3,3.438754E2,8.4706825E1,1.2935423E2,3.7552277E2,6.138033E2,3.899085E3,8.061125E1,2.6326416E2,5.2283672E1,3.2423157E1,4.745059E1,8.190364E1,2.8508234E2,9.044044E1,1.7290833E2,4.4089496E2,7.1713885E2,3.1819463E3,9.90371E0,7.070754E1,8.895228E1,1.7431187E2,1.2245143E1,4.003853E1,2.732695E1,5.0962067E0],"tree_param":{"num_deleted":"0","num_feature":"6","num_nodes":"31","size_leaf_vector":"0"}},{"base_weights":[4.9641826E-3,7.071277E-2,-3.199758E-1,-2.2307108E-1,1.5153599E-1,-5.811704E-1,-1.9722106E-1,-4.2234474E-1,4.952204E-2,7.343028E-2,5.682283E-1,-8.289349E-1,-1.5409027E-1,-2.9265419E-2,-4.7680843E-1,-1.1100869E-2,-1.916334E-1,-1.0539926E-1,1.402713E-1,1.10050656E-1,4.085356E-3,2.1199803E-1,5.506283E-2,-5.6551244E-2,-3.122863E-1,2.3154749E-1,-1.533651E-1,-1.2432159E-1,3.9494943E-2,-2.4848484E-1,4.106541E-2],"categories":[],"categories_nodes":[],"categories_segments":[],"categories_sizes":[],"default_left":[0,0,0,0,0,0,0,0,0,0,0,0,0,0,0,0,0,0,0,0,0,0,0,0,0,0,0,0,0,0,0],"id":12,"left_children":[1,3,5,7,9,11,13,15,17,19,21,23,25,27,29,-1,-1,-1,-1,-1,-1,-1,-1,-1,-1,-1,-1,-1,-1,-1,-1],"loss_changes":[1.1469493E2,1.06053154E2,2.885308E1,5.2372334E1,1.1394262E2,3.0382927E1,2.8918312E1,4.641838E1,6.85177E1,5.177509E1,2.9302765E1,2.4550201E1,3.5805893E1,2.3974995E1,4.997337E1,0E0,0E0,0E0,0E0,0E0,0E0,0E0,0E0,0E0,0E0,0E0,0E0,0E0,0E0,0E0,0E0],"parents":[2147483647,0,0,1,1,2,2,3,3,4,4,5,5,6,6,7,7,8,8,9,9,10,10,11,11,12,12,13,13,14,14],"right_children":[2,4,6,8,10,12,14,16,18,20,22,24,26,28,30,-1,-1,-1,-1,-1,-1,-1,-1,-1,-1,-1,-1,-1,-1,-1,-1],"split_conditions":[6E0,1E0,3E0,6E0,7E0,5E0,5E0,4E0,5E0,1E0,5E0,1E0,3E0,4E0,7E0,-1.1100869E-2,-1.916334E-1,-1.0539926E-1,1.402713E-1,1.10050656E-1,4.085356E-3,2.1199803E-1,5.506283E-2,-5.6551244E-2,-3.122863E-1,2.3154749E-1,-1.533651E-1,-1.2432159E-1,3.9494943E-2,-2.4848484E-1,4.106541E-2],"split_indices":[1,1,5,0,2,4,3,3,5,4,1,4,2,0,3,0,0,0,0,0,0,0,0,0,0,0,0,0,0,0,0],"split_type":[0,0,0,0,0,0,0,0,0,0,0,0,0,0,0,0,0,0,0,0,0,0,0,0,0,0,0,0,0,0,0],"sum_hessian":[5.3664624E3,4.4639966E3,9.024658E2,9.627483E2,3.5012483E3,2.8733878E2,6.151271E2,5.558535E2,4.0689478E2,2.9495537E3,5.5169446E2,1.8124887E2,1.06089905E2,3.8496994E2,2.301571E2,2.0033835E2,3.555152E2,2.0780104E2,1.9909372E2,4.9859613E2,2.4509578E3,4.0508487E2,1.4660959E2,4.5549637E1,1.3569923E2,2.920625E1,7.688365E1,1.1298134E2,2.7198862E2,1.46121E2,8.40361E1],"tree_param":{"num_deleted":"0","num_feature":"6","num_nodes":"31","size_leaf_vector":"0"}},{"base_weights":[3.5605028E-3,-5.7201356E-2,3.1591037E-1,2.855712E-1,-1.3761029E-1,1.6530816E-1,8.3581924E-1,3.4821127E-2,6.2428635E-1,-3.938378E-1,-6.261381E-2,3.173226E-3,4.126533E-1,1.0330244E0,5.2906114E-1,-5.2717406E-2,9.196121E-2,1.4116439E-1,3.1602708E-1,4.1635383E-2,-1.6292721E-1,9.364291E-3,-8.230146E-2,1.455579E-1,-6.8421245E-2,2.2290663E-1,-3.6638606E-2,2.3078448E-1,3.545044E-1,-5.2192222E-2,3.063493E-1],"categories":[],"categories_nodes":[],"categories_segments":[],"categories_sizes":[],"default_left":[0,0,0,0,0,0,0,0,0,0,0,0,0,0,0,0,0,0,0,0,0,0,0,0,0,0,0,0,0,0,0],"id":13,"left_children":[1,3,5,7,9,11,13,15,17,19,21,23,25,27,29,-1,-1,-1,-1,-1,-1,-1,-1,-1,-1,-1,-1,-1,-1,-1,-1],"loss_changes":[9.993136E1,1.2153113E2,6.700151E1,7.114197E1,6.859757E1,2.6712477E1,1.1089478E1,2.765811E1,2.301538E1,6.433791E1,5.4911163E1,4.5072872E1,4.6688217E1,3.640213E0,2.6926905E1,0E0,0E0,0E0,0E0,0E0,0E0,0E0,0E0,0E0,0E0,0E0,0E0,0E0,0E0,0E0,0E0],"parents":[2147483647,0,0,1,1,2,2,3,3,4,4,5,5,6,6,7,7,8,8,9,9,10,10,11,11,12,12,13,13,14,14],"right_children":[2,4,6,8,10,12,14,16,18,20,22,24,26,28,30,-1,-1,-1,-1,-1,-1,-1,-1,-1,-1,-1,-1,-1,-1,-1,-1],"split_conditions":[6E0,1E0,6E0,4E0,2E0,5E0,5E0,5E0,7E0,2E0,6E0,4E0,7E0,1E0,7E0,-5.2717406E-2,9.196121E-2,1.4116439E-1,3.1602708E-1,4.1635383E-2,-1.6292721E-1,9.364291E-3,-8.230146E-2,1.455579E-1,-6.8421245E-2,2.2290663E-1,-3.6638606E-2,2.3078448E-1,3.545044E-1,-5.2192222E-2,3.063493E-1],"split_indices":[4,4,2,2,5,0,1,0,2,2,3,3,0,1,2,0,0,0,0,0,0,0,0,0,0,0,0,0,0,0,0],"split_type":[0,0,0,0,0,0,0,0,0,0,0,0,0,0,0,0,0,0,0,0,0,0,0,0,0,0,0,0,0,0,0],"sum_hessian":[5.2634243E3,4.4069507E3,8.564735E2,8.3688214E2,3.5700686E3,6.651246E2,1.913489E2,4.8151816E2,3.5536398E2,8.073803E2,2.7626882E3,4.0237817E2,2.627464E2,1.15031334E2,7.631758E1,2.7149615E2,2.1002202E2,2.6317725E2,9.218676E1,1.7673952E2,6.306408E2,1.9149214E3,8.4776697E2,1.3009718E2,2.72281E2,1.6217265E2,1.00573746E2,4.369095E1,7.1340385E1,3.1690266E1,4.462731E1],"tree_param":{"num_deleted":"0","num_feature":"6","num_nodes":"31","size_leaf_vector":"0"}},{"base_weights":[3.7390117E-3,-3.1113755E-2,4.621207E-1,5.2356023E-2,-2.3698713E-1,5.9198296E-1,-1.0227393E-2,-1.073236E-1,2.9023424E-1,-4.0498656E-1,-1.2152493E-1,1.2820643E-1,7.4837774E-1,-2.6627892E-1,5.424535E-1,-8.327879E-2,6.1759865E-3,3.9752852E-2,1.8613973E-1,-2.1103606E-1,-1.8830102E-2,-5.6687053E-2,8.2091816E-2,1.2316758E-1,-1.2063215E-1,3.5987124E-1,1.9438262E-1,1.2232066E-1,-1.326919E-1,2.1924986E-2,2.2362259E-1],"categories":[],"categories_nodes":[],"categories_segments":[],"categories_sizes":[],"default_left":[0,0,0,0,0,0,0,0,0,0,0,0,0,0,0,0,0,0,0,0,0,0,0,0,0,0,0,0,0,0,0],"id":14,"left_children":[1,3,5,7,9,11,13,15,17,19,21,23,25,27,29,-1,-1,-1,-1,-1,-1,-1,-1,-1,-1,-1,-1,-1,-1,-1,-1],"loss_changes":[8.24859E1,8.246941E1,2.23852E1,1.2974713E2,2.6805382E1,2.0661278E1,1.1417136E1,4.4525E1,7.137437E1,5.7511406E1,2.195368E1,1.1151969E1,8.911453E0,6.7186213E0,2.3793902E0,0E0,0E0,0E0,0E0,0E0,0E0,0E0,0E0,0E0,0E0,0E0,0E0,0E0,0E0,0E0,0E0],"parents":[2147483647,0,0,1,1,2,2,3,3,4,4,5,5,6,6,7,7,8,8,9,9,10,10,11,11,12,12,13,13,14,14],"right_children":[2,4,6,8,10,12,14,16,18,20,22,24,26,28,30,-1,-1,-1,-1,-1,-1,-1,-1,-1,-1,-1,-1,-1,-1,-1,-1],"split_conditions":[8E0,5E0,7E0,3E0,4E0,1E0,6E0,4E0,5E0,4E0,7E0,5E0,2E0,4E0,4E0,-8.327879E-2,6.1759865E-3,3.9752852E-2,1.8613973E-1,-2.1103606E-1,-1.8830102E-2,-5.6687053E-2,8.2091816E-2,1.2316758E-1,-1.2063215E-1,3.5987124E-1,1.9438262E-1,1.2232066E-1,-1.326919E-1,2.1924986E-2,2.2362259E-1],"split_indices":[2,1,5,1,5,5,0,5,2,4,3,1,4,3,3,0,0,0,0,0,0,0,0,0,0,0,0,0,0,0,0],"split_type":[0,0,0,0,0,0,0,0,0,0,0,0,0,0,0,0,0,0,0,0,0,0,0,0,0,0,0,0,0,0,0],"sum_hessian":[5.1612554E3,4.797419E3,3.6383664E2,3.4139888E3,1.3834299E3,2.851793E2,7.865735E1,2.0430842E3,1.3709047E3,5.6249E2,8.209399E2,7.237541E1,2.1280386E2,5.4107903E1,2.4549444E1,8.7591187E2,1.1671724E3,9.28728E2,4.4217664E2,2.9988745E2,2.6260254E2,7.0171857E2,1.1922134E2,4.73767E1,2.4998713E1,3.675291E1,1.7605095E2,1.0932127E1,4.3175777E1,7.8213215E0,1.6728123E1],"tree_param":{"num_deleted":"0","num_feature":"6","num_nodes":"31","size_leaf_vector":"0"}},{"base_weights":[3.4612464E-3,-7.137139E-2,1.8060836E-1,1.5245484E-1,-2.2461204E-1,1.08484805E-1,6.710561E-1,8.492275E-2,6.446335E-1,-4.2968202E-1,-7.763295E-2,-3.7585437E-1,1.662735E-1,1.6794306E-1,8.5865796E-1,5.778908E-2,-3.5378065E-2,1.8698638E-2,2.647052E-1,-3.1948006E-1,-9.552349E-2,-7.274419E-2,5.9263267E-2,-2.9589632E-1,-4.688307E-3,2.1979024E-4,1.0513429E-1,-2.2909574E-1,1.1864627E-1,3.2048312E-1,1.1867384E-1],"categories":[],"categories_nodes":[],"categories_segments":[],"categories_sizes":[],"default_left":[0,0,0,0,0,0,0,0,0,0,0,0,0,0,0,0,0,0,0,0,0,0,0,0,0,0,0,0,0,0,0],"id":15,"left_children":[1,3,5,7,9,11,13,15,17,19,21,23,25,27,29,-1,-1,-1,-1,-1,-1,-1,-1,-1,-1,-1,-1,-1,-1,-1,-1],"loss_changes":[6.731271E1,1.2247595E2,5.3268745E1,4.81857E1,6.384852E1,3.6892124E1,1.8084877E1,2.7932049E1,2.4164162E1,6.219104E1,5.6106613E1,3.0896967E1,3.5862415E1,1.1685259E1,1.3209511E1,0E0,0E0,0E0,0E0,0E0,0E0,0E0,0E0,0E0,0E0,0E0,0E0,0E0,0E0,0E0,0E0],"parents":[2147483647,0,0,1,1,2,2,3,3,4,4,5,5,6,6,7,7,8,8,9,9,10,10,11,11,12,12,13,13,14,14],"right_children":[2,4,6,8,10,12,14,16,18,20,22,24,26,28,30,-1,-1,-1,-1,-1,-1,-1,-1,-1,-1,-1,-1,-1,-1,-1,-1],"split_conditions":[5E0,2E0,7E0,7E0,4E0,1E0,1E0,6E0,1E0,1E0,6E0,3E0,3E0,1E0,6E0,5.778908E-2,-3.5378065E-2,1.8698638E-2,2.647052E-1,-3.1948006E-1,-9.552349E-2,-7.274419E-2,5.9263267E-2,-2.9589632E-1,-4.688307E-3,2.1979024E-4,1.0513429E-1,-2.2909574E-1,1.1864627E-1,3.2048312E-1,1.1867384E-1],"split_indices":[4,4,2,2,5,5,5,3,1,1,0,1,2,1,1,0,0,0,0,0,0,0,0,0,0,0,0,0,0,0,0],"split_type":[0,0,0,0,0,0,0,0,0,0,0,0,0,0,0,0,0,0,0,0,0,0,0,0,0,0,0,0,0,0,0],"sum_hessian":[5.075785E3,3.5688044E3,1.5069806E3,1.4503706E3,2.1184338E3,1.3148452E3,1.9213544E2,1.2764067E3,1.7396387E2,8.836347E2,1.2347991E3,1.3957063E2,1.1752745E3,5.269976E1,1.3943567E2,8.337559E2,4.426508E2,5.0796505E1,1.2316737E2,1.3042984E2,7.532049E2,7.7227734E2,4.6252176E2,5.115001E1,8.842062E1,6.194761E2,5.5579846E2,9.882699E0,4.281706E1,9.508651E1,4.4349163E1],"tree_param":{"num_deleted":"0","num_feature":"6","num_nodes":"31","size_leaf_vector":"0"}},{"base_weights":[2.8091653E-3,5.0300844E-2,-2.3253585E-1,-1.12121575E-1,1.4187524E-1,-5.812947E-1,-1.6442323E-1,-2.2454783E-1,6.1655175E-2,8.0572575E-2,5.7654005E-1,3.9664797E-2,-7.270227E-1,1.7399536E-1,-2.25787E-1,1.1883654E-2,-1.1369354E-1,1.0095658E-1,-9.217055E-2,6.303108E-2,-2.0610685E-2,2.6182535E-1,3.585574E-2,-3.012035E-1,3.3246303E-1,-2.617815E-1,-8.317024E-2,-2.06577E-2,1.9610469E-1,-9.010589E-2,2.2945348E-2],"categories":[],"categories_nodes":[],"categories_segments":[],"categories_sizes":[],"default_left":[0,0,0,0,0,0,0,0,0,0,0,0,0,0,0,0,0,0,0,0,0,0,0,0,0,0,0,0,0,0,0],"id":16,"left_children":[1,3,5,7,9,11,13,15,17,19,21,23,25,27,29,-1,-1,-1,-1,-1,-1,-1,-1,-1,-1,-1,-1,-1,-1,-1,-1],"loss_changes":[5.5497566E1,6.1467857E1,1.9709984E1,2.9126617E1,7.036441E1,1.2320381E1,1.455341E1,3.6933647E1,5.9535202E1,4.481521E1,4.40887E1,3.0962963E1,6.96529E0,1.2608126E1,1.3367788E1,0E0,0E0,0E0,0E0,0E0,0E0,0E0,0E0,0E0,0E0,0E0,0E0,0E0,0E0,0E0,0E0],"parents":[2147483647,0,0,1,1,2,2,3,3,4,4,5,5,6,6,7,7,8,8,9,9,10,10,11,11,12,12,13,13,14,14],"right_children":[2,4,6,8,10,12,14,16,18,20,22,24,26,28,30,-1,-1,-1,-1,-1,-1,-1,-1,-1,-1,-1,-1,-1,-1,-1,-1],"split_conditions":[6E0,2E0,2E0,6E0,7E0,2E0,1E0,4E0,7E0,4E0,5E0,5E0,8E0,5E0,7E0,1.1883654E-2,-1.1369354E-1,1.0095658E-1,-9.217055E-2,6.303108E-2,-2.0610685E-2,2.6182535E-1,3.585574E-2,-3.012035E-1,3.3246303E-1,-2.617815E-1,-8.317024E-2,-2.06577E-2,1.9610469E-1,-9.010589E-2,2.2945348E-2],"split_indices":[1,1,5,0,2,2,4,3,0,1,1,4,2,2,2,0,0,0,0,0,0,0,0,0,0,0,0,0,0,0,0],"split_type":[0,0,0,0,0,0,0,0,0,0,0,0,0,0,0,0,0,0,0,0,0,0,0,0,0,0,0,0,0,0,0],"sum_hessian":[4.963322E3,4.1305747E3,8.327471E2,1.4891301E3,2.6414443E3,1.3483148E2,6.979156E2,9.0399274E2,5.8513745E2,2.3159949E3,3.2544943E2,2.5766405E1,1.0906508E2,1.0684338E2,5.910722E2,3.337843E2,5.7020844E2,3.3534998E2,2.4978749E2,1.2397837E3,1.0762112E3,1.9691338E2,1.2853604E2,1.306544E1,1.2700966E1,8.16859E1,2.7379175E1,7.1500694E1,3.534269E1,4.7412006E2,1.1695214E2],"tree_param":{"num_deleted":"0","num_feature":"6","num_nodes":"31","size_leaf_vector":"0"}},{"base_weights":[2.2870095E-3,-3.2965988E-1,3.898909E-2,9.757129E-2,-4.731162E-1,-2.8061387E-1,8.681819E-2,4.8894322E-1,-1.54315205E-2,-5.8800846E-1,4.961463E-2,-3.8105413E-1,5.206724E-1,-2.4605447E-3,2.1698372E-1,5.517304E-1,-3.1488255E-1,-1.3378315E-1,1.1290676E-1,-2.1393402E-1,-3.0944955E-2,-2.4450708E-2,3.2640415E-1,-6.2004663E-2,-2.9283747E-1,5.4563993E-1,-3.3879653E-1,9.2549615E-2,-5.8850765E-2,1.3339044E-1,-4.3144327E-2],"categories":[],"categories_nodes":[],"categories_segments":[],"categories_sizes":[],"default_left":[0,0,0,0,0,0,0,0,0,0,0,0,0,0,0,0,0,0,0,0,0,0,0,0,0,0,0,0,0,0,0],"id":17,"left_children":[1,3,5,7,9,11,13,15,17,19,21,23,25,27,29,-1,-1,-1,-1,-1,-1,-1,-1,-1,-1,-1,-1,-1,-1,-1,-1],"loss_changes":[5.9588776E1,2.9890793E1,6.7346565E1,5.4577794E0,2.193303E1,4.635619E1,4.4527134E1,5.934858E1,1.6460386E1,1.8067734E1,9.161734E0,5.274012E1,1.397894E2,1.3701895E2,1.2810126E2,0E0,0E0,0E0,0E0,0E0,0E0,0E0,0E0,0E0,0E0,0E0,0E0,0E0,0E0,0E0,0E0],"parents":[2147483647,0,0,1,1,2,2,3,3,4,4,5,5,6,6,7,7,8,8,9,9,10,10,11,11,12,12,13,13,14,14],"right_children":[2,4,6,8,10,12,14,16,18,20,22,24,26,28,30,-1,-1,-1,-1,-1,-1,-1,-1,-1,-1,-1,-1,-1,-1,-1,-1],"split_conditions":[1E0,2E0,1E0,2E0,8E0,7E0,5E0,3E0,3E0,6E0,6E0,5E0,4E0,4E0,7E0,5.517304E-1,-3.1488255E-1,-1.3378315E-1,1.1290676E-1,-2.1393402E-1,-3.0944955E-2,-2.4450708E-2,3.2640415E-1,-6.2004663E-2,-2.9283747E-1,5.4563993E-1,-3.3879653E-1,9.2549615E-2,-5.8850765E-2,1.3339044E-1,-4.3144327E-2],"split_indices":[5,2,2,1,2,3,0,4,4,4,4,3,0,3,0,0,0,0,0,0,0,0,0,0,0,0,0,0,0,0,0],"split_type":[0,0,0,0,0,0,0,0,0,0,0,0,0,0,0,0,0,0,0,0,0,0,0,0,0,0,0,0,0,0,0],"sum_hessian":[4.88903E3,4.8594904E2,4.403081E3,1.22235634E2,3.637134E2,5.725211E2,3.8305598E3,2.6640966E1,9.5594666E1,2.980741E2,6.56393E1,5.0921597E2,6.330516E1,2.2727163E3,1.5578436E3,1.4085165E1,1.2555801E1,4.5480534E1,5.0114132E1,2.3656422E2,6.1509884E1,5.909853E1,6.540765E0,3.948589E2,1.1435709E2,3.5373146E1,2.7932014E1,8.721181E2,1.4005981E3,9.550242E2,6.028194E2],"tree_param":{"num_deleted":"0","num_feature":"6","num_nodes":"31","size_leaf_vector":"0"}},{"base_weights":[9.8407445E-6,-5.1421285E-2,2.9712614E-1,3.5846706E-2,-3.6152673E-1,8.8095695E-1,-5.699183E-1,-1.8354458E-1,1.361441E-1,-1.6045466E-1,-7.677211E-1,1.5020692E0,3.627328E-1,-1.0622873E0,-1.7476818E-1,2.9418103E-2,-1.8476555E-1,-7.601501E-3,2.1549676E-1,-1.7968054E-1,6.494279E-2,-3.5829768E-1,-9.6584186E-2,2.767895E-1,5.1037914E-1,-3.6395658E-2,2.009222E-1,-2.7841598E-1,-3.6016178E-1,5.336673E-2,-3.1558365E-1],"categories":[],"categories_nodes":[],"categories_segments":[],"categories_sizes":[],"default_left":[0,0,0,0,0,0,0,0,0,0,0,0,0,0,0,0,0,0,0,0,0,0,0,0,0,0,0,0,0,0,0],"id":18,"left_children":[1,3,5,7,9,11,13,15,17,19,21,23,25,27,29,-1,-1,-1,-1,-1,-1,-1,-1,-1,-1,-1,-1,-1,-1,-1,-1],"loss_changes":[7.3679726E1,1.1124361E2,3.6065585E2,7.062468E1,7.360699E1,1.3643594E2,5.5634323E1,1.2266481E2,2.0707072E2,1.0013754E2,5.6407608E1,2.0735596E1,3.475432E1,1.2527618E0,4.9794205E1,0E0,0E0,0E0,0E0,0E0,0E0,0E0,0E0,0E0,0E0,0E0,0E0,0E0,0E0,0E0,0E0],"parents":[2147483647,0,0,1,1,2,2,3,3,4,4,5,5,6,6,7,7,8,8,9,9,10,10,11,11,12,12,13,13,14,14],"right_children":[2,4,6,8,10,12,14,16,18,20,22,24,26,28,30,-1,-1,-1,-1,-1,-1,-1,-1,-1,-1,-1,-1,-1,-1,-1,-1],"split_conditions":[7E0,6E0,4E0,4E0,7E0,4E0,4E0,6E0,7E0,5E0,8E0,1E0,3E0,6E0,7E0,2.9418103E-2,-1.8476555E-1,-7.601501E-3,2.1549676E-1,-1.7968054E-1,6.494279E-2,-3.5829768E-1,-9.6584186E-2,2.767895E-1,5.1037914E-1,-3.6395658E-2,2.009222E-1,-2.7841598E-1,-3.6016178E-1,5.336673E-2,-3.1558365E-1],"split_indices":[3,3,0,0,5,2,2,5,5,2,5,2,5,5,5,0,0,0,0,0,0,0,0,0,0,0,0,0,0,0,0],"split_type":[0,0,0,0,0,0,0,0,0,0,0,0,0,0,0,0,0,0,0,0,0,0,0,0,0,0,0,0,0,0,0],"sum_hessian":[4.819648E3,4.109173E3,7.10475E2,3.2074392E3,9.0173364E2,4.2457092E2,2.8590408E2,1.0060242E3,2.201415E3,6.040936E2,2.9764005E2,1.9225145E2,2.3231949E2,1.2654135E2,1.5936272E2,6.096815E2,3.9634268E2,1.7241368E3,4.7727808E2,2.789751E2,3.2511853E2,1.5123207E2,1.4640796E2,5.062371E1,1.4162773E2,9.039725E1,1.4192224E2,6.811686E1,5.8424488E1,1.1423377E2,4.5128944E1],"tree_param":{"num_deleted":"0","num_feature":"6","num_nodes":"31","size_leaf_vector":"0"}},{"base_weights":[-2.950012E-3,2.2956395E-1,-4.6024777E-2,3.590799E-2,5.148537E-1,-1.4774963E-1,1.4208789E-1,-1.1495848E-1,2.2855358E-1,6.467026E-1,-3.0399155E-2,-3.799814E-1,-9.8786354E-2,5.3274065E-2,4.308142E-1,1.0499481E-1,-1.2086453E-1,1.7987546E-1,-9.972021E-2,3.008734E-2,2.3427518E-1,-2.1629928E-1,1.7504767E-1,-1.9713886E-1,-6.660244E-2,2.4583945E-3,-9.005422E-2,-1.5885381E-2,6.209054E-2,2.0599693E-1,1.8375129E-2],"categories":[],"categories_nodes":[],"categories_segments":[],"categories_sizes":[],"default_left":[0,0,0,0,0,0,0,0,0,0,0,0,0,0,0,0,0,0,0,0,0,0,0,0,0,0,0,0,0,0,0],"id":19,"left_children":[1,3,5,7,9,11,13,15,17,19,21,23,25,27,29,-1,-1,-1,-1,-1,-1,-1,-1,-1,-1,-1,-1,-1,-1,-1,-1],"loss_changes":[4.7647884E1,4.1063496E1,7.682753E1,1.2930703E1,2.1629166E1,2.9589645E1,3.6113846E1,3.356341E1,4.0854904E1,1.7676445E1,2.5640379E1,1.9702263E1,4.6394005E1,1.7624702E1,3.128912E1,0E0,0E0,0E0,0E0,0E0,0E0,0E0,0E0,0E0,0E0,0E0,0E0,0E0,0E0,0E0,0E0],"parents":[2147483647,0,0,1,1,2,2,3,3,4,4,5,5,6,6,7,7,8,8,9,9,10,10,11,11,12,12,13,13,14,14],"right_children":[2,4,6,8,10,12,14,16,18,20,22,24,26,28,30,-1,-1,-1,-1,-1,-1,-1,-1,-1,-1,-1,-1,-1,-1,-1,-1],"split_conditions":[1E0,4E0,5E0,5E0,7E0,1E0,6E0,4E0,7E0,1E0,3E0,4E0,5E0,5E0,5E0,1.0499481E-1,-1.2086453E-1,1.7987546E-1,-9.972021E-2,3.008734E-2,2.3427518E-1,-2.1629928E-1,1.7504767E-1,-1.9713886E-1,-6.660244E-2,2.4583945E-3,-9.005422E-2,-1.5885381E-2,6.209054E-2,2.0599693E-1,1.8375129E-2],"split_indices":[4,2,4,0,5,1,2,3,0,5,1,5,1,0,1,0,0,0,0,0,0,0,0,0,0,0,0,0,0,0,0],"split_type":[0,0,0,0,0,0,0,0,0,0,0,0,0,0,0,0,0,0,0,0,0,0,0,0,0,0,0,0,0,0,0],"sum_hessian":[4.7553667E3,7.425914E2,4.0127754E3,4.430041E2,2.9958728E2,2.604543E3,1.4082325E3,2.4866805E2,1.9433606E2,2.4110023E2,5.8487057E1,4.5234058E2,2.1522024E3,1.077861E3,3.3037152E2,9.501745E1,1.5365059E2,1.1692779E2,7.740827E1,4.7887802E1,1.9321243E2,2.7441837E1,3.1045221E1,1.6307764E2,2.8926294E2,1.4061909E3,7.460115E2,6.377428E2,4.401182E2,1.9471555E2,1.3565599E2],"tree_param":{"num_deleted":"0","num_feature":"6","num_nodes":"31","size_leaf_vector":"0"}},{"base_weights":[-1.5916628E-3,-2.7998827E-2,3.7656608E-1,-2.1449524E-1,2.1896623E-2,4.839282E-1,2.9544268E-2,8.48035E-2,-4.2216823E-1,8.582676E-2,-2.8567895E-1,2.0140398E-1,8.22483E-1,2.7383214E-1,-3.628149E-2,1.9740632E-3,1.3359489E-1,-2.5696543E-1,-8.8072285E-2,9.8224424E-2,-2.2838278E-2,-2.9528198E-1,2.4907085E-1,2.4643444E-1,4.1779485E-3,2.7414432E-1,1.5716475E-1,-3.2264106E-2,2.6903018E-1],"categories":[],"categories_nodes":[],"categories_segments":[],"categories_sizes":[],"default_left":[0,0,0,0,0,0,0,0,0,0,0,0,0,0,0,0,0,0,0,0,0,0,0,0,0,0,0,0,0],"id":20,"left_children":[1,3,5,7,9,11,13,15,17,19,21,23,25,-1,27,-1,-1,-1,-1,-1,-1,-1,-1,-1,-1,-1,-1,-1,-1],"loss_changes":[4.6888092E1,4.0844013E1,1.1404213E1,5.7620064E1,6.812595E1,2.2216385E1,4.3052025E0,1.0722723E1,3.0309456E1,1.1224471E2,4.6561432E2,1.4970027E1,2.4153366E0,0E0,4.707517E0,0E0,0E0,0E0,0E0,0E0,0E0,0E0,0E0,0E0,0E0,0E0,0E0,0E0,0E0],"parents":[2147483647,0,0,1,1,2,2,3,3,4,4,5,5,6,6,7,7,8,8,9,9,10,10,11,11,12,12,14,14],"right_children":[2,4,6,8,10,12,14,16,18,20,22,24,26,-1,28,-1,-1,-1,-1,-1,-1,-1,-1,-1,-1,-1,-1,-1,-1],"split_conditions":[8E0,2E0,7E0,3E0,7E0,2E0,1E0,7E0,5E0,4E0,4E0,2E0,6E0,2.7383214E-1,6E0,1.9740632E-3,1.3359489E-1,-2.5696543E-1,-8.8072285E-2,9.8224424E-2,-2.2838278E-2,-2.9528198E-1,2.4907085E-1,2.4643444E-1,4.1779485E-3,2.7414432E-1,1.5716475E-1,-3.2264106E-2,2.6903018E-1],"split_indices":[2,5,5,2,0,5,4,0,2,3,3,4,5,0,4,0,0,0,0,0,0,0,0,0,0,0,0,0,0],"split_type":[0,0,0,0,0,0,0,0,0,0,0,0,0,0,0,0,0,0,0,0,0,0,0,0,0,0,0,0,0],"sum_hessian":[4.6932925E3,4.3878125E3,3.0547974E2,9.2544336E2,3.4623691E3,2.329995E2,7.248024E1,3.7933566E2,5.461077E2,2.8671482E3,5.95221E2,1.2787915E2,1.05120346E2,4.1347632E0,6.834548E1,3.1253973E2,6.679595E1,1.2344766E2,4.2266003E2,1.1502677E3,1.7168805E3,3.6613077E2,2.2909023E2,2.890386E1,9.897529E1,7.89209E1,2.6199448E1,6.431768E1,4.027798E0],"tree_param":{"num_deleted":"0","num_feature":"6","num_nodes":"29","size_leaf_vector":"0"}},{"base_weights":[-4.290696E-5,-4.1596554E-2,2.308458E-1,-2.1869522E-1,4.5532536E-2,6.040926E-1,-4.3678015E-1,7.448179E-2,-4.8196897E-1,-1.7794503E-1,1.5531093E-1,8.521534E-1,1.7406404E-1,-9.4843894E-1,-1.1555253E-1,8.471376E-2,-5.476209E-2,-2.8690577E-1,-6.131262E-2,-1.2290384E-1,2.63241E-2,-1.767713E-2,1.0880883E-1,1.1172663E-1,3.183316E-1,-8.974635E-2,7.2935514E-2,-3.0219314E-1,-1.5528479E-1,7.602447E-2,-1.7582949E-1],"categories":[],"categories_nodes":[],"categories_segments":[],"categories_sizes":[],"default_left":[0,0,0,0,0,0,0,0,0,0,0,0,0,0,0,0,0,0,0,0,0,0,0,0,0,0,0,0,0,0,0],"id":21,"left_children":[1,3,5,7,9,11,13,15,17,19,21,23,25,27,29,-1,-1,-1,-1,-1,-1,-1,-1,-1,-1,-1,-1,-1,-1,-1,-1],"loss_changes":[4.439935E1,6.0526096E1,1.761488E2,9.986861E1,6.453616E1,4.8190125E1,4.158558E1,3.2796917E1,8.9560425E1,5.3394974E1,7.838621E1,2.8385666E1,5.530825E0,1.9566193E0,2.7403063E1,0E0,0E0,0E0,0E0,0E0,0E0,0E0,0E0,0E0,0E0,0E0,0E0,0E0,0E0,0E0,0E0],"parents":[2147483647,0,0,1,1,2,2,3,3,4,4,5,5,6,6,7,7,8,8,9,9,10,10,11,11,12,12,13,13,14,14],"right_children":[2,4,6,8,10,12,14,16,18,20,22,24,26,28,30,-1,-1,-1,-1,-1,-1,-1,-1,-1,-1,-1,-1,-1,-1,-1,-1],"split_conditions":[7E0,4E0,4E0,4E0,2E0,5E0,4E0,4E0,4E0,4E0,4E0,3E0,1E0,3E0,6E0,8.471376E-2,-5.476209E-2,-2.8690577E-1,-6.131262E-2,-1.2290384E-1,2.63241E-2,-1.767713E-2,1.0880883E-1,1.1172663E-1,3.183316E-1,-8.974635E-2,7.2935514E-2,-3.0219314E-1,-1.5528479E-1,7.602447E-2,-1.7582949E-1],"split_indices":[3,0,0,3,2,2,2,2,2,3,5,5,5,2,5,0,0,0,0,0,0,0,0,0,0,0,0,0,0,0,0],"split_type":[0,0,0,0,0,0,0,0,0,0,0,0,0,0,0,0,0,0,0,0,0,0,0,0,0,0,0,0,0,0,0],"sum_hessian":[4.6256943E3,3.9208657E3,7.0482874E2,1.2924075E3,2.6284583E3,4.5214508E2,2.5268365E2,6.1181647E2,6.8059094E2,8.656402E2,1.7628181E3,2.861174E2,1.6602768E2,9.670197E1,1.5598169E2,3.3817682E2,2.7363968E2,2.5033862E2,4.3025232E2,4.620778E2,4.0356244E2,8.67442E2,8.953761E2,8.7654434E1,1.9846297E2,2.0718037E1,1.4530965E2,8.389916E1,1.2802815E1,8.768611E1,6.829557E1],"tree_param":{"num_deleted":"0","num_feature":"6","num_nodes":"31","size_leaf_vector":"0"}},{"base_weights":[-2.7141464E-3,-4.2484816E-2,2.0743315E-1,1.2193183E-1,-1.2650421E-1,2.2604981E-2,4.847327E-1,3.2169476E-2,4.2223123E-1,-2.6611987E-1,-5.2256577E-2,-1.2430989E-1,1.9977619E-1,7.400978E-1,5.709299E-2,2.5425633E-2,-6.9912255E-2,1.7758895E-1,-5.463136E-2,3.1237384E-2,-1.3717872E-1,-3.1536717E-2,6.949626E-2,6.767421E-2,-1.09632574E-1,1.2492328E-1,-4.033442E-2,7.3140174E-2,3.0639416E-1,-7.5808965E-2,2.6407793E-1],"categories":[],"categories_nodes":[],"categories_segments":[],"categories_sizes":[],"default_left":[0,0,0,0,0,0,0,0,0,0,0,0,0,0,0,0,0,0,0,0,0,0,0,0,0,0,0,0,0,0,0],"id":22,"left_children":[1,3,5,7,9,11,13,15,17,19,21,23,25,27,29,-1,-1,-1,-1,-1,-1,-1,-1,-1,-1,-1,-1,-1,-1,-1,-1],"loss_changes":[3.8013775E1,5.2847717E1,3.7086E1,3.486499E1,2.6228653E1,1.1357043E1,3.1565475E1,1.3926817E1,3.0642422E1,6.222909E1,2.484831E1,2.0214993E1,1.43735895E1,2.503173E1,2.8094767E1,0E0,0E0,0E0,0E0,0E0,0E0,0E0,0E0,0E0,0E0,0E0,0E0,0E0,0E0,0E0,0E0],"parents":[2147483647,0,0,1,1,2,2,3,3,4,4,5,5,6,6,7,7,8,8,9,9,10,10,11,11,12,12,13,13,14,14],"right_children":[2,4,6,8,10,12,14,16,18,20,22,24,26,28,30,-1,-1,-1,-1,-1,-1,-1,-1,-1,-1,-1,-1,-1,-1,-1,-1],"split_conditions":[6E0,2E0,4E0,6E0,3E0,5E0,5E0,7E0,7E0,3E0,7E0,4E0,7E0,1E0,7E0,2.5425633E-2,-6.9912255E-2,1.7758895E-1,-5.463136E-2,3.1237384E-2,-1.3717872E-1,-3.1536717E-2,6.949626E-2,6.767421E-2,-1.09632574E-1,1.2492328E-1,-4.033442E-2,7.3140174E-2,3.0639416E-1,-7.5808965E-2,2.6407793E-1],"split_indices":[4,4,2,2,5,0,1,0,5,2,2,3,0,1,2,0,0,0,0,0,0,0,0,0,0,0,0,0,0,0,0],"split_type":[0,0,0,0,0,0,0,0,0,0,0,0,0,0,0,0,0,0,0,0,0,0,0,0,0,0,0,0,0,0,0],"sum_hessian":[4.5462993E3,3.8234954E3,7.22804E2,1.2929277E3,2.5305676E3,4.343672E2,2.884368E2,9.9624713E2,2.9668063E2,8.776485E2,1.6529192E3,2.3762274E2,1.9674446E2,1.8013719E2,1.0829962E2,8.31974E2,1.642731E2,2.3164264E2,6.5038E1,2.9897906E2,5.7866943E2,1.3939816E3,2.5893765E2,9.697429E1,1.4064845E2,1.1922213E2,7.752233E1,6.582843E1,1.1430876E2,7.919027E1,2.9109346E1],"tree_param":{"num_deleted":"0","num_feature":"6","num_nodes":"31","size_leaf_vector":"0"}},{"base_weights":[-1.1651326E-3,3.9459903E-2,-2.0521908E-1,-1.2312452E-1,1.3031872E-1,-3.4328032E-1,-8.225054E-2,-1.6782689E-1,1.3399133E-1,7.802983E-2,5.3184533E-1,-5.5461323E-1,1.222392E-3,9.142528E-2,-3.3440548E-1,-9.109687E-2,-1.5188594E-3,1.3838007E-1,-1.4941812E-1,-5.1898025E-2,3.6562048E-2,2.4744803E-1,3.96504E-2,-9.2274785E-2,-2.2847551E-1,-1.5038183E-1,3.2866545E-2,-8.8049345E-2,7.973061E-2,4.0206313E-2,-1.823597E-1],"categories":[],"categories_nodes":[],"categories_segments":[],"categories_sizes":[],"default_left":[0,0,0,0,0,0,0,0,0,0,0,0,0,0,0,0,0,0,0,0,0,0,0,0,0,0,0,0,0,0,0],"id":23,"left_children":[1,3,5,7,9,11,13,15,17,19,21,23,25,27,29,-1,-1,-1,-1,-1,-1,-1,-1,-1,-1,-1,-1,-1,-1,-1,-1],"loss_changes":[3.730415E1,5.5455067E1,1.2656483E1,1.5492165E1,5.0515247E1,2.5603607E1,1.7394438E1,2.5357063E1,4.1580437E1,2.3482275E1,3.2359764E1,1.090979E1,7.387741E0,1.5886829E1,2.0823612E1,0E0,0E0,0E0,0E0,0E0,0E0,0E0,0E0,0E0,0E0,0E0,0E0,0E0,0E0,0E0,0E0],"parents":[2147483647,0,0,1,1,2,2,3,3,4,4,5,5,6,6,7,7,8,8,9,9,10,10,11,11,12,12,13,13,14,14],"right_children":[2,4,6,8,10,12,14,16,18,20,22,24,26,28,30,-1,-1,-1,-1,-1,-1,-1,-1,-1,-1,-1,-1,-1,-1,-1,-1],"split_conditions":[6E0,2E0,5E0,7E0,7E0,5E0,5E0,6E0,4E0,1E0,5E0,2E0,1E0,4E0,4E0,-9.109687E-2,-1.5188594E-3,1.3838007E-1,-1.4941812E-1,-5.1898025E-2,3.6562048E-2,2.4744803E-1,3.96504E-2,-9.2274785E-2,-2.2847551E-1,-1.5038183E-1,3.2866545E-2,-8.8049345E-2,7.973061E-2,4.0206313E-2,-1.823597E-1],"split_indices":[1,1,5,3,2,4,3,0,0,2,1,4,5,0,0,0,0,0,0,0,0,0,0,0,0,0,0,0,0,0,0],"split_type":[0,0,0,0,0,0,0,0,0,0,0,0,0,0,0,0,0,0,0,0,0,0,0,0,0,0,0,0,0,0,0],"sum_hessian":[4.4980845E3,3.751922E3,7.4616235E2,1.3449281E3,2.406994E3,3.5066565E2,3.9549667E2,1.1460264E3,1.989018E2,2.1307153E3,2.7627856E2,2.1696191E2,1.3370375E2,2.345701E2,1.6092656E2,6.242301E2,5.217962E2,1.3122424E2,6.767754E1,3.1637744E2,1.8143379E3,1.5880421E2,1.1747436E2,1.0004253E2,1.1691939E2,2.30696E1,1.1063415E2,7.291085E1,1.6165926E2,5.9505646E1,1.0142091E2],"tree_param":{"num_deleted":"0","num_feature":"6","num_nodes":"31","size_leaf_vector":"0"}},{"base_weights":[-6.819599E-4,-2.6208112E-1,2.758448E-2,8.886531E-3,-4.2756498E-1,-1.1843176E-2,2.7615494E-1,2.9603106E-1,-9.97375E-2,-3.047114E-1,-3.3697975E-1,2.6107304E-2,-1.9695355E-1,4.8147887E-1,-5.03983E-2,-1.875116E-2,4.0544453E-1,5.9437692E-2,-5.1830642E-2,-5.754233E-2,-2.3017253E-1,-2.0387597E-2,9.642167E-2,-2.0695561E-1,1.8363163E-1,8.501592E-2,2.8559628E-1,3.050833E-1,-3.42292E-2],"categories":[],"categories_nodes":[],"categories_segments":[],"categories_sizes":[],"default_left":[0,0,0,0,0,0,0,0,0,0,0,0,0,0,0,0,0,0,0,0,0,0,0,0,0,0,0,0,0],"id":24,"left_children":[1,3,5,7,9,11,13,15,17,-1,19,21,23,25,27,-1,-1,-1,-1,-1,-1,-1,-1,-1,-1,-1,-1,-1,-1],"loss_changes":[3.2907703E1,1.94919E1,3.9392944E1,5.1998363E0,1.4034073E1,2.4380997E1,3.6919422E1,1.7396313E1,2.666727E0,0E0,1.4551695E1,8.00321E1,2.3588896E2,3.1227692E1,1.4620019E1,0E0,0E0,0E0,0E0,0E0,0E0,0E0,0E0,0E0,0E0,0E0,0E0,0E0,0E0],"parents":[2147483647,0,0,1,1,2,2,3,3,4,4,5,5,6,6,7,7,8,8,10,10,11,11,12,12,13,13,14,14],"right_children":[2,4,6,8,10,12,14,16,18,-1,20,22,24,26,28,-1,-1,-1,-1,-1,-1,-1,-1,-1,-1,-1,-1,-1,-1],"split_conditions":[1E0,3E0,7E0,1E0,5E0,7E0,6E0,5E0,1E0,-3.047114E-1,5E0,6E0,4E0,3E0,1E0,-1.875116E-2,4.0544453E-1,5.9437692E-2,-5.1830642E-2,-5.754233E-2,-2.3017253E-1,-2.0387597E-2,9.642167E-2,-2.0695561E-1,1.8363163E-1,8.501592E-2,2.8559628E-1,3.050833E-1,-3.42292E-2],"split_indices":[5,2,2,2,2,0,5,1,4,0,1,0,3,5,4,0,0,0,0,0,0,0,0,0,0,0,0,0,0],"split_type":[0,0,0,0,0,0,0,0,0,0,0,0,0,0,0,0,0,0,0,0,0,0,0,0,0,0,0,0,0],"sum_hessian":[4.451736E3,4.336066E2,4.0181292E3,1.64764E2,2.688426E2,3.4688591E3,5.492699E2,4.474818E1,1.2001582E2,3.4517742E1,2.3432484E2,2.8793972E3,5.8946185E2,3.3694043E2,2.1232944E2,3.4103912E1,1.0644266E1,2.3294546E1,9.6721275E1,1.7628981E2,5.8035038E1,2.1843516E3,6.950458E2,3.663934E2,2.2306845E2,2.3823965E2,9.87008E1,1.111536E1,2.0121408E2],"tree_param":{"num_deleted":"0","num_feature":"6","num_nodes":"29","size_leaf_vector":"0"}},{"base_weights":[1.2421928E-4,-1.9565647E-2,3.0562058E-1,1.5249404E-1,-5.252196E-2,4.1501263E-1,-1.2007051E-2,-3.0269185E-2,3.4482566E-1,-1.347741E-1,9.4757184E-2,2.3185077E-1,6.8337846E-1,-5.9068494E-2,2.4196094E-1,-6.123522E-2,4.731018E-2,1.4245233E-1,-3.9370447E-2,-5.1168818E-2,3.6965054E-2,-2.0302022E-3,7.215362E-2,1.5399907E-2,2.389592E-1,2.3611067E-1,1.1565187E-1,2.4117954E-1,-3.2553684E-2],"categories":[],"categories_nodes":[],"categories_segments":[],"categories_sizes":[],"default_left":[0,0,0,0,0,0,0,0,0,0,0,0,0,0,0,0,0,0,0,0,0,0,0,0,0,0,0,0,0],"id":25,"left_children":[1,3,5,7,9,11,13,15,17,19,21,23,25,27,-1,-1,-1,-1,-1,-1,-1,-1,-1,-1,-1,-1,-1,-1,-1],"loss_changes":[2.6310673E1,2.3309055E1,9.207315E0,2.3238682E1,4.1798813E1,9.526302E0,2.6986768E0,1.1134706E1,1.9996132E1,2.0460606E1,1.830151E1,1.2050274E1,2.1485138E0,2.90385E0,0E0,0E0,0E0,0E0,0E0,0E0,0E0,0E0,0E0,0E0,0E0,0E0,0E0,0E0,0E0],"parents":[2147483647,0,0,1,1,2,2,3,3,4,4,5,5,6,6,7,7,8,8,9,9,10,10,11,11,12,12,13,13],"right_children":[2,4,6,8,10,12,14,16,18,20,22,24,26,28,-1,-1,-1,-1,-1,-1,-1,-1,-1,-1,-1,-1,-1,-1,-1],"split_conditions":[8E0,1E0,7E0,3E0,5E0,2E0,6E0,5E0,7E0,8E0,4E0,5E0,6E0,1E0,2.4196094E-1,-6.123522E-2,4.731018E-2,1.4245233E-1,-3.9370447E-2,-5.1168818E-2,3.6965054E-2,-2.0302022E-3,7.215362E-2,1.5399907E-2,2.389592E-1,2.3611067E-1,1.1565187E-1,2.4117954E-1,-3.2553684E-2],"split_indices":[2,4,5,2,4,5,4,0,5,5,2,4,5,4,0,0,0,0,0,0,0,0,0,0,0,0,0,0,0],"split_type":[0,0,0,0,0,0,0,0,0,0,0,0,0,0,0,0,0,0,0,0,0,0,0,0,0,0,0,0,0],"sum_hessian":[4.37205E3,4.1082036E3,2.638462E2,6.598104E2,3.448393E3,1.9602715E2,6.781904E1,3.387529E2,3.2105753E2,2.2127217E3,1.2356713E3,1.17616714E2,7.841044E1,6.500923E1,2.8098116E0,1.759425E2,1.628104E2,2.5218626E2,6.8871254E1,1.9434626E3,2.6925903E2,7.289087E2,5.0676263E2,8.995171E1,2.7664999E1,5.695009E1,2.1460348E1,2.695852E0,6.2313377E1],"tree_param":{"num_deleted":"0","num_feature":"6","num_nodes":"29","size_leaf_vector":"0"}},{"base_weights":[7.6919043E-4,3.5022944E-2,-1.7387988E-1,-1.0450137E-1,1.1294291E-1,-3.4621578E-1,-7.219822E-2,-4.2061293E-1,-7.762541E-2,5.011377E-2,3.0971047E-1,8.820765E-2,-4.5930728E-1,9.583121E-2,-1.9127491E-1,3.624652E-1,-1.9121957E-1,-5.2574076E-2,1.7963463E-2,-6.293537E-2,2.2733228E-2,1.9721037E-1,1.8029617E-2,-1.2081023E-1,9.505621E-2,-1.8307792E-1,-5.0712567E-2,-1.4698668E-2,3.1579325E-1,-8.902122E-3,-1.5479681E-1],"categories":[],"categories_nodes":[],"categories_segments":[],"categories_sizes":[],"default_left":[0,0,0,0,0,0,0,0,0,0,0,0,0,0,0,0,0,0,0,0,0,0,0,0,0,0,0,0,0,0,0],"id":26,"left_children":[1,3,5,7,9,11,13,15,17,19,21,23,25,27,29,-1,-1,-1,-1,-1,-1,-1,-1,-1,-1,-1,-1,-1,-1,-1,-1],"loss_changes":[2.5933897E1,3.9413204E1,1.2430929E1,1.1005387E1,2.8739874E1,1.2986376E1,8.988337E0,3.6638596E1,1.6100407E1,1.1783142E1,4.879583E1,6.33099E0,9.064846E0,2.5909529E1,1.3770169E1,0E0,0E0,0E0,0E0,0E0,0E0,0E0,0E0,0E0,0E0,0E0,0E0,0E0,0E0,0E0,0E0],"parents":[2147483647,0,0,1,1,2,2,3,3,4,4,5,5,6,6,7,7,8,8,9,9,10,10,11,11,12,12,13,13,14,14],"right_children":[2,4,6,8,10,12,14,16,18,20,22,24,26,28,30,-1,-1,-1,-1,-1,-1,-1,-1,-1,-1,-1,-1,-1,-1,-1,-1],"split_conditions":[6E0,2E0,4E0,1E0,6E0,2E0,3E0,1E0,4E0,1E0,4E0,3E0,7E0,7E0,6E0,3.624652E-1,-1.9121957E-1,-5.2574076E-2,1.7963463E-2,-6.293537E-2,2.2733228E-2,1.9721037E-1,1.8029617E-2,-1.2081023E-1,9.505621E-2,-1.8307792E-1,-5.0712567E-2,-1.4698668E-2,3.1579325E-1,-8.902122E-3,-1.5479681E-1],"split_indices":[1,1,5,5,2,2,4,2,4,5,1,4,2,2,3,0,0,0,0,0,0,0,0,0,0,0,0,0,0,0,0],"split_type":[0,0,0,0,0,0,0,0,0,0,0,0,0,0,0,0,0,0,0,0,0,0,0,0,0,0,0,0,0,0,0],"sum_hessian":[4.3330244E3,3.6232075E3,7.098167E2,1.2982343E3,2.3249731E3,2.6250436E2,4.4731238E2,1.0057962E2,1.1976547E3,1.7632203E3,5.617528E2,5.426682E1,2.0823753E2,1.8560287E2,2.617095E2,1.1276879E1,8.930274E1,7.002404E2,4.9741425E2,1.5781711E2,1.6054033E3,2.3408601E2,3.2766678E2,1.7001982E1,3.7264835E1,1.3626866E2,7.196888E1,1.620267E2,2.3576172E1,1.7547296E2,8.623653E1],"tree_param":{"num_deleted":"0","num_feature":"6","num_nodes":"31","size_leaf_vector":"0"}},{"base_weights":[5.867897E-4,-2.90085E-2,1.6037975E-1,3.7322562E-2,-2.764083E-1,3.8974133E-1,-3.243243E-1,4.3400326E-3,3.302563E-1,-1.10928155E-1,-5.8320284E-1,6.28405E-1,1.0320051E-1,-9.127643E-1,-8.7189436E-2,4.126355E-2,-1.394611E-2,-9.9044025E-2,2.237363E-1,-1.523751E-1,3.147485E-2,-2.7540642E-1,-7.439028E-2,1.2365382E-1,2.0809479E-1,-8.921827E-2,6.9091916E-2,-1.5561067E-1,-3.0196264E-1,6.1284628E-2,-1.2938596E-1],"categories":[],"categories_nodes":[],"categories_segments":[],"categories_sizes":[],"default_left":[0,0,0,0,0,0,0,0,0,0,0,0,0,0,0,0,0,0,0,0,0,0,0,0,0,0,0,0,0,0,0],"id":27,"left_children":[1,3,5,7,9,11,13,15,17,19,21,23,25,27,29,-1,-1,-1,-1,-1,-1,-1,-1,-1,-1,-1,-1,-1,-1,-1,-1],"loss_changes":[2.030094E1,5.944758E1,7.470297E1,2.7602562E1,3.881861E1,3.1106041E1,3.0063246E1,1.7399183E1,7.958569E1,4.2791683E1,2.9867744E1,3.2195206E0,1.067584E1,1.766922E0,1.56411915E1,0E0,0E0,0E0,0E0,0E0,0E0,0E0,0E0,0E0,0E0,0E0,0E0,0E0,0E0,0E0,0E0],"parents":[2147483647,0,0,1,1,2,2,3,3,4,4,5,5,6,6,7,7,8,8,9,9,10,10,11,11,12,12,13,13,14,14],"right_children":[2,4,6,8,10,12,14,16,18,20,22,24,26,28,30,-1,-1,-1,-1,-1,-1,-1,-1,-1,-1,-1,-1,-1,-1,-1,-1],"split_conditions":[7E0,6E0,4E0,8E0,7E0,4E0,3E0,2E0,4E0,4E0,8E0,1E0,2E0,2E0,6E0,4.126355E-2,-1.394611E-2,-9.9044025E-2,2.237363E-1,-1.523751E-1,3.147485E-2,-2.7540642E-1,-7.439028E-2,1.2365382E-1,2.0809479E-1,-8.921827E-2,6.9091916E-2,-1.5561067E-1,-3.0196264E-1,6.1284628E-2,-1.2938596E-1],"split_indices":[3,3,0,5,5,2,2,4,0,2,5,2,5,5,5,0,0,0,0,0,0,0,0,0,0,0,0,0,0,0,0],"split_type":[0,0,0,0,0,0,0,0,0,0,0,0,0,0,0,0,0,0,0,0,0,0,0,0,0,0,0,0,0,0,0],"sum_hessian":[4.290769E3,3.6209507E3,6.6981854E2,2.856055E3,7.648958E2,4.5480237E2,2.1501619E2,2.567936E3,2.881189E2,4.9776877E2,2.6712704E2,2.4747997E2,2.0732242E2,6.0942028E1,1.5407416E2,7.0875604E2,1.8591799E3,1.1135233E2,1.7676656E2,1.748412E2,3.2292755E2,1.3277684E2,1.343502E2,5.90617E1,1.8841826E2,4.961451E1,1.577079E2,1.2970426E1,4.7971603E1,8.3635796E1,7.043836E1],"tree_param":{"num_deleted":"0","num_feature":"6","num_nodes":"31","size_leaf_vector":"0"}},{"base_weights":[-4.4710343E-4,-1.7323328E-2,2.6995733E-1,-1.6339982E-1,2.125439E-2,2.2787635E-1,3.05506E-1,1.061147E-1,-3.7067783E-1,-1.2665558E-1,8.6860314E-2,3.0941603E-1,1.8479644E-1,9.261107E-2,-6.4247497E-3,-1.4418568E-1,3.099543E-2,3.9456386E-2,-7.3568925E-2,4.9528584E-2,-2.2639526E-2,-4.3081664E-2,8.991483E-2],"categories":[],"categories_nodes":[],"categories_segments":[],"categories_sizes":[],"default_left":[0,0,0,0,0,0,0,0,0,0,0,0,0,0,0,0,0,0,0,0,0,0,0],"id":28,"left_children":[1,3,5,7,9,11,-1,13,15,17,19,-1,21,-1,-1,-1,-1,-1,-1,-1,-1,-1,-1],"loss_changes":[1.9398966E1,2.2551632E1,7.6325283E0,4.6744694E1,3.073496E1,8.038026E0,0E0,9.417112E0,2.468866E1,2.982692E1,2.7874231E1,0E0,8.6039095E0,0E0,0E0,0E0,0E0,0E0,0E0,0E0,0E0,0E0,0E0],"parents":[2147483647,0,0,1,1,2,2,3,3,4,4,5,5,7,7,8,8,9,9,10,10,12,12],"right_children":[2,4,6,8,10,12,-1,14,16,18,20,-1,22,-1,-1,-1,-1,-1,-1,-1,-1,-1,-1],"split_conditions":[8E0,2E0,6E0,3E0,2E0,1E0,3.05506E-1,4E0,6E0,4E0,7E0,3.0941603E-1,1E0,9.261107E-2,-6.4247497E-3,-1.4418568E-1,3.099543E-2,3.9456386E-2,-7.3568925E-2,4.9528584E-2,-2.2639526E-2,-4.3081664E-2,8.991483E-2],"split_indices":[2,5,4,2,2,4,0,3,4,0,5,0,1,0,0,0,0,0,0,0,0,0,0],"split_type":[0,0,0,0,0,0,0,0,0,0,0,0,0,0,0,0,0,0,0,0,0,0,0],"sum_hessian":[4.2489595E3,4.0002366E3,2.4872302E2,8.350482E2,3.1651882E3,2.3671732E2,1.2005709E1,3.6323618E2,4.7181204E2,9.7226514E2,2.192923E3,1.0878291E1,2.2583902E2,1.397753E2,2.2346089E2,3.8297E2,8.884204E1,3.0596484E2,6.663003E2,1.4797299E3,7.1319324E2,5.8478218E1,1.6736081E2],"tree_param":{"num_deleted":"0","num_feature":"6","num_nodes":"23","size_leaf_vector":"0"}},{"base_weights":[-1.9339942E-4,-1.469682E-1,3.0411521E-2,-3.4657183E-1,-2.4038566E-2,1.0491333E-1,-1.0354263E-1,2.7066132E-1,-6.7924106E-1,-1.7584175E-1,1.9072454E-1,4.5194384E-2,3.0053982E-1,-4.290152E-2,-2.2889957E-1,3.732774E-1,-4.398244E-2,-2.4736366E-1,-9.52154E-2,-1.1200363E-1,3.9050143E-2,-1.645774E-2,2.5618353E-1,-7.5807027E-3,4.6298184E-2,1.3020536E-1,-6.0672276E-2,-4.4866238E-2,5.692393E-2,1.9726804E-2,-1.2997046E-1],"categories":[],"categories_nodes":[],"categories_segments":[],"categories_sizes":[],"default_left":[0,0,0,0,0,0,0,0,0,0,0,0,0,0,0,0,0,0,0,0,0,0,0,0,0,0,0,0,0,0,0],"id":29,"left_children":[1,3,5,7,9,11,13,15,17,19,21,23,25,27,29,-1,-1,-1,-1,-1,-1,-1,-1,-1,-1,-1,-1,-1,-1,-1,-1],"loss_changes":[1.900908E1,1.7907234E1,3.495623E1,5.7309757E1,1.4799835E1,2.6279655E1,9.507382E0,4.0055172E1,9.258385E0,1.6117943E1,3.0675377E1,1.3272325E1,3.540046E1,2.0995426E1,2.4590565E1,0E0,0E0,0E0,0E0,0E0,0E0,0E0,0E0,0E0,0E0,0E0,0E0,0E0,0E0,0E0,0E0],"parents":[2147483647,0,0,1,1,2,2,3,3,4,4,5,5,6,6,7,7,8,8,9,9,10,10,11,11,12,12,13,13,14,14],"right_children":[2,4,6,8,10,12,14,16,18,20,22,24,26,28,30,-1,-1,-1,-1,-1,-1,-1,-1,-1,-1,-1,-1,-1,-1,-1,-1],"split_conditions":[1E0,4E0,5E0,2E0,4E0,6E0,6E0,3E0,6E0,6E0,6E0,5E0,7E0,5E0,3E0,3.732774E-1,-4.398244E-2,-2.4736366E-1,-9.52154E-2,-1.1200363E-1,3.9050143E-2,-1.645774E-2,2.5618353E-1,-7.5807027E-3,4.6298184E-2,1.3020536E-1,-6.0672276E-2,-4.4866238E-2,5.692393E-2,1.9726804E-2,-1.2997046E-1],"split_indices":[1,5,1,4,4,2,3,2,4,0,2,0,5,4,4,0,0,0,0,0,0,0,0,0,0,0,0,0,0,0,0],"split_type":[0,0,0,0,0,0,0,0,0,0,0,0,0,0,0,0,0,0,0,0,0,0,0,0,0,0,0,0,0,0,0],"sum_hessian":[4.2297393E3,7.2913904E2,3.5006003E3,2.7720908E2,4.5192996E2,2.2496309E3,1.2509694E3,9.7147804E1,1.8006126E2,2.6488196E2,1.8704797E2,1.7244413E3,5.2518964E2,8.440193E2,4.0695007E2,2.8550428E1,6.8597374E1,1.2756038E2,5.2500877E1,1.6084782E2,1.0403415E2,1.3717192E2,4.9876053E1,1.0483353E3,6.76106E2,4.151204E2,1.1006923E2,5.7896295E2,2.6505637E2,1.6692258E2,2.400275E2],"tree_param":{"num_deleted":"0","num_feature":"6","num_nodes":"31","size_leaf_vector":"0"}},{"base_weights":[-3.491025E-4,-2.1957909E-1,2.2701193E-2,1.1486295E-2,-3.760787E-1,5.5252504E-2,-1.4402871E-1,-3.9305896E-2,1.8944034E-1,9.010989E-2,-4.8026767E-1,2.1936731E-1,-5.0199073E-2,-5.0266546E-1,4.5672828E-1,6.728059E-2,-1.0261441E-1,-3.1594175E-1,2.6402795E-1,-2.3345862E-1,8.274292E-2,-2.1225308E-1,-8.7991074E-2,1.9944422E-2,1.4234623E-1,-4.2612076E-2,4.6475776E-2,-2.493992E-1,7.576804E-3,-1.2224138E-2,3.2644004E-1],"categories":[],"categories_nodes":[],"categories_segments":[],"categories_sizes":[],"default_left":[0,0,0,0,0,0,0,0,0,0,0,0,0,0,0,0,0,0,0,0,0,0,0,0,0,0,0,0,0,0,0],"id":30,"left_children":[1,3,5,7,9,11,13,15,17,19,21,23,25,27,29,-1,-1,-1,-1,-1,-1,-1,-1,-1,-1,-1,-1,-1,-1,-1,-1],"loss_changes":[2.1172634E1,1.4418995E1,2.0584099E1,1.4711071E0,1.1588032E1,5.4918144E1,1.3371445E2,1.0195105E1,3.193196E1,7.3511543E0,8.052887E0,4.838487E1,3.6424812E1,6.741731E1,7.295607E1,0E0,0E0,0E0,0E0,0E0,0E0,0E0,0E0,0E0,0E0,0E0,0E0,0E0,0E0,0E0,0E0],"parents":[2147483647,0,0,1,1,2,2,3,3,4,4,5,5,6,6,7,7,8,8,9,9,10,10,11,11,12,12,13,13,14,14],"right_children":[2,4,6,8,10,12,14,16,18,20,22,24,26,28,30,-1,-1,-1,-1,-1,-1,-1,-1,-1,-1,-1,-1,-1,-1,-1,-1],"split_conditions":[1E0,3E0,7E0,5E0,1E0,4E0,4E0,3E0,3E0,5E0,7E0,6E0,7E0,4E0,5E0,6.728059E-2,-1.0261441E-1,-3.1594175E-1,2.6402795E-1,-2.3345862E-1,8.274292E-2,-2.1225308E-1,-8.7991074E-2,1.9944422E-2,1.4234623E-1,-4.2612076E-2,4.6475776E-2,-2.493992E-1,7.576804E-3,-1.2224138E-2,3.2644004E-1],"split_indices":[5,2,0,1,4,3,3,4,4,2,2,5,3,2,5,0,0,0,0,0,0,0,0,0,0,0,0,0,0,0,0],"split_type":[0,0,0,0,0,0,0,0,0,0,0,0,0,0,0,0,0,0,0,0,0,0,0,0,0,0,0,0,0,0,0],"sum_hessian":[4.1878633E3,3.976178E2,3.7902454E3,1.6093314E2,2.3668468E2,3.1716924E3,6.18553E2,1.25804695E2,3.5128437E1,4.325909E1,1.9342558E2,1.2403107E3,1.9313818E3,3.874302E2,2.3112276E2,6.739137E1,5.8413322E1,1.2362233E1,2.2766205E1,7.059464E0,3.6199627E1,8.605148E1,1.0737411E2,7.763361E2,4.6397458E2,1.3342723E3,5.9710944E2,2.3842224E2,1.4900797E2,1.2979474E2,1.0132802E2],"tree_param":{"num_deleted":"0","num_feature":"6","num_nodes":"31","size_leaf_vector":"0"}},{"base_weights":[-2.1697201E-4,-2.8445348E-2,1.5264954E-1,9.1012836E-2,-9.0348996E-2,1.03199586E-1,8.5328764E-1,-4.374171E-4,2.8415188E-1,-2.1140951E-1,-2.7467335E-2,-2.5083803E-2,2.5829136E-1,3.6807397E-1,3.3399615E-1,-2.8428966E-2,3.8018048E-2,-1.7777786E-2,1.8025704E-1,3.497701E-2,-1.20043546E-1,-2.9340545E-2,3.0085972E-2,-6.476417E-2,5.367714E-2,1.23584405E-1,-9.590126E-2,2.1151966E-1,-1.4665742E-1],"categories":[],"categories_nodes":[],"categories_segments":[],"categories_sizes":[],"default_left":[0,0,0,0,0,0,0,0,0,0,0,0,0,0,0,0,0,0,0,0,0,0,0,0,0,0,0,0,0],"id":31,"left_children":[1,3,5,7,9,11,13,15,17,19,21,23,25,27,-1,-1,-1,-1,-1,-1,-1,-1,-1,-1,-1,-1,-1,-1,-1],"loss_changes":[1.7811905E1,2.5774374E1,2.2204077E1,2.1014893E1,1.7468864E1,1.1986397E1,4.924738E0,9.709366E0,4.1617767E1,4.8616825E1,1.3595331E1,1.2901517E1,2.4347279E1,5.0362644E0,0E0,0E0,0E0,0E0,0E0,0E0,0E0,0E0,0E0,0E0,0E0,0E0,0E0,0E0,0E0],"parents":[2147483647,0,0,1,1,2,2,3,3,4,4,5,5,6,6,7,7,8,8,9,9,10,10,11,11,12,12,13,13],"right_children":[2,4,6,8,10,12,14,16,18,20,22,24,26,28,-1,-1,-1,-1,-1,-1,-1,-1,-1,-1,-1,-1,-1,-1,-1],"split_conditions":[6E0,2E0,7E0,5E0,3E0,3E0,1E0,5E0,3E0,3E0,6E0,5E0,7E0,6E0,3.3399615E-1,-2.8428966E-2,3.8018048E-2,-1.7777786E-2,1.8025704E-1,3.497701E-2,-1.20043546E-1,-2.9340545E-2,3.0085972E-2,-6.476417E-2,5.367714E-2,1.23584405E-1,-9.590126E-2,2.1151966E-1,-1.4665742E-1],"split_indices":[4,4,2,2,5,2,5,0,1,2,0,0,5,1,0,0,0,0,0,0,0,0,0,0,0,0,0,0,0],"split_type":[0,0,0,0,0,0,0,0,0,0,0,0,0,0,0,0,0,0,0,0,0,0,0,0,0,0,0,0,0],"sum_hessian":[4.1257314E3,3.4833154E3,6.4241614E2,1.1887882E3,2.294527E3,6.0113617E2,4.127997E1,8.074588E2,3.8132947E2,7.835894E2,1.5109376E3,3.2946176E2,2.716744E2,1.5246301E1,2.6033669E1,4.637332E2,3.437256E2,1.8334105E2,1.9798843E2,2.863428E2,4.9724664E2,9.74606E2,5.363316E2,1.70213E2,1.5924878E2,2.1484349E2,5.68309E1,1.10701475E1,4.1761527E0],"tree_param":{"num_deleted":"0","num_feature":"6","num_nodes":"29","size_leaf_vector":"0"}},{"base_weights":[3.9409762E-4,-1.692964E-2,2.8476635E-1,1.0275881E-2,-1.6346866E-1,3.9178786E-1,-3.600018E-2,-7.795948E-2,9.989236E-2,-3.023432E-1,-4.8266347E-2,1.7117219E-1,7.314704E-1,5.260244E-1,-3.206157E-1,-3.2364104E-2,4.047973E-2,1.00532465E-1,-1.0876153E-2,-1.368995E-1,-2.424802E-2,5.2602137E-3,-1.03147805E-1,-5.042847E-2,2.139039E-1,2.772663E-1,4.321882E-2,-1.204042E-1,3.8303086E-1,2.7496936E-2,-2.7463546E-1],"categories":[],"categories_nodes":[],"categories_segments":[],"categories_sizes":[],"default_left":[0,0,0,0,0,0,0,0,0,0,0,0,0,0,0,0,0,0,0,0,0,0,0,0,0,0,0,0,0,0,0],"id":32,"left_children":[1,3,5,7,9,11,13,15,17,19,21,23,25,27,29,-1,-1,-1,-1,-1,-1,-1,-1,-1,-1,-1,-1,-1,-1,-1,-1],"loss_changes":[2.0153862E1,1.5374726E1,8.07831E0,2.573234E1,9.646399E0,1.3081026E1,9.715799E0,1.046005E1,5.1712273E1,9.296236E0,6.4481964E0,1.9999624E1,7.6886253E0,1.4745097E1,9.952492E0,0E0,0E0,0E0,0E0,0E0,0E0,0E0,0E0,0E0,0E0,0E0,0E0,0E0,0E0,0E0,0E0],"parents":[2147483647,0,0,1,1,2,2,3,3,4,4,5,5,6,6,7,7,8,8,9,9,10,10,11,11,12,12,13,13,14,14],"right_children":[2,4,6,8,10,12,14,16,18,20,22,24,26,28,30,-1,-1,-1,-1,-1,-1,-1,-1,-1,-1,-1,-1,-1,-1,-1,-1],"split_conditions":[8E0,6E0,6E0,3E0,5E0,4E0,3E0,8E0,4E0,5E0,7E0,2E0,5E0,2E0,6E0,-3.2364104E-2,4.047973E-2,1.00532465E-1,-1.0876153E-2,-1.368995E-1,-2.424802E-2,5.2602137E-3,-1.03147805E-1,-5.042847E-2,2.139039E-1,2.772663E-1,4.321882E-2,-1.204042E-1,3.8303086E-1,2.7496936E-2,-2.7463546E-1],"split_indices":[2,1,1,1,5,4,4,5,1,4,0,1,1,5,5,0,0,0,0,0,0,0,0,0,0,0,0,0,0,0,0],"split_type":[0,0,0,0,0,0,0,0,0,0,0,0,0,0,0,0,0,0,0,0,0,0,0,0,0,0,0,0,0,0,0],"sum_hessian":[4.0890212E3,3.8551113E3,2.3390994E2,3.252249E3,6.0286237E2,1.752257E2,5.868425E1,1.6388179E3,1.6134312E3,2.7261044E2,3.3025192E2,1.07142876E2,6.808282E1,1.9442783E1,3.9241467E1,1.4373052E3,2.0151262E2,5.909693E2,1.02246185E3,1.6019202E2,1.1241844E2,2.7088544E2,5.9366497E1,6.631212E1,4.0830757E1,5.0830147E1,1.7252672E1,8.906395E0,1.0536387E1,2.3677113E1,1.5564354E1],"tree_param":{"num_deleted":"0","num_feature":"6","num_nodes":"31","size_leaf_vector":"0"}},{"base_weights":[7.4310356E-4,-1.887932E-1,2.0466555E-2,-1.1642153E-2,-3.159978E-1,-7.930431E-3,2.127144E-1,1.6789933E-1,-6.288534E-2,-6.624544E-1,-2.0158276E-1,-6.344836E-2,7.193935E-2,4.029641E-1,-6.275279E-2,2.311626E-1,-3.064141E-1,-1.03188805E-1,4.87679E-2,-3.1761315E-1,-1.4600103E-1,4.9096208E-2,-1.6382024E-1,2.5779745E-2,-5.508165E-2,6.452717E-2,-4.5043446E-2,2.530614E-1,4.7925405E-2,2.928668E-1,-3.2361634E-2],"categories":[],"categories_nodes":[],"categories_segments":[],"categories_sizes":[],"default_left":[0,0,0,0,0,0,0,0,0,0,0,0,0,0,0,0,0,0,0,0,0,0,0,0,0,0,0,0,0,0,0],"id":33,"left_children":[1,3,5,7,9,11,13,15,17,19,21,23,25,27,29,-1,-1,-1,-1,-1,-1,-1,-1,-1,-1,-1,-1,-1,-1,-1,-1],"loss_changes":[1.5202209E1,8.633573E0,2.0109638E1,1.4939538E0,8.708427E0,1.4239256E1,2.48703E1,2.6640678E1,8.0504265E0,3.3115253E0,2.1367674E1,3.401757E1,4.1897522E1,2.9926498E1,9.22439E0,0E0,0E0,0E0,0E0,0E0,0E0,0E0,0E0,0E0,0E0,0E0,0E0,0E0,0E0,0E0,0E0],"parents":[2147483647,0,0,1,1,2,2,3,3,4,4,5,5,6,6,7,7,8,8,9,9,10,10,11,11,12,12,13,13,14,14],"right_children":[2,4,6,8,10,12,14,16,18,20,22,24,26,28,30,-1,-1,-1,-1,-1,-1,-1,-1,-1,-1,-1,-1,-1,-1,-1,-1],"split_conditions":[1E0,3E0,7E0,2E0,2E0,5E0,6E0,3E0,3E0,7E0,4E0,4E0,7E0,3E0,1E0,2.311626E-1,-3.064141E-1,-1.03188805E-1,4.87679E-2,-3.1761315E-1,-1.4600103E-1,4.9096208E-2,-1.6382024E-1,2.5779745E-2,-5.508165E-2,6.452717E-2,-4.5043446E-2,2.530614E-1,4.7925405E-2,2.928668E-1,-3.2361634E-2],"split_indices":[5,2,2,1,1,0,5,4,4,2,1,3,0,4,4,0,0,0,0,0,0,0,0,0,0,0,0,0,0,0,0],"split_type":[0,0,0,0,0,0,0,0,0,0,0,0,0,0,0,0,0,0,0,0,0,0,0,0,0,0,0,0,0,0,0],"sum_hessian":[4.0645657E3,3.8229132E2,3.6822744E3,1.602338E2,2.2205753E2,3.2092012E3,4.7307324E2,3.507267E1,1.2516113E2,5.3938408E1,1.6811913E2,1.8933373E3,1.3158638E3,2.7954468E2,1.935286E2,2.3511036E1,1.1561633E1,5.5473236E1,6.96879E1,1.5031456E1,3.890695E1,8.185647E1,8.626266E1,8.441564E2,1.0491809E3,8.0014026E2,5.157236E2,9.855194E1,1.8099272E2,7.195657E0,1.8633293E2],"tree_param":{"num_deleted":"0","num_feature":"6","num_nodes":"31","size_leaf_vector":"0"}},{"base_weights":[3.88082E-4,-2.7237535E-2,1.4633927E-1,1.8844098E-2,-1.4910427E-1,3.1394497E-1,-2.4960749E-1,-1.06982805E-1,8.874119E-2,-5.1075804E-1,-4.372938E-2,4.3599662E-1,4.2804126E-2,-8.221526E-1,-6.4594634E-2,3.792041E-2,-1.3555849E-1,-2.8633993E-2,1.4492632E-1,-5.9334546E-2,-2.1414007E-1,-3.7497617E-2,5.0261304E-2,5.3920273E-2,1.6272055E-1,4.1959506E-2,-5.311283E-2,-1.2512824E-1,-2.8113592E-1,5.16199E-2,-9.9713504E-2],"categories":[],"categories_nodes":[],"categories_segments":[],"categories_sizes":[],"default_left":[0,0,0,0,0,0,0,0,0,0,0,0,0,0,0,0,0,0,0,0,0,0,0,0,0,0,0,0,0,0,0],"id":34,"left_children":[1,3,5,7,9,11,13,15,17,19,21,23,25,27,29,-1,-1,-1,-1,-1,-1,-1,-1,-1,-1,-1,-1,-1,-1,-1,-1],"loss_changes":[1.622359E1,1.9003E1,4.2576805E1,2.1609005E1,3.535943E1,1.4885784E1,2.0180902E1,7.0687035E1,1.147637E2,1.3164795E1,1.2382747E1,8.368198E0,3.0316086E0,1.7775993E0,9.274996E0,0E0,0E0,0E0,0E0,0E0,0E0,0E0,0E0,0E0,0E0,0E0,0E0,0E0,0E0,0E0,0E0],"parents":[2147483647,0,0,1,1,2,2,3,3,4,4,5,5,6,6,7,7,8,8,9,9,10,10,11,11,12,12,13,13,14,14],"right_children":[2,4,6,8,10,12,14,16,18,20,22,24,26,28,30,-1,-1,-1,-1,-1,-1,-1,-1,-1,-1,-1,-1,-1,-1,-1,-1],"split_conditions":[7E0,5E0,4E0,4E0,2E0,5E0,3E0,6E0,6E0,3E0,7E0,3E0,7E0,2E0,6E0,3.792041E-2,-1.3555849E-1,-2.8633993E-2,1.4492632E-1,-5.9334546E-2,-2.1414007E-1,-3.7497617E-2,5.0261304E-2,5.3920273E-2,1.6272055E-1,4.1959506E-2,-5.311283E-2,-1.2512824E-1,-2.8113592E-1,5.16199E-2,-9.9713504E-2],"split_indices":[3,3,0,0,2,2,2,5,5,5,2,5,5,5,5,0,0,0,0,0,0,0,0,0,0,0,0,0,0,0,0],"split_type":[0,0,0,0,0,0,0,0,0,0,0,0,0,0,0,0,0,0,0,0,0,0,0,0,0,0,0,0,0,0,0],"sum_hessian":[4.0217285E3,3.3823342E3,6.393943E2,2.4549036E3,9.274306E2,4.4937802E2,1.9001625E2,8.7650745E2,1.5783961E3,2.0838661E2,7.19044E2,3.0946643E2,1.3991158E2,4.5565235E1,1.4445102E2,5.2313104E2,3.533764E2,1.0763992E3,5.019969E2,8.277244E1,1.25614174E2,5.195936E2,1.9945038E2,9.1585144E1,2.1788129E2,9.731256E1,4.259902E1,1.1096688E1,3.4468548E1,7.687135E1,6.757966E1],"tree_param":{"num_deleted":"0","num_feature":"6","num_nodes":"31","size_leaf_vector":"0"}},{"base_weights":[1.1879361E-4,-4.1025054E-2,9.930774E-2,7.964161E-2,-1.23200305E-1,-6.034205E-4,3.119168E-1,-1.4469427E-2,2.0876844E-1,-2.8478566E-1,-4.875902E-2,-1.8133898E-1,6.285779E-2,5.870098E-1,1.4246031E-2,5.339122E-2,-2.6820578E-2,-1.6369915E-2,1.3045691E-1,5.275276E-2,-1.6068795E-1,-2.9946705E-2,6.959279E-2,-2.8011423E-1,-2.0571493E-2,-4.519727E-3,5.0526943E-2,4.165055E-2,2.6925233E-1,1.13421E-1,-1.918539E-1],"categories":[],"categories_nodes":[],"categories_segments":[],"categories_sizes":[],"default_left":[0,0,0,0,0,0,0,0,0,0,0,0,0,0,0,0,0,0,0,0,0,0,0,0,0,0,0,0,0,0,0],"id":35,"left_children":[1,3,5,7,9,11,13,15,17,19,21,23,25,27,29,-1,-1,-1,-1,-1,-1,-1,-1,-1,-1,-1,-1,-1,-1,-1,-1],"loss_changes":[1.62703E1,2.795198E1,2.4829735E1,1.3883459E1,2.015486E1,9.143556E0,3.0592022E1,9.556495E0,2.8696054E1,6.117362E1,1.6495901E1,1.7513086E1,4.856116E0,2.6897682E1,4.3175343E1,0E0,0E0,0E0,0E0,0E0,0E0,0E0,0E0,0E0,0E0,0E0,0E0,0E0,0E0,0E0,0E0],"parents":[2147483647,0,0,1,1,2,2,3,3,4,4,5,5,6,6,7,7,8,8,9,9,10,10,11,11,12,12,13,13,14,14],"right_children":[2,4,6,8,10,12,14,16,18,20,22,24,26,28,30,-1,-1,-1,-1,-1,-1,-1,-1,-1,-1,-1,-1,-1,-1,-1,-1],"split_conditions":[5E0,2E0,5E0,4E0,3E0,2E0,4E0,2E0,3E0,3E0,7E0,2E0,5E0,1E0,6E0,5.339122E-2,-2.6820578E-2,-1.6369915E-2,1.3045691E-1,5.275276E-2,-1.6068795E-1,-2.9946705E-2,6.959279E-2,-2.8011423E-1,-2.0571493E-2,-4.519727E-3,5.0526943E-2,4.165055E-2,2.6925233E-1,1.13421E-1,-1.918539E-1],"split_indices":[4,4,2,2,5,1,1,1,1,2,3,5,0,1,5,0,0,0,0,0,0,0,0,0,0,0,0,0,0,0,0],"split_type":[0,0,0,0,0,0,0,0,0,0,0,0,0,0,0,0,0,0,0,0,0,0,0,0,0,0,0,0,0,0,0],"sum_hessian":[3.9848286E3,2.8169404E3,1.1678883E3,1.1412104E3,1.67573E3,7.9519855E2,3.7268967E2,6.606206E2,4.8058978E2,5.276232E2,1.1481067E3,2.0617139E2,5.8902716E2,1.9318521E2,1.7950446E2,1.8475679E2,4.758638E2,2.22358E2,2.5823178E2,1.8612817E2,3.4149503E2,9.7195984E2,1.761469E2,2.5924576E1,1.8024681E2,3.39374E2,2.496532E2,7.965616E1,1.1352905E2,1.15595825E2,6.390863E1],"tree_param":{"num_deleted":"0","num_feature":"6","num_nodes":"31","size_leaf_vector":"0"}},{"base_weights":[3.320016E-4,-1.4414283E-2,2.5151172E-1,-1.3210574E-1,1.6398389E-2,1.74109E-1,6.2541616E-1,1.415955E-1,-2.551515E-1,5.5428926E-2,-1.884841E-1,3.3291593E-1,-7.6141E-2,8.210167E-1,3.3553532E-1,2.3759257E-2,1.21660516E-1,-3.316015E-2,-1.4813907E-1,-6.0489136E-3,7.390114E-2,-1.4679053E-1,1.2812996E-1,2.8874788E-2,3.358705E-1,1.5487888E-1,-1.4857276E-1,1.2254035E-1,3.3091587E-1,2.0784111E-1,-1.1556947E-1],"categories":[],"categories_nodes":[],"categories_segments":[],"categories_sizes":[],"default_left":[0,0,0,0,0,0,0,0,0,0,0,0,0,0,0,0,0,0,0,0,0,0,0,0,0,0,0,0,0,0,0],"id":36,"left_children":[1,3,5,7,9,11,13,15,17,19,21,23,25,27,29,-1,-1,-1,-1,-1,-1,-1,-1,-1,-1,-1,-1,-1,-1,-1,-1],"loss_changes":[1.4683421E1,1.3580938E1,6.2531815E0,2.6204832E1,2.3747791E1,7.318338E0,1.8403883E0,3.9473438E0,1.8457932E1,3.599875E1,8.82106E1,2.0828152E1,1.814599E1,2.0615654E0,4.573929E0,0E0,0E0,0E0,0E0,0E0,0E0,0E0,0E0,0E0,0E0,0E0,0E0,0E0,0E0,0E0,0E0],"parents":[2147483647,0,0,1,1,2,2,3,3,4,4,5,5,6,6,7,7,8,8,9,9,10,10,11,11,12,12,13,13,14,14],"right_children":[2,4,6,8,10,12,14,16,18,20,22,24,26,28,30,-1,-1,-1,-1,-1,-1,-1,-1,-1,-1,-1,-1,-1,-1,-1,-1],"split_conditions":[8E0,2E0,5E0,2E0,7E0,5E0,6E0,7E0,4E0,5E0,4E0,2E0,3E0,1E0,7E0,2.3759257E-2,1.21660516E-1,-3.316015E-2,-1.4813907E-1,-6.0489136E-3,7.390114E-2,-1.4679053E-1,1.2812996E-1,2.8874788E-2,3.358705E-1,1.5487888E-1,-1.4857276E-1,1.2254035E-1,3.3091587E-1,2.0784111E-1,-1.1556947E-1],"split_indices":[2,5,4,2,0,1,1,0,1,0,3,1,4,1,5,0,0,0,0,0,0,0,0,0,0,0,0,0,0,0,0],"split_type":[0,0,0,0,0,0,0,0,0,0,0,0,0,0,0,0,0,0,0,0,0,0,0,0,0,0,0,0,0,0,0],"sum_hessian":[3.9622617E3,3.7434343E3,2.1882732E2,7.7603186E2,2.9674026E3,1.8251099E2,3.6316326E1,2.4062912E2,5.354027E2,2.4931768E3,4.7422583E2,1.1145322E2,7.105777E1,2.0590433E1,1.5725895E1,1.9567067E2,4.4958458E1,3.3428885E2,2.0111388E2,1.7866354E3,7.065414E2,3.1869443E2,1.5553139E2,8.653982E1,2.49134E1,2.9345625E1,4.171215E1,9.354865E0,1.1235567E1,1.0540163E1,5.1857314E0],"tree_param":{"num_deleted":"0","num_feature":"6","num_nodes":"31","size_leaf_vector":"0"}},{"base_weights":[8.941185E-4,-1.6753735E-1,2.6445039E-2,8.7823555E-2,-2.879297E-1,-1.9974725E-1,4.980591E-2,4.0448013E-1,-1.7399071E-1,-6.5913963E-1,-1.5437682E-1,-1.4590903E-1,-7.78742E-1,1.0839248E-2,1.5122743E-1,8.6887546E-2,1.9482526E-1,-2.7755103E-1,5.6536052E-2,-2.4100915E-1,6.1883237E-2,-2.0186499E-2,-1.344202E-1,-2.1577474E-1,-2.3303764E-2,-3.263062E-1,-5.658077E-2,5.984162E-2,-1.09539665E-2,3.3166338E-2,1.8410993E-1],"categories":[],"categories_nodes":[],"categories_segments":[],"categories_sizes":[],"default_left":[0,0,0,0,0,0,0,0,0,0,0,0,0,0,0,0,0,0,0,0,0,0,0,0,0,0,0,0,0,0,0],"id":37,"left_children":[1,3,5,7,9,11,13,15,17,19,21,23,25,27,29,-1,-1,-1,-1,-1,-1,-1,-1,-1,-1,-1,-1,-1,-1,-1,-1],"loss_changes":[1.6866726E1,1.5896105E1,1.7991405E1,1.3846633E1,1.7302662E1,9.822597E0,1.2191313E1,1.9361334E0,2.5129889E1,1.1721092E1,6.6066804E0,1.1400758E1,4.6969986E0,1.99257E1,1.6038633E1,0E0,0E0,0E0,0E0,0E0,0E0,0E0,0E0,0E0,0E0,0E0,0E0,0E0,0E0,0E0,0E0],"parents":[2147483647,0,0,1,1,2,2,3,3,4,4,5,5,6,6,7,7,8,8,9,9,10,10,11,11,12,12,13,13,14,14],"right_children":[2,4,6,8,10,12,14,16,18,20,22,24,26,28,30,-1,-1,-1,-1,-1,-1,-1,-1,-1,-1,-1,-1,-1,-1,-1,-1],"split_conditions":[1E0,4E0,1E0,4E0,6E0,6E0,5E0,5E0,7E0,8E0,5E0,1E0,6E0,1E0,7E0,8.6887546E-2,1.9482526E-1,-2.7755103E-1,5.6536052E-2,-2.4100915E-1,6.1883237E-2,-2.0186499E-2,-1.344202E-1,-2.1577474E-1,-2.3303764E-2,-3.263062E-1,-5.658077E-2,5.984162E-2,-1.09539665E-2,3.3166338E-2,1.8410993E-1],"split_indices":[2,0,5,3,0,1,4,1,3,5,3,1,4,4,2,0,0,0,0,0,0,0,0,0,0,0,0,0,0,0,0],"split_type":[0,0,0,0,0,0,0,0,0,0,0,0,0,0,0,0,0,0,0,0,0,0,0,0,0,0,0,0,0,0,0],"sum_hessian":[3.917203E3,5.1523315E2,3.4019697E3,1.6516878E2,3.5006436E2,3.177543E2,3.0842156E3,7.450829E1,9.0660484E1,9.158068E1,2.5848367E2,2.9186688E2,2.588743E1,2.228949E3,8.5526654E2,5.220908E1,2.2299217E1,2.90014E1,6.165908E1,7.856012E1,1.3020561E1,2.0031352E2,5.8170162E1,3.0024794E1,2.6184207E2,1.6438547E1,9.448884E0,4.4661304E2,1.7823358E3,7.872679E2,6.799867E1],"tree_param":{"num_deleted":"0","num_feature":"6","num_nodes":"31","size_leaf_vector":"0"}},{"base_weights":[-1.4186672E-4,2.5816046E-2,-1.3574518E-1,-8.1046656E-2,8.524472E-2,-3.240386E-1,-6.811333E-2,3.0570956E-2,-1.3069414E-1,2.1445168E-2,2.9689994E-1,-5.9121794E-1,-1.1445494E-1,-1.0913527E-1,1.6165009E-1,1.05732135E-1,-7.313373E-2,-1.2357006E-1,1.2482277E-2,-1.4779929E-2,2.1798536E-2,1.3171728E-1,-6.304244E-2,-4.0848307E-2,-2.6398343E-1,1.0324138E-1,-1.1601225E-1,-6.587322E-3,-1.3687027E-1,1.3608205E-1,-1.3110593E-1],"categories":[],"categories_nodes":[],"categories_segments":[],"categories_sizes":[],"default_left":[0,0,0,0,0,0,0,0,0,0,0,0,0,0,0,0,0,0,0,0,0,0,0,0,0,0,0,0,0,0,0],"id":38,"left_children":[1,3,5,7,9,11,13,15,17,19,21,23,25,27,29,-1,-1,-1,-1,-1,-1,-1,-1,-1,-1,-1,-1,-1,-1,-1,-1],"loss_changes":[1.3695311E1,2.0745909E1,7.9386196E0,6.4741187E0,2.8338179E1,9.167875E0,4.3645186E0,3.189876E1,3.918151E1,5.848697E0,3.5129864E1,9.374626E0,1.18278E1,1.1849194E1,1.2480409E1,0E0,0E0,0E0,0E0,0E0,0E0,0E0,0E0,0E0,0E0,0E0,0E0,0E0,0E0,0E0,0E0],"parents":[2147483647,0,0,1,1,2,2,3,3,4,4,5,5,6,6,7,7,8,8,9,9,10,10,11,11,12,12,13,13,14,14],"right_children":[2,4,6,8,10,12,14,16,18,20,22,24,26,28,30,-1,-1,-1,-1,-1,-1,-1,-1,-1,-1,-1,-1,-1,-1,-1,-1],"split_conditions":[6E0,2E0,3E0,2E0,6E0,4E0,7E0,4E0,4E0,2E0,7E0,1E0,3E0,6E0,4E0,1.05732135E-1,-7.313373E-2,-1.2357006E-1,1.2482277E-2,-1.4779929E-2,2.1798536E-2,1.3171728E-1,-6.304244E-2,-4.0848307E-2,-2.6398343E-1,1.0324138E-1,-1.1601225E-1,-6.587322E-3,-1.3687027E-1,1.3608205E-1,-1.3110593E-1],"split_indices":[1,1,5,4,2,4,3,5,5,2,5,4,2,3,0,0,0,0,0,0,0,0,0,0,0,0,0,0,0,0,0],"split_type":[0,0,0,0,0,0,0,0,0,0,0,0,0,0,0,0,0,0,0,0,0,0,0,0,0,0,0,0,0,0,0],"sum_hessian":[3.888741E3,3.2646196E3,6.2412134E2,1.1665693E3,2.0980503E3,1.6393097E2,4.6019037E2,3.592613E2,8.0730804E2,1.6129559E3,4.8509445E2,7.1263115E1,9.2667854E1,3.9092047E2,6.92699E1,1.6518288E2,1.9407841E2,3.0619315E2,5.011149E2,6.7754706E2,9.354089E2,3.7897614E2,1.0611831E2,2.8234625E1,4.3028484E1,3.442202E1,5.8245834E1,3.132961E2,7.7624344E1,4.6725376E1,2.2544525E1],"tree_param":{"num_deleted":"0","num_feature":"6","num_nodes":"31","size_leaf_vector":"0"}},{"base_weights":[-3.9022477E-4,-1.4176861E-2,2.4507758E-1,-1.3532028E-1,9.368876E-3,3.5090914E-1,-2.987473E-2,-3.056023E-1,-4.2685535E-2,6.266083E-2,-9.291735E-2,1.4499478E-1,6.415127E-1,5.018791E-2,-1.0557405E0,6.6886015E-2,-1.4048152E-1,1.927319E-2,-6.842572E-2,3.3646796E-3,5.5245634E-2,-3.8994867E-2,4.3753654E-2,1.8953165E-1,1.9335105E-3,2.3274757E-1,8.084306E-2,-5.1499724E-2,6.574867E-2,-5.859971E-1,1.7749205E-1],"categories":[],"categories_nodes":[],"categories_segments":[],"categories_sizes":[],"default_left":[0,0,0,0,0,0,0,0,0,0,0,0,0,0,0,0,0,0,0,0,0,0,0,0,0,0,0,0,0,0,0],"id":39,"left_children":[1,3,5,7,9,11,13,15,17,19,21,23,25,27,29,-1,-1,-1,-1,-1,-1,-1,-1,-1,-1,-1,-1,-1,-1,-1,-1],"loss_changes":[1.3082181E1,1.0441364E1,5.9922886E0,9.383294E0,1.671548E1,8.793989E0,4.8213096E0,1.8135912E1,7.686162E0,1.2598099E1,9.315158E0,5.945392E0,2.854004E0,2.0922222E0,7.4374185E0,0E0,0E0,0E0,0E0,0E0,0E0,0E0,0E0,0E0,0E0,0E0,0E0,0E0,0E0,0E0,0E0],"parents":[2147483647,0,0,1,1,2,2,3,3,4,4,5,5,6,6,7,7,8,8,9,9,10,10,11,11,12,12,13,13,14,14],"right_children":[2,4,6,8,10,12,14,16,18,20,22,24,26,28,30,-1,-1,-1,-1,-1,-1,-1,-1,-1,-1,-1,-1,-1,-1,-1,-1],"split_conditions":[8E0,1E0,7E0,4E0,5E0,2E0,7E0,2E0,5E0,5E0,8E0,2E0,6E0,4E0,4E0,6.6886015E-2,-1.4048152E-1,1.927319E-2,-6.842572E-2,3.3646796E-3,5.5245634E-2,-3.8994867E-2,4.3753654E-2,1.8953165E-1,1.9335105E-3,2.3274757E-1,8.084306E-2,-5.1499724E-2,6.574867E-2,-5.859971E-1,1.7749205E-1],"split_indices":[2,1,5,5,1,5,0,2,3,2,5,4,5,0,3,0,0,0,0,0,0,0,0,0,0,0,0,0,0,0,0],"split_type":[0,0,0,0,0,0,0,0,0,0,0,0,0,0,0,0,0,0,0,0,0,0,0,0,0,0,0,0,0,0,0],"sum_hessian":[3.8636655E3,3.6590955E3,2.0456993E2,5.94684E2,3.0644116E3,1.4751416E2,5.7055756E1,2.087179E2,3.8596616E2,2.0149788E3,1.0494329E3,8.721486E1,6.029931E1,5.3807484E1,3.2482724E0,4.90314E1,1.596865E2,2.452004E2,1.4076575E2,1.4163293E3,5.9864935E2,9.088055E2,1.4062735E2,1.8534897E1,6.867996E1,4.3507034E1,1.6792274E1,2.3256758E1,3.0550726E1,1.9824244E0,1.2658479E0],"tree_param":{"num_deleted":"0","num_feature":"6","num_nodes":"31","size_leaf_vector":"0"}},{"base_weights":[-4.73293E-5,-2.3690116E-2,1.3020946E-1,1.01425E-1,-5.142565E-2,9.056501E-2,8.434576E-1,5.506978E-2,9.0784985E-1,-1.7947546E-1,-1.8700128E-2,-5.2027334E-2,1.6876213E-1,4.6779037E-1,3.2480282E-1,-9.725307E-3,5.6843746E-2,1.640965E-1,3.377593E-1,6.913078E-2,-1.01740755E-1,-1.414876E-2,4.5493543E-2,-6.241172E-2,4.8122868E-2,7.604234E-2,-4.260788E-2,2.1909066E-1,-6.2702075E-2],"categories":[],"categories_nodes":[],"categories_segments":[],"categories_sizes":[],"default_left":[0,0,0,0,0,0,0,0,0,0,0,0,0,0,0,0,0,0,0,0,0,0,0,0,0,0,0,0,0],"id":40,"left_children":[1,3,5,7,9,11,13,15,17,19,21,23,25,27,-1,-1,-1,-1,-1,-1,-1,-1,-1,-1,-1,-1,-1,-1,-1],"loss_changes":[1.1828845E1,1.1286341E1,1.6608667E1,2.2014069E1,1.1150432E1,6.2543015E0,2.2749596E0,6.582006E0,1.9032078E0,3.552829E1,1.0290784E1,6.633486E0,9.566013E0,2.6047971E0,0E0,0E0,0E0,0E0,0E0,0E0,0E0,0E0,0E0,0E0,0E0,0E0,0E0,0E0,0E0],"parents":[2147483647,0,0,1,1,2,2,3,3,4,4,5,5,6,6,7,7,8,8,9,9,10,10,11,11,12,12,13,13],"right_children":[2,4,6,8,10,12,14,16,18,20,22,24,26,28,-1,-1,-1,-1,-1,-1,-1,-1,-1,-1,-1,-1,-1,-1,-1],"split_conditions":[6E0,1E0,7E0,7E0,2E0,2E0,1E0,5E0,1E0,2E0,7E0,5E0,7E0,6E0,3.2480282E-1,-9.725307E-3,5.6843746E-2,1.640965E-1,3.377593E-1,6.913078E-2,-1.01740755E-1,-1.414876E-2,4.5493543E-2,-6.241172E-2,4.8122868E-2,7.604234E-2,-4.260788E-2,2.1909066E-1,-6.2702075E-2],"split_indices":[4,4,2,2,5,2,5,0,5,2,2,5,5,1,0,0,0,0,0,0,0,0,0,0,0,0,0,0,0],"split_type":[0,0,0,0,0,0,0,0,0,0,0,0,0,0,0,0,0,0,0,0,0,0,0,0,0,0,0,0,0],"sum_hessian":[3.8389895E3,3.2499182E3,5.890714E2,5.8923224E2,2.6606858E3,5.591208E2,2.995062E1,5.5821313E2,3.101913E1,5.40665E2,2.120021E3,1.9814264E2,3.6097815E2,1.2801972E1,1.714865E1,3.3858554E2,2.1962756E2,1.3003857E1,1.8015274E1,1.5143307E2,3.892319E2,1.8171266E3,3.0289426E2,1.1425529E2,8.3887344E1,2.8380515E2,7.7173E1,9.167201E0,3.6347713E0],"tree_param":{"num_deleted":"0","num_feature":"6","num_nodes":"29","size_leaf_vector":"0"}},{"base_weights":[4.955187E-4,-1.5061769E-1,1.566735E-2,1.5190414E-2,-2.7930036E-1,-1.3832697E-1,3.907239E-2,-2.8336167E-1,4.6260685E-2,-5.209305E-1,-5.7853457E-2,6.6070676E-2,-2.3660935E-1,-3.7979486E-3,1.0751241E-1,3.2247353E-2,-2.767422E-1,1.3214423E-1,-5.4276288E-3,-1.2722085E-1,-3.322265E-1,-1.88679E-1,9.937056E-3,9.543442E-2,-5.0598204E-2,-1.9363238E-1,-3.2398816E-2,3.7384696E-2,-2.8202549E-2,6.2003728E-2,-1.4058468E-2],"categories":[],"categories_nodes":[],"categories_segments":[],"categories_sizes":[],"default_left":[0,0,0,0,0,0,0,0,0,0,0,0,0,0,0,0,0,0,0,0,0,0,0,0,0,0,0,0,0,0,0],"id":41,"left_children":[1,3,5,7,9,11,13,15,17,19,21,23,25,27,29,-1,-1,-1,-1,-1,-1,-1,-1,-1,-1,-1,-1,-1,-1,-1,-1],"loss_changes":[8.750186E0,7.434227E0,1.2506166E1,1.4333887E0,1.0463621E1,9.21251E0,8.836386E0,3.7394018E0,3.5479603E0,4.8509464E0,5.395879E0,8.894745E0,1.619769E1,2.1473055E1,1.7766354E1,0E0,0E0,0E0,0E0,0E0,0E0,0E0,0E0,0E0,0E0,0E0,0E0,0E0,0E0,0E0,0E0],"parents":[2147483647,0,0,1,1,2,2,3,3,4,4,5,5,6,6,7,7,8,8,9,9,10,10,11,11,12,12,13,13,14,14],"right_children":[2,4,6,8,10,12,14,16,18,20,22,24,26,28,30,-1,-1,-1,-1,-1,-1,-1,-1,-1,-1,-1,-1,-1,-1,-1,-1],"split_conditions":[1E0,3E0,1E0,1E0,7E0,4E0,5E0,2E0,2E0,5E0,1E0,4E0,6E0,4E0,7E0,3.2247353E-2,-2.767422E-1,1.3214423E-1,-5.4276288E-3,-1.2722085E-1,-3.322265E-1,-1.88679E-1,9.937056E-3,9.543442E-2,-5.0598204E-2,-1.9363238E-1,-3.2398816E-2,3.7384696E-2,-2.8202549E-2,6.2003728E-2,-1.4058468E-2],"split_indices":[5,2,2,1,2,0,0,4,1,1,1,3,0,3,0,0,0,0,0,0,0,0,0,0,0,0,0,0,0,0,0],"split_type":[0,0,0,0,0,0,0,0,0,0,0,0,0,0,0,0,0,0,0,0,0,0,0,0,0,0,0,0,0,0,0],"sum_hessian":[3.8145725E3,3.4722668E2,3.4673457E3,1.5211188E2,1.9511479E2,4.568136E2,3.0105322E3,1.3572701E1,1.3853917E2,9.265862E1,1.0245618E2,1.4843707E2,3.0837653E2,1.8516293E3,1.1589028E3,8.938265E0,4.634436E0,1.8621368E1,1.199178E2,8.1003654E1,1.1654969E1,1.3266602E1,8.9189575E1,7.140758E1,7.7029495E1,7.28344E1,2.3554214E2,7.6387756E2,1.0877517E3,7.0541797E2,4.5348492E2],"tree_param":{"num_deleted":"0","num_feature":"6","num_nodes":"31","size_leaf_vector":"0"}},{"base_weights":[-2.7148298E-4,-2.1350661E-2,1.0903563E-1,1.3176503E-2,-1.5572836E-1,2.2109735E-1,-1.8483457E-1,-9.225792E-2,6.620914E-2,8.363911E-2,-2.7431366E-1,3.443555E-1,4.80485E-2,-7.2463375E-1,-4.261935E-2,2.5418196E-2,-1.0489162E-1,-1.0365471E-2,1.4434731E-1,-1.15594596E-1,8.396238E-2,-2.2134073E-1,-6.928821E-2,1.9934317E-1,8.914981E-2,-3.4427036E-2,4.139935E-2,-1.3254961E-1,-2.9904646E-1,5.24975E-2,-8.424112E-2],"categories":[],"categories_nodes":[],"categories_segments":[],"categories_sizes":[],